nep4 3 Mg N F 
cutoff 8 4 221 25
n_max 4 4
basis_size 8 8
l_max 4 2 0
ANN 30 0
 -5.8188014e-02
 -3.6486711e-02
 -1.2764001e-01
  1.6925551e-02
 -7.2682910e-03
 -2.5842452e-01
 -4.6426635e-02
  3.6904734e-02
 -1.4573194e-01
 -6.0506843e-02
 -3.8460627e-01
 -2.3963455e-02
  9.1894615e-01
 -9.6488304e-02
  9.7316879e-01
  1.2103140e-01
  4.7827642e-02
  6.6366591e-02
  3.8863558e-02
  1.8081052e-02
 -4.4915073e-02
 -2.2915306e-03
  3.2772809e-01
 -1.0256959e-01
  7.0527434e-01
  6.6738897e-07
 -4.7472272e-02
  1.2293403e-04
  9.8241776e-02
 -4.0207899e-01
 -1.2271763e-01
 -2.6871008e-04
 -9.6120900e-03
 -9.3458606e-05
 -7.7960297e-02
  1.4734005e-05
 -1.7442902e-05
  1.5935024e-03
 -1.7996430e-02
  9.5871380e-03
 -1.0836867e-04
 -1.8934273e-04
  1.6752196e-05
  7.9770049e-04
  2.3616538e-05
 -2.3633009e-04
  2.2038750e-05
 -1.8854142e-04
 -1.8706009e-03
  2.4574547e-04
 -1.0413803e-04
 -2.1878368e-04
 -3.2597905e-05
  5.9942813e-06
 -9.6516094e-05
 -3.7190699e-04
 -3.4255172e-05
  8.4329840e-05
 -5.1505690e-06
 -3.9582656e-04
  7.4949545e-01
  3.2714492e-01
 -2.4642520e-02
 -1.9396254e+00
 -7.2555447e-01
  3.2292148e-01
  1.3768703e-01
  2.0902655e-01
  3.0712426e-01
 -1.3806979e-01
  1.1757790e-03
  8.7008293e-06
  1.6314654e-04
 -1.4923353e+00
  1.1512109e+00
 -2.8532892e-01
  1.7722067e-01
 -1.4585170e-01
 -3.6985129e-01
  3.8426083e-01
 -4.0265662e-05
  2.3270787e-04
  6.4797395e-01
 -7.3304982e-05
 -1.1733258e-01
  1.6736245e-04
 -2.5617130e-04
 -5.7925074e-05
 -7.8131750e-02
 -1.2807786e-03
  2.3631298e-03
 -6.1717480e-02
  2.7172307e-03
 -1.4029921e-04
 -6.8983986e-06
  4.3947832e-05
  1.2627323e-04
 -1.2011974e-02
 -1.8030971e-04
 -3.3574216e-03
 -1.3074138e-04
  4.4721135e-04
 -3.5002919e-05
 -1.3480327e-04
  1.1849150e-04
 -1.4794870e-05
 -1.7609000e-04
  1.2035958e-04
  6.3194154e-04
 -8.5553911e-05
 -9.3685458e-06
  1.9577130e-05
  2.4828737e-04
  2.9966977e-05
  1.3280928e-06
  3.4085468e-05
 -1.1017072e-04
 -1.2120631e-04
  1.8110378e-04
 -2.9844706e-04
  2.9421908e-05
 -5.0224085e-06
  9.1792012e-05
  2.2532706e-05
  1.2427523e-04
 -1.6828315e-05
  1.1587776e-04
 -1.9056890e-04
  1.7524089e-05
  1.2853244e-04
  1.7418113e-04
 -1.3873252e-04
 -1.7304046e-05
 -3.2142274e-05
 -1.6661617e-04
  1.1129092e-04
  1.8305584e-05
 -6.8535141e-05
  3.4663641e-05
  2.3107229e-04
  4.7123114e-05
 -1.6757967e-05
  1.1162431e-04
  1.0058457e-04
  3.7619517e-05
  1.2685485e-04
 -6.5121545e-05
 -7.0432638e-06
 -1.1359953e-04
 -4.5876714e-04
  9.5225907e-05
  8.9019486e-05
  6.1076367e-05
 -6.7643741e-05
  1.4583385e-04
  4.1338044e-05
 -2.7518070e-04
  2.7152695e-05
 -1.6172036e-05
  1.5437157e-05
 -8.2463863e-05
  3.5939089e-04
 -2.7305429e-04
 -2.6186532e-04
 -2.3875413e-04
 -5.8977591e-04
 -1.6753026e-04
  7.2112445e-05
  2.4953592e-04
 -6.6314307e-05
 -4.7167231e-04
  6.2810446e-05
  1.2282865e-05
  2.9405116e-04
  2.1382535e-05
 -1.6249974e-04
 -1.0293088e-04
 -5.0542523e-05
  2.4322676e-04
 -6.5162683e-05
 -2.0014028e-04
  1.2937633e-04
 -1.5285485e-06
  1.7556062e-04
  3.0183533e-05
 -3.7459016e-05
 -2.1608654e-04
 -9.2511291e-06
 -8.1952843e-05
 -6.2199403e-04
 -5.6366847e-05
  2.8396951e-04
 -7.3405114e-05
 -1.9959110e-04
  9.2458613e-05
 -2.4007865e-04
  1.2720474e-04
  7.5873220e-05
  1.5934171e-05
 -2.0808582e-04
 -6.4164615e-04
 -5.1758001e-05
 -2.4942989e-05
 -4.1603466e-04
  1.4593761e-06
  1.2985658e-04
  5.0199794e-04
 -1.0433745e-04
  1.9337294e-04
  3.1904640e-04
  5.2719278e-04
 -8.2674070e-04
  2.3351570e-04
  8.9209520e-05
 -2.8202328e-04
 -8.8128865e-05
 -1.1869836e-06
  1.2029302e-04
 -5.5116892e-05
  4.7381654e-05
 -3.3486870e-04
  6.5207889e-05
  1.5992468e-05
 -4.3986049e-05
  2.2471246e-05
 -6.8543697e-05
  4.2882344e-05
  2.1146709e-04
  2.7433860e-05
  9.6846998e-05
 -6.8562443e-04
 -1.2159928e-04
  9.7231255e-05
 -3.2820579e-04
 -1.5875218e-04
 -1.9400139e-04
 -7.2114701e-05
  4.3087512e-05
  5.4597389e-04
  3.3921175e-04
 -1.4494359e-04
 -2.8353235e-05
  3.9771074e-04
  2.4695366e-05
  1.5183083e-04
  9.1933573e-05
 -1.1922605e-04
 -1.7633126e-04
  1.1652461e-04
  1.6848684e-05
  1.3337877e-04
 -1.4101162e-04
 -5.9845050e-05
  9.2103481e-05
  8.4823492e-05
  2.6963085e-05
 -8.4268824e-05
 -1.0576187e-04
 -1.1810696e-04
  6.7570501e-05
  3.3042853e-04
  9.1600923e-05
  5.4406577e-05
 -3.5059838e-05
  8.7084052e-05
  2.8364823e-04
 -3.7065249e-05
 -5.4571345e-05
 -2.6715698e-04
 -2.4787319e-04
 -1.0859376e-02
  9.3958899e-02
 -7.2351031e-02
  2.3025823e-04
 -1.3524047e-03
  1.7528543e-04
 -2.1919583e-03
  5.5681281e-02
 -1.3009482e-04
  1.4501818e-02
 -7.7729608e-05
  2.8158797e-04
  1.0935623e-03
  4.0601875e-04
  2.6612610e-05
 -5.2570383e-04
  3.9525062e-04
  4.5824374e-05
 -6.5269327e-04
  1.9420829e-03
  3.5222452e-05
  4.7979822e-05
 -1.2274807e-04
  2.7523437e-04
  3.7707231e-04
 -5.0625953e-05
 -1.7356404e-04
 -1.2297911e-04
 -8.9115684e-04
  1.1774841e-04
 -7.7847444e-04
  4.6735498e-04
 -3.5757507e-06
 -1.6151828e-04
  8.9405788e-05
  8.0661695e-05
 -3.2425716e-05
  2.5485566e-05
  1.6228048e-04
 -7.3912364e-05
  6.6858513e-05
 -4.5406638e-04
 -6.3375783e-06
  1.9021110e-04
 -2.5319894e-05
 -4.7293281e-05
 -2.4517916e-05
 -5.2693857e-05
 -1.4106959e-05
  6.2856547e-05
 -5.7443565e-05
 -3.1121823e-04
  6.2207182e-05
 -1.6545324e-04
 -3.9970153e-05
 -6.0998653e-05
 -1.1026600e-04
 -4.2971711e-05
 -1.0590787e-05
 -2.8884800e-05
  4.6503108e-02
 -2.8461423e-02
  2.5002673e-02
 -6.4552878e-03
  1.1427163e-01
 -2.4582880e-02
  1.5098762e-02
 -4.9007531e-02
 -2.6116750e-04
 -3.7836429e-02
  3.9265279e-04
  9.4282418e-04
 -2.1149616e-01
  2.4345331e-04
 -3.6037204e-01
  4.0604848e-02
 -3.9740659e-02
 -8.9047560e-03
  3.4560200e-03
 -2.5486406e-02
  4.9416180e-04
  3.8750248e-05
 -1.2905934e-03
 -2.6581032e-04
 -3.5494030e-02
 -1.5990461e-05
  1.1913598e-04
 -6.1533901e-06
  2.4257284e-03
  1.0134614e-02
 -8.4609097e-01
 -9.1607755e-01
 -2.2205421e-01
  1.2789851e+00
  1.1489223e+00
 -3.3775560e-04
  2.9788571e-03
 -1.6358757e-02
  7.4234245e-05
  1.6425855e-02
 -4.0021827e-05
 -2.0649224e-04
  1.8498611e-05
 -3.6868984e-01
 -3.5140032e-03
  9.7012088e-02
  1.9315940e-04
 -7.1680597e-03
 -9.1527865e-05
 -2.0867813e-01
  4.6976802e-05
 -3.5242465e-05
 -5.4706641e-02
 -1.3201914e-03
 -6.9687281e-05
 -1.4320429e-04
  2.7611511e-04
  3.7465029e-04
  2.4368073e-01
  9.9037796e-05
  3.8463250e-02
 -1.0295662e-02
  1.1554992e-01
  8.5397965e-05
  1.9434306e-03
  1.4347186e-04
  1.7203308e-03
  1.8014641e-02
  1.0030964e-04
 -1.2833658e-02
  4.4907480e-05
 -2.4479379e-05
 -5.5198331e-04
  9.0922222e-05
 -4.0972413e-05
  2.9837925e-03
  3.1069728e-06
  6.6713541e-04
  4.1733301e-04
 -3.5389697e-03
 -2.3975750e-05
 -7.9348043e-05
 -8.5753453e-04
  3.2830923e-07
  2.0375096e-06
  2.9829366e-04
  1.6617759e-04
 -6.4670414e-05
  2.3638894e-04
 -4.1564395e-05
  1.7200272e-01
  6.0050253e-02
  9.8790549e-02
  2.3112922e-05
  8.5793547e-02
 -5.4216736e-05
  3.7197083e-02
 -9.1953851e-02
 -7.2383374e-04
 -1.2444826e-02
  9.9981713e-05
  1.3749654e-04
 -4.5191579e-02
 -2.6532926e-02
 -4.0134867e-03
 -9.5005572e-02
 -8.4757796e-03
 -8.1801176e-02
 -4.2894155e-02
 -1.4447831e-02
  9.2646421e-04
 -3.2520065e-06
 -2.0484504e-01
  6.2972558e-06
 -2.1378054e-04
  6.1532983e-06
 -5.2676663e-05
 -1.9010350e-04
 -3.3767724e-01
  1.1524958e-04
 -1.2543946e-04
  4.4742173e-05
  1.8950981e-04
 -2.3309076e-04
  8.8112574e-05
  3.5423529e-04
 -1.9254345e-05
  2.1873192e-04
  1.1876594e-04
 -8.3701998e-05
  1.1520765e-04
 -5.3747197e-05
  1.4747864e-03
 -2.8124658e-04
 -2.4995173e-04
  7.8710167e-05
 -5.2599145e-05
 -1.3497329e-04
  6.9497555e-06
  2.6538293e-05
 -7.4439165e-05
 -4.4595310e-04
 -1.6612258e-04
  6.2572370e-05
 -2.6418959e-06
 -4.9479873e-05
  2.0153326e-04
  1.7116842e-04
  1.3455011e-04
 -1.3388471e-04
 -7.6862721e-05
  2.3884074e-04
 -4.4246015e-05
  1.1538466e-05
 -2.7612536e-04
  1.7281224e-04
  2.1979718e-04
 -1.0828964e-05
  4.5403690e-04
 -1.1027919e-04
  1.3063675e-04
  1.3477984e-04
 -2.8327409e-05
 -9.0937283e-05
  2.6686321e-04
  7.2151517e-05
  6.9865600e-05
 -2.1710027e-04
  2.5810092e-05
 -6.7518158e-05
  1.6087622e-04
  4.4161163e-05
  1.5378463e-04
 -2.3807906e-06
 -1.4589263e-04
  2.5518998e-04
  1.7973893e-05
 -1.6958485e-04
 -7.7824698e-05
  2.7707854e-05
 -5.8729780e-05
 -9.6508484e-05
 -1.4614550e-04
 -2.0610282e-04
  1.0354917e-04
  2.0156327e-05
 -5.3590469e-05
  1.3660310e-05
  8.2780069e-05
  9.7175696e-05
 -1.2873503e-04
 -1.6582581e-04
 -5.1785606e-05
 -1.4194315e-05
  8.1606435e-05
 -2.9836327e-05
 -2.8370216e-05
 -3.7028674e-06
 -7.3453346e-05
  2.3283182e-04
  7.0513044e-05
 -8.0219004e-05
  1.0382978e-04
  5.7861060e-05
 -1.2383323e-04
  1.8817780e-04
  4.1869240e-05
  1.3481063e-04
 -9.7723809e-05
 -2.5360324e-04
 -7.4079682e-05
 -8.6264306e-05
  1.5455014e-04
  2.6791473e-04
  2.9617186e-05
  6.1363469e-05
 -8.3903942e-06
  1.9949293e-04
 -3.0178533e-04
  3.1724794e-05
  1.3341547e-04
  1.1530629e-04
  2.1086204e-01
  6.1209394e-05
 -1.4608080e-04
  2.2110433e-04
 -5.7087975e-05
  1.2778620e-05
 -2.2069785e-04
  3.1615589e-05
 -1.4591536e-04
 -4.6492723e-04
  9.6824326e-05
  6.6339271e-05
 -1.9967739e-04
 -1.2581766e-04
 -8.6438777e-05
 -9.3617098e-05
  1.1656198e-04
 -6.6398548e-05
  8.9196030e-05
  5.6246001e-05
 -1.4546655e-04
 -4.2695254e-05
  2.6045553e-04
  2.1792346e-04
  6.1857885e-05
  1.0158540e-04
 -2.0051411e-04
  5.4081265e-06
 -1.9185591e-04
  1.8246821e-04
 -1.7764540e-04
  2.3491553e-05
 -6.3529937e-05
 -8.2550287e-05
  1.3361965e-06
  5.9811064e-05
  1.3250846e-04
 -4.9166738e-05
 -5.0407096e-05
  3.8531234e-05
 -2.2287693e-05
  9.0230831e-05
 -1.1866786e-04
 -7.0211157e-05
 -1.0302510e-04
  7.7607147e-05
  3.1844356e-05
  4.9817085e-05
  6.0832608e-05
  7.5494318e-05
  4.1316813e-05
 -7.0364200e-05
  2.9240604e-05
  5.1448331e-04
 -1.3648906e-04
  3.7544785e-04
  4.9513357e-05
  2.0703029e-04
  5.9132333e-05
 -5.9501879e-05
 -6.0942020e-05
 -3.0039807e-04
  5.1883026e-04
 -1.1439904e-04
 -1.0753930e-04
  3.5742452e-04
 -1.1761056e-04
  1.5539683e-04
  1.9995112e-04
 -1.1531436e-04
 -7.5175194e-05
 -7.9170095e-05
  8.5351625e-05
 -1.4866499e-04
  2.6389527e-05
 -3.8920718e-04
 -1.8458426e-04
 -1.3740607e-05
  2.8996093e-02
  2.0809879e-03
  5.6461567e-01
  1.3203149e-04
 -2.7437825e-03
 -3.3998530e-04
 -4.9065094e-04
 -1.0745144e+00
 -3.5256852e-04
 -5.1235336e-05
  3.6175529e-04
  1.3825455e-04
  5.6735057e-06
  7.3714585e-07
 -4.7714246e-04
  9.6226046e-05
  7.4152566e-05
 -3.3303440e-02
 -3.1572203e-05
 -3.2241913e-04
 -2.4850341e-04
 -7.5085809e-05
 -1.2734768e-04
 -4.7232315e-05
  5.3601725e-05
  6.8541317e-06
  1.0642080e-04
 -9.3556446e-06
 -1.0510762e-04
 -1.4181628e-05
 -1.3517517e-04
 -2.7991420e-01
 -1.1045070e-04
 -2.6186841e-05
 -3.7621550e-04
 -2.6609271e-04
  2.7012271e-05
  3.2506057e-05
 -9.3251096e-05
 -5.7706271e-05
 -1.8665339e-04
  1.0822666e-04
  1.2914237e-04
 -7.4617719e-06
  1.4392412e-04
 -2.2654391e-04
 -5.2433646e-05
 -7.4585063e-05
  2.3079981e-05
  4.3212993e-05
 -1.5142187e-04
  7.7624507e-05
  2.3316427e-06
 -8.4754560e-05
  2.3305947e-04
  7.4966491e-05
  7.4495649e-05
  6.0586735e-05
 -3.0030189e-05
  3.0807368e-04
  1.0728829e-01
  1.4679279e-02
  8.4199131e-02
 -6.9290213e-02
  1.6383250e-01
  7.4176460e-05
  5.4387685e-02
 -4.3225750e-02
 -2.1603965e-04
 -1.6809471e-02
  1.3958511e-04
 -8.1314633e-05
 -1.1527757e-01
  1.0518660e-01
 -3.8521759e-02
  5.6048054e-03
 -2.1740280e-02
  1.1890831e-03
 -1.4336672e-01
 -1.0737841e-01
 -1.1888418e-04
 -2.4425373e-05
 -5.2845645e-01
 -2.5663135e-04
 -1.3676882e-01
  4.1285875e-05
  4.3206866e-04
  5.0272927e-05
 -2.5103858e-01
  4.5768684e-04
 -2.0239235e-01
 -3.7765421e-02
 -2.4950138e-01
  5.2470903e-05
 -1.2123608e-02
  4.0552837e-05
 -1.0677883e-02
  5.3852670e-02
 -1.7982375e-04
  3.5858741e-03
  1.9680201e-04
 -2.6920173e-04
  2.6113371e-06
 -3.1331121e-05
 -2.0526546e-05
 -1.6352930e-03
  1.2546241e-04
  1.1787178e-02
 -7.4527826e-04
  1.6761123e-01
 -7.4840580e-05
 -3.3300064e-05
 -1.1340228e-04
  1.2973326e-04
 -2.7883776e-05
 -2.0825646e-05
  6.7032738e-06
  1.9463895e-04
  7.3094286e-02
 -1.5750885e-04
 -2.9922446e-04
 -6.7005483e-03
 -2.4515335e-04
 -2.1528293e-04
 -1.4241681e-04
  8.6149383e-05
 -1.1467325e-04
  5.9147201e-06
 -6.8687026e-05
 -4.9848499e-05
 -1.3565284e-05
  2.6886526e-04
 -3.7868635e-05
  1.5387376e-04
  9.0034120e-04
  4.9795763e-05
  7.1285722e-05
  1.9461446e-04
  3.8658516e-05
  3.7196942e-04
 -7.2940835e-05
 -4.3535278e-05
 -1.8729888e-04
 -1.0500027e-04
  1.5265464e-04
 -8.8345667e-05
 -2.7317757e-05
  9.8683267e-05
  7.3749819e-05
  4.1941355e-05
  8.7236948e-02
  3.4082681e-05
  2.3701008e-02
 -2.2505206e-05
  1.3694918e-03
 -3.8684007e-06
  5.8740683e-05
 -2.2851840e-02
 -2.2820669e-04
 -1.3946047e-03
  7.7907658e-05
 -1.2582417e-04
  4.1727930e-05
  2.8822455e-05
 -4.8637019e-05
  2.0675379e-04
 -1.3214129e-04
  2.2140091e-04
  6.0322974e-04
 -1.0188357e-04
  9.0779649e-05
  7.5422278e-05
 -7.2782655e-05
 -3.8282335e-04
  4.2448930e-05
  5.4123808e-05
 -8.7197979e-05
 -1.1998705e-04
  1.0678524e-04
  3.9915356e-04
 -2.4269471e-01
 -1.1403652e-01
 -1.1232322e-01
  2.2098748e-01
  3.7972310e-01
 -1.1230263e-01
 -1.4412863e-02
 -8.0599949e-02
 -7.4246709e-05
 -1.7759421e-01
 -1.1628038e-05
  3.7765392e-05
 -1.3284016e-04
  6.9926448e-02
 -3.8153559e-01
  6.1353036e-05
 -3.3977017e-02
 -1.3023387e-01
 -6.5944634e-02
 -2.8791839e-01
  1.2479722e-05
 -1.8547424e-05
 -1.2523925e-02
  8.6627035e-05
  2.7845413e-04
  1.5357717e-05
  2.8302300e-05
 -3.3004478e-06
 -2.7494454e-01
  2.3277076e-04
  1.2377683e-04
 -2.6642152e-05
  3.1980606e-05
 -1.7427710e-05
  1.7956395e-04
 -2.9732768e-05
  8.6209766e-05
  2.3801000e-04
  7.1845539e-06
 -6.1262494e-05
 -7.5094264e-05
  1.3648304e-04
  2.8193966e-04
 -2.6912207e-04
 -5.6465469e-05
  3.0539315e-05
  1.7890727e-04
 -9.3032198e-05
  2.5674290e-04
  4.4749282e-05
 -6.1637853e-05
 -1.7926034e-04
  1.0729887e-04
 -3.9421045e-04
  2.4690293e-04
 -2.8957202e-06
  1.9953547e-04
 -2.9776359e-04
 -1.3906846e-04
  1.4079575e-04
  3.1272981e-02
 -4.0202614e-02
  2.3361589e-03
 -3.3732539e-01
 -1.0198267e-01
  2.6353186e-01
  6.0134888e-01
 -4.8175251e-01
 -2.8650528e-01
 -6.7502594e-01
  4.9359602e-05
  7.8440510e-02
 -7.0238543e-01
  1.2699641e+00
 -8.7091535e-01
  1.3149489e+00
 -4.5175755e-01
 -5.8104564e-02
 -1.0421304e-02
 -1.3953859e-01
  1.9950340e-04
  4.5355220e-05
  1.4676416e-01
 -1.3556454e-04
 -6.2401772e-01
  7.2211085e-04
 -4.6408120e-05
 -1.2124734e-04
  1.3290162e-01
  8.2166374e-02
 -1.3241176e-02
 -1.8721892e-05
 -9.5906425e-01
  8.3083898e-05
 -1.1482800e-04
 -2.6503889e-05
  2.7252862e-04
 -3.1514301e-05
  1.0526930e-04
 -2.6504020e-05
 -2.2148173e-05
 -5.0167213e-03
  1.4867220e-03
 -1.1970469e-04
  1.9466339e-04
 -1.3431623e-04
 -7.6070464e-05
  1.0435692e-04
 -2.8933440e-05
 -7.4394629e-05
 -1.9857903e-04
 -2.6420408e-04
  1.1543763e-04
 -2.1681867e-06
  4.0277731e-04
 -4.1893134e-05
  1.4336241e-04
  7.3672816e-02
  7.3081581e-05
  3.0992547e-01
  9.9025095e-01
  9.6546210e-02
  2.9658803e-01
 -8.4127769e-02
  1.9814349e-04
  1.4116496e-04
  1.9232779e-05
 -1.2709050e-02
  2.6951890e-04
  1.7830414e-01
 -1.5332796e-04
 -6.0300171e-01
  2.2509393e-01
 -1.7629196e-01
 -2.7240893e-01
  1.2089948e-04
 -1.9698682e-04
  1.0633400e-04
  3.8117496e-04
 -1.0003882e-05
 -1.4586313e-04
  5.8222722e-02
  5.5742312e-02
 -2.9173529e-01
  1.4334287e-01
  2.5712777e-02
 -1.1130808e-01
 -2.9705894e-01
 -2.9161196e-02
 -4.5627266e-01
 -4.2855245e-05
 -6.2673375e-02
  1.9183697e-02
  1.4759528e-02
  1.1885187e-04
 -2.3687388e-01
  7.4543893e-02
 -4.8352373e-03
 -1.2666594e-04
  4.1932992e-05
  1.2828482e-05
  6.3599902e-05
 -5.0106290e-04
  9.7788972e-05
  4.3843000e-05
 -4.8926957e-02
  8.0515519e-02
  1.4968035e-04
  5.9118258e-05
 -1.9521422e-04
 -2.8033071e-04
  5.2443793e-04
  1.2776976e-04
 -7.3863353e-05
  4.0750183e-05
 -1.5511949e-04
  1.3282085e-04
  2.9754420e-04
  1.9711595e-05
 -2.6569271e-04
  4.9196664e-05
  1.5892809e-05
  1.9829384e-05
 -1.4998071e-04
 -7.9451172e-05
 -8.1721573e-06
  1.0535970e-06
 -2.7106158e-04
 -1.3731209e-04
 -3.6134748e-04
  3.1862114e-04
  3.0869083e-05
  1.4934325e-04
 -2.3936256e-04
  3.2491909e-05
 -5.4874748e-05
 -4.0327484e-04
 -1.6144721e-05
 -8.1937440e-05
  1.0583135e-05
  1.0828469e-04
 -1.8479687e-04
 -3.4775803e-04
  5.1402632e-05
  9.0658978e-05
 -3.2750278e-05
  8.1282764e-05
 -2.9836377e-04
 -1.0222337e-05
  3.9397407e-04
 -2.5891699e-04
 -5.8632675e-05
  3.6760277e-04
  6.8781640e-07
  1.2793414e-04
  1.3171068e-04
  4.7110214e-05
  1.8689051e-04
  1.1348327e-04
  2.4076186e-05
  1.1824850e-04
  7.4750373e-05
  5.6520363e-05
  1.8943923e-04
  4.2975487e-05
 -1.2704580e-04
 -2.5309708e-05
  1.1575702e-04
  6.5359659e-04
 -1.4657878e-05
 -1.4107623e-05
 -1.7007582e-06
 -9.6358126e-05
  7.5940588e-06
 -1.2888729e-04
 -4.9980369e-04
  2.6028219e-04
  3.0959134e-05
  1.2963910e-04
  1.7749732e-04
 -1.4838866e-05
 -9.2508963e-05
 -1.4189079e-04
  9.3865878e-05
  6.7633649e-05
 -1.4303620e-04
 -9.1164472e-04
 -1.6778368e-04
  3.4731053e-04
  9.3290342e-05
  6.8820751e-05
 -2.8066323e-04
  2.3310560e-04
 -1.3042205e-04
  5.8570287e-05
 -2.0491950e-04
  6.5653250e-05
  5.2623678e-04
  4.8554793e-05
  3.2248339e-04
 -8.7799170e-05
  1.4972877e-04
 -1.1312566e-04
  1.3784498e-04
 -4.0691331e-04
 -2.7241387e-05
 -9.7921620e-06
  5.8593490e-04
 -5.6332428e-05
 -3.2004675e-05
  1.4425248e-05
  1.3090150e-05
  1.4890595e-04
  7.3021016e-05
  2.7122504e-05
 -3.3527002e-04
 -3.6423102e-05
 -6.5642409e-05
 -2.1396803e-04
 -3.7816400e-05
 -2.1125677e-04
 -3.3680641e-04
 -5.6225421e-05
 -6.5956934e-05
  1.4269353e-04
 -4.3704407e-05
 -1.5438722e-04
 -7.1630486e-05
  3.7320413e-05
  4.4864777e-05
  1.7222417e-05
  3.1591914e-04
  5.1341041e-05
  3.0766128e-05
 -3.1540752e-05
  3.4273166e-05
  1.3822862e-05
  3.9523566e-05
  1.4134702e-04
  7.8032905e-04
  2.1976215e-04
  1.5599225e-01
 -2.3136928e-03
 -4.2233963e-02
  5.9529175e-05
  1.0398158e-02
 -6.8674192e-02
  3.1403219e-03
  1.1026017e-05
 -2.4444374e-04
  1.0914981e-05
 -8.3372503e-04
  2.4094235e-04
 -1.1426736e-04
  9.4726755e-07
  1.5732240e-02
 -3.1802665e-02
 -7.7787263e-05
 -1.1000173e-04
  1.8338711e-04
  5.0322324e-05
 -2.6870889e-04
 -1.8760975e-04
 -5.0817758e-05
 -1.1106698e-04
 -1.3869200e-04
 -1.7778043e-04
  3.3636636e-04
  2.0196967e-05
  2.6361507e-04
 -9.8396768e-04
 -4.5123178e-01
 -1.0088138e-01
  1.8302990e-01
  4.3832328e-02
 -9.0328664e-01
  1.7342520e-01
 -4.5884037e-01
  3.0629560e-01
  5.7612747e-02
  3.7884329e-02
  1.6172200e-01
 -7.3441088e-02
  1.9806586e-03
 -5.8768550e-05
  1.9278812e-01
  3.8712603e-01
  8.0553768e-03
 -8.2920328e-02
  1.9694811e-04
 -8.3647579e-02
  2.4187167e-01
  2.1112153e-05
 -1.8549745e-05
  6.7100832e-06
 -1.4476378e-04
 -6.7609071e-05
  9.4297691e-05
  1.4042755e-04
 -3.6332091e-05
  2.4993642e-04
  6.1365813e-03
 -5.5796962e-04
 -4.1772335e-05
 -2.1305967e-04
  9.7849362e-02
 -4.9124290e-03
  5.3565681e-04
  7.5633274e-05
 -3.7501557e-04
 -2.6099852e-04
 -1.5446701e-04
  4.7404389e-04
 -3.1687127e-04
 -1.8196533e-05
 -6.5682968e-03
 -8.7797605e-02
  1.8207995e-04
  1.2709510e-04
 -2.4082696e-05
 -1.6281380e-04
  2.5672023e-05
  6.3236155e-05
 -1.4529524e-04
  1.7680925e-04
  4.2754360e-05
  1.7325504e-04
  1.6307058e-04
  1.5599602e-04
 -1.8593164e-05
 -2.0986288e-04
  2.4543457e-05
  5.2699950e-05
 -4.2662033e-04
  6.2819126e-05
  6.3009857e-04
 -3.7507058e-04
  3.3478951e-05
  1.5668434e-04
  6.5867876e-05
  3.0130308e-04
  2.5376453e-04
 -3.4848203e-05
 -1.0404101e-04
  8.2290717e-05
  2.8237907e-04
 -1.6320137e-04
 -4.2564559e-05
  2.0455131e-04
 -8.3469626e-05
 -1.8659951e-04
  9.5674775e-05
 -1.5174183e-04
 -1.0781929e-04
  1.8412390e-04
 -3.8043883e-05
 -4.0732426e-04
 -3.2466929e-04
  3.6395670e-04
  3.9496319e-04
  2.1471571e-05
  9.5744843e-05
 -2.1729486e-04
  4.7587459e-05
 -1.0535904e-04
 -8.2412189e-05
 -7.0046146e-05
 -1.2309641e-04
  1.0833653e-04
 -6.7793677e-05
 -4.6159937e-05
  5.8410296e-07
 -1.4854874e-04
 -5.3484182e-06
 -1.9074703e-04
 -1.5825106e-02
  8.0348618e-05
 -1.6177666e-05
  1.0709072e-04
 -6.4428968e-05
 -1.7965682e-04
  1.0664143e-04
  4.0460029e-05
  1.2688036e-05
  4.6971229e-05
  3.1822288e-05
  5.3810595e-06
 -2.7958004e-04
  2.1710085e-04
  5.5091170e-04
 -1.9014939e-05
 -8.1659055e-05
  1.5866426e-04
  2.5866409e-05
 -2.0690446e-05
 -1.2351185e-04
  6.3676554e-05
 -5.7759473e-05
  1.7620597e-04
  3.3483421e-04
 -4.0832991e-05
  9.0553716e-05
  5.4204509e-05
  1.1728163e-04
  6.1607709e-05
 -9.4680705e-05
  3.0601856e-05
  2.1792798e-04
 -1.0113501e-04
  1.2462933e-04
  7.6079195e-05
 -1.1372140e-04
 -1.0791369e-04
  1.0073500e-04
 -9.2125097e-03
 -3.5379921e-06
 -3.1588286e-05
 -1.7088416e-04
  1.1291544e-04
 -2.0959314e-05
 -6.6422173e-03
 -2.7164060e-01
  1.0509486e-01
 -1.5222578e-01
 -5.0849333e-02
 -2.6331291e-01
  3.0569780e-01
 -5.1061320e-04
  3.4216490e-01
 -1.7324503e-04
 -2.3412806e-05
  6.0999613e-02
 -7.7559787e-05
  1.1983805e-04
 -7.3258611e-06
 -8.7356389e-02
  8.2147199e-01
 -1.7160995e-05
 -8.5181108e-04
 -5.5434910e-04
  3.7156746e-01
  2.7016032e-01
  4.0632207e-03
  4.7539310e-05
 -1.6622245e-04
 -5.7625887e-04
  1.6729860e-04
  1.6188035e-04
 -1.3114692e-04
 -1.3926857e-04
  1.8441398e-05
 -3.0888084e-06
  1.2622478e-05
  1.0798158e-05
 -1.5912190e-04
 -7.1115610e-05
  3.6366921e-04
  5.4427383e-05
 -4.3222240e-05
  2.8206682e-04
 -8.2297243e-05
 -3.5851053e-04
 -3.6901936e-05
  2.7719023e-05
  4.9731188e-05
 -3.6059879e-04
  9.0864029e-05
  1.3822010e-05
 -2.5091107e-05
  1.2563514e-04
  1.0811538e-05
  5.7909008e-05
 -5.6717803e-05
  4.7319678e-05
 -1.2332303e-04
  1.8499371e-05
 -7.2058188e-05
  5.5250496e-04
  1.5905312e-05
  2.4271203e-04
  1.2358476e-04
  1.8723447e-04
  3.5532277e-05
  1.2704374e-04
  6.9692738e-05
  1.2211886e-04
  1.8965227e-05
  4.2606558e-04
 -1.8482681e-06
  1.1317126e-04
 -8.6881460e-05
  2.2406502e-04
 -1.0055716e-04
 -2.1437017e-05
 -1.1745670e-04
  1.7052179e-04
  1.5735506e-05
 -9.0099500e-05
 -1.2935014e-04
 -2.0676942e-05
  4.2176773e-04
  3.2785244e-04
  1.5872510e-04
  1.6786213e-04
 -3.1970188e-04
 -1.8657213e-04
  6.7353227e-05
  1.8607354e-04
  1.6360547e-04
 -2.3214339e-05
 -7.0537179e-05
 -1.8113686e-05
  2.0679965e-05
  9.6777752e-05
 -2.1858726e-04
  9.3059694e-05
  5.8931223e-04
 -1.3816459e-05
  4.8670103e-05
 -6.2957295e-04
 -1.5357438e-05
  1.8546449e-04
  6.3154636e-07
 -1.8249993e-05
 -2.5876463e-04
 -3.8722112e-05
 -2.9561666e-05
 -1.2048343e-04
  1.3122267e-04
  1.9286021e-04
  1.9090927e-04
 -1.5891073e-04
  8.0443802e-05
 -8.9189576e-05
 -1.4855525e-04
  6.3326042e-05
 -2.4021884e-04
  9.1938837e-06
 -9.5367745e-05
 -3.9557337e-05
 -1.1499664e-05
 -8.8053224e-05
  5.3696369e-04
  1.0043052e-04
  2.5669072e-04
 -1.7800712e-04
 -2.5181207e-04
  1.0541650e-04
 -1.5221395e-04
 -7.6173623e-05
  5.7647478e-05
 -5.5594461e-05
  8.4014056e-05
 -1.2306232e-04
  1.0424606e-04
 -2.7269230e-04
  2.8847568e-04
  5.7799552e-05
  1.1662009e-05
  1.0127931e-04
  8.2511120e-05
  2.7458891e-05
  8.8179637e-05
 -3.0615724e-05
 -8.0178550e-05
 -1.3078425e-04
 -1.3110254e-04
 -6.9163812e-05
  1.9994308e-04
 -2.0256864e-04
  2.7104614e-05
 -3.6720332e-02
  1.1870846e-04
  1.2901681e-02
  2.8663300e-04
 -5.7878122e-02
  1.1470973e-01
 -3.4182117e-04
  4.7495178e-04
  3.7294225e-04
 -2.1317906e-06
  7.2067976e-04
 -3.7328890e-04
  1.7939896e-05
 -2.8311840e-04
  5.9976555e-02
  4.0699176e-02
  3.9815217e-02
 -3.4114961e-05
  1.7539352e-04
  2.3294601e-04
  3.3540910e-04
 -1.5197616e-05
 -1.1647103e-04
 -2.3075341e-05
  2.7588359e-04
 -1.6186126e-04
 -1.0837526e-04
  4.8929974e-06
  1.6487582e-03
  4.4075565e-05
  3.6710542e-05
 -1.3746890e-05
  1.1115849e-04
 -1.2511516e-04
 -2.7693954e-04
 -7.6914861e-05
 -1.2673120e-04
  3.6591652e-04
  2.6652337e-05
 -1.7745860e-04
 -5.1745417e-04
 -1.5605794e-04
 -7.6120639e-05
 -4.7617368e-04
 -6.3492480e-05
 -7.4416363e-05
  1.8232332e-04
 -2.4852459e-04
 -2.6976611e-04
 -6.8132222e-06
  2.4799074e-04
  2.3879181e-04
  1.2480206e-05
 -4.1561970e-04
  2.7109422e-06
  1.7946320e-05
 -7.4527263e-05
  1.1845477e-04
 -7.6012315e-05
 -2.1389807e-05
 -3.9585694e-04
  2.2263108e-05
  1.6517486e-05
 -2.2973197e-04
 -2.3077509e-05
 -8.6006577e-05
 -9.1088456e-05
 -4.2751355e-05
  2.4509054e-04
 -6.9382266e-05
  3.8632781e-05
  2.2423663e-04
  1.3982125e-04
 -7.2682371e-05
  9.9319208e-05
  2.2365153e-05
 -1.2870585e-04
  2.9296440e-04
 -3.2055243e-05
 -5.5164215e-05
  1.8178084e-04
  6.0057377e-05
  3.6350114e-04
  1.5636253e-05
  8.4961306e-05
 -1.3691685e-08
 -1.3572960e-04
  6.5011423e-05
 -5.5310313e-05
 -3.8695330e-04
 -6.5654881e-02
  7.2519627e-04
  3.0410350e-03
 -5.7778176e-05
 -6.5263309e-02
  2.0568439e-01
 -3.4531642e-02
 -1.9114605e-05
  5.1896415e-05
  1.7967913e-03
  8.9171892e-03
 -8.2440209e-04
  6.0436952e-05
 -8.4286912e-06
 -1.1591855e-02
  1.6153798e-01
  5.1649586e-05
 -1.9979008e-04
  1.0837442e-04
 -7.9698024e-05
  3.4378974e-03
  7.2946673e-04
 -3.8541664e-05
 -2.7047122e-06
 -1.0205671e-03
  7.4642077e-05
  2.0546827e-06
 -1.4455874e-04
 -2.6687549e-04
  1.5005462e-04
  7.6128461e-05
  6.7107409e-05
  5.0569386e-05
 -2.0878938e-04
  4.3586384e-05
  1.6300530e-04
  1.0217149e-04
  3.0525136e-04
 -1.1431148e-06
  8.2703164e-06
  4.8185463e-04
  4.3252672e-05
  1.2729704e-04
  1.2589399e-04
  4.8517357e-04
 -6.1211897e-05
 -4.6114732e-05
  1.1389618e-04
  1.8899764e-04
 -4.6677036e-05
  1.7339643e-04
  2.7496571e-05
  1.4658799e-04
  3.1650720e-06
 -4.6332971e-05
 -6.2653671e-05
  3.4380915e-05
  3.7119485e-04
  4.3629954e-04
 -1.0456679e-01
 -1.9167277e-01
 -1.6662200e-01
  4.1914269e-01
  1.0256963e+00
  1.4607641e-01
  3.6253102e-02
 -2.6197904e-01
 -6.1410680e-02
  5.2849096e-01
  5.6119007e-01
  1.0289518e+00
 -7.2545046e-01
  4.5028511e-01
 -2.6867833e-04
  1.3386865e-01
 -1.4780682e-01
 -7.0218265e-02
 -5.7749480e-01
 -8.3390713e-02
 -9.9675432e-02
  4.2882460e-01
  1.8723665e-01
  7.2000621e-05
  4.0054743e-04
 -6.1219521e-02
 -1.0859903e-04
 -3.0787897e-04
  1.6754177e-05
  1.0058589e-04
 -5.4593221e-04
  4.1240310e-05
  1.1032347e-04
 -4.3228716e-05
 -3.0821419e-04
  5.5214827e-05
 -7.4038457e-05
  3.1877536e-04
 -1.5751197e-04
 -1.1618097e-04
 -5.0659681e-05
  3.1807416e-04
 -7.4677437e-06
  1.0210132e-04
 -5.0831888e-05
  1.4637335e-04
 -2.7225335e-06
  1.2944071e-04
 -2.1538184e-04
 -3.1031945e-04
  3.6058498e-07
  1.3620715e-04
  1.5465755e-04
  3.4717654e-04
  1.5331710e-04
 -3.8296614e-05
  2.5155171e-04
  1.3835516e-04
 -6.1904779e-04
 -2.3781824e-04
 -1.6375040e-04
 -2.8414910e-05
 -9.9552548e-05
 -1.9250670e-04
 -7.4791996e-04
 -4.8980535e-05
  5.0817078e-05
 -2.7410370e-05
  1.9267410e-04
  4.3294698e-05
 -9.4339535e-05
  3.0737850e-04
  6.4978383e-05
  1.1835419e-04
 -2.0944451e-04
  7.8681362e-05
 -6.1765860e-04
  1.8513355e-04
 -1.3071000e-05
  1.1828857e-04
 -2.0992167e-05
 -3.9874525e-05
 -2.4981544e-04
 -8.6020256e-05
 -1.1605823e-04
 -1.2241186e-04
  1.5266314e-04
 -1.0646802e-04
  1.6791126e-04
 -3.8742171e-05
  3.7622176e-05
  6.4021064e-05
 -9.1570553e-05
 -4.4992579e-05
  1.0182183e-05
  1.2034503e-04
  2.1551365e-05
  1.9555764e-05
 -1.0581170e-04
 -3.7342383e-04
 -4.1146224e-05
  3.0930511e-05
  2.6299691e-04
 -9.5461633e-05
  6.7169269e-05
 -9.4765477e-05
 -3.7050140e-05
  3.5833931e-04
 -5.9334470e-05
  2.4313695e-04
 -2.2865624e-06
 -2.9869634e-04
  1.4221840e-04
 -1.7002694e-05
 -8.8221837e-05
  3.8130110e-04
 -1.5861497e-04
 -2.6486578e-04
 -5.2569303e-05
  7.0279311e-05
  1.9148179e-05
  2.0487441e-04
 -8.8578134e-05
  3.7182595e-05
 -2.3224169e-05
 -1.5516940e-04
  1.2111268e-04
 -5.0002800e-05
  2.0057660e-04
  3.2075302e-04
  1.2226138e-04
 -1.8753330e-04
  5.1237279e-05
 -2.7668648e-05
 -7.5353542e-05
  3.5182212e-04
 -1.2512233e-02
  1.5688794e-04
 -1.8710585e-04
  1.1084247e-06
 -2.2861790e-05
 -9.1030406e-06
  5.0321371e-05
 -2.9945798e-04
  1.7962525e-04
  2.0820588e-04
  1.8499586e-04
 -3.1198735e-05
 -9.4785282e-05
 -8.4065596e-06
  1.7805312e-06
  5.0221483e-05
  1.3899802e-04
 -1.1349929e-04
 -3.7448783e-05
  2.8252303e-05
  3.8467966e-05
  1.9282487e-04
  4.4638029e-05
 -5.4965509e-05
  2.0328058e-04
 -1.2834217e-04
 -2.2128188e-04
  4.3101169e-04
 -1.0516156e-05
 -8.2158200e-05
 -4.5068729e-05
  7.0958755e-05
 -8.8250636e-05
  1.4889662e-04
  1.8328639e-04
  7.1011877e-05
  6.1899249e-05
  3.2182515e-04
 -7.5887314e-05
 -2.4933289e-04
  6.2628729e-05
 -1.1800225e-06
 -8.9252506e-05
 -7.5321281e-05
  6.3192623e-05
  1.3555023e-04
 -1.6816348e-05
 -2.2377690e-06
  6.4564869e-05
 -1.7423493e-04
 -6.4045278e-05
 -8.6559914e-05
  2.2954405e-03
 -3.6601003e-05
 -2.2650037e-04
  6.3625339e-05
  1.0160031e-04
 -1.7168630e-04
 -1.8913382e-04
 -3.8567025e-05
 -1.3584741e-04
  2.3418626e-05
  4.4998156e-05
 -6.2649131e-05
 -4.2660959e-05
 -3.5933533e-04
  7.2139643e-05
 -4.6395955e-05
 -1.4214742e-04
  1.0472242e-04
  4.1102487e-04
 -1.0534238e-04
  1.5545983e-04
 -2.8623248e-04
 -5.8909707e-05
 -5.6603504e-04
 -1.3589236e-04
  7.0295221e-04
 -9.1073771e-06
  8.2969214e-05
  4.0256762e-04
  2.4321835e-04
 -1.4801584e-04
  2.8944711e-04
  8.4944266e-05
  2.8864463e-04
  3.5909685e-05
  5.3515680e-05
 -6.4036496e-05
 -1.5336648e-04
 -1.4468890e-05
 -1.9692720e-06
  2.2976103e-04
 -1.4353936e-04
  3.1613105e-04
  1.2041215e-04
 -1.9232069e-05
  2.0890655e-04
  5.1693576e-05
  1.5918691e-04
 -4.7614678e-05
 -1.3953345e-05
  7.7945384e-05
 -4.4815775e-04
  1.2064841e-04
  1.6618056e-04
 -3.9069440e-05
  1.3226207e-04
 -1.8600698e-04
  4.8570077e-05
 -8.8151348e-05
  1.2299985e-03
 -4.5359044e-05
 -6.6405378e-04
  2.9880073e-05
 -1.3174507e-05
 -6.6336514e-05
  1.2402220e-04
  1.3544096e-04
  8.8880632e-05
  7.1077142e-05
  9.0900539e-05
  2.5893463e-05
  9.4439682e-05
  1.4971358e-05
 -2.4071243e-04
  6.7611676e-05
  1.6357578e-04
 -4.5926727e-06
  7.2475077e-06
  4.1015053e-05
  1.1514308e-04
 -1.8782137e-04
 -5.7311536e-05
 -1.7253724e-05
  7.4960801e-05
 -9.8261240e-05
  3.8930427e-04
 -2.9311443e-05
  2.2589336e-05
 -3.5472345e-01
 -1.8207953e-04
 -9.0277543e-05
  1.3401761e-04
  6.3145628e-05
 -1.2668207e-01
  3.9664429e-04
  9.6479016e-05
 -4.2364642e-04
 -1.1217471e-04
 -1.8799954e-04
 -1.1226566e-04
  9.7398057e-05
 -8.2919410e-05
 -1.4247224e-04
  3.1796407e-02
  1.5023732e-04
  1.8932120e-04
  1.1223492e-04
  2.2957354e-05
  2.7075529e-04
  8.3940293e-05
  5.5409873e-05
  2.8948492e-05
  2.2728027e-01
 -2.7800564e-02
  4.7847923e-05
  4.7637030e-05
  3.6704503e-05
 -1.8677543e-01
  5.2229595e-01
 -1.2883812e-01
  1.0126938e-04
  2.3964996e-04
 -5.1275926e-04
  3.4945363e-01
  8.3115112e-05
  1.4744377e-04
  7.3337273e-05
 -1.7468705e-04
  2.0570549e-01
  4.8933773e-05
  1.6009815e-04
  2.8971368e-01
  2.7223132e-04
  1.9005470e+00
 -2.0210055e-04
  5.7525653e-05
  9.5947871e-05
 -1.5714180e-04
 -1.9444746e-05
 -7.9590049e-05
  1.7525595e-04
 -1.2070665e-04
  1.9145396e-05
  9.5835843e-05
 -3.0930707e-05
 -1.7188866e-04
 -4.6323199e-05
 -8.1800281e-05
  3.3058946e-06
  4.3245414e-05
 -1.8228922e-05
 -1.5570043e-04
 -5.0834413e-05
  1.2648244e-04
  2.6033053e-04
  8.8929330e-05
  5.0838527e-05
 -6.7572073e-05
 -1.1433714e-04
  1.0603227e-04
  1.2595791e-04
  6.6252840e-05
 -2.9943321e-05
 -7.4131662e-05
  2.0574700e-04
  5.4723190e-05
  2.5172470e-04
  2.5700798e-04
 -9.6658086e-06
  3.3387612e-05
  1.2071829e-05
 -2.9034480e-05
 -5.0555941e-02
 -2.0507263e-02
 -3.7416685e-01
 -5.6493884e-01
  1.4684853e-01
  3.0037180e-02
 -6.3568646e-01
 -3.8332338e-03
 -6.2485494e-02
  1.4461112e-01
 -1.4447095e-02
 -4.1687799e-05
  1.1708828e-02
 -2.5961617e-01
  1.4482811e-03
 -1.8038814e-01
  6.1021363e-03
  1.4646341e-03
 -2.8050464e-02
  5.8648860e-01
  3.1176007e-01
  1.9338534e-06
  2.6834631e-02
  7.4469452e-03
  2.8536009e-04
 -2.3684016e-01
  3.1590430e-04
 -2.5725430e-01
  3.3759460e-01
 -5.5740098e-04
  1.3649456e-04
  1.0799685e-04
  2.1053764e-05
 -9.8504315e-05
 -2.3938928e-04
 -3.4220377e-06
 -1.5205627e-04
  6.6949113e-05
 -3.0675723e-04
  1.8861259e-06
  5.5128665e-05
  5.4474472e-04
  6.2754269e-05
  4.9021382e-05
  7.6353441e-05
  2.0517508e-04
 -2.2408294e-05
  6.7984700e-05
 -1.5129420e-04
  4.0120332e-04
 -4.9235929e-05
 -3.3474548e-04
 -8.2141865e-05
  2.9797873e-05
  9.7433127e-05
  6.2451589e-05
 -9.3236791e-05
 -1.7056118e-04
 -1.2437633e-04
 -1.6779620e-04
 -8.2986306e-05
 -3.1140132e-06
 -1.7755257e-05
 -6.8825699e-05
  8.4076877e-05
  1.0243647e-04
  7.0685150e-05
  2.4731643e-04
  1.2571769e-04
 -1.9761949e-04
  6.9962691e-05
 -1.3073641e-04
 -1.0737203e-04
 -1.1935797e-04
  1.1453301e-05
 -1.0840283e-04
  4.3286473e-04
 -4.8310408e-06
  8.6992368e-05
 -4.1500694e-05
 -1.2165823e-04
 -1.9595129e-05
  4.6999037e-05
 -8.8513407e-05
  2.2765496e-04
  5.7300520e-05
  1.2125292e-04
 -4.0375042e-05
 -5.2410720e-05
  5.7341680e-05
 -1.6350790e-06
  8.9676247e-04
  3.0259118e-05
 -1.9551904e-04
  7.7664135e-06
  5.0119750e-05
  1.6220003e-04
  2.6398689e-05
 -3.8922430e-04
  1.4439062e-04
 -3.6610803e-04
 -1.7750070e-04
  1.1780616e-04
  1.3033787e-04
 -1.5696820e-05
 -5.0958792e-05
  1.9634019e-05
 -1.2412907e-04
  3.2894262e-05
 -2.5718482e-04
  2.5371002e-05
  1.5500115e-04
  2.5214479e-04
  2.2137105e-04
  2.1920227e-05
  6.5284257e-05
  1.9513907e-05
 -1.7679713e-05
 -1.1546241e-06
 -1.7549171e-05
  3.1768504e-04
 -1.1664017e-04
 -2.7067916e-05
 -2.1264545e-04
 -2.7707234e-04
  1.4893345e-04
  1.4737557e-04
  1.6018181e-04
 -8.1020182e-05
 -3.1217223e-05
 -3.4373308e-05
  1.6619817e-05
  1.2025345e-04
  5.8796028e-05
  6.7959678e-05
 -2.5799143e-04
 -1.4332985e-04
 -2.2931630e-04
 -1.0763949e-04
  6.0793540e-05
  3.5908346e-05
 -8.7382277e-06
 -6.9772080e-04
  7.4118725e-05
 -1.6856861e-04
 -1.1436477e-05
  3.0314430e-05
  1.5305963e-05
  4.2213451e-05
  7.2704090e-05
 -9.1177382e-05
 -5.8602327e-05
  8.0033824e-05
  2.3808249e-04
 -4.5717352e-05
  1.5507781e-05
 -3.3849059e-04
 -1.4979987e-05
 -2.0238741e-04
 -2.3949191e-04
  9.4169533e-05
  1.2200046e-04
  1.5741875e-04
 -2.3942550e-04
 -1.7860456e-04
  2.0194665e-04
 -3.2599593e-04
 -2.0270678e-04
  2.6695259e-04
 -3.6986175e-04
  1.2601449e-04
  1.0155434e-05
  2.4821670e-04
  7.9251058e-06
  3.0062200e-05
 -1.7902250e-05
 -4.2281677e-05
  4.5393412e-05
  6.2841573e-05
 -3.2476702e-05
  2.3764461e-01
 -6.5216996e-02
  4.3453109e-02
  1.5845886e-02
  1.1810975e+00
  6.0786563e-01
 -2.7926525e-03
  2.6808113e-02
 -4.6111250e-04
  1.1135195e-04
  7.8885212e-05
 -6.2411994e-04
 -1.7409723e-03
 -7.0203637e-04
  2.4314504e-05
  7.6132405e-05
  4.2266732e-01
  1.7403100e-02
  1.3659187e-01
  1.1048684e-03
  1.1746389e-01
 -3.7635668e-04
  3.3303841e-05
  2.8904518e-05
  6.6207146e-04
 -2.6804279e-04
 -7.5003103e-05
 -6.5812877e-05
  2.4251667e-04
 -1.8171166e-04
  2.2808407e-04
 -6.2072504e-05
  4.1220315e-05
 -2.4415343e-04
 -1.8323523e-04
  6.1184481e-05
  1.4560285e-04
  1.4760594e-04
 -1.1025072e-04
  2.2889981e-05
  2.4656777e-04
 -8.3783794e-05
 -1.7261606e-05
 -1.5055004e-04
 -2.5851373e-04
 -1.5055803e-04
  8.1117405e-06
  6.9527086e-05
 -6.5684253e-05
  4.0362388e-04
  5.1295505e-05
 -4.6906742e-05
 -3.4856799e-04
 -1.3349968e-04
  2.4155751e-04
 -1.0197475e-04
 -1.4943890e-04
  2.1725989e-04
  6.5762826e-05
 -5.9833568e-05
  1.1075395e-04
  2.7667836e-04
  1.2698084e-04
  5.5307824e-05
 -1.1267479e-04
  9.4556744e-05
 -1.8949121e-04
 -1.6525777e-05
  1.1946689e-04
  2.4126286e-05
  2.7731570e-04
  4.7916308e-04
 -4.5269069e-05
 -4.8590686e-05
  1.2634285e-05
 -1.0889865e-04
  4.7269670e-05
 -1.7087585e-04
 -1.8492830e-05
 -4.9960865e-05
  1.0501314e-04
  2.0697390e-04
 -4.9284735e-04
  1.3280925e-05
  1.6818204e-04
 -6.1759827e-05
 -7.5996351e-05
 -1.7879367e-05
 -4.6248915e-05
  2.6670971e-04
 -1.0494899e-04
 -5.1194056e-05
  5.8219712e-02
 -3.2612563e-05
 -1.0058788e-04
  1.1019634e-04
  4.4528500e-05
 -3.2143912e-04
  5.3509029e-05
  6.1362609e-04
 -4.0919826e-04
  2.0272599e-04
  2.1574346e-05
 -1.4620241e-04
  1.1596201e-04
  1.1123592e-04
 -2.4499130e-04
 -5.2707092e-05
  5.6113331e-05
 -7.3818766e-05
  1.6785571e-05
 -1.6368629e-05
  7.9489684e-05
  3.8310045e-05
  3.4576009e-05
 -3.3932875e-04
  2.7586389e-04
 -8.7667162e-05
  6.0480251e-04
  8.2397491e-05
 -8.0156409e-05
 -9.7142896e-03
 -2.2951952e-04
  2.4024738e-04
 -5.0660782e-04
  2.3976383e-05
 -8.2383725e-05
  1.9128725e-04
  2.1836007e-04
 -2.1427275e-04
  2.9149787e-05
  5.6136272e-05
  2.6555703e-05
 -2.0291764e-04
 -7.7096753e-05
  4.9449762e-05
  1.2996720e-04
  1.9892378e-04
  3.5533452e-05
 -1.5493957e-04
  4.3532185e-04
 -2.6210313e-04
  1.3092188e-04
  9.5777054e-05
 -1.5583809e-04
  1.5022783e-04
  2.3002322e-04
 -4.3797896e-05
  9.1882874e-05
 -1.5613915e-04
 -3.6403748e-05
 -8.0152778e-03
  8.2727485e-05
  2.7484447e-04
  3.2919015e-05
  1.8559382e-05
  2.6247333e-04
 -1.2108112e-04
  3.0288176e-04
  1.8690253e-04
  2.3811041e-04
  1.3632303e-04
  1.4216674e-04
  1.4060593e-04
  1.8677772e-04
  1.0432643e-03
  3.3817367e-05
 -7.5380623e-05
  2.1811260e-04
 -1.1911485e-04
  4.8417683e-06
 -8.6680579e-05
 -1.3278525e-04
 -4.0321171e-04
 -3.2289576e-05
 -1.7178446e-04
  4.5457295e-05
  5.0610304e-04
 -2.8216059e-04
  2.0461190e-05
  2.0278560e-04
 -6.3953528e-05
  2.1393516e-05
 -6.0392413e-06
  6.1580300e-04
  1.1837565e-04
 -2.2799077e-05
 -1.5896570e-04
 -5.5318378e-05
 -2.0923228e-04
 -3.8008775e-06
 -1.0534584e-04
 -1.2419833e-04
  1.7748353e-05
 -2.2727718e-04
 -4.4354383e-05
  6.1732346e-05
  5.0005961e-05
 -4.5048291e-05
  3.4949226e-05
  2.3902346e-06
  3.2309727e-05
  1.9202035e-04
 -3.2634492e-04
  1.9391427e-04
  1.1480440e-04
  8.1780374e-05
  2.0576784e-04
 -1.0016858e-04
 -4.8020996e-05
  8.4618443e-01
 -5.9500712e-01
 -1.9658014e+00
  2.4933893e-02
 -9.9215649e-02
 -1.0162117e-01
 -1.2473795e-01
 -3.7141817e-03
 -4.5731938e-01
  2.3984933e-02
 -2.9914829e-01
  1.7009444e-04
 -3.2630637e-02
  5.5151897e-05
 -5.5377764e-06
 -5.5751361e-02
 -3.7341580e-02
  1.9252753e-01
 -1.0311662e-01
  4.5128460e-03
 -1.0143234e-04
  3.3910081e-04
  5.3035264e-04
  1.8012400e-03
  2.9963069e-04
 -3.6992776e-04
 -1.0474383e-04
 -8.7031687e-05
  1.2035586e-04
 -1.1116829e-04
 -1.6827768e-04
  8.4510131e-05
  9.2071295e-03
 -4.2368527e-04
  8.0255559e-05
 -9.6686681e-06
 -4.2245365e-06
 -3.1799870e-04
  5.5951983e-05
  1.2793798e-04
 -7.8905512e-05
 -5.2429896e-05
 -1.4082302e-04
 -1.4452341e-04
 -7.6984797e-05
 -1.1849110e-04
  2.4412026e-05
 -1.9100415e-04
  9.8606797e-05
  4.9684149e-06
  1.9197191e-04
  2.8407932e-05
 -4.0551022e-05
 -1.5126041e-05
 -1.2441064e-04
 -7.8496596e-05
 -4.9104106e-06
 -3.6373871e-04
  7.6234101e-05
  2.5538769e-05
  9.3759700e-05
  1.6618050e-04
 -8.5836320e-05
 -2.0110456e-05
  4.2430504e-05
 -2.9762239e-05
 -3.3540789e-05
 -1.3761839e-05
 -7.9765698e-05
 -4.6552686e-05
  2.5248743e-04
 -9.9581703e-05
  2.5169697e-04
  1.7613065e-05
  5.3911885e-05
  6.2481588e-05
 -6.7692810e-05
 -4.6542526e-04
 -8.3734858e-06
  5.1078383e-05
  4.0541185e-04
  2.7217675e-04
 -1.1728173e-04
 -6.6018183e-05
  2.2000545e-06
  2.0434831e-04
 -1.6595225e-04
  5.1726660e-05
 -6.7791836e-05
 -1.9596984e-04
 -1.0988916e-04
  1.0818085e-02
 -2.9554195e-04
  2.3280434e-05
  2.1075291e-04
 -7.2484581e-05
  3.8773409e-04
 -2.0588214e-04
 -3.4267927e-05
 -7.4439769e-05
 -6.2630417e-05
  4.8197926e-05
 -2.6672406e-04
 -3.3500994e-05
 -2.1712605e-05
 -5.8065838e-05
 -1.2523893e-04
 -3.1623505e-05
  1.2616263e-04
 -2.4456804e-04
  8.0489146e-05
 -7.4264484e-05
  2.8173704e-04
  1.4985411e-04
 -7.7746459e-05
 -1.2413925e-04
 -2.4174908e-04
 -1.8621173e-05
  1.1443522e-05
  6.0650025e-05
  4.7453999e-05
  3.1132353e-04
 -2.8462632e-04
  1.3151858e-04
  4.5258937e-05
  1.8243560e-04
  1.5136727e-05
  1.7910334e-04
  8.5701968e-04
 -1.5693126e-04
  1.5468637e-05
 -1.2661147e-04
 -2.4787889e-05
 -2.2814723e-04
  9.7180287e-05
  1.0931223e-05
 -2.2448192e-05
  9.8473494e-05
 -1.1731916e-04
  5.9388385e-05
  9.4433875e-05
  1.1636690e-05
 -6.0858543e-05
 -2.1782450e-04
  1.2358892e-04
  5.5426906e-04
  8.5081650e-05
  1.0605399e-04
 -5.0556041e-06
 -2.7664319e-05
  2.8803488e-04
 -3.8837511e-03
  5.5357512e-05
 -6.8154849e-02
 -8.3307959e-03
 -4.1029660e-05
  5.5549150e-05
  1.5541611e-04
  6.0929049e-02
 -8.7610788e-06
 -5.9158669e-04
  2.9433397e-05
  1.2240684e-04
 -1.6668277e-04
  3.3959794e-05
 -1.0047927e-05
  4.3338421e-04
 -3.4161078e-04
 -6.7737841e-05
 -2.6091659e-05
  3.8242935e-05
 -2.5237923e-05
 -1.3497412e-04
 -1.5103463e-04
 -4.1516712e-05
 -9.4487448e-05
 -8.1472572e-05
  1.8295537e-04
 -1.6908997e-06
 -2.6297898e-04
 -1.1123591e-04
  6.5662825e-05
  4.1690575e-05
  4.1416366e-05
 -1.5153521e-04
  8.1118131e-05
  1.0503156e-05
 -2.6059373e-05
 -6.5623914e-05
 -3.4203689e-04
  4.0783016e-05
 -3.8381750e-04
 -1.1922637e-04
  4.2526945e-04
  2.8481309e-05
 -1.9642076e-04
 -7.0481350e-05
 -5.9021517e-05
  1.5749753e-04
  3.1846932e-05
 -2.3815159e-05
 -2.7993261e-05
 -1.7310900e-05
  2.2244859e-04
 -2.4694143e-04
 -1.9331404e-05
  4.6963283e-05
 -9.9714474e-05
  5.8347679e-05
 -2.5712687e-04
  2.4746361e-04
  5.4164433e-05
 -1.9896329e-04
  2.1757135e-04
  2.5465728e-05
  5.3909271e-06
 -1.2599757e-04
 -1.4621767e-04
 -5.1351883e-05
 -4.7264130e-05
  4.7844154e-05
 -1.3941230e-04
 -1.0965459e-04
  3.7456299e-05
  1.6659438e-05
 -4.7612022e-05
  9.7893593e-05
 -7.3013784e-06
  1.8718795e-04
  4.6577978e-05
  1.3332645e-04
 -1.0794281e-05
  3.1635245e-05
 -4.0253188e-05
 -2.2241415e-05
 -7.6802331e-05
  3.5246401e-04
 -1.3569120e-04
 -2.6258660e-04
  2.5383846e-04
  3.4988272e-05
 -2.2340212e-04
 -3.2547091e-06
 -5.2203337e-05
 -1.2473418e-05
 -1.2833327e-05
  1.4946065e-04
  7.9768462e-05
  2.9743731e-05
  3.3620064e-04
  3.5805850e-05
  5.7824840e-05
 -2.7895946e-04
 -8.8210581e-06
 -5.5748045e-05
 -1.7414337e-04
 -1.0944372e-04
 -1.7716041e-04
  8.4335297e-05
  9.1774884e-05
 -1.9195821e-04
 -4.6958143e-05
 -2.8311959e-04
 -1.4599210e-04
 -7.2864568e-05
  3.2940363e-05
 -2.5122872e-04
 -4.5599470e-05
 -6.8284193e-05
  1.0656489e-05
 -1.6250314e-04
  2.0486079e-04
  2.9806770e-05
 -6.3593245e-05
  1.1097787e-04
 -3.5306100e-05
  4.6914470e-04
 -2.3919658e-05
 -1.2629374e-04
  4.5332872e-05
 -5.3080963e-05
 -1.2175627e-04
  4.6878758e-05
 -2.1451306e-05
 -5.6504627e-04
 -3.7516471e-05
  2.7791133e-05
 -8.2356764e-06
 -6.4948006e-05
  2.6507090e-05
 -4.0442908e-05
  9.1361893e-05
 -4.6749855e-04
 -8.5532862e-05
 -2.1578332e-04
 -1.2439542e-05
  6.1143612e-05
 -4.9259420e-04
 -8.6243315e-05
 -2.8284401e-05
 -3.7856988e-04
 -3.5213606e-04
 -1.1477293e-02
 -9.5720243e-05
  6.0134765e-04
  1.0544813e-04
 -3.1022850e-04
 -1.9038509e-04
 -7.0774287e-02
 -1.0167905e-05
  1.4457719e-04
  4.7492099e-04
 -4.0214451e-05
 -6.9892070e-05
  5.6808232e-04
 -4.1253894e-05
 -1.6386453e-04
 -2.1792790e-04
  5.9828024e-05
  4.1667132e-05
 -1.3105996e-04
 -1.5694341e-04
 -6.6825953e-05
  4.9507882e-05
  1.3547538e-04
  6.9689588e-05
  1.0784819e-04
 -2.6010862e-01
 -2.1017893e-04
  3.7988968e-05
  1.4954800e-02
 -1.9003117e-01
 -2.9050937e-01
 -1.4969261e-01
 -3.9242494e-01
  4.7600782e-01
 -1.3475245e-01
  4.6350232e-01
 -8.8104868e-01
  3.2811990e-01
  4.7238882e-05
  2.5701986e-04
  1.5935131e+00
 -5.8972233e-05
 -1.8990129e-05
 -8.7303817e-02
 -2.9418471e-01
  2.2116330e-01
  1.6163933e-01
  1.0593297e-01
  5.3522566e-05
  5.2125883e-06
  1.1580050e-01
 -1.8534881e-06
 -1.4055420e-04
 -8.0337944e-05
  3.5774523e-05
  4.4686871e-04
  4.4354780e-05
  1.1085713e-04
  3.4383851e-05
 -4.0008228e-02
 -1.0526081e-04
  1.3669033e-04
 -1.1661359e-04
 -1.5171278e-04
  1.2773935e-04
 -6.8464986e-05
 -1.1666134e-04
  4.8697497e-05
  5.1082636e-05
  1.0472879e-04
 -3.5576635e-05
 -1.0217993e-04
 -5.4657011e-04
  1.0789200e-04
 -1.9287677e-04
 -5.7807974e-05
 -3.5435041e-05
 -8.6051863e-05
 -6.1435610e-05
 -1.7042828e-05
 -2.8220861e-04
 -3.9905655e-05
  5.2941102e-04
 -1.2158783e-04
  6.5390518e-06
 -5.5924273e-05
 -7.0924441e-05
 -6.0115658e-06
  9.8874640e-05
  1.9735597e-05
  7.4379896e-05
  5.7952093e-05
 -3.8528437e-05
  6.5791464e-05
  3.2494267e-05
 -2.0274111e-04
 -2.2029769e-04
 -2.3356223e-04
  6.2590989e-05
  1.0315219e-05
 -9.7805947e-05
 -3.0418178e-05
 -1.2638228e-04
  4.2401548e-04
 -2.6318781e-05
 -9.3587169e-06
  1.3536115e-05
 -7.1743409e-05
 -8.0169935e-05
  5.5952223e-05
 -9.9826408e-05
 -1.0125998e-05
  1.4405425e-04
 -2.7266204e-05
 -6.2144762e-05
 -5.1365936e-05
  1.2210083e-04
 -4.0390976e-05
  1.4784181e-04
  7.3864707e-05
  1.7037779e-05
 -5.3563912e-05
  1.0941165e-04
  8.0420490e-05
  2.5470502e-04
  1.3827485e-04
 -1.2401659e-04
  7.4886579e-05
 -1.7276201e-04
  2.4600266e-04
 -3.1753560e-05
 -2.5846905e-04
 -3.3999319e-04
 -1.4699274e-04
  4.5926296e-05
 -1.2539329e-04
  7.9426412e-05
 -1.2892683e-04
 -5.1365419e-05
  6.8766916e-05
  1.3531036e-04
  2.1067270e-04
 -6.8840200e-05
  2.2924101e-04
 -1.2428802e-05
 -5.1108997e-05
  8.0962156e-05
 -7.3597941e-05
 -9.8045792e-05
  2.2160666e-02
  1.2878238e-04
 -1.5354202e-04
 -3.2502552e-04
 -6.3370033e-05
 -9.3909657e-05
 -1.6410117e-05
 -4.0544492e-05
 -6.8457382e-05
 -8.0068647e-05
 -2.8128418e-04
  2.1924775e-06
  8.0852136e-05
 -1.3370215e-04
 -2.9392322e-05
 -1.0571458e-05
  8.4337174e-05
 -1.9721959e-04
 -2.2104214e-05
 -3.6431177e-06
 -1.5112887e-04
  3.9331862e-05
  9.1934307e-05
 -1.3555415e-04
 -6.4582389e-05
 -7.1253278e-05
  1.8253329e-04
 -2.7622283e-04
  3.0924095e-04
  3.5013858e-05
  1.0322163e-01
 -2.4203281e-04
 -1.2217734e-04
 -9.9833298e-05
 -2.7076964e-04
 -3.3329379e-05
  9.3759149e-02
  2.9149665e-05
 -4.6691152e-05
  1.1210748e-04
  2.9805586e-05
  3.8903108e-06
  1.9652925e-04
  7.2414847e-03
  2.8556367e-04
 -5.7821962e-05
 -1.2088146e-04
 -1.0989726e-04
  1.4501278e-05
 -5.3832038e-05
  6.2023326e-05
 -6.3017738e-05
  7.3707808e-05
  1.3361107e-04
 -3.2228485e-01
  9.4348832e-07
  8.8661815e-05
 -2.0866880e-04
  8.0672748e-05
  1.1946241e-04
  1.0804774e+00
 -5.2478140e-06
 -4.3593467e-05
  1.4714441e-02
  2.8132091e-04
  7.9158010e-05
  2.4956775e-01
  4.8958848e-04
 -5.1158913e-05
 -5.6469170e-03
 -6.1745113e-03
 -2.4476470e-02
 -3.3461318e-05
  2.7961025e-01
 -1.1827518e-04
  1.2201480e-05
 -7.4214542e-05
  7.7945777e-05
 -8.6478852e-02
 -9.3706461e-05
  1.3516145e-04
  5.3176391e-05
  7.8670764e-03
  4.9170043e-02
  3.4906268e-01
 -3.1036787e-02
 -1.4512024e-04
 -5.4702170e-05
  1.0247721e-02
  4.9209938e+00
  7.7593070e-01
 -2.3625183e+00
 -3.2334286e-01
 -3.0679235e-02
 -4.0056489e-06
 -1.1980812e-01
 -2.7588077e-02
 -1.3790411e-01
 -2.3512378e-02
  1.1427857e+00
 -1.4009075e-04
 -1.6409181e-01
 -4.6442973e-04
  4.5189365e-05
 -1.1274223e-05
  1.6507091e-01
  4.7238904e-05
 -2.7566832e-02
 -6.1664754e-01
 -6.8598369e-04
  2.3383607e-01
 -8.4139023e-04
 -1.9556706e-05
  1.0014362e-05
 -2.3493291e-01
 -2.0215919e-04
 -4.4443741e-02
  3.7141800e-01
 -4.7447914e-01
 -1.3298938e+00
  1.8884649e-04
 -3.2663101e-03
  9.6568125e-05
  5.1369715e-01
 -7.7323958e-02
 -3.8351677e-02
  1.4357694e+00
  2.1732805e-05
 -1.8928600e-02
 -2.0789816e-04
 -7.8741927e-05
  1.5406045e-05
  6.9140900e-05
 -1.0694051e-04
 -2.9579759e-01
 -1.2744107e+00
 -1.2512688e-01
 -1.6820875e+00
  5.1221767e-05
  1.4009365e-04
 -1.6931977e-05
 -1.6610445e-01
 -7.3964933e-05
 -1.5716881e-01
 -1.1241389e-01
 -2.5008360e-01
 -3.1326044e-02
 -2.2614472e-04
  1.3900090e-04
 -1.4524716e-04
  7.2534412e-02
 -1.8322961e-01
  2.2270852e-01
  3.4474850e-01
 -6.3792846e-05
  8.1466633e-01
 -1.6620794e-05
 -5.0233393e-05
  4.9460103e-04
  6.9271490e-02
  1.2615849e-05
 -2.5746661e-01
 -2.7267426e-01
  3.0695534e-01
  1.4617822e-01
  1.7534279e-04
 -3.9426825e-04
 -1.8395307e-04
 -3.4651580e-01
 -2.0433986e-04
 -1.2035176e-01
  2.7974039e-01
 -3.1112686e-01
 -6.3580829e-01
 -1.9964762e-03
  5.2696131e-02
 -4.6397948e-01
  2.0094111e+00
  3.7547287e-02
  1.0394769e+00
  2.7234424e-02
 -5.2809904e-05
 -8.0008240e-04
 -4.4951346e-04
  1.8270723e-04
 -1.3076207e-03
 -5.1941449e-04
  3.3191135e-04
  4.7050519e-03
 -4.0817079e-01
  6.9680907e-05
  5.8302558e-03
 -6.5395707e-01
 -1.3698061e-04
  1.7518865e-02
  2.0772423e-01
 -9.2631170e-05
  1.8297061e-01
  1.5959098e+00
 -9.0031669e-02
 -3.0469197e-01
  3.3894256e-02
  5.1922972e-05
 -9.8622453e-01
 -2.7411953e-01
  1.3711682e-02
  2.4571988e-01
  2.5075674e-01
  2.7375258e-04
 -1.7063928e+00
  2.4099724e-01
  3.3723896e-05
  7.8351470e-03
 -5.4611854e-05
 -6.8734123e-05
  2.4747179e-01
 -4.8041657e-05
 -3.6209140e-02
  1.6952981e+00
  1.1993513e+00
  1.9458036e-03
 -1.2184460e+00
  2.5712194e-02
  3.5431935e-05
  2.2668839e-01
  3.7548453e-02
 -1.5798190e-01
  9.1341329e-01
 -5.3329144e-02
  1.1862739e-03
 -8.0319041e-05
 -1.0359657e-03
  1.6701544e-03
 -3.4671638e-02
  1.2827874e+00
  5.1942196e-05
  5.4685789e-01
  4.5196615e-02
 -1.1494481e-03
  1.3311650e+00
  1.8062821e-03
  1.2132996e-01
  5.5394614e-01
  7.1291500e-01
  5.6062540e-04
 -7.4729997e-01
  1.2346991e+00
 -2.2093772e-03
 -4.0483110e-02
  2.2023153e-01
  1.7257746e-03
  3.2905427e-01
  3.2167792e-01
 -7.6409727e-03
  1.6984758e-01
 -6.3216664e-02
  7.9259793e-05
  6.9196349e-01
 -1.2024187e+00
 -2.8843722e-01
 -1.4323351e-01
 -1.1763908e-02
 -2.7077874e-06
  8.7143118e-05
  4.8508406e-05
 -2.4573537e-04
 -1.4588976e-04
 -3.8145041e-01
  6.7519059e-06
  7.3154651e-02
  3.8931429e-01
  9.9972940e-06
  3.9315280e-03
 -4.7066775e-03
 -9.7926364e-05
  4.2850737e-04
  5.1263028e-01
  1.2897632e-01
  6.0207474e-01
  1.0017688e-01
 -1.4083925e-05
 -7.1401365e-02
 -6.8034991e-05
 -2.7033432e-06
  9.1526083e-05
 -3.4216976e-01
  3.2723838e-01
  3.8749704e-01
 -4.9517024e-03
 -6.2796265e-05
  3.5028167e-02
 -2.0700546e-04
 -4.9351930e-04
  7.0084520e-06
  8.7215856e-02
 -6.8694219e-02
  1.2547155e-01
 -6.0396938e-05
 -3.8972805e-04
  8.4730505e-05
  4.2383039e-05
 -1.4803435e-04
  2.2529808e-01
 -2.6209304e-01
  3.2651715e-04
  5.6845319e-01
  2.8248322e-01
 -4.8261209e-05
 -2.2537010e-02
 -1.9593918e-04
 -7.9332982e-05
 -6.8603265e-05
 -5.5680096e-01
  4.2188257e-01
 -7.9560882e-01
  1.4697397e-03
 -1.6201389e-04
 -3.6509191e-03
 -7.8899576e-04
  2.7216671e-05
  1.0883252e-01
 -1.1644620e+00
  2.6249859e-01
 -8.1639984e-05
  1.7787011e-01
  9.9926139e-04
 -1.8866248e-01
 -1.7053930e-01
 -5.4760795e-04
 -4.9996364e-04
  9.4416551e-02
  6.7738175e-01
  1.5946653e-02
 -1.1536987e+00
  1.3037168e+00
  3.7742421e-01
  1.6938046e-02
 -2.4875833e-02
  2.1399912e-01
  9.7887911e-02
 -1.6782034e-04
  1.4364138e-01
 -1.6075093e+00
  1.6248689e+00
  2.2097433e+00
 -1.8621320e-04
  9.1975107e-06
  2.4838091e-03
 -3.3148751e-04
 -7.8592144e-05
 -4.1302615e-03
  3.7378845e-01
  1.4314149e-01
 -1.4858498e-01
  7.3063426e-02
 -1.5441822e-04
 -8.5174158e-02
  7.4723743e-02
  1.3888279e-04
  1.5302825e-01
 -1.3983116e-01
 -8.8614571e-01
 -7.2856867e-01
  9.4247036e-02
 -4.3323424e-02
  1.2542805e-04
 -7.9338293e-04
 -2.8412248e-04
  1.1675977e-01
 -1.2098857e+00
 -2.1295013e-01
 -7.3286545e-01
  2.6722632e-02
 -1.6066970e-04
  5.8097792e-01
  5.2253045e-02
  7.1748851e-05
 -9.5083952e-02
  4.1028786e-01
  1.7621158e-01
  7.0552391e-01
  7.7034730e-01
  1.7386980e-04
  3.6366567e-01
 -8.9412897e-05
 -8.2293618e-03
  1.7054331e-02
 -1.7401785e-01
  1.0242929e+00
  9.9540877e-01
 -1.1248037e-01
 -7.4999802e-02
 -1.3743619e-04
  2.0709899e-01
 -1.3066291e-04
  4.0883321e-01
  3.2956645e-01
 -6.9146186e-02
  1.2749888e+00
  1.1873938e-02
 -4.7069366e-06
 -1.6431434e-01
  2.3198155e-01
  1.0365339e-01
 -5.5744383e-02
 -1.2466054e+00
 -5.9392261e-03
 -2.2068064e-01
  9.0441877e-01
  8.2584575e-02
 -3.8048783e-01
 -6.6801190e-02
 -1.6792060e-03
  3.0331403e-01
 -1.1924918e-01
 -4.6907386e-01
  2.9625657e-01
 -1.0259160e-01
 -1.6011344e-01
 -1.5572064e-02
 -2.1214512e-01
 -1.7355746e-02
 -4.0302631e-02
 -8.0474478e-01
  1.7644717e-04
  1.2675618e+00
 -2.5512725e-02
  2.5780217e-04
  4.2259030e-02
 -7.5296268e-02
  3.7656006e-05
  9.9643633e-02
  1.2863735e+00
 -1.7717462e-04
 -1.7405146e+00
  7.7704065e-02
 -3.1706221e-02
 -1.5372076e-02
 -8.6873040e-02
 -1.2183551e-03
  4.7772643e-01
  3.2158917e-01
  1.8434644e-01
 -3.9539555e-01
  2.3798494e-01
 -3.0845620e-02
 -2.2094989e-02
  5.0889212e-01
 -2.8850615e-02
  4.7716269e-01
 -1.5116571e+00
 -3.1779304e-01
 -6.1412323e-02
  4.5167767e-02
  6.0108326e-02
 -7.7039711e-02
 -3.5415210e-02
  1.4068452e-03
 -5.7657636e-03
  1.3382405e+00
  3.0725193e-01
 -6.0015995e-02
  2.7375413e-02
 -3.5018954e-02
  2.2678004e-01
 -1.1809191e+00
  1.5902705e-04
  3.2858130e-01
 -5.7616341e-01
  2.1809536e-01
  1.5366229e+00
 -1.6145803e-01
 -1.5446422e-01
 -1.3517073e-03
 -3.1117065e-02
 -2.3529756e-01
 -9.8367703e-01
 -5.0585526e-01
 -3.0153632e-04
 -3.0488146e-02
  9.0046870e-03
  5.3320061e-03
 -6.7785722e-01
  9.7919337e-02
 -5.7421595e-02
 -2.3805496e-01
  3.0576584e-01
  1.1813668e-01
  3.3965353e-02
  1.6441622e-01
  4.8786408e-01
 -2.0091219e-01
  4.1237032e-01
  2.0793170e-01
  6.9575632e-01
 -3.9050958e-01
 -9.3021083e-01
 -1.4551619e+00
 -6.5107387e-01
  2.6841537e-05
  9.2838198e-01
 -7.7110475e-01
  8.0657262e-01
  1.0175687e+00
 -1.2363686e-04
  1.1032818e-04
  1.1200588e+00
  7.7465214e-02
  4.2149761e-05
  1.3525547e-04
 -1.5564589e-04
  1.3599541e-05
  2.1371889e-04
  6.3012339e-02
 -6.2446469e-01
  3.8452351e-01
  1.7957963e-02
  1.3216863e-04
  6.6403139e-01
 -2.5616992e-01
  2.1191697e-01
  1.6106491e-01
  6.9294989e-01
  1.4223497e+00
  1.7504522e+00
 -1.6415948e+00
 -9.6735617e-05
  2.1761411e-01
 -7.3295005e-04
  3.8915080e-01
  4.2232657e-03
 -1.3646945e-01
 -6.3349563e-01
 -2.7046368e-02
  2.7886030e-01
 -1.4585278e-04
  3.6106718e-01
  3.1537883e-02
  5.0121956e-03
 -1.6388040e-05
  2.7710262e-01
 -2.0219541e+00
 -1.0055771e+00
  2.7774957e-01
 -2.1821340e-06
  2.2162506e-01
 -9.8517150e-02
  2.9704997e-01
  4.6140678e-02
 -2.3735522e-01
  8.5264307e-01
 -4.3250486e-01
  4.9271345e-02
 -1.5372467e-04
  4.6053040e-01
  8.1382108e-01
  9.3417671e-03
 -4.9797036e-05
  2.9069209e-01
  1.7242843e-01
  1.2711373e-01
 -8.9011687e-01
  7.3286443e-05
  1.5671472e-01
 -3.6626649e-03
  4.4624954e-01
  4.7235647e-01
  1.0390651e-02
  7.7490604e-01
 -2.6165819e-01
 -3.1452209e-01
 -1.4272849e-04
  2.7322644e-01
 -1.3852490e+00
  2.5257277e-01
  1.4942162e-01
 -4.5877522e-01
  3.0249825e-01
 -6.8166234e-02
 -3.7852818e-01
 -3.1763132e-04
 -1.1844622e-01
  2.9706565e-01
 -2.9618984e-01
  5.6764770e-02
 -1.1438641e-05
  1.9388404e-04
 -2.0837467e-04
  1.2295731e-01
 -4.8749163e-04
  4.6096891e-05
  2.5551813e-02
  2.9652965e-06
 -6.7629713e-05
 -6.9216498e-05
 -2.9665246e-04
  6.5969020e-01
  3.5788999e-05
  1.2214550e-04
 -1.0271928e-02
 -2.9557121e-01
 -6.6411808e-02
  1.4725687e-02
 -4.6846086e-01
  3.6244899e-05
 -2.9818043e-01
  1.2519069e+00
  2.0437608e-04
 -1.2543939e-04
  4.4751316e-01
 -1.9563565e-01
  1.5655522e-04
  3.1817088e-01
 -2.7866429e-04
  3.6917996e-01
  1.9591627e+00
 -1.7652997e-05
 -7.2442682e-04
  6.5462485e-02
  5.0288450e-05
 -1.8167137e-05
  3.6714304e-02
 -1.1414265e-02
 -2.4943800e-01
  5.1596928e-02
  6.0179475e-05
  5.8742138e-05
 -1.1622200e-02
 -3.8043267e-01
  3.0257836e-01
  6.6348052e-01
  8.4265167e-01
 -3.3772379e-01
 -9.6625887e-02
  5.3392141e-05
 -1.0935353e-01
  2.6994169e-01
 -1.0476886e-04
 -7.9594932e-02
 -5.1664181e-02
 -2.8806180e-01
  8.6591482e-01
  1.8301640e+00
  6.4872496e-05
  2.7031673e-04
  5.1941484e-02
 -1.8239771e-01
  3.0962214e-01
 -5.4539353e-01
 -1.8125974e-01
  1.3645611e+00
  1.2942314e+00
  2.7902332e-05
 -4.7307387e-01
  6.3980892e-02
 -6.4642310e-02
 -1.8270328e-05
 -4.6424499e-01
 -8.3687738e-02
  2.8400080e+00
 -5.9479143e-02
  1.9620570e-04
  6.3588548e-01
  9.3495983e-01
 -2.7302543e-02
 -1.3945681e-01
  6.5391425e-05
 -6.4135000e-02
 -2.1282911e-01
 -4.0273391e-02
  1.4269989e-04
  1.3798682e-04
  1.3653363e-01
  2.4526791e-05
 -3.7654620e-04
 -1.1004328e-02
  3.9234200e-01
 -2.8420278e-01
  1.4167941e-01
  5.5135428e-05
  4.3424135e-01
 -3.0413005e-04
 -5.4371987e-05
 -1.1776276e-02
  1.6973419e+00
  1.4802568e+00
 -1.1161851e-01
 -3.3607709e-01
 -1.9990264e-04
  1.4709534e-01
  4.9293095e-01
  2.6574911e-04
 -3.1323627e-01
 -6.9891888e-01
 -9.4720697e-01
 -7.9316430e-02
 -1.3745326e-01
 -3.4302138e-05
  1.2714671e-01
  9.4570112e-01
  8.7711589e-05
  1.5362771e-04
 -1.9629185e+00
  2.4233842e+00
 -6.2078750e-01
  4.8270303e-01
  1.0713580e-05
  2.8026646e-01
  8.3791159e-02
 -2.1271743e-02
 -2.4767558e-01
 -3.9696518e-01
  1.0169897e+00
 -7.5805670e-01
 -6.7639911e-01
  1.7900394e-04
  6.6278892e-04
 -5.8712685e-01
  2.6484856e-03
 -8.6919876e-04
 -4.6452761e-01
  4.2518628e-01
  2.1767537e-01
  3.3266541e-02
  7.4094591e-05
  4.2665470e-01
  2.3716152e+00
 -9.6008644e-02
  4.4579087e-05
 -8.5317993e-01
  3.0370468e-01
  1.7511933e+00
  4.4002194e-02
  1.0382876e-04
  3.3850613e-01
  6.2005323e-01
  1.6120300e-01
 -2.0931792e-01
 -2.8547000e-05
  1.3370340e+00
 -2.6035708e-01
  1.6470110e-01
  1.5053166e-04
 -2.8569135e-01
 -1.3718555e+00
  5.5668825e-01
 -3.3167899e-01
  1.5535446e-04
  1.0836691e-04
 -2.6004258e-01
  5.5436485e-05
  4.1352720e-05
 -8.4501509e-05
 -6.9713575e-01
  1.7448317e-04
  1.5631964e-04
 -5.9145572e-05
 -1.3154773e-01
 -2.0809934e-01
  2.3343413e-01
 -1.7970074e-04
 -1.1040308e-01
  3.0488500e-01
  4.5383964e-05
 -2.1736498e-03
 -1.4562688e+00
  3.8198340e-01
 -1.6770736e+00
  1.2300367e-03
  4.4038999e-05
 -2.3751301e-01
  4.0976262e-01
  7.0947953e-02
  4.2065838e-01
  1.1724618e-03
 -5.8091491e-01
 -5.5491555e-01
 -1.1631973e-01
  5.7762696e-05
  2.1475638e-04
 -3.2264021e-01
  2.5443798e-02
 -3.5819739e-02
  4.5310986e-01
  8.1499085e-02
 -7.8504503e-01
  7.2545010e-01
 -1.4241567e-04
 -1.9093905e-01
  4.6631768e-01
  4.6156202e-02
  3.1674910e-01
 -4.0529081e-01
  6.8849146e-01
  6.9013059e-02
  8.4463596e-02
 -2.5663812e-05
 -2.7271002e-04
 -1.9765323e-01
  3.6668316e-01
 -4.0617000e-05
  3.8873151e-01
 -2.4487486e-01
  1.8389896e+00
  3.6430255e-02
  6.2833111e-05
 -2.0881590e-01
  7.0459777e-01
  6.1692845e-02
 -5.7309598e-02
  1.2763685e-01
  7.4352711e-01
  8.3639497e-01
  5.7847643e-01
  3.2699594e-04
 -2.0212871e-01
  1.7938482e+00
 -9.1720723e-02
  1.9927555e-01
  4.2591330e-01
 -6.6491067e-02
 -2.0669832e+00
  1.1420789e-03
  9.2869806e-05
 -2.9291242e-04
  2.8610480e-01
 -2.3815788e-01
  1.8286683e-01
  5.2996608e-04
  1.2210408e-01
 -3.6610669e-01
 -1.7209229e-04
 -1.2863657e-04
 -2.9121319e-04
 -1.2828485e-04
  3.5516725e-05
  9.3995339e-05
  3.8527355e+00
 -1.1843811e-04
  2.1788890e-04
 -7.8241974e-05
  6.5911977e-06
 -1.4203442e-04
  7.6901475e-03
 -7.1272249e-03
  3.1974930e-02
  2.2231488e-01
 -8.7865365e-01
 -6.8287969e-01
 -5.7163415e-05
 -1.1405912e-05
 -2.7747712e-05
 -8.2897997e-01
 -2.0936556e-01
  1.9025235e-01
  9.6857059e-01
 -5.1853247e-05
  1.9242779e+00
  3.1106305e-04
 -2.3266823e-04
 -7.2522327e-02
  1.8627609e-01
  4.3893793e-05
 -1.7887770e-04
 -8.5519575e-02
 -8.5563272e-02
  6.3724637e-01
 -1.2678351e-01
 -2.0816841e-04
  1.1998048e-01
  8.3589042e-03
 -2.6587689e-01
  8.9420907e-02
  2.4248967e+00
  4.4151503e-01
  2.2140911e+00
 -3.0419111e-01
  4.8438570e-04
 -2.6640594e-01
 -1.0507929e-01
 -1.1482274e-04
  2.6729187e-01
  9.3729132e-01
 -3.6676213e-01
  7.9243153e-01
  2.6638687e-01
  2.2868330e-04
  9.9720895e-02
  8.6496735e-01
 -1.8646115e-04
  1.0194507e-04
  2.4691108e-01
  1.7728005e-01
  1.8979910e-01
  8.5117489e-01
  1.3916705e-04
  2.9042757e-01
  1.4652871e-02
 -3.1602746e-01
  1.2780885e-01
  1.4468929e-01
  1.4468929e-01
  1.4468929e-01
  1.4468929e-01
  1.4468929e-01
  1.3772842e+00
  1.3772842e+00
  1.3772842e+00
  1.3772842e+00
  1.3772842e+00
  1.1314020e-01
  1.1314020e-01
  1.1314020e-01
  1.1314020e-01
  1.1314020e-01
  3.3084702e-01
  3.3084702e-01
  3.3084702e-01
  3.3084702e-01
  3.3084702e-01
  2.2579584e-02
  2.2579584e-02
  2.2579584e-02
  2.2579584e-02
  2.2579584e-02
  1.4875399e-01
  1.4875399e-01
  1.4875399e-01
  1.4875399e-01
  1.4875399e-01
