nep4 3 K H S 
cutoff 8 6 104 46
n_max 4 4
basis_size 10 8
l_max 4 2 0
ANN 50 0
  8.7395791e-05
  7.5910807e-02
  5.5894010e-02
 -8.4972781e-01
  4.4497055e-01
  1.2235976e-04
  4.3574691e-01
  6.7264605e-06
 -2.8724849e-04
  1.1178930e-04
 -1.5650356e-04
 -2.4610057e-01
  3.4372226e-04
  3.6072862e-04
  3.0179997e-04
  8.2266273e-04
  4.6611074e-01
  2.8038293e-08
  1.1623378e-04
  3.9831753e-05
 -7.9508995e-05
  2.9397721e-04
 -2.5533655e-04
  4.8035619e-04
  1.1978501e-04
  1.0869985e-04
  2.3500843e-04
  1.9508623e-05
 -3.6954039e-04
 -1.1885223e-04
  5.5217676e-02
  6.9107721e-04
 -5.2453589e-04
  2.5489632e-04
 -2.2412144e-02
 -8.9772175e-06
  5.0381274e-04
 -6.8261652e-05
 -1.6471937e-04
  5.1344995e-04
  2.7475221e-04
  7.7500227e-03
 -1.4370948e-05
  2.8397268e-04
 -3.7618910e-04
  1.7816652e-04
 -1.1342183e-03
 -5.0463743e-04
 -8.3245814e-06
  7.7067250e-07
 -9.0928130e-05
  1.6425979e-04
  6.3078263e-04
 -4.8701582e-05
  5.5683439e-04
  3.3382018e-04
 -5.9575113e-03
  6.1172305e-04
 -5.4152511e-05
  4.8407739e-05
  5.5878038e-05
 -4.1964295e-04
 -3.3577011e-04
 -7.5109499e-05
  1.6700177e-06
 -5.3169066e-04
  3.1779439e-04
 -8.9010195e-04
 -4.4119901e-07
 -7.6927514e-05
  9.1853006e-05
  2.1827860e-04
 -1.2430869e-04
  2.2974709e-05
  8.2854327e-05
 -6.5190405e-05
  5.2878092e-04
  4.1090290e-05
  3.6073991e-04
 -1.6693091e-04
 -1.2946872e-04
  2.1304972e-04
  1.3066607e-04
 -8.5385967e-05
  1.6028492e-04
 -1.9461503e-04
 -1.5593215e-04
 -3.1575404e-05
 -1.2291051e-04
  1.3258047e-05
 -3.7939847e-04
  2.2715406e-04
  2.4978492e-06
  1.9133027e-04
  1.0683389e-04
 -7.3895186e-05
  1.5197202e-04
  1.2186099e-03
 -1.1347975e+00
  4.0832272e-04
  1.2986983e-04
  8.9311448e-05
 -7.6559570e-04
 -1.5167245e-05
  7.2828618e-05
  4.5259818e-04
 -5.6716417e-05
 -2.1325295e-04
  4.4313287e-03
  2.3149230e-04
  3.3245222e-05
 -1.6621177e-04
 -3.6300725e-04
  1.1877140e-04
  1.5921284e-04
 -3.2781361e-04
 -2.1091398e-04
 -7.1484043e-05
  8.0133228e-05
 -5.9980248e-05
  9.3017399e-02
  1.5205626e-05
  2.5527794e-02
  6.6503316e-01
  1.4049422e-04
  2.8343304e-04
 -2.8487033e-04
  4.1092280e-04
 -7.1508053e-05
 -7.9593837e-01
 -2.2767889e-04
  2.7603825e-04
 -2.4466906e-05
  2.7385275e-04
 -8.6532287e-05
  1.9019359e-04
  2.5640160e-04
 -3.2619591e-04
  6.5970480e-02
 -5.4090859e-05
  9.7312877e-05
  1.3619599e-04
  7.2439934e-06
 -2.2608518e-04
 -8.8209163e-05
  1.7989301e-03
 -4.9151789e-05
  1.6001640e-04
 -5.5411663e-05
  9.8025672e-02
  3.0581557e-04
 -6.3445859e-02
  5.6230096e-05
 -1.3290709e-01
 -1.2568486e-04
 -5.2357436e-04
 -3.8435054e-03
  1.9511030e-04
 -2.3026291e-04
  9.4652656e-05
 -2.6179577e-04
 -7.0060931e-05
  2.2333360e-04
 -3.7243633e-04
  8.0046106e-05
  1.5678297e-05
  8.0714305e-04
 -4.6278595e-04
  1.6496817e-05
 -6.8295671e-04
 -2.1762107e-04
 -1.4460627e-03
 -3.4365512e-04
 -1.7204887e-04
 -7.8014724e-05
  3.6323137e-04
  1.4735600e-04
 -1.3910480e-04
  2.5618242e-04
 -1.7353293e-03
 -8.7553909e-04
 -5.8523082e-04
 -2.2446761e-04
  9.7807432e-03
 -5.4253796e-05
 -4.2492777e-04
  1.9747636e-04
 -5.0773520e-05
 -1.4083760e-04
 -5.0388189e-04
 -9.5252057e-05
  7.0108805e-04
 -1.1650529e-05
  1.1916986e-04
 -1.9301780e-05
  7.3069488e-05
  1.0130135e-04
  1.3789019e-06
 -9.8557675e-01
 -1.6600810e-04
  3.6326711e-04
 -2.4817308e-04
 -1.3762475e-04
 -1.3206493e-04
 -2.4090032e-05
  3.2724091e-04
 -1.1364146e-04
  5.0331892e-05
  1.2166927e-06
 -3.9565377e-05
 -1.1417904e+00
 -4.6265295e-01
 -5.3676438e-01
  7.3148561e-01
 -2.6131606e-01
  1.8184914e-04
 -2.6758653e-05
  3.3901917e-04
 -1.5376728e-04
 -1.0210383e-04
  2.9538645e-04
 -8.3497260e-05
 -9.6245283e-05
 -1.5633312e-04
  2.9065221e-05
 -3.0187255e-04
  3.9585982e-04
  1.2753608e-04
 -1.5241305e-04
 -3.2679531e-05
  5.2599971e-05
  1.3564802e-04
  4.8970775e-05
  1.3274513e-04
  1.1354988e-04
  6.5192704e-05
 -6.9816546e-05
  1.7464459e-04
  1.3554294e-04
 -1.1797409e-04
  1.4988802e-04
  9.4483388e-05
 -5.4360371e-02
 -5.5888033e-04
  1.7300207e-04
  2.1646472e-04
 -1.3982167e-04
  1.1046982e-04
  5.6534402e-02
 -1.6400265e-04
  1.1404826e-04
 -6.0258916e-04
 -6.8853801e-04
  1.7971631e-04
 -1.5655340e+00
  7.3109069e-05
 -3.2441178e-05
 -8.9287560e-04
 -6.9707930e-05
  5.1709696e-05
  1.4020690e-05
 -3.4031476e-04
 -1.0509916e-04
  4.4075001e-04
 -9.1845531e-04
 -9.7499003e-05
 -6.9225003e-05
  1.1940920e-04
  3.9836930e-04
 -8.7132421e-04
 -2.2965342e-01
 -1.5840789e-04
 -2.0061238e+00
 -4.4972723e-05
  4.6178649e-04
 -5.8814965e-04
  2.3551259e-04
 -4.4657104e-04
  5.2134495e-04
  1.4397233e-04
 -7.9024833e-04
 -4.6405158e-04
  3.6542121e-04
  1.4633394e-04
  1.5133673e-04
  1.0450055e-04
  1.8584590e-04
  3.7869648e-04
 -2.6296248e-04
 -9.5992618e-05
  1.8279355e-04
  9.8956600e-02
 -1.0049088e-04
  1.7479573e-04
 -9.7742683e-05
 -3.1496835e-04
  1.8928734e-04
 -3.1873847e-03
 -1.1549081e-04
 -4.0617291e-05
 -1.1495872e+00
  7.8776193e-01
  1.1258177e-01
 -1.6769919e-01
  8.5709848e-02
  3.2656956e-01
  2.3636088e-02
 -8.1634829e-03
  4.8349164e-02
 -6.1118562e-02
  5.7339364e-01
  2.9621940e-02
 -2.0971892e-02
 -3.4944713e-02
 -7.8736149e-02
  2.1875922e-01
  5.4161477e-01
 -1.0677336e-01
 -8.3654128e-02
 -1.8267427e-01
  4.8471704e-02
  2.5850790e-02
 -4.6181753e-03
 -1.5096251e-03
 -1.3073188e-01
  3.0915358e-05
 -3.3555017e-04
 -2.8311981e-05
  2.0229213e-03
 -2.7198732e-04
 -4.9671227e-01
 -4.8696031e-03
  5.3432579e-03
  1.5080401e-01
  5.8712147e-02
  1.8876612e-01
  6.1379559e-02
 -1.8011656e-02
 -7.8818802e-04
 -1.0269877e-02
  4.0398639e-01
  1.5436785e-01
 -1.7335694e-02
 -8.1745230e-02
 -1.6108913e-02
  2.7438819e-01
  4.8201282e-02
  8.2651451e-03
 -2.3093340e-01
 -3.8794521e-02
  1.8934247e-01
  3.4456402e-01
 -1.1540666e-02
  1.6428242e-02
 -6.5954126e-02
 -9.1640271e-05
 -1.8086686e-03
  2.5584182e-04
  4.4969207e-04
 -9.2066539e-04
 -1.8069087e-01
 -3.2098545e-04
  2.0899659e-02
  1.7309913e-02
  9.2115998e-02
 -7.8469131e-04
  8.3290048e-02
  2.9666254e-02
  9.0464606e-04
  1.7243732e-02
 -1.1469920e-01
 -6.1916806e-02
 -7.8434789e-01
  1.0539492e-04
  9.2894705e-03
 -2.2286278e-01
 -4.3621618e-02
 -7.1332399e-03
  1.1642484e-01
  3.9941013e-02
 -4.8006058e-01
 -1.1682448e-02
 -1.5423867e-02
 -2.0102177e-02
  2.7615745e-02
  1.8118380e-04
  6.2914059e-04
  4.3410717e-05
  4.5509955e-01
  7.3832291e-04
  1.4148596e-01
  8.3169835e-03
  8.6247241e-03
 -4.0411642e-03
  7.5134002e-03
 -3.7848591e-04
 -1.3891488e-02
  6.2719337e-03
  3.3028325e-04
  4.7068647e-04
 -5.0700419e-02
 -6.5584049e-02
  3.5962445e-04
  4.4616326e-03
  4.5050750e-03
 -5.2176449e-02
 -9.7603478e-02
 -8.3689654e-04
  1.0408153e-01
  4.7478760e-03
 -4.6056430e-03
 -2.5656905e-03
 -3.1495616e-02
 -2.7508094e-04
  8.9860577e-03
 -1.0924061e-04
  2.6693504e-04
  2.7277778e-04
 -2.4172046e-05
 -3.7925929e-04
  4.2750663e-01
 -7.1688521e-01
 -1.2782063e+00
  1.2167235e-01
 -4.7099647e-01
 -2.9313171e-04
  1.6326820e-03
  5.8016253e-01
  1.4364526e-03
  2.2912721e-04
  5.0365779e-05
 -4.5624081e-02
  1.0379921e-01
  4.9627699e-05
 -1.9562889e-03
 -1.0170842e-04
 -8.0191050e-05
  8.8355010e-03
  3.9126512e-04
  3.8584744e-04
 -8.2009074e-06
  3.6298123e-03
  8.5666992e-02
  1.5823913e-03
 -7.0926555e-02
 -1.8195609e-04
 -8.6323176e-05
 -2.2094187e-03
  4.8348668e-04
  4.2359297e-05
  2.6158622e-01
  1.9875277e+00
  1.1376033e-04
 -8.4599994e-02
  3.8818055e-04
 -1.2760454e-04
 -7.4440977e-05
  2.0419516e-01
 -1.6859127e-04
 -5.8536956e-05
  4.6588379e-04
  1.8319320e-04
 -8.9990455e-05
  2.8398100e-04
  1.4054081e-04
  1.3233259e-05
  1.9816158e-04
 -3.4140066e-05
 -1.7035736e-05
 -3.6291927e-04
 -8.6932309e-04
  7.5631874e-04
 -1.6851137e-04
  4.2733579e-04
 -4.7330359e-05
  1.8229315e-04
 -1.2092249e-04
  4.9246952e-04
 -9.5310024e-05
  2.7531135e-04
 -7.0265108e-01
 -1.7463787e+00
  1.5943024e-01
  1.5424447e-01
  2.5796315e-03
  2.1598187e-01
 -2.2872297e-04
 -4.8518076e-04
 -1.9794068e-04
 -2.3229117e-02
  1.4734793e-01
  3.5132631e-03
 -6.8891351e-03
  8.0204714e-05
 -1.6231593e-02
  1.0806712e-01
  3.5939690e-02
  3.5558242e-02
 -6.1722635e-04
 -3.4565866e-02
  1.9390918e-01
  1.8102018e-03
 -1.2369237e-03
 -9.1186278e-03
 -1.2254303e-01
  1.9634482e-04
 -8.1376493e-05
 -1.4651849e-04
  1.5559458e-04
  4.5436918e-06
  1.8721408e-01
  5.7544123e-02
 -1.4172928e+00
  4.8949027e-01
 -3.8419425e-04
  4.0143970e-04
  1.2494967e-02
 -8.4740780e-02
 -4.4635340e-04
 -1.0943018e-05
  1.3304661e-03
  1.6355117e-04
 -1.8878716e-01
 -2.7247384e-04
  2.0239030e-03
  7.3269235e-05
  5.8947718e-03
  1.8367902e-05
  6.8384936e-05
 -1.8074008e-02
  8.5746206e-04
  8.3338663e-02
  7.3131116e-04
  1.2929009e-04
 -4.2843856e-04
  1.9342313e-05
  1.9347166e-05
  5.8013462e-05
  1.1786471e-04
 -4.4143372e-04
  6.2712831e-03
 -8.7443426e-02
  1.6724352e+00
 -1.1712830e-02
  1.3185495e-02
 -7.2610583e-03
 -8.6058388e-03
 -1.1296078e-03
 -1.6481957e-01
  1.4073713e-02
 -2.1760331e-02
  5.7768673e-03
 -1.1657432e-02
  2.4729634e-02
  3.9934870e-02
 -1.0488062e-02
 -8.4722089e-03
 -6.6424355e-02
  1.5376590e-03
  2.4838990e-03
 -3.2506272e-04
 -3.9081771e-02
 -6.2909007e-01
 -9.8214420e-03
  2.4510654e-02
 -3.7567221e-04
  8.0759666e-05
 -8.9825036e-05
 -4.9003365e-04
  8.2272693e-04
 -5.2508168e-02
 -4.9216881e-02
  9.6338972e-02
  3.0596891e-01
 -6.7534946e-02
  1.8490234e-04
  3.6682005e-03
 -1.0990511e-03
  1.5065420e-05
 -1.5641242e-04
 -7.5730932e-05
  2.2606979e-04
  1.3960195e-04
  5.5741624e-05
  3.1369829e-05
  8.7064144e-04
  4.5290377e-04
  4.3581747e-03
 -7.7008131e-05
 -1.6454156e-02
  5.5987138e-04
 -3.2164273e-04
  4.1491832e-04
  1.7071248e-05
 -2.7989058e-04
  3.5144349e-03
  1.9483845e-03
 -2.6822879e-04
  2.1876102e-04
 -7.0689496e-04
  4.1343191e-01
  8.2967979e-01
 -2.7900073e-01
  1.0213190e-01
 -3.5962319e-01
  7.7836325e-05
 -1.0491871e-04
 -2.3108614e-05
  3.7374728e-05
  1.6795433e-04
  1.0012105e-04
 -1.1024807e-05
 -6.2032036e-06
 -1.3205672e-05
 -7.4711622e-04
 -2.9494322e-04
  1.1549558e-04
  1.2169989e-04
  9.1828770e-06
 -4.2778952e-04
  9.1834052e-05
  2.0364505e-05
  4.6868992e-04
 -1.4087747e-04
  2.7030281e-04
  2.6724438e-04
  3.4380847e-04
  5.1721967e-05
  5.6905033e-06
  8.6120759e-05
 -2.4201067e-01
 -3.5346416e-01
 -1.0186151e-01
 -2.7186645e-02
 -2.3505654e-02
 -6.6582325e-05
  9.2616104e-02
 -2.2143252e-02
 -4.2672238e-01
 -1.3470083e-03
  1.8384403e-02
  1.1484068e-01
  5.0166636e-03
  1.0391878e-05
 -1.0409558e-03
  1.1123848e-01
  4.2377990e-02
  1.6281256e-02
 -1.8812466e-02
 -5.7786685e-01
  2.2745845e-01
  2.0876374e-02
  3.7918977e-02
  1.8245408e-03
 -8.1639543e-02
  1.0179404e-04
  3.6880811e-05
  2.8475306e-05
  1.7591288e-04
  1.6904814e-04
 -1.3141737e+00
  1.9473323e-01
  3.1785074e-01
 -6.1512071e-01
 -5.0865535e-02
 -2.0661503e-04
 -2.1523140e-01
 -4.7301911e-04
  5.4201158e-05
  1.5949857e-04
  3.1555033e-01
  8.5495907e-04
  1.4054417e-03
  5.6275865e-04
 -4.2209728e-03
  2.3246130e-06
  4.7018207e-03
 -8.5579093e-05
 -4.4118501e-03
 -8.5851774e-02
  9.1192560e-05
  1.7920053e-02
  7.8864336e-02
 -4.3692711e-01
 -4.7666665e-02
 -3.1534137e-04
 -2.6777977e-04
  1.7133210e-04
  4.2596726e-05
 -1.2391701e-04
  2.8473491e-05
  4.3540078e-01
  3.6130217e-07
 -1.6633907e-04
  2.1380641e-01
 -3.1315689e-05
  2.3771641e-04
  5.6413061e-05
  2.4147392e-05
 -1.2943815e-03
 -4.3943623e-05
 -4.5469263e-01
  1.0102235e-04
 -4.2720370e-05
 -7.1698625e-05
 -1.2877914e-04
  1.3014184e-06
  6.2549145e-05
 -4.5936924e-04
  3.7138303e-05
  5.8975322e-05
  2.2691514e-04
 -1.5657414e-04
 -2.1800539e-04
 -8.5092819e-05
 -1.4569082e-04
 -2.5070680e-04
  1.3686354e-04
  2.1414175e-04
 -4.0293918e-03
 -1.0662006e+00
  1.3353776e+00
 -3.4091955e-01
 -5.2044809e-01
 -3.0458301e-01
  1.8764492e-03
 -5.5793650e-02
 -5.7020044e-04
 -3.3355065e-02
 -7.0571393e-02
  2.2259818e-03
  2.3566697e-02
 -7.1385846e-02
 -1.4828044e-02
 -2.8222144e-01
  1.2956578e-01
  1.0377859e-02
  1.1397249e-02
 -2.1624813e-02
 -6.0071267e-02
  2.0209171e-01
  2.4755028e-04
  1.6109844e-01
 -6.2321961e-02
 -5.4882977e-02
  8.5428386e-05
 -4.4576751e-05
 -1.3643331e-04
 -1.9638638e-03
  3.1744591e-03
 -4.6734876e-05
 -3.7060739e-04
  1.2283356e-04
  2.6296274e-04
  1.8319376e-04
 -2.6186046e-03
  4.6619229e-05
  1.6158633e-04
 -3.6568817e-04
  8.9289722e-05
  9.6713527e-05
 -1.6444066e-04
 -5.6549870e-06
 -4.6130659e-05
  2.0261803e-05
  7.2038689e-05
  9.2108082e-04
  1.4283414e-05
  2.4492483e-04
  4.2249296e-05
  6.4251733e-05
 -1.0070248e-02
  1.6169591e-04
  5.2887568e-05
 -4.6732691e-03
  3.2633371e-04
 -7.2615902e-04
  1.1420411e-04
 -4.6773124e-03
 -1.7348491e-04
  1.9806052e-04
 -2.2853984e-04
  3.9069983e-04
 -2.1273062e-04
 -1.8352099e-05
  8.7864471e-05
 -1.9247715e-04
 -1.6880654e-04
  2.6827308e-04
  2.4459176e-04
  1.9314022e-04
 -9.8751618e-05
 -1.4215316e-05
 -2.3319540e-04
 -1.1740812e-04
  4.2214731e-04
  3.0976182e-05
  1.6340171e-04
 -7.6243734e-05
  2.8595451e-04
 -5.3071720e-04
 -3.1813703e-04
  1.1880367e-04
  2.4540903e-04
  6.5933750e-04
 -3.2213247e-06
  2.3141597e-06
  4.1097395e-05
  7.2490191e-05
 -8.8272405e-05
  6.8510461e-01
 -1.2742657e-04
  8.9201635e-01
 -1.2276035e-04
 -2.4701952e-05
 -3.3172513e-05
 -1.8407407e-04
 -1.8240647e+00
  4.9163966e-04
  3.1401904e-03
 -1.8549759e-05
 -2.4213139e-06
 -1.1451893e-04
  3.3289733e-04
  2.0791947e-04
  7.0654193e-04
 -8.4010448e-04
 -8.3299783e-05
  9.9122073e-05
  3.7880064e-04
 -2.4482555e-04
  3.6156204e-04
  1.0124442e-04
 -2.0075834e-04
  4.8408096e-05
 -7.9696369e-04
  5.0351268e-04
  1.9416213e-04
  1.1013333e-04
  3.9540531e-04
  2.8145605e-01
  1.3719851e-04
  2.5486870e-04
 -7.4563634e-01
 -8.9455074e-01
 -1.3005307e-02
  1.0522732e-04
 -3.3398432e-04
 -4.4715591e-02
 -1.1752518e-04
 -2.9714001e-04
 -2.8564062e-04
 -4.5459761e-05
  1.1148388e-04
  2.0439113e-06
 -6.5983182e-01
  1.6744423e-04
  3.5968609e-04
  1.1555629e-04
 -2.6805577e-04
  6.0805585e-05
  1.1856290e-04
 -3.4944012e-05
 -2.4053904e-04
 -2.6015166e-04
  2.0847275e-04
 -1.6161503e-04
 -3.5991755e-04
 -1.8540061e-04
 -1.9282279e-04
  4.5624650e-01
  2.0697917e-01
 -3.0059809e-02
  2.4577783e-02
 -1.7501277e+00
 -2.3473750e-01
 -2.9176652e-01
 -4.8114058e-02
 -7.2954613e-01
  3.8084880e-01
 -4.4030061e-01
 -6.0262475e-02
  1.1701460e-01
 -9.9685103e-01
  1.7316516e-02
 -3.6920416e-01
  5.0857830e-01
 -2.2740291e-02
 -4.4340193e-01
  4.6304002e-02
 -2.1749900e-01
  3.1568098e-01
  1.5578280e-01
  4.6467668e-01
  3.2478201e-01
 -2.9032248e-05
  2.1762621e-04
  2.2166215e-04
 -3.2997262e-04
  1.2356845e-03
 -2.8588966e-01
 -7.4673118e-03
  1.3192311e-01
  1.7940821e-02
 -2.2960234e-01
  7.7252761e-03
  3.7306473e-01
 -1.5036135e-02
 -2.9236780e-04
 -2.7496895e-02
  2.1845396e-01
  2.4441842e-02
  3.0536789e-01
  1.4199107e-04
  3.9403111e-04
  1.7868929e-01
 -1.1081243e-02
  4.1970490e-03
 -1.2435055e-01
 -4.4775765e-02
  3.5425113e-03
  2.1298300e-02
  2.7786583e-02
  1.6548561e-03
 -1.0928544e-01
  6.7343310e-05
 -5.1554998e-05
  9.1426213e-05
  5.9338065e-04
 -1.0459610e-03
 -1.3580728e+00
 -1.0203058e+00
  7.6883239e-01
  4.6955403e-03
 -4.4082567e-01
  5.5672340e-02
  1.7601180e-01
 -1.4132520e-02
  1.7101715e-04
  8.0893533e-03
  1.0725687e-01
  6.5143346e-03
 -4.4062052e-02
  8.9612695e-05
 -1.5660849e-03
  4.5260009e-01
  5.2906957e-02
  3.9289996e-02
 -5.3884078e-02
 -3.8486082e-02
  1.5915568e-01
 -1.0162661e-01
 -1.7353935e-02
  1.4399891e-02
 -1.8846670e-02
 -2.4908845e-04
 -9.9047634e-04
  7.4797186e-05
  1.3021035e-03
  5.4942799e-04
 -2.3672278e-03
 -2.8417422e-05
  6.1027653e-04
  1.8707180e-04
  2.8041899e-04
  8.2785227e-05
  2.1545461e-04
  4.2437407e-04
  5.5069504e-05
  1.0197832e-05
  2.4375223e-04
 -1.2105025e-04
  1.8391253e-05
 -1.4475496e-04
  3.5918343e-05
 -3.1091922e-04
  1.4722503e-04
 -2.3482105e-05
 -9.2520611e-05
 -1.5792715e-04
  1.2226799e-04
 -1.3353230e-04
  9.9111654e-05
  7.3280925e-01
 -1.8853310e-04
 -2.0756251e-04
 -6.1335806e-05
  4.1795595e-04
  4.8365723e-04
 -3.9961610e-06
 -7.3669094e-04
 -2.1982409e-02
  9.6856833e-02
 -1.6922958e-01
 -5.2361134e-02
  2.7736212e-04
  5.3853419e-04
 -3.2783470e-03
  1.0959135e-04
 -3.2307580e-04
  1.5133777e-05
  5.7780300e-04
 -1.5242897e-04
 -2.0637410e-04
  1.1537678e-04
  9.4848411e-04
  7.7966717e-04
 -3.5080159e-04
 -2.2461101e-04
 -4.4986729e-02
  1.7868046e-04
  2.6889474e-03
  8.0213726e-02
 -4.5608402e-05
 -8.9825969e-03
  1.1534680e-04
  2.7271211e-01
  6.5958673e-05
 -1.6840763e-04
 -6.4788692e-05
 -2.1917503e-03
 -9.3834162e-02
  3.0867459e-02
  1.8562271e-01
 -4.0437352e-02
 -5.0080783e-04
  5.9439504e-04
 -2.6534908e-04
  5.9382309e-04
 -1.1621983e-03
  5.9947668e-04
  3.1109358e-04
  1.5333178e-04
 -3.6907986e-05
 -1.6319519e-03
  1.9052035e-05
 -2.7333811e-04
  1.0731810e-02
 -1.0914453e-02
 -5.8468897e-02
  5.2818537e-02
  2.4187327e-03
  1.4520798e-02
  4.0391428e-04
 -5.3527538e-04
 -1.5125783e-04
 -6.5341103e-04
  1.0319537e-04
  2.9019518e-05
 -5.4647634e-04
 -2.1911303e-04
 -3.9816034e-05
  2.2730581e-04
 -1.3635658e-04
 -4.0219288e-04
  4.5920598e-05
 -3.4738818e-04
  2.8892882e-05
  3.1515072e-05
 -7.0859664e-05
 -5.2311062e-04
 -8.8450492e-05
 -5.3704502e-05
 -1.2879824e-04
 -2.8189697e-04
  2.4017706e-04
 -7.9961537e-05
  3.1477906e-05
  8.1279094e-04
  1.8151228e-04
  1.8912997e-05
  1.0481604e-04
  9.8684836e-07
 -1.3218894e-04
  3.4664776e-05
  1.8813695e-04
 -1.2772677e-04
  3.9506052e-04
 -3.7420914e-04
  1.7381354e-03
 -5.0748944e-01
 -1.4238101e-01
  7.4935400e-01
 -3.8623193e-01
 -6.6425556e-01
  1.0644413e+00
  1.1634436e-01
 -5.5975933e-02
 -1.0132405e+00
  2.1296279e-01
  3.6930102e-01
  3.8240361e-01
 -2.9702479e-01
 -3.0546227e-01
 -3.3924356e-02
  5.5298269e-01
  4.7886983e-01
  5.4284730e-03
 -2.1757570e-01
  1.4300075e-01
  3.3150581e-01
  4.5765620e-01
 -3.3640418e-02
  7.7291749e-02
 -7.2134726e-02
 -3.6984278e-04
 -1.7282614e-02
 -1.5120443e-03
  4.4582255e-02
 -7.3580511e-02
 -4.3858381e-04
  4.4000320e-04
  1.5912923e-01
 -2.2050997e-04
  3.7791100e-01
  2.6576957e-04
  7.7927718e-05
 -6.6466419e-05
  2.5849836e-04
 -4.3374862e-04
 -8.0567712e-05
  1.0494020e-04
 -4.2903877e-04
 -2.2964914e-06
  2.3626288e-05
  8.6970476e-04
  6.2095947e-05
  1.8690851e-05
 -7.6131902e-05
  8.4816667e-05
 -1.9583834e-04
 -2.4525711e-04
  6.4053704e-05
 -7.7143617e-05
 -5.0827988e-05
 -1.1202626e-05
 -1.1454430e-04
  1.1028795e-04
  4.5936216e-05
 -5.4750749e-04
  5.1649742e+00
  2.3949957e-01
 -2.8491795e-01
  3.9846182e-01
  1.9587769e-01
  8.6190797e-05
  2.2041408e-05
  1.3485824e-01
  1.0942917e+00
  5.4706413e-01
 -2.7826946e-04
  1.3354536e-02
  1.5144795e-01
  1.5807679e+00
  1.1677300e-02
 -3.1140441e-01
 -2.4739045e-01
  2.0836207e-01
  5.7636482e-01
  9.7740002e-02
 -1.8511441e-02
 -6.2628722e-01
  6.6559404e-01
  2.3803584e-01
 -2.3558366e-01
  1.3929658e-04
  4.8568097e-04
  1.9324092e-04
 -3.3660579e-04
  4.2770090e-04
 -2.2126637e-04
 -1.7455955e-04
 -1.3666949e-04
 -1.3978337e-04
  1.3032404e-04
  7.4680857e-03
  2.5451844e-05
 -5.7087401e-03
  1.2828635e-04
  8.3158877e-05
 -2.5749419e-04
  1.0871097e-04
 -1.5695470e-04
  6.9299749e-05
  3.0767213e-04
  6.0735281e-05
 -1.4851041e-05
 -7.6095501e-05
 -3.3397126e-04
  6.8688176e-05
  7.7492681e-05
 -2.1046939e-05
  8.5246451e-05
  3.4476371e-04
 -3.6474978e-04
 -1.0185991e-04
 -3.1189542e-05
  1.6533167e-04
  2.0926514e-04
  3.3539841e-01
  3.3244214e-05
  8.6221960e-05
  3.2540403e-02
 -1.0191587e-04
  1.5879999e-01
 -2.4986471e-04
 -9.9763868e-04
  1.3920842e-04
 -6.1016275e-05
 -1.6428376e-05
 -1.0767546e-05
  1.0344312e-03
 -1.0222957e-05
  1.1756951e-03
 -1.2104325e-04
 -4.5948338e-05
 -1.3627192e-04
  6.3610802e-05
  6.5854401e-05
  2.5466573e-04
 -4.9453211e-04
  3.4031059e-04
 -1.0529778e-04
  6.7567485e-03
 -2.3229361e-04
 -1.6943741e-04
 -2.8756334e-04
  6.5360230e-04
  8.7645676e-05
 -8.6504602e-05
  1.1123416e-04
  2.1842895e-02
 -1.4986858e+00
 -2.4077905e-04
  5.5550458e-04
 -9.4805211e-05
 -1.0277688e-04
  9.3141840e-05
 -3.2372941e-04
  3.1043266e-04
 -1.3054747e-04
 -4.2331128e-05
 -8.4965891e-04
  2.0359049e-04
  4.3201405e-07
 -3.4473851e-05
 -2.6974178e-04
  1.0955957e-04
 -1.4907253e-04
  5.9674531e-03
 -2.4886840e-04
 -1.3078694e-03
 -2.7828407e-04
  1.9639057e-04
  4.6046195e-04
 -1.1401086e-04
  7.9390733e-03
  4.7181029e-04
 -6.2676740e-04
  6.0203345e-04
 -1.1470569e-01
  3.4912683e-02
  7.1708392e-03
 -1.2906495e-02
 -1.4432515e-02
  2.2187680e-01
  6.1233753e-01
 -1.1764885e-02
 -4.7647231e-03
 -1.7140922e-03
  1.8988927e-01
  8.1136050e-03
 -4.9355333e-03
  8.9856063e-04
 -3.3441728e-03
  6.4319092e-01
  5.3471211e-02
  1.1707543e-03
 -2.1017917e-01
 -3.3425607e-02
  1.0941449e+00
 -1.9662859e-02
  2.3551371e-02
 -1.0107964e-01
 -7.2129205e-02
  4.2120653e-05
  5.0332113e-05
  2.6481510e-05
  4.6481125e-02
 -1.2019556e-03
  1.8871826e-01
 -7.5040573e-01
 -3.1113142e-01
 -1.4091277e-04
 -2.2231251e-01
  9.1325611e-02
 -1.3452297e-04
  9.7716642e-05
 -6.8206995e-05
  5.3814147e-05
 -6.7526060e-05
  1.2006252e-03
  3.9241582e-04
  3.2062910e-04
 -8.9633249e-06
  1.2676435e-04
  2.0779570e-04
 -1.9354239e-03
  1.2443715e-03
 -2.1208802e-05
 -2.7289521e-04
 -9.4891431e-05
 -1.1123016e-02
 -7.0599410e-05
 -1.0020995e-04
 -1.0652485e-04
  1.6421158e-05
  3.7160371e-05
 -2.2972426e-04
 -3.8268576e-05
  1.1966437e-02
  4.4320434e-02
  6.5743020e-03
  1.3077153e-04
  2.2611974e-02
  1.5857067e-03
 -6.7837456e-05
  8.3012329e-03
  1.5707330e-01
  4.4639696e-06
 -7.7078911e-04
  2.2353127e-04
  5.0026545e-04
  4.8067910e-04
  4.9052145e-03
  4.8998708e-04
  7.0910115e-05
 -9.2674112e-03
  3.7390843e-04
  2.4352928e-04
 -4.2707559e-01
 -3.4894057e-02
 -5.8644049e-02
 -1.0840277e-03
 -1.6266029e-04
  6.3491963e-05
 -3.8271717e-04
  7.3907286e-05
 -6.4978813e-05
 -2.7175551e-05
 -1.0942746e+00
 -9.5330817e-01
 -4.5759231e-01
 -1.0537114e-01
  1.4277133e-01
 -1.1920315e-04
 -4.1712129e-01
  1.1108320e-02
 -4.8338462e-02
  7.1923477e-03
  9.6286582e-05
 -1.6494507e-04
 -7.2000705e-02
  3.5929917e-03
  1.9827340e-02
 -2.8825945e-03
 -1.5902349e-01
 -8.5327830e-03
  6.0251881e-03
  7.6149233e-02
 -1.8285480e-01
 -3.4630653e-02
 -2.1009579e-02
 -2.2679530e-03
  6.9178257e-04
 -8.1607861e-05
  3.6862155e-04
  2.7682114e-04
 -3.9017436e-04
  4.0476680e-05
 -2.2184569e-03
 -1.7787729e-04
  1.5789541e-04
  1.6419403e-05
  3.5560550e-04
  2.6139733e-04
  3.1910764e-04
  7.2043971e-05
 -4.8542484e-03
  6.9426320e-04
  1.8348674e-04
  1.3356608e-04
 -2.6655430e-04
 -1.0065767e-04
 -2.7058058e-04
 -9.2338210e-05
  3.8099792e-04
 -2.3510907e-04
  1.0963618e-04
 -4.9607246e-04
  4.2303215e-04
  3.0345208e-04
  7.9632585e-04
  1.7626449e-05
 -3.5104001e-04
 -1.6259963e-03
  6.2042855e-05
  4.3705280e-04
  2.3868323e-04
 -9.3672970e-05
 -9.0783440e-02
 -3.2553703e-01
  4.0517917e-01
 -1.3343725e+00
  8.3069623e-01
  2.3812745e-05
  4.2052404e-04
  3.6116614e-04
  1.0115170e-02
  5.7869987e-04
 -3.5154363e-04
  2.2172627e-04
 -2.3201077e-04
 -9.9469638e-05
  3.1059349e-04
 -2.1491183e-05
 -1.9788688e-04
  1.3723949e-04
  6.5140444e-04
 -2.6875148e-05
  5.7600664e-05
 -1.9355347e-04
  1.4645186e-05
 -3.7635979e-04
  6.7144906e-06
  1.2832029e-04
 -2.2780306e-04
  7.8427336e-05
 -2.9651707e-04
  4.3923617e-04
  1.0209702e-02
 -5.0278932e-01
 -1.1310662e+00
 -4.8078111e-01
  1.1666090e+00
  2.1139243e-05
 -1.3162926e-03
 -1.0553586e-01
 -8.8221982e-02
  5.1369902e-02
  6.1226857e-04
 -6.3791865e-04
 -2.8879322e-02
 -4.5539156e-05
  1.8328010e-01
 -2.9609528e-01
 -2.7484623e-01
 -1.1701534e-01
  5.7680887e-04
 -4.3016436e-04
  1.3965822e-04
 -3.3664913e-03
 -1.0083671e-02
 -5.3138901e-03
  2.6546826e-04
 -2.9399354e-04
 -5.5699693e-06
  2.4989346e-04
  2.1712540e-03
  1.0640125e-04
 -1.2566879e+00
  2.0606917e-01
 -3.9840180e-01
  4.3249789e-01
  1.0522994e+00
 -1.4514662e-01
 -1.7000583e-04
 -6.5479740e-06
 -1.1174355e-04
 -3.5792365e-04
 -2.2562444e-05
 -2.8249311e-05
 -2.4279039e-05
 -6.4925815e-05
 -2.5231056e-04
 -1.5570749e-04
  1.7898399e-02
  7.5785792e-05
  2.2102206e-04
  3.7540649e-06
  4.7570872e-03
 -5.0960727e-05
 -1.5784842e-01
  7.1950071e-04
 -1.4965482e-04
 -9.4016570e-05
 -6.5434964e-05
 -4.1745228e-05
  5.1981313e-03
 -4.9754156e-04
  5.2952240e-05
 -3.9248212e-04
  3.5673566e-04
  2.2154381e-05
 -5.0838786e-05
 -9.0536301e-04
 -2.7698019e-04
  1.7194709e-04
  1.8068057e-01
  7.4691395e-04
 -7.3932894e-02
  1.0961813e-03
 -2.3034218e-01
 -9.9028453e-05
  5.0070328e-01
 -7.6205819e-05
 -4.6854019e-02
 -3.9926878e-01
  9.4416896e-03
  1.8951048e-05
 -1.8982956e-04
 -7.3256544e-03
 -5.5164862e-01
 -8.1659263e-01
  7.5723030e-02
  4.2494939e-05
  3.5909194e-05
 -3.4694499e-06
  2.7959667e-02
  6.5687569e-03
 -8.4313778e-03
 -1.8880029e-01
 -1.4047610e-04
 -8.6678879e-04
 -1.9771523e-04
 -6.4032240e-05
 -1.2261380e-01
  8.7430351e-05
  9.6269056e-02
 -5.9420119e-05
  5.0897623e-04
  1.0200997e-01
 -2.6891686e-04
 -1.8835122e-02
  1.2284910e-04
  1.6954426e-01
  7.0544556e-05
 -1.1027510e-01
 -5.0248425e-03
  1.3194892e-01
  3.2508947e-02
 -1.5205835e-02
 -1.9332736e-04
  4.1857737e-04
  6.8448044e-02
 -9.7716067e-05
  2.8035617e-03
 -2.8362526e-02
  3.0705519e-02
 -5.8694314e-02
  1.7408403e+00
  1.5533758e+00
 -1.0709416e+00
 -3.6050031e-01
  3.7626508e-01
 -2.9435346e-02
  7.2737467e-01
  2.7552456e-01
 -1.0460527e+00
  3.0687535e-01
  7.1759559e-02
  8.2359791e-01
  4.9818441e-01
  7.5169927e-03
  7.6771951e-01
  1.2070316e-04
 -3.0893477e-02
 -1.9535408e-03
  2.2568952e-02
 -1.5294563e+00
  9.6523482e-01
  1.4670919e+00
 -7.6783955e-02
  3.4830624e-01
  3.3438048e-01
 -2.7142133e-04
  2.7880998e+00
  6.9065519e-02
 -1.0981832e+00
  2.5574616e-05
 -6.1725681e-03
 -1.6317175e-01
  1.4373779e+00
 -6.6463925e-02
 -2.7110761e-01
 -7.8500962e-01
  2.9283966e-04
 -1.1265605e-01
 -2.7062586e-01
  1.8606815e-01
 -3.5187546e-05
  2.8015190e-04
 -3.6293911e-04
  1.7926053e-04
 -2.0317615e-04
 -3.4807574e-03
 -1.2000291e-04
 -4.3938172e-04
 -1.4969567e-04
  3.9242228e-04
  5.2851834e-04
  1.8866087e-04
 -1.2659709e-03
 -4.3499435e-04
  1.6307794e-04
 -3.2354676e-04
  4.3001049e-04
  5.8121798e-03
  2.9010794e-04
  9.7250165e-03
 -1.1873250e-04
 -3.5681683e-04
  3.1793148e-05
 -5.7968060e-05
 -7.3018971e-05
 -1.7876101e-04
 -5.3213727e-05
  1.0447136e-04
  2.9925347e-04
 -6.4376288e-04
  1.1800663e-04
 -6.0973485e-04
  1.5734404e-04
 -2.3716255e-04
  9.2849959e-06
 -3.1533052e-04
 -8.3399049e-05
 -2.6029579e-03
  2.5881559e-04
 -1.2543617e-04
 -5.7675414e-05
  3.8705353e-04
  2.3459970e-05
 -5.2528508e-04
 -2.1669613e-05
  5.4255669e-04
  6.7086599e-05
  1.9054269e-04
  4.2879925e-05
  8.3726358e-05
  2.9878067e-05
 -3.2874974e-04
 -2.0761431e-04
 -1.6767545e-04
 -7.5374257e-05
  3.8259632e-06
  3.7773847e-04
 -2.6151584e-04
 -1.3367812e-05
 -2.9533499e-04
  1.7411419e-04
  2.4529087e-04
 -1.4035290e-05
 -2.0272799e-03
 -4.6271936e-05
  3.1957377e-04
  2.0814048e-05
 -7.8191682e-05
 -9.3072036e-04
 -2.5140709e-04
  5.3711131e-04
  5.1073072e-04
  8.4954117e-06
 -3.2378655e-04
 -1.1252172e-04
  2.8196124e-05
  3.9683012e-04
  1.6059501e-05
 -1.8746946e-04
 -2.1947654e-04
 -5.4520166e-05
  3.0091200e-05
 -5.6059298e-04
  3.2192296e-01
  3.5957352e-04
  6.3425346e-06
  2.1065514e-04
 -6.9209229e-05
 -8.0879145e-05
 -5.7115976e-04
  1.8981056e-05
 -1.1994895e-02
 -3.2566637e-02
  6.6360287e-02
 -1.5143544e-04
  1.8016515e-02
 -2.1351424e-01
  6.5750666e-02
  7.9571956e-01
 -3.0507868e-02
 -3.8044143e-02
 -5.7566632e-02
  2.2274716e-02
  8.7947873e-03
 -1.2482818e-02
 -1.0491489e-02
  5.7527656e-04
  1.4630271e-02
 -7.6123240e-04
 -5.2497159e-03
  1.9479048e-01
  1.1375517e-01
 -5.7725253e-04
 -1.0585666e-03
 -1.2595532e-02
  7.8065212e-05
 -2.2342461e-04
 -8.6455206e-05
  3.8077415e-04
  4.9994735e-04
  6.2546291e-04
 -5.1549199e-05
 -5.8710395e-04
  2.0043640e-06
 -1.8796670e-04
  1.6735276e-04
  1.2757102e-04
 -1.8483623e-04
  2.3800925e-04
 -7.0471666e-05
 -1.6200207e-05
  2.1912821e-03
 -2.5208396e-05
 -2.2355778e-04
  5.3453226e-05
 -1.2263699e-04
  2.4531550e-05
 -6.2062533e-04
 -2.8027804e-04
 -8.5315341e-04
 -3.4960389e-01
 -1.2664829e+00
  9.2932125e-05
 -6.9926840e-01
 -1.1551168e+00
  1.2257138e-04
 -5.6951636e-01
  2.4734469e-04
  2.3443680e-03
  7.9438898e-05
  3.6933934e-04
  1.7188589e-05
 -4.9192367e-05
  1.2821575e-04
 -1.0093141e-04
 -5.5209734e-04
  5.6251865e-05
 -3.7636593e-02
  1.4473198e-05
  1.5547297e-04
  2.7795965e-04
 -3.8558184e-05
  2.4590930e-05
 -1.4007223e-05
  1.0013918e-04
 -1.2190329e-03
  1.1670862e-05
 -2.1392254e-04
  1.1351995e-05
  3.1777762e-04
 -2.0046730e-04
  3.5071198e-04
  1.5397595e-03
  3.6334893e-04
 -2.7496080e-04
 -2.4868019e-05
  5.1544304e-04
  1.2182929e-04
  2.7900172e-04
  5.3826260e-04
 -2.0031941e-04
 -1.3360738e-04
 -3.7223595e-04
 -1.3959463e-04
 -6.8264722e-04
 -1.8458899e-04
 -5.5100251e-04
  4.4612214e-04
 -4.2417346e-04
  1.6227128e-05
  8.6947584e-05
  1.0253941e+00
  2.7832068e-05
  1.3114398e-04
  8.6965018e-05
  1.8393795e-04
 -1.3047458e-04
 -2.6516189e-04
 -2.2757667e-04
 -2.5993012e-04
  2.8476350e-05
 -8.5374594e-01
 -3.4754277e-05
 -5.4625672e-01
 -9.4325978e-01
  1.3862716e-04
 -2.5093278e-01
  4.5641360e-04
 -2.9487163e-01
  1.6231235e-04
  1.1032836e-04
  3.5716614e-01
 -4.5125309e-01
 -9.2975789e-01
  3.9882201e-04
  6.1343800e-02
  2.3539548e-01
 -1.2944226e+00
 -1.3311085e-01
  1.7614426e-01
  1.9416587e-02
  4.4150215e-01
 -1.0660779e-01
 -3.0980203e-01
  7.2664239e-02
 -3.8628273e-03
 -7.0657799e-05
 -1.6977145e-04
  1.6069457e-01
  1.1423013e-04
  7.3377945e-05
 -2.5854441e-05
 -3.2198898e-04
 -4.1946466e-04
  1.8965994e-04
 -1.1195776e-03
 -2.0186126e-04
 -1.2876021e-04
 -1.0238966e-03
 -1.2141280e-04
 -2.3153705e-04
  2.8826186e-04
 -3.5275800e-05
 -3.1194595e-05
  1.2361752e-04
 -9.5559379e-05
  1.1710924e+00
 -3.5861325e-05
 -3.4460844e-04
  1.5384315e-04
  1.4577499e-05
  6.8570173e-04
 -1.3478284e-04
  3.1694814e-04
  4.9076148e-04
 -2.8195302e-04
  3.4272659e-04
  1.1440685e-04
  2.6901963e-04
  1.7308803e-05
  2.8692528e-05
  1.3269472e-04
 -2.2092160e-04
  3.9575356e-05
  1.9100996e-03
  7.1050650e-05
  3.2332658e-03
 -3.5634590e-04
 -3.9187845e-04
  2.8672495e-05
 -9.9287985e-04
  8.2889631e-02
  2.5491833e-03
  5.0324120e-02
  2.6150486e-02
 -5.5608295e-02
  1.7220654e-01
 -1.6849127e-01
 -1.4891580e-01
  1.3186884e-01
  7.7288345e-02
  4.8342872e-02
 -1.1146497e-02
 -2.1088358e-02
 -3.0230289e-02
  1.5573780e-02
 -1.6939323e-02
 -2.7855888e-02
 -1.6674486e-03
  2.9351605e-02
 -7.6019633e-01
 -1.9425299e-02
 -5.7717812e-01
 -7.3436439e-02
  1.0498940e+00
  1.1907711e-04
  2.6538926e-01
  4.6159229e-03
 -9.6479635e-04
 -1.7867770e-04
  6.1010927e-05
  6.0860883e-04
 -1.4024613e-04
 -1.7429392e-04
 -2.0465109e-04
  6.9702408e-05
 -3.5606360e-04
  5.3806830e-04
  2.1759279e-04
  4.5986671e-06
  3.3169086e-03
  2.0371337e-04
 -6.3340174e-04
 -2.0239085e-04
  9.7063174e-05
 -6.1750989e-03
  1.6759454e-04
 -2.4242396e-04
  3.7804821e-05
 -7.5755197e-05
 -6.0318998e-04
 -2.7279502e-03
  9.3842164e-04
  5.9971575e-05
  3.4091153e-04
 -1.5047009e-04
 -1.8097047e-04
 -4.4929647e-04
 -6.9017151e-05
 -1.1356757e-04
  2.5591455e-04
 -8.7769113e-02
 -7.4077217e-04
 -4.9211450e-02
 -9.9883124e-05
  2.9636074e-05
  3.8836224e-04
  3.2132743e-03
  8.9990215e-05
  1.1523514e-04
 -6.7688030e-04
 -5.6884252e-04
 -6.1735307e-05
  8.7043160e-04
 -7.6511764e-04
  2.7261638e-05
 -2.6980360e-04
  6.2437517e-05
 -7.6865661e-05
 -1.2153098e-04
  2.0822494e-04
 -7.0329708e-01
 -4.3310374e-05
  2.1929981e-02
 -1.8531156e-05
  1.3144693e-04
 -6.9325144e-04
  9.4312476e-05
  1.6739970e-04
 -1.3670174e-04
  4.5329886e-03
  6.9640554e-02
  4.3347899e-02
 -2.8598760e-03
  3.6932494e-02
  5.1316776e-05
  2.1181117e-04
 -1.3260588e-01
 -9.4201311e-02
  5.6388304e-02
  2.5418926e-02
  9.2421810e-04
 -5.0207905e-02
 -2.2882768e-03
  1.4645170e-02
  3.6188404e-03
 -3.7817917e-05
 -1.1795337e-01
 -7.5934659e-04
  2.4492517e-03
 -2.7561080e-04
 -1.3521785e-03
 -6.1579896e-03
  1.3570716e-04
 -2.2934326e-04
  2.8694858e-04
  6.7611202e-04
  3.6758030e-04
 -2.0650732e-05
  2.0243421e-03
  2.2187227e-04
 -4.9554545e-04
  2.9354400e-05
  7.4849423e-04
  1.6053146e-04
  5.4840919e-05
  1.2436394e-04
  8.5264866e-05
  6.3228264e-04
 -3.3060580e-05
 -1.5001458e-03
 -6.6973950e-04
  4.7289865e-04
 -1.7276321e-05
  3.1902213e-04
 -1.6512346e-04
 -3.6753906e-04
  2.1941971e-04
 -4.7684302e-05
 -2.0787101e-04
  4.0138458e-04
  2.3199823e-04
  4.3455228e-05
  2.8830667e-05
 -2.3279204e-04
 -8.2743063e-06
  3.3731296e-04
 -6.4010921e-05
 -2.2206047e-04
 -1.3530806e-04
  2.8670447e-05
 -3.7537087e-05
 -3.6005198e-04
  4.5151677e-04
 -4.1196672e-05
  3.2378037e-05
 -2.6464829e-04
  1.1537549e-03
 -2.0020382e-04
  1.1202369e-04
  2.2916702e-05
  7.7262797e-05
  5.3455046e-06
  3.6292305e-04
  1.7814818e-04
  2.5346282e-05
  1.4270014e-02
  6.8692252e-04
  4.0954210e-06
 -1.6141760e-04
  1.1478896e-04
 -9.3103343e-05
 -2.0379898e-04
  7.7681849e-05
 -4.7434642e-05
 -8.6597039e-04
  1.6409441e-04
 -4.7250150e-04
 -8.7387278e-05
  9.1844202e-05
 -2.3422795e-04
 -4.7743368e-05
  1.6730628e-04
 -1.5622890e-03
  8.4640557e-04
 -1.3299074e-04
 -8.5589836e-06
  3.4318953e-05
  3.3009688e-05
 -4.4026831e-04
  3.1786889e-04
  3.9740980e-02
 -3.7587239e-04
  8.8685112e-05
 -1.9481560e-04
 -1.9989308e-04
  3.0739759e-06
 -2.4706902e-04
  2.6133272e-04
  1.2374062e-02
  3.5940006e-02
 -2.6275538e-05
  7.2842205e-01
 -7.7504185e-03
 -4.8033972e-04
  2.5676527e-05
  9.4690608e-05
 -2.5760423e-04
  7.2199391e-04
 -1.6587872e-05
  2.7325490e-01
  7.9555675e-02
 -3.2040697e-02
 -1.2468158e-01
 -1.4272917e-03
 -6.9295210e-03
 -1.2352449e-01
  1.7302379e-01
  1.9631319e-01
 -1.0434537e-01
 -5.9582982e-03
  7.9878084e-02
  9.3895145e-02
  1.1233362e-01
 -2.3900013e-02
  5.6155040e-03
  1.6130552e-01
  1.2382887e-01
  5.0224338e-02
  1.0255721e-02
  4.7810581e-01
 -1.7669091e+00
  6.0577411e-02
 -1.4990683e+00
 -1.8894461e+00
  4.6946395e-02
 -1.4081816e-01
 -8.9492146e-03
 -1.6443543e-02
 -7.8994126e-05
 -3.4486573e-05
  2.3114272e-04
  2.4745121e-04
  1.2167773e-02
 -3.6207806e-05
 -4.7667406e-04
 -5.9909733e-05
 -1.3330512e-03
 -2.9573632e-05
  4.8012720e-05
  3.9023063e-05
  3.4590545e-01
 -7.4544066e-04
  1.2780225e-04
  5.3986796e-04
  3.5994730e-04
 -8.5000444e-05
 -8.6631649e-04
 -2.3397515e-04
 -1.7515814e-04
 -3.7322620e-01
 -1.1317320e+00
  1.1583849e+00
 -1.3440763e-05
  3.6271599e-01
 -1.3048385e+00
  2.8453884e-05
  1.0933807e-04
 -2.4526380e-01
  3.3661304e-04
 -5.1128060e-01
 -2.2738847e-01
 -3.7903301e-04
  6.6046965e-01
  8.8662398e-01
 -6.6575136e-05
  7.9915691e-05
  6.1375618e-02
 -1.0533140e-04
  1.5718228e-04
  3.3760726e-01
 -8.3084815e-06
 -4.9517426e-04
 -2.0662858e-01
 -3.1273041e-04
 -4.7086377e-04
  6.8372901e-05
 -5.5541655e-05
 -3.6769453e-04
 -8.1208404e-05
 -1.2163952e-01
  4.8378058e-04
  8.3237726e-05
  5.3192329e-01
 -1.1026407e-04
 -3.4740169e-05
  2.7168176e-01
  3.1742931e-04
  1.4718806e-05
 -1.5103152e-04
  9.7775497e-05
  3.6303375e-06
 -2.0350252e-04
 -2.9257320e-05
 -2.3347541e-04
  3.4435219e-04
  1.1625388e-04
 -2.6247199e-04
 -3.1015105e-04
 -5.8344431e-05
  2.7089626e-01
 -2.0099539e-04
  3.5058483e-02
  3.5253412e-04
  2.9965700e-05
 -7.1772902e-06
 -2.5754996e-05
 -4.5385459e-05
  4.6493544e-04
 -6.4840447e-04
 -4.2590582e-01
  1.0265099e-04
  7.8195248e-05
  4.2349881e-01
 -1.5937597e-04
 -6.2777876e-04
  2.8217917e-02
 -2.2962956e-04
  1.1498883e-04
 -1.9963224e-04
 -1.1398979e-04
  4.6434146e-04
  1.0072486e-04
 -4.8816797e-05
  3.6660571e-05
  1.2776259e-04
  4.4940467e-04
  7.3338590e-05
  2.9724134e-07
  1.8945109e-05
  1.1836662e-05
  3.3339870e-04
  1.6020439e-04
  1.1868162e-04
  1.7299523e-04
 -3.4445952e-04
  8.9994333e-05
  1.2193595e-05
 -1.4609245e-04
  1.4019513e-04
  2.3675031e-05
  3.5444321e-04
 -3.6410900e-06
 -1.0319374e-02
  5.2000105e-01
  7.8119561e-03
 -2.3958182e-05
 -7.7543635e-05
  1.1281869e-04
  9.5392497e-05
  5.2283559e-04
  4.8111450e-02
  1.3597163e-02
  1.3500008e-02
  3.9055932e-02
 -8.0240294e-02
  1.4752759e-01
 -6.0345266e-02
 -1.4618050e-01
  6.3305415e-02
  4.8074227e-02
  1.6896310e-01
 -1.6107306e-02
 -3.6000598e-02
 -1.2473786e-02
  1.6784372e-02
 -2.7032518e-01
 -1.5657610e-01
 -7.2237693e-02
 -5.1982872e-02
 -5.4180700e-02
 -1.1796853e-01
  1.8496609e-01
  8.5363835e-02
 -6.9860411e-03
 -2.2004165e-02
  9.4330132e-01
  3.3754713e-03
 -7.2706392e-04
  1.3631192e-01
  2.3910319e-04
 -1.3704128e-04
 -6.6517282e-04
  3.8805191e-04
 -1.1681060e-04
  2.0651640e-04
 -2.3819818e-07
  1.7898153e-04
 -9.5536656e-05
 -4.4553846e-04
 -9.2737537e-07
  6.5830965e-05
  3.9926254e-06
  5.2211498e-04
 -2.8133545e-06
 -1.6916973e-05
 -4.8856414e-04
 -1.1994196e-02
  2.3092725e-05
 -1.3339767e-04
  6.7644229e-04
 -5.2156270e-04
  5.1519656e-01
 -5.7824534e-01
 -4.7758629e-04
  2.8247855e-04
  2.6763414e-04
  1.8754338e-04
  1.7451229e-04
  5.3829647e-04
 -5.2888994e-04
 -6.9682597e-04
  7.3425919e-02
 -6.1839241e-01
  1.2686114e-01
  6.8664405e-05
  1.0235901e+00
  8.4561725e-05
 -6.1394071e-04
  4.2574966e-01
  1.3071996e-04
  5.2497670e-02
 -1.6058391e-01
 -1.9561981e-01
  5.7040976e-04
 -2.2200544e-04
  3.9572766e-04
  6.8897548e-06
 -4.1315280e-04
 -2.0994696e-04
 -2.2978033e-01
 -1.1148713e-04
  4.8169967e-02
 -4.1926890e-07
 -1.8997716e-04
  1.8066948e-04
  1.8348622e-04
 -3.3656420e-04
 -2.5340013e-04
 -8.4720368e-06
 -1.0480109e-03
  1.6300534e+00
  8.6892670e-04
  1.1745554e-04
 -1.4988841e-05
  9.6019525e-05
 -1.6476160e-04
  5.7108770e-04
 -9.4788375e-05
 -3.8636086e-04
  8.1918552e-05
 -3.5641430e-04
 -8.0152910e-05
  2.4283888e-04
 -4.9125531e-04
 -1.8067865e-04
  2.1329868e-05
 -9.9874131e-05
 -7.8688563e-06
  1.0697816e-04
 -1.3271306e-04
  3.2329536e-04
  1.3293503e-04
 -1.9858412e-04
 -8.5508465e-05
  4.1001509e-05
 -8.3219551e-05
 -2.3086546e-05
 -8.9492507e-02
 -1.6972976e-04
  3.2478122e-03
  6.6690249e-05
  3.1074230e-04
 -5.9962709e-04
 -4.5139273e-04
 -3.3101958e-05
 -3.9981271e-04
 -3.5998779e-05
  5.8210100e-04
  1.7785432e-04
  1.5846106e-04
  4.6461679e-05
  1.0657802e-04
  1.2890538e-04
  1.2722984e-04
  2.6891823e-04
  1.7081344e-04
  2.4401800e-04
  3.1867929e-04
  1.4241638e-04
 -8.1901424e-05
 -3.9501511e-04
  2.4659740e-04
 -9.0535767e-05
  6.5907132e-04
  1.7564225e-03
  1.2301251e-05
 -4.0367363e-06
  2.6525807e-04
  1.1093512e-05
 -5.4799199e-02
  1.0391045e-01
  5.5704344e-02
 -1.1453580e-02
 -2.6274361e-02
  8.1302440e-01
 -2.4623466e-01
  1.1150721e-01
  2.0101480e-01
 -1.9083884e-01
  2.6093841e-01
  8.8914178e-02
  7.3313646e-02
  1.4297730e+00
 -3.7976433e-02
  6.6239960e-02
 -1.0442060e-01
 -2.9751027e-02
  1.0922496e+00
 -1.0709151e+00
 -6.0283810e-01
  1.6185747e-01
 -2.7151158e-01
  3.9017353e-02
  7.6389456e-01
  1.3900466e-01
 -1.3225300e+00
  2.9850116e-01
 -4.4640085e-01
 -1.0548093e+00
  1.1863192e+00
 -2.3961325e+00
  3.8997151e-02
 -2.5627640e-01
  9.6008176e-01
 -8.9294422e-01
 -3.4147855e-03
 -7.0226318e-01
 -3.1509163e-04
 -2.8641674e-01
 -9.4611806e-01
  1.1764472e+00
 -5.8539528e-01
  2.7096972e-01
 -1.4769542e+00
 -6.0609044e-03
 -5.6970812e-02
 -9.1622466e-01
  2.6467055e-01
  1.1989698e+00
  2.7638754e-02
 -1.0594490e-01
  1.2089902e-04
  1.9748193e-01
  4.2369179e-04
 -1.7888668e-04
  5.8889884e-01
  8.7136374e-04
 -7.0374757e-01
 -2.8861523e-06
 -1.0228542e-02
 -3.4680077e-01
 -2.2883836e-02
  3.1460398e-01
  9.8938309e-02
  3.4623310e-02
  1.7484510e-01
 -4.2918187e-01
 -1.0185859e-02
  1.4753569e+00
  2.8333443e-01
  5.4557443e-01
 -4.6410793e-01
  1.7636375e-01
  3.0999866e-04
 -3.0628765e-01
 -2.0727499e-03
 -3.3654267e-01
  1.4367802e+00
 -1.9346726e-01
 -8.5300380e-01
  2.7979314e-03
 -1.0080218e-03
  2.5898924e-01
  1.3167094e-01
 -2.5249874e-05
  1.9185549e-01
  2.3800367e-04
 -3.9519411e-05
  1.0108292e-04
  3.9397612e-01
  6.3220680e-01
 -5.8731985e-01
 -8.4726177e-02
 -7.2120708e-01
 -1.7457384e-01
  8.9820242e-01
 -1.7223723e+00
  5.0383084e-04
  1.0286884e+00
  9.4349295e-01
 -1.6729130e-01
 -1.5422654e-01
 -8.4523170e-05
  1.1728664e-01
 -1.4668585e-01
  3.2323529e-05
  1.0897702e+00
  1.4700980e-01
  4.8645788e-01
  4.0891993e-01
  3.0814038e-04
 -2.4780650e-01
  1.8520566e-04
  7.9711974e-01
  2.2693177e-01
 -3.1599295e-01
 -2.7590865e-04
 -1.1278461e-01
 -7.3425616e-03
  5.7989681e-01
 -8.4171616e-02
  6.2237751e-01
  7.8279680e-01
  1.3167878e+00
 -7.7755585e-02
  2.1288997e-01
  6.1646277e-01
  5.5489415e-01
  1.6166109e+00
 -1.5421973e-01
  3.6935776e-01
 -1.8920328e-01
  9.0029836e-03
 -1.0009403e-01
 -6.2174305e-02
  9.5225847e-01
  8.9619122e-02
  3.0041698e-01
 -1.4389731e-03
 -3.4129122e-04
 -3.4973216e-01
 -6.8203185e-04
  4.2252058e-01
 -1.5774377e-03
  1.7360562e-02
 -8.0683837e-03
  5.5120498e-01
  6.1876350e-04
 -4.0843546e-01
 -8.3476290e-02
 -1.1633749e-01
  1.0173850e+00
  2.2678683e-02
  2.5339063e-02
  5.0872939e-05
  6.3897516e-03
 -1.0475731e-01
 -2.2061226e+00
 -2.1444378e-02
 -1.1703242e+00
  1.8597761e-02
  1.3457239e-01
  1.6870913e-01
  2.7399725e-01
  2.9628864e-01
 -1.0976806e-01
 -5.4667529e-02
 -1.5581049e-01
 -1.1513597e-01
  2.2220691e-01
  8.4486639e-01
 -5.1639092e-01
 -3.2278675e-01
  1.6472421e+00
 -2.4924934e-01
  1.4754585e+00
  5.7221913e-01
  4.2212370e-05
 -1.1480845e-04
  1.4870268e-01
 -1.6967195e+00
  1.9238338e-01
  3.2554669e-04
 -1.2162982e+00
 -1.9630746e-04
 -5.6447448e-06
  2.0996069e-04
  3.5048836e-01
 -5.8213544e-05
 -1.4715514e+00
 -1.7502551e+00
 -3.3202064e-01
 -1.7379727e+00
  1.3558385e-04
  1.1112446e+00
  4.5083159e-01
  7.2684163e-01
 -1.1516092e-04
  1.0842530e-04
 -1.0493772e-04
  1.6868264e-05
  2.9834764e-04
  1.5500097e+00
 -8.3714433e-05
 -1.8197055e-01
  5.0836191e-02
  2.8667451e-05
  1.7320392e+00
  4.3126034e-05
 -1.0845648e-04
 -3.5500674e-05
  1.0738282e-01
 -4.4882701e-05
  6.7004126e-01
  2.0478013e-01
  1.9678348e-03
 -2.0637564e-05
 -7.4763884e-05
  1.7321164e-04
  6.5450724e-05
  4.6851684e-04
  1.9182880e-05
  2.9067128e-04
  5.2491673e-03
  2.5007105e-04
 -2.0873638e-04
  7.4519025e-04
  9.8346478e-05
  1.1517795e-04
 -5.0173050e-05
  1.9004699e-04
 -2.8926861e-05
 -2.6822288e-04
  1.3811233e-04
  1.5802878e-04
  1.7468199e-04
 -2.0803032e-03
 -1.7546939e-04
 -1.5322238e-03
  1.7327410e-03
 -2.4584748e-01
  1.7085232e-02
 -4.5429176e-01
  1.1197623e+00
  2.5410243e-04
  3.6692596e-04
 -4.5536846e-02
 -8.4567852e-02
  2.7220037e-02
  3.5015484e-05
 -5.6484174e-02
  7.4093783e-05
 -1.8523450e-01
  3.5926412e-04
  4.7059841e-03
  8.1530248e-05
 -9.5269567e-04
  2.7041349e-06
 -1.3214231e-03
 -9.2837668e-05
  7.7023514e-02
 -2.8210437e-05
  7.4311967e-05
  2.6739383e-04
  9.7517900e-02
  5.8801356e-04
 -2.1815760e-05
 -2.1085965e-05
  2.4678912e-03
 -2.4137805e-04
  2.7676990e-02
  5.9876172e-03
  1.6269492e-01
 -1.4248095e-03
 -5.4884538e-05
 -1.9357585e-05
 -4.6685766e-02
 -1.6501408e-04
  4.1302636e-02
  6.4298749e-04
 -2.8198536e-05
 -1.3426646e-04
  8.4904910e-05
  3.7427034e-04
  1.0295015e-05
 -5.7275942e-05
 -6.0323570e-03
  8.2517718e-06
 -5.9655889e-05
  1.3126880e-04
  1.2460788e-04
  3.7635731e-05
  4.2539969e-04
 -2.2132252e-05
  5.2667764e-04
 -3.4473056e-01
  3.1276804e-03
 -9.5001233e-05
  1.0133303e-04
  2.3406537e-05
  1.5632733e-04
 -3.8382050e-01
  2.7621596e-04
 -1.8805792e-04
 -5.7901531e-03
  8.7084289e-04
  7.6153388e-05
  6.9144526e-03
 -4.5503693e-05
 -1.1935037e-05
 -1.9266010e-04
 -4.7165056e-04
 -6.1000529e-04
  1.1074847e-04
 -3.4984670e-04
  5.7825854e-04
  1.2596662e-04
 -3.4655395e-04
  3.0783503e-05
  1.7209557e-05
 -2.0372523e-04
 -1.3835295e-04
 -2.9469398e-04
  1.0483609e-04
 -5.9410348e-05
 -2.4298378e-04
 -3.6752244e-05
  3.5454740e-04
  1.3597860e-04
 -3.4906325e-01
  5.8867878e-01
 -3.9734367e-01
 -8.8597250e-01
 -6.2889904e-03
 -1.7007429e-04
 -5.2848983e-01
 -3.7958875e-02
  4.6434984e-02
  2.3698357e-01
 -9.8616970e-01
 -3.9016581e-03
 -1.2064344e-01
  9.4569159e-01
  3.4710657e-04
 -5.1167118e-04
  1.4892554e-04
  1.1704841e-01
  1.5842000e-01
 -5.8699792e-05
 -2.4112841e-04
 -7.9404515e-01
  1.4497461e-04
 -7.3853150e-02
  2.0690424e-04
  2.7968234e-04
  1.8513480e-05
  3.4784291e-05
  1.1794524e-04
 -2.8925680e-04
  1.2555056e+00
 -1.0014327e+00
  8.0880232e-04
 -2.8343669e-01
 -5.0701761e-01
  4.9931888e-04
  9.7590419e-05
 -9.0481836e-04
 -1.1455772e-01
 -6.1266372e-05
 -2.6782730e-01
 -2.6448880e-04
 -7.6678552e-04
  9.3851377e-06
 -4.9439609e-02
 -1.0716153e-04
 -3.6062178e-04
 -2.1303166e-04
  4.2007723e-05
  8.6087384e-05
 -1.2427747e-04
 -1.2072671e-04
  2.6533019e-04
 -4.4449640e-04
  3.0435281e-04
  2.9419892e-04
  1.2554275e-04
  9.3948671e-05
  4.6872548e-05
 -2.2824516e-04
  6.2407172e-01
 -9.3885341e-05
 -2.7805804e-03
  2.6565202e-04
 -4.3834880e-05
  2.7091213e-04
  8.9280300e-05
  2.9777532e-04
 -7.8604324e-05
  2.8394470e-05
  2.9903097e-04
  2.3940804e-04
 -1.0793348e-04
 -8.9253741e-04
  2.4448220e-05
  1.6780275e-04
  2.0649434e-04
 -4.7310168e-05
 -1.8856014e-04
  2.9197152e-05
  6.5354054e-04
  2.8126553e-04
  1.8764443e-04
 -4.4223727e-04
  3.3127821e-05
 -1.9544727e-04
  3.6574661e-04
 -8.8966255e-05
 -2.8240218e-04
 -3.8772888e-04
 -6.2270528e-03
 -2.8145741e-04
 -8.2606025e-02
 -1.0769209e+00
 -7.6316863e-02
 -2.9566105e-05
 -1.6580199e-04
  3.4709246e-04
 -1.8436665e-05
  6.6495049e-05
 -5.2022166e-04
  6.0618855e-05
  2.1538892e-05
 -1.1700275e-04
  7.3449576e-04
 -4.0283281e-04
 -2.8447434e-04
  1.9624038e-04
  2.4941086e-04
 -1.8315362e-04
  5.5612451e-05
  1.7934958e-04
  1.9158528e-04
  2.6584120e-04
  4.9210328e-05
 -1.0504301e-04
 -2.7410084e-04
 -2.9535289e-04
  3.8146204e-04
  2.2771253e-04
  4.4886783e-01
  3.8087007e-01
  1.4618357e-01
 -1.2827903e+00
 -1.7039571e-04
  1.8800802e-04
  1.6304047e-01
 -7.1074330e-04
  1.3106680e-01
  3.4248359e-03
 -2.5584601e-04
 -6.5441898e-05
 -3.8809802e-02
 -8.5391450e-01
  1.2023915e-03
 -9.0152984e-03
 -5.2832169e-05
  5.1988760e-04
 -2.1939975e-04
 -2.4451903e-04
 -1.1575078e-04
 -4.9524789e-04
 -2.9823318e-04
  1.4676635e-05
  3.4718390e-04
 -3.6537461e-04
 -4.6547191e-04
 -5.1771503e-06
  1.2841653e-04
 -1.0632008e-04
 -5.3034444e-05
  5.5717327e-02
  2.9211575e-02
  9.6942931e-02
  3.9102593e-03
 -4.5867055e-03
  6.2935431e-03
 -2.4576102e-01
 -6.2757535e-03
  8.5141949e-02
 -1.9219376e-02
  9.9310745e-03
 -9.4582438e-03
 -2.1304006e-02
  3.4110043e-02
  2.2486760e-03
  8.6699773e-05
 -3.0688385e-02
 -5.6111453e-06
 -1.9381195e-02
 -5.5843667e-04
 -3.4109969e-02
 -3.1832997e-02
 -4.8087673e-05
 -2.0268752e-05
 -3.4169716e-05
  1.1885988e-03
  5.7617365e-04
 -1.1090075e-04
 -1.2315530e-04
 -1.3437007e-01
  7.3429269e-01
 -2.2331131e-01
 -8.1734575e-02
  2.8709115e-02
 -5.7968509e-01
  1.0518818e-01
 -8.2839705e-02
 -2.7118042e-01
  7.4909680e-02
  9.8629128e-03
 -9.0682320e-03
 -2.7237290e-01
 -8.1673548e-02
  1.8757387e+00
  1.0635632e-02
  1.7763917e-01
 -3.0956276e-02
 -3.7519414e-02
 -1.5033452e-02
 -2.0461747e-01
 -7.7529258e-01
 -8.3050460e-02
 -1.6631483e+00
  1.0328104e-01
  1.2780117e-02
  3.4729242e-03
 -7.2381556e-02
  5.9103453e-01
  3.9213726e-01
  1.3307491e-04
 -8.3395772e-02
 -7.0989192e-01
 -7.4790120e-03
 -3.6429844e-04
  2.5177473e-04
 -9.7631972e-05
  1.0177454e-03
  1.8233986e-03
 -1.0005903e-03
 -7.8425079e-04
 -5.4080697e-04
  1.6432823e-04
  1.1505446e-04
 -2.0923966e-04
 -7.2623586e-04
 -6.2610292e-05
  2.5024617e-02
  2.6929820e-05
  1.8427409e-04
  3.3457065e-04
 -3.3580919e-04
  3.4255261e-04
  3.2762752e-04
 -5.9570494e-04
 -1.9077286e-04
 -5.0933340e-05
  2.2236037e-04
  6.0066701e-05
 -3.3669753e-04
 -4.0822319e-04
  3.2618418e-04
  1.6749160e-04
 -7.1296984e-01
  1.7011987e-05
 -9.5670446e-05
  2.1514174e-05
 -2.8527982e-04
  1.7844644e-04
  3.1871175e-05
  6.3290994e-05
 -1.9597160e-04
 -1.6269868e-04
  2.6280247e-04
  9.4346487e-04
 -2.6115056e-04
  1.9246365e-04
 -1.4860683e-05
  3.0785293e-04
 -2.5747364e-04
 -4.5130658e-04
  8.9419109e-06
  2.3856851e-01
  2.9550190e-04
  7.7008437e-05
 -5.3147116e-04
 -1.5862503e-04
 -2.9662211e-04
  9.9915720e-04
  1.0395441e+00
  4.6903726e-05
 -6.4445678e-03
 -1.0382868e-03
 -2.7239294e-05
 -1.4768762e-04
  3.1946928e-04
 -1.1515407e-04
 -1.2612260e-05
  1.2035754e-04
 -3.4880303e-04
  2.6985604e-04
 -3.1762571e-05
 -1.1756095e-03
  1.4278540e-06
 -1.0273719e-04
 -6.4286813e-03
  1.6652246e-04
  5.9732079e-06
  1.3942828e-03
 -1.0727225e-05
 -2.5307533e-04
 -2.8063254e-02
 -6.5245869e-05
 -2.5881651e-05
 -4.1125919e-04
  2.5010938e-04
 -1.0494599e-04
 -1.5811775e-04
 -4.0213918e-06
  4.8813983e-04
 -1.4060707e+00
  1.0867974e+00
 -1.1991234e-01
  5.5156285e-01
  1.3650841e-01
  3.1283104e-01
  7.2847484e-05
  1.0208566e-01
  6.8991387e-01
  1.5943019e-01
  1.3325037e-01
 -8.3970334e-03
 -1.4780746e-01
  9.2344856e-01
  4.9489844e-01
  9.8240552e-03
  1.5639455e+00
  2.2101714e-01
  7.9982825e-02
  2.5523141e-01
 -2.0653978e-02
  2.5380835e-02
  5.9692241e-04
  6.4131417e-03
  2.9812852e-02
  1.3372160e-05
 -3.8542540e-04
  1.6675966e-05
 -1.4848547e-01
 -1.5912969e-04
  2.5306491e-02
 -2.1477062e-01
 -3.2676727e-02
  5.1052314e-01
  5.4878416e-05
 -3.9968145e-04
 -2.2798826e-03
  7.2406335e-03
 -2.0449508e-03
 -2.8560010e-01
 -1.0557674e-04
 -1.5700086e-04
  2.2561270e-01
 -1.0169896e-04
 -1.1333494e-02
 -1.4048710e-05
 -8.3945552e-06
  1.1440992e-02
  6.1267332e-05
  6.7365924e-03
 -9.7659839e-05
 -1.0071500e-04
  2.7102498e-05
 -9.8523458e-05
 -1.9938760e-05
 -4.6047633e-05
 -2.1756352e-04
 -1.8304642e-04
 -3.4660191e-04
  1.5096908e-04
 -2.6255259e-01
 -1.8938916e-02
  8.3037131e-02
 -5.1435847e-02
 -5.7562247e-02
  1.7851426e-01
 -1.6599721e-01
  2.5328720e-01
  1.4552484e-01
 -4.7965623e-02
 -1.2955525e-03
  7.4482992e-02
  6.1159644e-02
  1.7970618e-02
 -1.2007904e-01
  3.8481299e-02
  1.9022033e-01
  7.3833302e-02
  1.2176534e+00
 -1.6703476e-01
  1.8989362e-02
  1.3646849e-02
  2.4348375e-01
  2.9773055e-02
 -5.9523515e-04
  4.0498799e-05
 -4.0681595e-01
 -4.0503661e-04
  1.2929173e-04
 -8.4320520e-05
  3.4105524e-01
 -7.3841779e-04
 -4.7921264e-01
 -8.0579191e-01
  1.4053138e+00
 -1.1197700e-04
 -1.7246936e-04
 -1.5502751e-01
  6.6908484e-05
  1.8277105e-02
 -1.7064397e-04
 -2.5055889e-04
 -1.3256691e-02
 -9.4165348e-02
  3.5253138e-04
 -2.4258615e-01
 -3.7863219e-01
 -2.8608425e-04
  8.3555438e-02
  3.5072601e-04
 -3.0706663e-04
  2.3701316e-04
 -3.2955312e-04
 -3.1749893e-04
 -2.3929559e-04
 -6.8636250e-06
  8.0584742e-02
  4.8746642e-02
 -2.3293251e-03
 -5.7090658e-01
  1.5395001e-01
  8.5552946e-02
  3.2680712e-04
  1.3905151e-04
  5.3578782e-01
 -1.5289013e-03
  4.5556168e-05
 -5.3978402e-02
  4.9321359e-04
 -5.0200318e-04
  5.7713699e-04
 -6.9366179e-05
  4.2579079e-04
 -1.1760513e-02
 -4.9989740e-04
 -1.8733867e-02
  3.5950070e-05
 -5.4842032e-02
  1.4043231e-02
  1.4544548e-02
 -9.7552286e-03
 -8.6611275e-05
  5.6291654e-05
 -6.0847819e-01
 -2.1928255e-04
 -5.2347675e-04
  4.3291441e-04
  7.9910673e-02
  1.3487473e-02
  5.9879225e-01
  3.0861658e-04
 -3.7834827e-02
  3.4878296e-01
 -2.1466408e-04
 -8.7353028e-03
 -3.5948686e-02
 -6.4180839e-01
  5.2216336e-02
 -5.6472458e-03
 -5.3214142e-03
 -1.5416734e-04
  2.0779788e+00
  1.6616368e-03
  2.3273234e-03
 -4.0517274e-02
 -9.7604571e-03
 -2.2007222e+00
  5.3519934e-01
  5.5980122e-01
  1.4678465e-01
  4.9699798e-01
  9.0599644e-01
  4.5917849e-03
 -9.8480575e-04
  1.3077414e-01
  1.2634650e-01
 -2.3178174e-03
  8.5893303e-02
  7.0052050e-02
  7.0232670e-03
 -2.6316272e-02
  4.0640697e-02
  3.8600820e-01
  1.4291919e+00
 -1.3286729e-01
  2.2304343e-02
  3.1017151e-04
 -3.9897597e-01
 -1.0348690e-01
 -7.9509020e-01
 -1.4237030e-03
 -1.1241515e-03
  8.0638805e-05
 -9.9325227e-04
 -1.4001597e-03
  1.3836710e-04
  1.0398613e-04
 -9.3223651e-05
  6.7560090e-04
 -5.5827375e-04
 -4.9511559e-04
  2.2072280e-04
  3.4160868e-04
  1.9399940e-04
 -1.3481939e-04
  2.2463087e-04
 -8.4442447e-04
  6.6407386e-04
  8.2617480e-05
  2.5330004e-05
 -4.2969590e-01
 -6.0726644e-04
  3.8702068e-01
 -2.4515431e-04
 -3.9537128e-05
  1.3138913e-03
 -1.4186042e-02
  5.2131967e-05
  8.8892609e-04
  1.2649368e-03
 -4.3528900e-04
  1.5040109e-01
 -1.8689847e-04
  9.4117032e-04
  9.9263084e-04
 -4.2402269e-05
 -1.6999760e-04
  1.3207918e-04
  7.8049306e-05
  2.4043664e-04
 -1.3406143e-05
 -3.0538047e-04
 -7.3182664e-04
 -8.9979774e-05
 -7.5213262e-05
 -4.4501346e-04
  1.4226415e-04
  5.2251673e-04
  3.5130186e-05
  1.4362181e-02
  1.3072511e-04
  1.1306541e-05
 -3.9616042e-01
  1.3789949e-04
 -9.4391879e-05
  2.7444665e-05
 -9.4913648e-06
 -2.9970666e-05
 -4.1540136e-04
  2.7367814e-02
 -1.7143332e-04
 -4.2483684e-02
  2.4562519e-02
 -6.2251016e-02
  8.8426471e-01
  7.4353005e-04
 -2.1437223e-01
  3.4576340e-04
 -4.1778554e-04
 -5.3747431e-03
 -1.6981069e-04
  5.4013920e-01
 -2.1913015e-04
  1.2646465e-03
 -6.7765035e-02
  7.9434452e-05
  1.2375275e-05
 -2.6768801e-04
  2.4261059e-02
  2.1031799e-03
 -4.6755653e-02
 -2.4666776e-01
  1.8518074e-01
 -6.4175349e-01
  2.1916741e-04
  3.4086253e-02
  6.5247310e-05
  2.9533508e-04
 -1.3099420e-04
  7.0448034e-04
  2.1828312e-04
  1.8248312e-02
  2.9221630e-01
 -5.4881508e-03
 -9.3075998e-02
  1.6029805e-04
  5.5652333e-04
 -6.6839815e-03
  1.8003085e-04
  1.5322708e-04
  3.6233722e-04
 -2.1680698e-03
  1.3033442e-03
 -7.9076156e-02
 -1.7647446e-05
  5.9087135e-05
  1.5646610e-01
  3.0273301e-04
 -3.5847791e-03
 -5.4848602e-04
 -7.6810040e-02
  1.2369828e+00
  5.5479723e-01
  1.3048975e-01
 -1.2364239e+00
  1.0502442e-01
  4.3797508e-01
  1.8847913e-04
  1.0227787e-03
  4.8120064e-01
 -2.8483672e-03
  5.9140956e-01
  2.6063973e-01
  6.8301713e-01
  4.4798288e-03
  2.9026311e-05
  9.4428009e-01
  4.3824765e-01
 -1.4112942e-03
  1.0784968e-04
  1.9503577e-04
 -1.4082222e-01
 -3.7651804e-05
  5.5772634e-06
  5.5969208e-02
 -1.6749651e-03
 -9.2934660e-04
 -2.1973533e-04
  1.8180843e-04
  2.8065772e-04
 -4.6464433e-05
 -2.5185293e-01
 -5.3660395e-05
  1.0369765e+00
  2.6971875e-02
  1.3179918e-04
  9.3063529e-05
  4.2797175e-05
 -3.4675322e-02
  3.9932999e-01
  3.0058500e-01
 -4.6069929e-03
  8.7299959e-05
 -6.2957078e-02
  2.2625442e-01
 -1.7368031e-05
  9.0451765e-01
 -1.5225465e-04
  1.0177935e-03
  1.5429792e-03
  3.1606195e-04
  3.3208146e-04
 -5.2873369e-05
  4.3178914e-04
 -7.8541541e-04
  1.7373997e-04
  1.8588177e-04
 -2.8348190e-03
  2.8837740e-04
 -3.6385940e-05
  2.3482385e-04
  2.1031151e-04
 -2.5238414e-04
  1.1945739e-04
  1.1641245e-05
 -1.8064218e-04
  1.6939669e-04
  2.8228288e-04
  9.9542936e-05
  5.1417626e-03
  2.0829678e-01
  5.5628289e-03
  2.1976933e-01
  8.9758083e-02
 -3.1490931e-01
  2.0502640e-02
 -2.7411178e-01
 -3.9649958e-04
 -1.3493176e-01
  6.5557519e-04
  7.0820592e-02
 -2.1926351e-01
  9.0842508e-02
 -1.5684910e-02
  6.0584933e-02
 -1.0993534e-02
  9.4227113e-02
  5.1306552e-01
  5.3908471e-02
 -4.1486832e-04
 -5.3308200e-04
  1.4399932e-01
  6.6583723e-01
 -5.0551909e-01
 -1.0778905e-04
 -1.2100617e-04
 -1.1759729e-03
 -5.4024451e-05
 -6.5665512e-04
 -5.4379088e-05
  2.4943781e-01
 -3.1567377e-04
  4.3691351e-04
 -2.0330679e-04
  2.1501948e-05
  4.9638638e-05
 -4.3448112e-03
  4.4852958e-04
 -7.0316877e-05
 -3.5181147e-05
 -7.2289273e-05
  2.3296307e-04
 -8.9266099e-04
 -1.1492942e-01
 -8.1009151e-05
 -3.8744955e-05
  1.0977611e-04
  3.7737969e-05
  3.4357794e-03
 -2.1526479e-05
 -7.8306242e-05
  7.0558814e-04
  3.7766751e-04
  1.8158671e-02
 -3.6009646e-04
  2.9119743e-05
 -7.0905589e-02
 -1.5650265e-03
  5.2496667e-05
  7.1555012e-05
  1.7106498e-04
  2.6503194e-04
 -8.0326798e-05
 -5.8968988e-05
 -4.5210938e-04
  3.2322906e-04
 -3.3640958e-04
 -4.7010442e-04
 -2.5648181e-04
 -5.3247826e-05
 -2.5097284e-01
  2.8532484e-04
 -3.9210214e-04
 -2.9318532e-04
 -6.4329361e-05
  1.8190627e-05
  1.9408800e-04
 -4.0362218e-05
 -1.0581597e-04
 -7.8184187e-04
  2.1890847e-01
  5.4199679e-04
  3.9417646e-03
 -7.4280520e-05
  1.7139337e-04
  6.4858657e-05
  6.7436233e-02
 -6.9063055e-05
  4.1886282e-04
  2.3104756e-05
 -6.8796202e-05
  2.8591562e-04
  2.0245899e-04
  3.1872003e-04
  3.1665637e-05
  4.0603125e-05
  3.8789818e-04
  8.3315472e-06
  1.0910926e-04
  3.3607696e-05
 -9.2222916e-05
 -2.7423905e-04
  5.7051698e-04
 -3.7845228e-05
 -1.0980406e-04
  1.5737778e-04
  1.0631722e-04
  3.6347483e-04
 -2.2779116e-04
  1.8696200e-04
  5.0615752e-05
  7.1576491e-05
  3.7905744e-01
 -3.7542341e-05
 -7.3404053e-06
  7.0708527e-05
 -6.3377985e-04
  5.7704499e-05
  2.2222020e-04
  9.7796892e-06
 -1.2049734e-05
  5.1132296e-03
 -3.4297918e-04
 -3.8393075e-05
  7.2386379e-06
  4.5895751e-05
 -1.6640244e-05
 -2.7732161e-04
 -4.6397905e-05
 -3.5347501e-04
 -6.6623863e-05
 -2.6632164e-04
 -1.2715899e-04
  1.6387176e-02
 -1.3150607e-04
  2.0184889e-04
 -2.1991852e-06
 -1.8900753e-05
 -2.5884174e-05
 -3.9955077e-05
  1.8957659e-04
  9.8291101e-05
  4.4768092e-01
 -1.6337015e-04
 -5.8438431e-04
 -2.0537431e-04
 -3.4716323e-01
  1.0135987e-04
  7.5763921e-05
 -2.0554724e-04
 -9.3206859e-01
 -1.3127804e-01
 -4.1796502e-02
  5.7608606e-05
  1.0199323e-01
  2.5865400e-01
  1.5500638e-02
  4.4939598e-01
 -3.2080662e-01
  6.5412515e-01
  6.6994272e-02
 -3.7305230e-01
  5.6098539e-01
 -5.6369618e-02
 -1.1138872e-01
  1.2720349e-01
  2.4309190e-02
 -3.5664603e-02
 -1.2920848e-01
  1.8712310e+00
  1.0135763e-01
  2.6888313e-02
  3.9241669e-01
  9.9332035e-02
  3.8764054e-01
 -2.7417496e-02
  2.4778539e-01
  2.7533862e-01
  5.6566310e-01
  6.8274028e-05
 -1.0643299e-01
 -5.2672983e-03
  1.2374885e-01
  1.9529192e-03
  3.5778838e-01
 -5.6648295e-04
 -2.3792347e-01
 -6.5582385e-04
  4.6128400e-02
 -1.2489281e-03
 -5.1922007e-03
  3.2363641e-01
 -1.9641984e-01
  3.3229911e-01
 -2.1981527e-03
 -3.7117962e-02
 -3.0320445e-01
 -2.0820390e-02
 -1.0835689e-02
  6.3837180e-04
  1.0128373e-02
 -5.6880986e-04
 -2.1044353e-02
  2.7641690e-01
  8.8628665e-05
 -3.2752490e-05
 -2.7117206e-04
  7.2424818e-04
 -3.7230868e-04
 -8.2446721e-05
 -3.1911157e-04
 -3.3671640e-05
 -8.8520996e-05
  1.1718814e-04
 -9.5535303e-05
  1.1523181e-04
  2.2497954e-04
 -5.9026614e-04
  5.4304040e-04
  2.1957429e-04
 -2.4586447e-04
  5.0366762e-05
 -1.5807746e-04
  4.1921411e-04
 -2.7584474e-04
  2.9593994e-04
 -8.4714171e-05
 -2.3706195e-04
 -8.3261541e-05
  4.4653795e-04
  3.5955350e-06
  8.9715095e-06
 -4.1804193e-05
 -1.1891234e-04
 -2.2716406e-04
  9.6203650e-05
 -2.7769909e-04
  1.7589406e-04
  3.4927110e-05
 -2.0678433e-04
  1.8148199e-05
 -9.9824843e-05
  1.7762542e-04
 -9.9259203e-05
  3.1470759e-03
 -4.2127953e-03
 -2.4653526e-04
 -1.6519019e-05
  8.2400942e-04
  4.3775999e-05
  4.0132619e-04
  1.5363546e-05
 -9.5560201e-05
 -5.6820700e-04
 -9.3537756e-06
  2.9125491e-07
 -3.4463537e-04
  8.8635490e-05
 -2.8303666e-05
  5.5725497e-05
  1.7063903e-04
  1.5963768e-04
  1.1105093e-04
  3.0283383e-04
 -3.6483526e-04
 -3.9707436e-05
  4.0508417e-04
 -1.3972372e-04
 -1.0518982e-04
  4.5549536e-05
 -1.9428166e-05
  2.0705965e-04
  2.1908073e-04
 -2.4450319e-06
  1.4053494e-02
  5.8743928e-04
 -1.7285792e-04
 -4.1469201e-03
 -1.6053161e-02
 -5.6037672e-05
  2.8135060e-04
 -1.1339127e-04
  1.8584759e-04
  1.1476031e-05
  1.4655418e-05
 -7.5002004e-06
  9.5313510e-05
  1.1701362e-05
 -3.7891874e-05
 -2.0978032e-04
 -1.6211329e-01
 -9.3454808e-02
 -3.5237268e-01
 -1.8146010e-04
  3.2806948e-01
  5.2954128e-04
  3.4266460e-04
 -7.1821694e-04
  3.5588790e-05
  4.1232628e-04
 -5.5401877e-04
 -8.7353326e-02
  1.4653233e-04
  1.0447685e-02
 -9.4996564e-02
 -2.2957980e-04
 -3.0378544e-06
  1.1899019e-04
 -4.6570800e-04
 -6.7353263e-05
  1.9862065e-04
 -1.0753510e-04
 -2.8730847e-04
  9.2027278e-04
 -2.2521637e-04
 -2.9637673e-05
  3.8690286e-04
 -1.4524108e-04
  4.7367532e-04
  1.1815583e-04
 -1.0213880e-04
  1.7511307e-05
  1.8958096e-06
  8.2075232e-05
 -1.9523944e-04
 -2.5668892e-04
  8.2293169e-05
  1.5634393e-04
 -8.0628910e-05
 -3.7322287e-04
  7.4075389e-04
 -6.4865897e-05
  3.2354202e-04
 -4.7467089e-05
  6.9716152e-05
 -2.0954252e-04
 -3.5368014e-04
 -3.0182560e-05
  2.5149839e-04
  1.4141648e-05
  2.6919382e-05
  1.6570810e-04
  3.8521169e-04
 -8.3907522e-05
 -6.4505191e-05
  1.2491587e-04
  5.7464556e-05
 -1.1564298e-04
  1.6831515e-04
  4.0037429e-04
 -9.8615492e-05
 -2.6294976e-05
  5.1363672e-06
  4.5921002e-04
  8.3771898e-05
  2.5237619e-04
 -3.1939111e-04
 -4.3268283e-05
  3.8031183e-04
 -3.6872632e-04
  2.4397517e-05
  1.2195193e-02
  1.9342478e-04
 -2.6413205e-04
  2.9554422e-04
 -2.6706152e-04
  1.0723446e-04
 -7.1782547e-06
  7.2472467e-04
 -3.9158818e-05
 -4.8203748e-03
 -5.2235018e-06
 -5.1827723e-04
  4.5920959e-05
 -6.3043277e-05
 -3.9832685e-05
 -4.0858757e-04
  1.2418568e-04
  1.2080797e-05
  4.2971700e-05
 -6.4120561e-02
 -1.0298315e-02
 -9.6918462e-05
 -4.1805345e-01
 -2.3330515e-04
 -3.9763618e-04
  7.6719053e-02
  3.8222057e-05
  8.5547726e-05
  1.1861579e-04
  4.3924433e-06
 -2.3927667e-05
 -3.2123222e-05
 -4.6006007e-06
  9.4495022e-05
 -6.3297208e-05
 -2.6227774e-02
 -7.5353764e-04
 -4.4086464e-02
  9.2337003e-05
 -2.2881418e-04
  6.5318268e-06
  1.1149815e-05
 -1.9387620e-04
  1.2598246e-04
 -2.5034224e-04
 -1.6996839e-04
  6.1912165e-04
 -7.1538989e-06
  4.3535674e-06
  8.4460793e-05
 -1.9678086e-04
 -2.8342972e-04
  9.1040909e-02
 -7.3039977e-05
  1.2461751e-04
  1.7431914e-04
  1.9828301e-04
  6.3537307e-05
  1.3497268e-04
 -2.6799919e-04
 -6.9832357e-05
 -7.2388287e-04
  1.1535106e-04
 -3.6520293e-04
  8.0161379e-05
 -1.1769075e-04
 -1.8788436e-04
  7.7165145e-04
  4.2113104e-05
  1.4983254e-04
 -2.3065956e-04
 -8.2751998e-05
 -3.9937742e-05
 -2.3036427e-04
  1.5798961e-04
 -4.2638442e-04
 -3.2292490e-04
 -2.8129076e-04
 -2.9156581e-04
  1.4677555e-04
  2.3921895e-01
  7.1713127e-02
  6.3546079e-01
 -1.1327193e-04
 -1.8287868e-05
 -4.1094850e-04
  1.2571641e-04
 -2.8819882e-04
  8.7683700e-05
 -9.2387721e-02
  3.1780917e-02
  2.8682622e-01
 -3.0012096e-03
  8.2371049e-02
 -3.0469783e-02
 -2.3844333e-02
  1.5999525e-03
 -1.2781193e-02
 -2.9240604e-03
  3.9481416e-02
  1.8531743e-02
 -1.4287034e-02
  1.3268654e-03
 -5.0269790e-02
 -1.3077511e-01
 -2.7253184e-01
 -4.7352409e-01
 -5.5554178e-02
  3.0028063e-04
  4.5718793e-03
 -9.0384093e-04
 -1.9899926e+00
 -2.4703312e+00
 -2.8443665e-05
 -1.2694584e-04
 -3.7226978e-01
  7.0284892e-05
  3.4500804e-04
 -3.4273380e-05
 -6.1828159e-03
 -2.6894595e-05
  1.5062615e-01
  3.0054224e-03
  1.3004539e-04
  2.1315568e-04
 -4.5387143e-05
 -4.0459276e-05
 -3.5291701e-04
  1.0979339e-04
 -6.5894469e-06
  1.0645841e-04
  2.0517239e-04
 -2.0745299e-04
  4.4042399e-04
 -1.1825976e-04
  2.5662305e-04
 -2.5988127e-05
  1.4376057e-04
 -1.7516343e-04
  2.2219450e-04
  2.1663721e-01
  5.5285910e-04
 -5.8941525e-01
 -8.8127906e-04
 -4.5542055e-04
  1.1608335e-04
 -2.1522079e-05
 -3.6027180e-03
 -1.5430915e-04
  5.5297744e-01
  5.5630502e-05
  2.5821680e-06
 -3.6232007e-01
  2.0866432e-04
  1.6401765e-04
  7.9786946e-07
  1.7921039e-01
 -1.7268134e-04
 -2.8405379e-04
 -9.8437315e-04
  7.4802250e-05
  3.7913142e-05
 -8.4523216e-04
  8.5496984e-05
  1.2652513e-06
  6.5205002e-04
  1.6649788e-05
 -3.3142022e-04
 -6.7896326e-04
 -4.7374528e-05
 -1.6665182e-04
 -1.1526241e-01
  6.4266741e-01
 -2.8604132e-01
  1.9959934e-04
  1.6390353e-01
 -3.6409526e-04
 -9.3569738e-01
  1.4038186e-04
 -3.1593218e-02
  8.7518060e-07
 -1.6071121e-04
 -2.0501032e-04
 -5.4528078e-05
 -1.7026652e-04
 -1.4847061e-03
  8.1724793e-05
 -1.3440345e-04
  2.4889869e-04
 -3.1466363e-05
 -1.1059793e-03
 -6.9555608e-07
  1.1803730e-02
  1.3660445e-05
  6.3725770e-04
 -2.4797590e-04
  1.2481929e-04
 -1.1765316e-04
 -9.0279078e-05
 -8.7530032e-05
  1.7838951e-04
  3.7286535e-04
 -2.3529655e-04
 -1.4948574e-05
  6.9020927e-05
  3.9087399e-04
 -4.0485573e-04
 -7.6315555e-05
  3.2748594e-03
 -2.4064209e-03
 -9.8370919e-03
  7.3071830e-03
  1.7304849e-02
  2.7107138e-03
 -4.3131731e-04
 -2.4781568e-02
 -5.6368689e-04
 -1.3127606e-01
  3.2709495e-03
 -3.4111764e-04
  3.5418589e-02
 -2.1703283e-03
  1.4140239e-01
 -4.9005839e-04
 -8.1910148e-02
 -6.2347269e-01
 -1.4429407e-01
 -8.5348673e-03
  5.4381049e-04
  1.2351336e-01
  3.2472467e-01
 -5.3992462e-01
  9.3821549e-01
 -1.8164073e-07
 -4.9666665e-04
  1.2627902e-04
 -6.5531094e-05
  5.5767281e-04
  3.6538269e-05
  2.2126357e-03
  1.8191269e-02
 -3.0611660e-02
 -7.3643001e-03
 -6.4095549e-02
  1.6025222e-04
  1.8192820e-01
  2.7849359e-02
  3.2261664e-01
  3.8016372e-04
  2.4268180e-04
 -5.5664493e-04
  3.1138652e-03
 -2.0887429e-01
 -8.9287776e-03
  1.6546661e-03
  1.4905952e-01
  1.3666360e-03
  7.2700105e-04
  1.2636851e-04
 -1.5173019e-05
  6.8516727e-03
  1.2782371e-01
 -1.5985180e-03
 -8.5349666e-04
  2.5310286e-05
 -5.8360343e-05
  3.9637795e-05
  1.4101574e-04
  6.2843884e-04
  2.4632099e-03
 -6.2772349e-05
 -2.2854071e-04
 -3.1134038e-04
 -1.0813446e-04
  3.6073488e-05
  3.0138911e-04
 -1.0987009e-05
  3.3113197e-04
 -6.7505040e-05
  2.7173077e-04
  4.2605519e-04
 -1.3944616e-04
  6.6695403e-04
 -1.6983913e-04
 -1.4647370e-04
  3.6479591e-04
  1.8084695e-05
 -9.8083384e-02
  3.4759415e-04
 -1.7260763e-04
 -1.7804545e-04
 -2.1062429e-05
 -1.0964786e-04
 -5.0851260e-04
 -7.8881800e-05
 -2.0195509e-04
  2.0012981e-04
  1.2860955e-04
 -3.4109651e-04
 -3.2018223e-05
 -6.3730746e-05
 -6.7868743e-05
  6.5349782e-04
  2.1294487e-05
  7.9341407e-06
 -5.9407698e-03
 -1.0948872e-05
 -2.2920196e-04
  2.4339939e-04
  3.0890098e-04
 -1.8040514e-04
  8.6128894e-05
  3.3048564e-05
  1.5361476e-04
 -8.8519818e-04
  1.2525590e-04
  1.7693648e-05
 -4.8899045e-04
 -1.8981588e-04
 -2.6232004e-04
  2.8085907e-04
  2.1685502e-02
  5.0510842e-02
 -1.4053798e-01
 -3.5193007e-04
  1.2008185e-04
 -1.7407001e-05
 -1.4346151e-05
  2.0706579e-03
  2.9041483e-05
  2.4593042e-05
 -1.3952049e-04
  1.5382716e-04
 -3.5243246e-04
 -2.4254354e-05
 -7.2844023e-06
  5.3391809e-04
 -1.0215864e-04
 -1.3413678e-04
 -7.9789155e-05
 -1.4624580e-05
  1.1019808e-04
  3.2624556e-04
 -2.3212019e-04
 -3.3711924e-04
  7.7233548e-05
 -2.5283263e-04
 -3.1449462e-04
 -2.0238242e-04
 -2.8310844e-04
 -1.1277345e-04
 -2.5743943e-02
  1.0810528e-05
 -6.1884134e-06
  5.2645657e-05
  1.0827997e-04
  2.2749511e-04
 -8.7409513e-05
  6.6238550e-05
 -6.1632332e-04
 -2.7735770e-04
  8.9153546e-05
  9.2109701e-07
  4.3709912e-05
 -2.0063890e-04
  1.9143506e-04
 -2.1343683e-04
  1.7085872e-04
 -1.6877659e-05
 -9.9953781e-05
 -1.3124353e-04
  5.7631126e-04
  9.3184080e-06
 -2.7213970e-05
 -6.2986372e-05
  9.7367010e-05
 -7.6144701e-05
  7.5834301e-05
 -2.8381631e-04
  4.4317744e-03
 -2.4098775e-03
  8.0227173e-06
 -3.0962919e-04
  7.2178233e-04
 -2.5315251e-04
  3.1835982e-06
 -1.7148613e-04
 -1.3668045e-05
 -1.9929010e-05
 -3.5431344e-04
 -1.3491140e-05
  7.3885039e-04
 -1.1610043e-04
  8.6468586e-05
 -1.2648800e-04
  1.2085238e-04
  1.2948606e-04
 -9.6070849e-05
  2.1512790e-04
 -1.0035185e-04
 -6.1584133e-06
  3.6052345e-05
 -7.6023069e-05
 -8.8407695e-03
  4.3343025e-04
 -1.5953275e-04
  3.3222855e-04
 -5.5636929e-06
  2.7826912e-04
 -2.9781042e-04
  1.3975672e-05
 -6.0708000e-04
  4.4396980e-04
  2.5234805e-04
 -5.0011036e-05
 -3.3621391e-04
 -6.8818197e-05
 -9.3082657e-05
 -1.2257791e-04
  2.2319541e-04
  2.3357230e-03
  5.8856402e-03
  5.6111199e-05
  1.8555434e-04
 -1.4722671e-05
 -8.1855243e-05
 -1.9317893e-06
 -2.3505080e-04
  3.8545451e-05
  1.8598493e-04
  3.4758152e-06
  2.3492923e-04
  1.0073127e-04
  1.3724942e-04
 -1.3216483e-04
 -5.3143551e-05
 -2.4780375e-04
  1.5640211e-04
 -8.4169628e-03
 -5.5263386e-05
 -2.2752353e-03
  2.3415629e-02
 -1.7974195e-01
  5.2961925e-05
  1.6644474e-02
 -3.4874884e-05
  3.4003041e-04
 -8.1005950e-05
  1.4770078e-04
  1.0937647e-04
 -8.9341169e-04
  3.0120621e-03
  5.8958272e-04
  1.2418299e-04
  3.5314620e-04
 -1.4392869e-02
 -2.7984998e-04
 -2.7212102e-03
  5.1485986e-06
  2.0255432e-04
  2.6925345e-05
  8.9559920e-02
  1.0201336e-04
 -1.6126779e-04
  2.1325047e-03
 -5.6511717e-04
  2.1525471e-05
 -6.6311288e-05
  1.2813997e-04
 -6.5431523e-05
 -1.3970599e+00
 -5.0094249e-03
 -3.1381435e-04
  7.4579228e-05
 -3.2741760e-04
  1.2523260e-04
  3.3728906e-04
 -1.1284256e-04
  1.5323724e-04
  5.7386328e-04
 -2.4410346e-04
 -2.0257646e-04
 -3.8566018e-04
 -6.6171808e-04
  1.3616045e-04
  8.3614374e-05
  5.5456170e-05
 -8.5607047e-05
  5.7733796e-05
 -2.6723279e-05
 -1.2946053e-04
  6.5434018e-05
  1.2556113e-04
  1.4511349e-04
  6.7245950e-05
 -4.4489466e-04
  1.8423251e-04
 -2.2287327e-03
 -1.1517828e-04
 -4.9011881e-04
 -1.4080113e-05
 -1.6042360e-04
 -2.4947121e-05
 -3.2911729e-04
 -1.7798773e-04
  3.3321227e-05
  5.6680624e-04
 -1.3279666e-04
 -1.0480067e-05
 -2.2643387e-04
 -2.1126284e-03
  1.7922359e-05
  6.3072774e-03
  2.9878790e-04
  6.1122578e-06
  2.6859526e-04
  9.1216971e-06
  5.2082789e-05
  2.7096519e-05
  1.0813963e-04
 -1.8468122e-04
  8.1383463e-05
  4.1289983e-04
 -1.3314665e-03
 -2.1568516e-04
 -4.4292677e-04
 -9.3419672e-05
  1.0659747e-04
 -2.3709418e-04
 -3.6450107e-05
 -1.7719992e-01
 -3.7133464e-04
  1.4311498e-01
 -1.5857008e-04
  1.0298356e-04
 -3.2216343e-04
 -2.4997015e-04
  2.7191840e-04
  6.5296284e-05
 -5.9547301e-02
 -6.0967714e-01
 -5.7844758e-01
  1.0732928e-02
 -1.8902655e-01
  4.3693082e-05
 -4.7326446e-04
  2.8889687e-04
  6.7691742e-03
  9.4697796e-05
 -1.1825826e-05
  4.4870423e-03
 -6.0398865e-04
 -7.8841420e-03
 -5.4763106e-05
  1.3487814e-01
  2.3048604e-01
  3.3306624e-04
 -3.6812271e-04
 -6.1113940e-05
 -2.7019292e-01
 -6.1236620e-02
 -6.1317647e-01
 -2.0732316e-04
 -7.2072740e-05
  2.1692485e-04
 -2.1723527e-04
 -1.5566355e-05
 -1.2633843e-04
 -3.0660952e-04
 -8.2921812e-05
  3.3985983e-04
 -6.0863491e-05
 -1.1361887e-02
  3.7966456e-05
 -2.0163190e-04
  2.6660726e-05
  3.5729038e-04
  2.1739572e-04
 -2.4172603e-04
  9.7091928e-05
 -2.6183116e-04
  2.1652906e-05
 -1.8351345e-04
  1.5670489e-04
  1.9187622e-05
 -1.3004620e-04
 -1.9127381e-04
  1.5330103e-05
 -7.9838966e-05
  2.7294762e+00
 -2.2627201e-04
  1.2170434e+00
 -7.6170397e-01
  6.9162351e-01
  2.4658921e-05
  7.5768505e-05
 -1.3782944e-01
 -7.4371055e-05
 -2.7057165e-04
  1.2744023e-04
 -6.0923165e-01
 -9.1435242e-05
  1.9179333e-04
  3.8507264e-02
  3.7396351e-01
  7.7880092e-02
 -1.3142962e-05
  4.7389971e-04
  1.1438283e-04
 -1.8624243e-01
 -1.1030629e-04
  7.1798818e-06
 -4.4010456e-05
 -1.0859984e-04
 -1.8085947e-04
  1.1237676e-01
 -2.1354490e-04
 -2.1240224e-04
  1.9484397e-04
  5.3134434e-05
 -3.4202346e-06
 -1.2212408e-01
 -2.1660121e-04
  1.3501436e-04
  2.2376813e-04
  8.2861341e-05
  5.3044547e-05
 -3.2807005e-04
 -4.6966330e-04
  3.0428343e-04
  6.6883941e-03
 -1.4319062e-02
 -4.8857948e-01
 -1.4522814e-04
  6.1274659e-02
  3.8312158e-01
  9.8418372e-05
  2.3246936e-05
  2.7211747e-04
 -1.9334772e-01
  1.0632648e+00
 -9.3518931e-05
 -4.6335999e-04
 -1.1749232e-04
 -4.4152464e-05
  2.5756847e-06
 -1.7841237e-04
  9.3941778e-02
 -3.9251446e-04
  5.6791636e-05
 -1.1996105e-03
  2.6606163e-04
  1.8716812e-05
 -5.8012141e-04
  4.1189158e-04
 -1.8726352e-04
 -1.5761179e-04
 -4.6540314e-04
 -8.6314214e-04
 -4.6175224e-05
  3.6216687e-05
  4.2514290e-05
  7.6989876e-04
  4.5744702e-04
 -2.5998126e-04
 -1.6318254e-05
 -2.3215366e-04
  3.6238653e-05
  8.9921762e-04
 -2.7351698e-04
  3.6518401e-04
 -4.8044853e-06
 -1.0418340e-04
  5.6029108e-05
  5.2937162e-06
 -5.9017042e-05
 -5.0553656e-04
  2.1326530e-04
 -1.6614789e-04
  1.5639227e-04
 -2.5603873e-01
 -3.5271379e-01
 -3.8619140e-01
 -8.5788494e-01
 -7.0642734e-01
  2.9904014e-01
 -2.1258352e-04
 -1.4904077e-04
 -2.3481023e-04
  1.4787526e+00
  1.4192365e-01
  9.4571292e-01
  8.6447930e-01
  1.5699710e-01
  2.1399969e-01
 -3.3098629e+00
  7.0304163e-02
 -7.5153971e-01
  3.9444165e-04
 -4.4936147e-01
  1.4078948e+00
 -1.4113169e+00
  1.6542424e-01
  2.6770629e-02
 -3.2074612e-02
 -1.9331892e-01
  8.9121431e-01
 -7.3609161e-01
 -5.4836966e-04
  7.4641094e-02
  4.7358790e-01
  1.8597038e-01
  8.4040380e-01
  2.3195431e+00
  2.6212616e-05
 -2.4787243e-04
 -2.9579481e-02
 -1.2521180e-02
  2.8209976e-04
 -2.2963248e-05
 -4.8366153e-01
 -4.2787272e-01
 -6.5667373e-05
 -3.8289418e-04
  1.2520532e-03
 -4.5831668e-05
 -2.1179901e-01
  6.4075395e-04
 -5.1516986e-07
 -3.4727600e-05
  4.2814450e-04
 -1.1387234e-04
  3.6544901e-05
  2.5529315e-04
  4.2518080e-04
  2.1481382e-04
  1.9175632e-04
  1.6300082e-01
 -7.6005369e-04
 -3.5896921e-04
 -7.7422637e-06
  3.1728955e-04
  1.1130834e+00
 -2.6732862e-01
 -5.6696954e-05
  2.2262511e-01
 -1.1390552e-04
 -2.2791259e-01
  3.5760455e-05
  1.1741677e-04
 -2.8077648e-05
 -2.3357014e-05
  1.0798506e-03
  5.5232976e-04
 -4.1426392e-07
 -1.7232329e-06
  2.9651837e-05
 -3.0243568e-04
 -3.7833431e-04
 -1.2889071e-04
  1.0559038e-04
 -6.3187085e-02
 -1.3916400e-04
 -7.2472598e-05
 -3.6269568e-05
 -2.0681659e-04
  9.4626572e-05
  4.7546276e-04
 -3.1680287e-05
  1.7572484e-05
  4.5188457e-02
 -1.5228081e+00
 -5.6302588e-04
  2.8598173e-05
 -1.2156329e-04
 -4.2850111e-04
  5.4123131e-05
  6.4648739e-05
  1.6055214e-04
 -1.7812000e-01
  3.9024863e-01
  3.8423553e-01
 -8.2142018e-03
  2.2720385e-01
 -1.5113792e-04
  8.9522019e-02
 -6.2890985e-04
  1.7410487e-01
 -1.6393204e-04
  4.1070198e-05
  3.7108830e-06
  9.7462718e-05
  3.2634802e-02
  1.3051947e-05
 -4.7322705e-02
 -2.3296909e-01
 -1.8355229e-03
  3.0915462e-03
 -1.5719737e-04
 -2.0107171e-04
 -3.4588277e-03
 -7.9225458e-02
 -5.7628881e-02
 -1.0111980e-03
  4.8298160e-05
 -4.7671278e-05
  2.3794820e-04
 -1.7834127e-04
  3.2944507e-05
 -2.7220212e-05
 -5.1567954e-04
 -2.7116523e-03
 -1.9166686e-02
 -6.2629551e-05
  1.1957844e-04
  1.7824339e-02
 -7.3414958e-05
 -7.3771173e-04
  8.1950077e-04
 -5.5057193e-05
 -4.1437456e-03
  6.5608416e-05
 -9.6516765e-04
 -9.9780002e-05
  2.9774511e-04
 -2.2219034e-05
  2.4003423e-04
 -1.0788441e-04
  2.4643389e-04
 -5.4841399e-05
  4.3792039e-04
  2.8968024e-01
 -1.6656844e-01
 -1.4110329e-04
  1.4198912e-04
 -5.9279883e-01
 -8.4208681e-05
 -2.0699484e-04
  2.7378177e-04
 -1.0187661e-05
  3.0388439e-04
  2.4891820e-02
 -3.0416033e-01
  7.9930775e-05
 -1.0192268e-04
  3.9586048e-05
 -1.4821622e-04
 -9.1216447e-05
 -3.0833710e-04
  1.4711486e-05
  8.3629675e-05
  8.0580998e-05
  1.5067075e-01
 -1.9453806e-04
 -4.0129875e-04
  1.9498997e-05
  6.3130413e-03
 -3.7733634e-04
 -6.1614317e-04
 -1.8291192e+00
 -2.2637239e-01
  3.4938937e-01
  8.6540109e-01
  5.0271552e-02
 -1.4360157e-04
 -1.0518175e-04
 -2.0172607e-05
  4.6286234e-04
 -9.5212631e-02
 -4.6382480e-05
 -2.8010440e-04
  3.5749943e-04
 -1.2029643e+00
 -1.9380393e-04
  1.7772363e-04
 -1.6867722e-04
 -6.6632510e-04
  3.7024386e-04
  1.1801204e-03
  1.1378930e-04
 -4.0356567e-04
 -1.1655747e-05
  7.7026118e-05
  2.9983694e-05
  1.7583316e-04
 -4.5368419e-04
 -1.0430601e-03
 -1.3924091e-01
  3.9272371e-04
  5.1337004e-01
 -7.6411916e-06
  1.2068683e+00
  4.5029500e-01
 -3.5850557e-05
 -5.2281808e-02
  7.5225405e-05
 -2.5364989e-04
  3.6661389e-05
 -2.7424043e-01
 -8.8083172e-05
 -1.4236802e-01
 -4.4687885e-01
  8.8390959e-03
 -3.2534526e-04
 -7.9034304e-05
 -6.1074179e-01
 -3.6571961e-04
  2.9206203e-04
 -1.5087892e-05
 -5.5590376e-06
  2.6709872e-04
  1.4633183e-04
 -1.4721214e-04
 -3.2223054e-04
  6.5870723e-04
 -2.0989382e-05
  6.7542889e-04
 -2.6542624e-04
  4.8954494e-04
 -6.6185428e-05
 -2.8576415e-03
  9.9881472e-05
  1.6788244e-05
  1.1605741e-04
 -2.0111511e-04
 -1.4314290e-04
 -1.4107800e-04
 -3.4999065e-04
 -2.1591582e-04
  1.4423278e-04
 -4.2008149e-05
 -1.7015227e-04
  4.0545352e-04
 -6.2371131e-05
  2.7664338e-04
 -1.1908009e-04
 -3.8338508e-04
  3.7335616e-04
 -4.4022448e-04
  7.7695661e-04
  1.0774317e-04
  4.2405018e-06
 -2.1122591e-04
  4.7676396e-03
  3.5867820e-04
  2.5056605e-04
 -7.8006502e-05
 -4.6736770e-04
  3.0061790e-06
  5.5308739e-04
  1.9060349e-04
  4.6638274e-04
  8.4728835e-04
  2.1802141e-01
 -1.8431133e-04
  6.7836910e-02
  1.0078367e-04
 -1.6200046e-04
  7.0805923e-05
 -5.4902682e-04
  1.7311586e-06
 -1.1837506e-04
  4.1308228e-04
 -7.0590332e-02
  4.7933943e-05
 -4.4361666e-05
  7.0153485e-04
 -1.7022960e-05
  8.9952766e-05
 -5.5909536e-06
 -3.0278806e-02
 -5.2135583e-02
  1.1622562e-04
  4.2139356e-05
 -1.4670714e-04
  1.6993131e-04
  1.9791629e-04
 -2.7026108e-04
 -1.1417263e-04
 -6.8521148e-01
  7.2051391e-02
 -2.1777258e+00
  1.7009028e+00
  1.0025584e-04
 -5.7330198e-04
  2.0833366e-04
 -1.6362346e-05
  9.6696567e-05
  2.7402712e-04
 -2.6464279e-05
  1.5399813e-04
 -9.9043740e-05
  3.6479455e-01
  9.6651180e-05
 -7.3361611e-05
  5.4960406e-01
 -4.9949373e-04
  1.3585528e-04
  2.4021832e-04
  1.2269810e-04
  4.8875290e-01
  1.8494146e-01
 -2.2826312e-04
 -3.0627948e-01
 -9.1841401e-05
 -9.9828365e-05
  7.4341056e-05
  4.4464057e-05
 -1.3078171e-04
  6.1674502e-02
 -3.7062718e-03
 -1.8491608e-01
  2.6062423e-01
 -1.5624897e-01
 -3.6992540e-03
  1.1422548e+00
  3.9544594e-03
 -5.3250888e-06
  5.4021352e-06
  3.6121596e-02
 -6.8938847e+00
 -9.8084253e-01
  8.6281194e-05
 -1.2727748e-04
 -8.6852247e-03
 -6.6839710e-02
  1.5802056e-04
  2.2976678e-02
 -4.2959838e-04
  1.0895416e-04
 -9.1322237e-01
 -4.0808860e-05
 -7.4043842e-03
  8.2548948e-05
 -5.7325423e-01
  3.0456534e-01
  3.2749647e-04
  3.4449473e-05
 -3.4619188e-05
 -5.3642671e-06
 -2.1185783e-04
  1.8091725e-05
 -1.0764492e-01
  5.2904263e-05
 -7.4503064e-02
  2.8575814e-01
  6.2670477e-02
  1.1797696e-02
  1.0822023e-01
 -3.2962486e-02
  9.0508610e-01
  7.4295357e-02
 -2.7672729e-02
 -3.1826705e-01
  1.3588206e-01
  4.0372115e-02
  6.6717132e-03
  5.7174228e-02
  4.7799642e-04
  2.4157822e+00
 -2.2858624e-01
 -1.0812825e-01
  2.2254515e-02
 -8.0996551e-02
 -1.5771139e-01
  8.2293160e-02
 -1.5980069e-02
  3.3502568e-02
  2.7625915e-01
 -5.0031400e-01
 -4.5962682e-01
 -3.2989743e-01
  7.2249160e-03
  5.9302133e-01
 -5.1558416e-02
  1.6126370e+00
 -1.1140224e-01
  1.7470126e+00
  2.4310572e-01
  3.3780009e-01
  2.5361538e-01
 -5.0679612e-01
  2.1493584e-03
  5.2227402e-01
  3.1206107e-02
  3.1290565e-02
 -7.6960331e-01
 -2.6620913e-01
  2.9631501e-01
  1.8883023e+00
 -1.9728607e-01
 -1.2351366e-01
  6.1325930e-02
 -2.1940625e-01
  1.3344105e-01
  8.0539390e-02
 -8.7706819e-02
 -3.3951893e-02
 -7.1020412e-01
 -7.9779522e-03
  2.9610163e-01
  1.0565472e+00
 -7.5583971e-01
 -2.7168679e-01
  6.1285365e-01
  7.7093825e-02
 -6.2173265e-01
 -1.9515736e+00
 -1.1782448e-02
  7.9322740e-02
 -5.7166225e-01
 -2.7047554e-01
 -8.8508785e-01
  4.0278725e-02
 -1.7512180e-01
 -4.6544638e-01
 -1.7076649e-01
 -3.4916770e-01
  2.0063071e-01
 -1.8973765e-01
 -7.5270832e-02
 -7.8775960e-01
  1.1078762e-01
 -5.1914234e-02
  7.4623893e-03
  1.2400818e+00
 -8.0932282e-02
 -2.5933045e-01
  1.5107957e-01
 -4.2016838e-02
  8.8306293e-02
  7.0523083e-02
 -9.1310374e-02
 -5.6827772e-02
  6.3987076e-01
 -1.8577367e-01
 -4.8927286e-01
  1.0554567e-01
  1.5388881e-02
  4.9499354e-01
  7.7121141e-03
  4.9760524e-02
 -9.4858214e-02
  1.7318639e-04
 -4.9738321e-02
  1.8658401e-02
  1.3596979e-01
  2.3117391e-02
  4.3047699e-01
  2.7776511e-02
 -8.7590940e-02
 -1.6403552e-02
 -1.5058222e-01
 -1.2153479e-02
 -2.1324146e-01
  1.8103120e-01
 -5.2577755e-03
  1.8238127e-01
  3.1012027e-02
 -8.1222951e-02
 -5.9251867e-02
  2.0411916e-03
  1.0766573e+00
 -2.8658167e-01
 -3.8677666e-01
  1.4143465e-02
 -1.8698467e-04
  1.5911143e-01
  9.5612124e-02
 -1.4331737e-01
  4.3493605e-05
  6.4617312e-01
  3.5840586e-01
 -6.6868477e-02
  1.7092815e-04
 -2.6416478e-01
  2.4867453e-01
  5.1032841e-01
  2.1566056e-01
 -3.3445549e-01
  1.3548709e-03
 -5.9441966e-01
 -3.8646594e-01
  5.2669063e-02
  5.7703412e-01
 -4.9066622e-02
  9.4232865e-02
  7.6942623e-02
 -5.6192517e-02
  1.2167135e+00
  4.1164432e-02
 -1.5971547e+00
  2.9161909e-01
  6.7806000e-01
  5.5179679e-01
 -4.5688421e-02
 -9.8014705e-02
  1.3537788e-02
  2.6905353e-03
  1.4412393e-01
 -7.9907216e-02
  4.7682658e-02
 -1.7710939e-01
  4.2225295e-01
  6.9592655e-01
 -1.6371824e-01
 -6.8010008e-01
  1.2369128e-01
 -1.5106271e-01
 -2.6872900e-01
  6.2880740e-02
  8.3167508e-02
  2.1790286e-06
  8.8042021e-04
 -6.3499115e-02
 -5.2024610e-02
  8.3905405e-01
 -1.9520105e-01
 -4.7970839e-02
  2.1195488e-01
  4.6759704e-01
  2.2000484e-01
  5.9362225e-02
 -1.3582575e+00
  3.6680049e-01
  1.6188530e+00
  3.8312882e-01
 -7.5354952e-01
 -2.4973589e-01
 -9.6999830e-01
  7.4164891e-01
  7.3993880e-01
 -5.3765255e-01
  1.6619870e-03
  7.3486185e-01
  3.5989073e-01
 -1.0156500e+00
 -8.8881040e-01
 -3.4287903e-01
  2.8190184e-01
  2.1374841e+00
 -1.4461936e+00
  8.5162735e-01
  4.0542391e-01
  1.0911257e+00
  1.7245874e-01
  1.7348394e-01
 -1.4656325e-02
  3.1965706e-02
  8.8620728e-01
  6.8523878e-01
 -1.5450217e+00
 -1.6709037e-01
 -1.3406487e-01
 -3.7974569e-01
 -4.0319344e-01
 -1.5766582e+00
 -1.6383896e-02
  1.0542803e+00
  7.3403344e-02
  2.8699452e-02
 -8.5528326e-01
  1.2355864e+00
  9.0765667e-01
 -1.6412881e-01
  6.8680263e-01
  1.6769166e-01
 -3.9832976e-02
  2.1927796e-02
 -4.2607483e-01
  9.9928153e-01
  6.5080208e-01
 -7.4944180e-01
 -6.2323236e-03
  3.9310199e-01
  4.7817219e-02
 -9.6219462e-01
 -5.9106946e-01
  6.5489483e-01
 -2.6417844e-02
 -1.6404493e-01
  1.5536593e+00
 -1.9122510e-03
  5.9729165e-01
 -3.4136427e-04
  1.5146030e-01
  4.8279155e-02
 -8.5051537e-01
 -5.0028390e-01
 -3.0193886e-01
 -6.7981505e-01
  1.4671716e-01
  2.4639022e-02
  9.6237890e-02
  1.6663063e-01
  2.4325742e-01
  6.5785900e-02
  1.3085424e+00
 -1.1830819e+00
 -1.0105150e+00
 -3.1001768e-01
  4.3417558e-01
  6.6128656e-02
 -2.7159724e-01
 -1.3150527e+00
 -5.0026977e-01
  5.2576207e-02
  1.2303647e-01
 -5.6027639e-01
 -2.9234421e-01
  1.4300048e-01
  9.6702427e-02
 -2.0809476e-01
  1.8744722e-02
  2.5631478e-01
 -2.8025350e-01
 -6.6105969e-02
  2.9206130e-01
 -2.8885302e-01
 -3.8271975e-02
 -2.4555719e-01
  1.4402013e+00
  4.0902233e-01
  2.5811464e-01
  6.3865811e-01
  5.0247139e-01
  4.5700449e-02
 -3.6589259e-01
 -1.2594485e-01
  1.5848815e-01
  1.8778840e-01
  4.0773895e-01
  1.1051576e-01
 -6.1301604e-02
  7.1013533e-03
 -1.7470356e-02
 -7.9327101e-01
  3.9259884e-01
  3.0568653e-01
  2.2609499e-01
 -5.4913528e-02
  7.3136663e-01
  8.4697872e-01
  2.7713135e-01
  2.0915242e-01
  5.3553347e-02
 -4.4854385e-01
  1.0049862e-01
 -6.3031338e-02
  3.5567814e-01
  6.1544158e-02
  3.4749694e-02
  5.2877128e-02
  1.8034440e-01
 -6.4958334e-02
  6.4189158e-02
  1.0943525e-01
  5.3643256e-01
  1.4597195e+00
 -4.2280978e-01
  5.0674118e-02
 -1.5053970e+00
 -4.1350308e-01
  2.1290819e-01
  3.5094351e-01
 -1.6246624e-01
  3.7804735e-01
 -8.1100178e-01
 -2.9502502e-01
  1.9536710e-01
 -1.0893907e-01
 -6.6205508e-01
 -1.1910564e-04
  2.8413633e-04
  2.1888758e-01
  3.9333078e-01
  3.3430624e-04
  1.3520312e-01
  1.9528527e-02
 -1.9625385e-01
  1.4528941e-01
 -3.5856616e-01
 -4.1214290e+00
 -2.3601340e-01
 -4.3827072e-02
  9.2897721e-02
 -7.0014936e-01
 -1.1513912e-01
  5.8071181e-02
  1.4261404e-01
 -5.9048976e-05
  2.5643262e-01
 -5.5182701e-01
 -9.9549617e-04
  2.0185722e-01
 -1.2564185e-01
  4.0682986e-01
 -3.1516182e-03
 -1.6861550e+00
 -2.1729025e-01
 -6.2980890e-01
 -2.6510409e-01
 -4.6030769e-01
 -1.1380152e-01
  6.9635019e-02
  6.6745156e-01
 -4.6775020e-03
 -5.1296141e-04
  6.3257699e-05
 -8.9354414e-01
  5.3918576e-01
  7.8921445e-02
  5.9521353e-01
 -7.3659591e-02
  1.2069259e-02
  1.0770954e-01
  6.4449623e-02
  1.0676056e+00
  2.4372557e-01
 -7.3676199e-01
  2.0915050e-02
 -4.3733791e-01
 -1.1067158e-01
  2.3013580e-01
 -9.7114779e-02
 -6.2713705e-02
 -1.1986098e-01
 -2.9346105e-01
 -8.5926446e-04
 -7.6882825e-03
  1.7284316e-01
  4.1200036e-01
  1.5177201e+00
  2.3540969e-01
 -3.1448144e-01
 -2.1308230e-02
  5.3420544e-01
  5.2699327e-01
  3.5180417e-03
  7.3467410e-01
 -2.7075866e-03
 -6.3738418e-01
 -1.0368700e+00
 -2.7684801e+00
  2.5501874e-01
  4.8653948e-01
 -7.9983592e-01
  8.3079159e-01
  6.5879449e-02
 -8.7167457e-02
 -9.6300781e-02
 -1.1087685e-02
  1.6035086e+00
 -9.6704066e-02
  4.7797111e-01
 -4.0070772e-01
  1.5091282e-02
  3.4004071e-01
  6.7533087e-03
  3.9370862e-01
  3.2965802e-02
 -2.1869263e-01
  3.9194667e-01
  6.4956553e-02
  2.2419114e-02
  4.5579905e-06
 -4.5397013e-02
  6.6669448e-04
  4.5512202e-01
 -2.6706120e-03
 -4.1034490e-01
 -4.1978240e-01
  1.4010403e-01
 -5.0238837e-03
  1.9487491e-01
  5.5527312e-01
 -9.3506475e-04
 -6.3258195e-01
  8.9760907e-03
  1.6228664e-01
 -1.1205994e-01
 -2.6173958e-01
  7.4762790e-03
  1.8145164e-02
 -3.3660729e-03
  2.3242084e-02
 -3.5838116e-02
 -1.5562414e-01
  8.8351741e-02
 -1.0817458e-02
  6.6452868e-02
 -3.1209895e-01
  4.2032991e-03
 -8.9469239e-02
 -8.6126201e-02
 -5.7373912e-04
  2.6379112e-02
  3.2095208e-03
 -1.9707339e-01
  1.0565388e-01
 -1.6705037e-04
  4.6142574e-02
  4.8026094e-01
  4.0249474e-02
 -1.6399897e-03
 -1.6588902e-02
  6.6530608e-02
 -1.6933602e-01
  1.3216452e-01
  3.2723337e-02
  5.6242831e-02
 -9.0116932e-04
  4.2875274e-04
 -8.6363256e-02
 -4.7957484e-02
 -5.1692766e-03
 -2.0773523e-02
 -1.1078375e-02
  1.3330778e-01
  7.1733450e-03
 -5.1560551e-01
 -1.8681630e-02
  1.6044362e-02
 -1.1512540e-01
 -2.9368700e-02
 -6.3164295e-03
 -7.9352655e-02
  1.6241332e-03
  2.9822630e-01
 -4.7810417e-01
  4.7730714e-02
  6.1347145e-01
  7.0268854e-02
  3.9194366e-01
 -1.3601609e-03
  1.7781089e-01
 -1.1504744e-01
 -8.4751707e-01
  1.5724602e-01
 -2.4125528e-01
  1.1015547e-02
 -2.9646168e-03
  3.9770874e-01
  5.1778011e-02
 -1.7507035e-02
  2.1742593e-02
 -8.2491666e-02
 -1.7014016e-01
  2.3876974e-01
 -1.3431452e-02
  7.4683242e-03
  1.8622611e-01
  2.5496146e-01
  1.9747449e-02
  1.2068129e-01
  6.8641491e-02
 -2.7053005e-01
  6.7136511e-02
  7.1279639e-03
 -1.3301779e-01
 -1.4704782e-01
  2.1875265e-01
  5.7418186e-02
 -2.6864087e-02
  1.2097275e-03
  4.8684832e-04
  1.7643825e-03
  2.5467588e-02
  3.3491293e-01
 -1.0882338e+00
  6.2270257e-05
  2.1776885e-01
  4.7597054e-02
 -1.9527282e+00
 -1.2075205e-02
 -6.9877899e-01
  2.5127068e-01
 -3.0777401e-01
  1.8625376e-03
  7.8671992e-01
 -4.8206434e-01
 -1.0566829e+00
  1.6558948e-01
 -6.8126209e-02
 -7.5459695e-01
  3.7320387e-01
  1.5328340e-01
 -9.1949642e-02
  4.9640268e-01
 -5.4300952e-01
 -8.5420102e-01
  7.4584478e-01
  5.8927417e-01
  1.3481082e+00
 -3.4408349e-01
  3.6068040e-01
 -1.2755723e+00
  6.5574032e-01
  1.1250766e-01
 -6.9770113e-02
  6.5849966e-01
 -2.9025203e-02
 -9.9061060e-01
  3.3728706e-03
  2.6665175e-01
  1.5133724e-01
  1.3212068e-01
  1.2943114e-01
 -2.8645352e-01
  6.2005931e-01
  2.8426258e-02
 -2.4886405e-01
  2.6073903e-01
 -2.6678871e-02
  1.7291035e-01
  3.6526410e-04
  4.3088156e-01
  5.1238668e-01
  4.4050211e-01
 -1.1671984e-02
  9.9416584e-01
  5.0695479e-01
 -2.0077808e-01
 -3.1965889e-02
  7.7460998e-01
 -5.0839543e-02
  2.7780566e-01
 -1.4088425e-01
  1.8784349e-01
  1.0857717e+00
  1.1761843e-01
 -3.6379886e-03
 -6.4904086e-02
  2.1166344e-01
 -8.1247330e-02
 -3.4750473e-01
 -1.6716413e-03
 -1.7697382e-01
  8.9751355e-02
  3.8226601e-02
  2.7327186e-01
 -1.2976626e-01
 -7.5094406e-03
  2.2835089e-03
 -3.9973798e-01
 -6.7874777e-01
  4.4365475e-01
  8.4454883e-03
 -1.4401373e-01
 -2.2214842e-01
  1.7791916e-02
 -2.6531687e-02
 -5.8355536e-03
 -3.2885421e-02
  8.6935639e-01
 -3.4923896e-01
 -3.0160770e-01
  8.8294196e-01
  7.9716593e-02
 -3.3302193e+00
  2.6564310e+00
 -9.8719126e-01
 -4.1892286e-02
 -5.0810659e-01
  3.0156770e-03
  1.6494006e-01
  4.7498584e-01
  5.7776287e-02
  4.0769273e-01
  8.9783365e-01
  6.5439904e-01
 -1.5986419e+00
 -1.9015066e-01
  1.8051170e+00
 -2.0498711e-01
 -5.6739223e-01
 -2.5517341e-01
  4.1267058e-01
 -3.6718872e-01
  1.3170414e+00
 -4.6287537e-01
 -9.5464336e-04
  4.6216536e-01
  1.9294925e-01
 -1.0493442e-01
 -2.2531845e-01
 -1.9479822e-01
 -1.1360601e+00
  6.1350250e-01
 -2.7086269e-02
 -7.0990331e-02
 -8.4083647e-02
  1.5556203e+00
  1.4936250e-02
  1.0186488e-01
  4.7844406e-02
  3.8829786e-01
 -2.0619506e-01
 -1.3124921e+00
 -2.3996127e-01
 -6.5787858e-01
 -1.7243626e-02
  1.8254509e-02
  1.0648764e-01
  1.8743505e+00
  3.1585523e-01
 -2.6165679e-01
 -4.7717744e-01
 -1.6220439e-02
  5.1837313e-01
 -2.1461375e-02
 -1.6166441e-01
 -1.5739956e-01
  7.3606539e-01
  6.1911720e-01
 -4.2992774e-02
  4.6334749e-01
 -1.5986156e-05
  6.0456109e-01
 -8.6124200e-01
  7.2133142e-01
  1.4711367e-01
  6.2445626e-02
  7.9059871e-03
  6.3451551e-02
 -8.8090813e-03
 -2.4158369e-04
  1.4477438e-02
 -2.1658219e-01
  1.2261474e-01
 -2.5464162e-01
  1.1442398e+00
 -7.1055436e-01
  1.4781396e-02
  1.1492281e-01
  4.4804616e-04
  3.5568994e-02
  4.2354452e-04
  5.7323487e-03
 -5.8917832e-03
 -3.3121760e+00
  1.2554541e+00
  9.8775551e-02
 -6.6277154e-02
 -1.1989394e-04
  5.9949750e-01
 -9.9234068e-01
  3.0509956e-02
 -2.2239020e-02
  1.3257394e+00
  2.7317578e-01
 -1.7155017e-01
  5.2660078e-01
  2.9172402e-04
  1.1246417e-01
 -1.0245366e+00
 -2.2500858e-01
 -4.8064005e-01
  2.3438935e-01
 -1.5021770e+00
 -1.2344137e+00
 -1.2378754e-01
 -2.2205250e-01
  2.1254111e-02
  2.8984365e-01
  3.2324631e-02
 -4.4929254e-01
  7.1890271e-01
  1.3937390e-01
 -9.0668845e-01
 -1.4238735e+00
 -5.6082505e-01
 -2.3840059e-01
 -5.0580198e-01
 -1.0059903e+00
  5.8025718e-02
 -2.2657344e+00
  5.5334115e-01
  5.9133482e-01
 -6.4013851e-01
 -1.0767690e-01
  8.9763530e-02
 -1.8479606e+00
 -4.7819746e-01
  4.2700523e-01
 -1.4332220e-01
  6.2726691e-02
  1.0739850e+00
  2.5989813e-01
 -1.1823734e-03
 -1.3257649e+00
  3.3565375e-01
 -1.7725945e-01
  2.8625363e-01
  2.8180853e-01
 -3.9759025e-01
  4.6784842e-01
  2.9533452e-01
  7.8423584e-01
  9.5452331e-03
 -1.7136024e-01
  1.7584722e-02
  1.0193754e-01
  1.2611170e+00
  5.3703684e-02
 -3.4170739e-02
  5.6650136e-02
  7.9232872e-05
  3.4212247e-02
 -6.1512673e-01
  5.2550834e-02
 -4.9177062e-04
  4.1100629e-02
 -1.7673414e-02
  6.1648451e-02
 -2.8821114e-03
  2.5852141e-01
  4.8898721e-01
  2.8556901e-01
  1.5187553e-01
  4.2871609e-03
  2.3895895e-01
  2.4845168e-02
 -9.9574253e-02
 -9.6137220e-01
  5.3912148e-02
 -8.3411232e-02
 -1.2870632e-01
  5.0011110e-02
 -2.0734410e-01
 -2.4623482e+00
 -3.9480683e-01
  5.0248188e-01
 -3.2527453e-01
  2.2188025e-02
 -1.8204333e-01
 -5.1682740e-01
  7.3362947e-02
 -1.8805133e-01
  9.4921392e-01
 -3.8466454e-02
  9.4175899e-01
  2.5696793e-01
  9.5397800e-02
  1.2267245e-01
  2.2684042e-01
  1.3029142e-01
  4.8663016e-02
  2.5522915e-01
  7.8715935e-02
  8.7245964e-02
 -1.8120150e-01
  2.4129437e-01
 -8.8001311e-02
 -1.0927178e+00
 -3.0027181e-02
  2.7157623e-01
  1.4385365e-01
 -3.3553019e-02
 -2.0016590e-01
  6.5749452e-02
 -9.4866775e-02
 -7.5225279e-02
  1.0024767e-02
  1.3610780e-01
  4.3159433e-02
 -1.2814285e+00
 -1.4958386e-01
 -2.8842365e-02
  2.3430923e-03
  8.4070936e-02
 -6.5108323e-01
 -9.4016120e-02
  1.7365289e-01
  3.0846586e-02
 -5.2228343e-01
 -1.4039432e-01
  4.6507809e-01
  4.9625088e-02
  5.5037439e-01
 -2.6158361e-02
  1.3310850e-01
 -5.4386225e-02
 -1.4046434e-02
 -1.4363605e+00
  8.5507475e-02
  1.5571638e-02
  1.6484407e-01
 -9.0939451e-05
  4.1903090e-02
  2.2763072e-01
 -2.2363731e-01
  4.2357463e-01
 -3.2786313e-01
  6.1915260e-02
 -5.7796024e-02
  2.0259466e-02
  3.0851373e-01
 -8.0423869e-02
 -6.7585714e-02
 -1.1918823e-01
 -2.8440249e-01
  8.5302085e-01
  1.7431641e-01
  1.6305603e-01
  3.7836653e-01
 -2.4019133e-02
  8.3665788e-02
  6.0534701e-02
 -9.8756351e-02
 -2.1194316e-01
  5.0012155e+00
  5.2332263e-03
  3.0293787e-01
  6.9057763e-01
  1.3011234e-03
 -9.2350259e-02
  5.1026380e-01
 -9.8335004e-01
 -1.0312027e-01
  1.8576826e+00
  4.0493819e-01
 -3.6307454e-01
 -6.3930798e-01
  2.3958255e-01
 -8.0492741e-01
 -1.0537804e+00
 -2.0982407e-01
  8.5592724e-02
 -3.8727733e-01
 -2.8744543e-01
  5.0079290e-02
 -2.9169506e-01
 -1.9416378e-01
  1.2457633e-01
  1.9756024e+00
  4.1008970e-01
  1.6068712e-02
 -3.7487509e+00
 -1.5277560e-01
 -7.0367898e-03
 -2.0693152e-03
  4.5398001e-02
  4.3825123e-02
 -7.7766722e-01
  4.1432065e-01
  2.0183745e-01
 -1.4867780e+00
  6.6875391e-02
 -1.4021883e-02
 -4.1298166e-01
  5.2017784e-01
  5.5485106e-01
 -4.4677399e-02
  5.7630867e-02
  8.6298533e-02
 -1.7823108e-01
 -1.7061539e-04
 -3.9819095e-01
 -5.5430150e-01
  4.1166425e-02
  4.1166425e-02
  4.1166425e-02
  4.1166425e-02
  4.1166425e-02
  5.2353222e-02
  5.2353222e-02
  5.2353222e-02
  5.2353222e-02
  5.2353222e-02
  3.2133177e-02
  3.2133177e-02
  3.2133177e-02
  3.2133177e-02
  3.2133177e-02
  1.7865723e-02
  1.7865723e-02
  1.7865723e-02
  1.7865723e-02
  1.7865723e-02
  7.9222042e-03
  7.9222042e-03
  7.9222042e-03
  7.9222042e-03
  7.9222042e-03
  1.4747174e-02
  1.4747174e-02
  1.4747174e-02
  1.4747174e-02
  1.4747174e-02
