nep4 3 K Ca Br 
cutoff 8 4 78 13
n_max 4 4
basis_size 10 8
l_max 4 2 0
ANN 80 0
 -1.1372724e+00
 -7.7683288e-01
  1.2633124e-01
 -1.2464839e-01
  1.4950557e-01
 -2.5743968e-03
 -4.0794167e-04
  5.0013573e-03
 -1.2804329e-02
  3.0635407e-02
  4.2998651e-03
 -1.7596775e-01
 -7.2937743e-03
 -6.8785981e-03
 -2.1766005e-02
 -3.5110720e-02
 -2.7313402e-01
  4.9547214e-02
  6.1784787e-03
  3.0625917e-03
  1.3624836e-02
 -1.1546338e-03
  1.6634136e-02
  4.1324756e-01
 -1.4327526e-02
 -4.0580146e-02
 -1.0438130e-04
  5.1920046e-03
  6.7108753e-03
  1.5320854e-02
  7.2145071e-03
  2.1914337e-02
 -8.8880427e-02
 -2.1100629e-04
 -2.7210798e-02
 -1.0956723e-01
  1.5171252e-04
  1.2537053e-02
  8.5232891e-03
  1.8708869e-03
 -2.0125316e-02
 -6.0713231e-03
 -1.2970356e-02
  2.2458220e-02
  6.6826185e-03
  7.5164759e-03
 -2.3680560e-02
  2.9392872e-02
  2.4344621e-02
  1.9933527e-02
  2.1561168e-02
 -4.9016144e-02
  4.9348916e-03
  3.9622234e-03
  2.0664569e-02
  1.2506478e-02
  7.4087740e-03
 -6.1382819e-03
  7.6112850e-03
  1.1703511e-02
 -6.0879406e-02
  2.9123306e-01
  5.4197341e-02
  1.3181798e-01
 -1.3807549e-01
  4.8086452e-03
  1.7048871e-02
  5.3920704e-03
  9.8435767e-03
  9.4964606e-04
 -6.4874394e-03
 -2.4451260e-02
  1.2208032e-02
  1.6760716e-02
  5.7949731e-03
 -1.3593780e-02
 -3.5708275e-02
 -3.0619639e-03
  1.1446449e-02
  1.6850578e-02
  7.9340190e-03
  1.1855383e-02
 -1.1368216e-02
  2.8534976e-03
 -4.2464384e-03
 -6.9767288e-03
  2.7315233e-02
  5.8098878e-03
 -4.3021743e-03
 -7.1666211e-02
 -9.2505492e-02
 -1.8081778e-01
  2.8165221e-02
  1.3503964e-02
 -6.1578336e-03
 -1.2539151e-02
 -3.2775018e-02
  8.2311668e-02
  2.2821236e-02
  2.4094354e-02
 -8.0123497e-03
 -4.3845166e-02
 -1.9343430e-02
 -3.5252655e-04
 -5.0104015e-02
  1.5531285e+00
  1.5353612e-02
  1.2889342e-02
 -1.0032755e-02
  2.7175793e-02
  1.4538755e-02
 -4.3897363e-03
  6.7629093e-01
  1.6616419e-02
 -3.1976800e-02
  2.5682284e-02
  8.8127945e-03
 -4.2720763e-03
 -2.8534003e-03
 -1.4590285e-02
 -2.1951720e-03
 -1.4965649e-02
 -7.3629953e-02
 -3.9520138e-03
 -1.5707370e-02
 -3.0479651e-02
  8.2467478e-03
 -1.3183653e-02
 -1.3957449e-02
  1.1132961e-03
 -9.4895624e-03
  1.4288628e-02
  9.6309204e-03
  8.1095872e-03
  3.6497186e-03
  1.3245874e-03
  1.8653449e-02
 -1.2183197e-02
 -1.3102333e-01
  9.5085782e-04
 -3.5929475e-05
 -1.8434659e-02
 -9.2236130e-03
  5.5930633e-02
  1.2827976e-02
 -1.1558052e-02
 -1.2346795e-02
 -1.6920565e-02
 -2.9989916e-03
 -3.7982788e-02
 -5.6885195e-01
 -5.2090187e-02
  2.2835774e-02
  1.4898315e-01
 -1.7824267e-01
 -1.0458020e-02
  1.0859616e-02
  1.0644031e-03
 -2.0619625e-02
 -2.5584113e-02
 -1.3493631e-02
  2.5335234e-02
  1.4291457e-02
  2.8221114e-02
 -6.7277080e-03
  3.0942407e-02
  4.1003194e-02
 -5.2471715e-03
  8.3001507e-03
  2.9431577e-03
  3.6036668e-04
 -2.7236519e-02
 -3.5871174e-03
 -1.5011230e-03
  4.4688869e-01
  2.9446597e-03
 -1.3170272e-02
  3.1826727e-03
  1.2042534e-02
 -7.1637876e-02
 -3.2928643e-01
  3.9702695e-02
 -2.7213329e-01
 -1.9669248e-01
 -1.1265530e-01
 -7.6899332e-01
 -5.9731317e-01
  4.4670716e-01
  1.9521362e-01
  1.8626620e-01
 -1.6324865e-02
  6.2330359e-01
 -1.0713192e-01
 -4.8610541e-01
 -1.0282912e-01
  1.9201759e-01
 -6.3633186e-01
 -2.6912495e-01
  4.8824394e-01
  2.3844130e-02
  7.0254916e-01
 -1.4648457e+00
  3.3823249e-01
  5.1265806e-01
  7.1900405e-02
 -1.3711549e-02
  8.3695307e-02
 -7.3816506e-03
  2.2473132e-02
  6.3178241e-03
 -1.5915627e-02
  2.9107106e-01
  1.5321253e-01
 -1.2957706e-02
 -3.6435754e-03
 -9.4970398e-02
 -3.2491984e-03
 -2.4565756e-02
 -1.8099947e-03
  3.7060824e-04
 -1.7081026e-02
  6.0120304e-03
 -1.8082048e-03
 -4.5244633e-03
  1.5427784e+00
  1.3030997e-03
  5.5060196e-03
  2.0469201e-03
 -3.7331400e-03
  1.6264776e-02
 -3.7327860e-03
 -1.4348292e-01
  6.4591966e-03
 -9.7478308e-02
  4.1616678e-02
  3.5868227e-03
  1.3402180e-02
  6.0857069e-03
 -2.4623809e-02
  1.3342536e-03
 -1.2075056e+00
 -5.4093428e-02
  1.8538151e-02
 -1.8905271e-02
  6.8777283e-03
 -4.8559173e-03
  1.9889791e-02
 -1.1294243e-02
 -1.9767927e-03
  1.8463422e-02
 -7.3148506e-03
 -6.4606510e-02
 -6.3029169e-03
  2.1511284e-03
  9.2226658e-03
  3.2148842e-02
 -4.3383046e-04
 -1.7352121e-01
  3.1755414e-02
 -3.2481324e-04
  4.6511083e-03
  2.4851087e-02
 -9.0585701e-02
  2.0969573e-02
  3.1609632e-02
  3.6197500e-03
 -3.5936972e-03
 -1.0839635e-02
  9.1198673e-03
 -5.7532592e-03
 -1.7817174e-01
 -3.4591518e-02
  3.3670619e-01
 -3.9346886e-01
 -3.8657230e-01
 -1.6906259e-03
  1.9334566e-02
  3.2070181e-03
 -1.5310478e-02
  4.7810106e-03
 -2.1021476e-02
 -1.7223552e-02
  1.1010675e-02
 -1.2837434e-02
 -1.2031059e-02
  6.4294927e-02
  2.8092997e-02
  1.2254956e-02
  7.8127468e-03
 -6.8798540e-03
  1.4288383e-02
  4.1565623e-02
  2.5817165e-02
 -1.2992394e-01
 -8.0230035e-04
 -1.9950287e-02
  2.7378397e-02
  6.8647382e-03
 -1.0488194e-03
  1.7206136e-02
 -2.0412448e-01
  1.4790315e-02
  1.4354148e-03
 -6.8035902e-04
 -3.2725099e-02
  1.6939085e-02
  7.5562568e-03
 -1.9562697e-02
 -2.4595147e-02
 -4.8584184e-03
 -3.6485100e-03
 -1.0579624e-02
 -1.8145345e-02
 -7.3314165e-03
  4.5608953e-03
 -1.5744973e-02
  2.1354541e-02
 -6.4779200e-02
 -1.0775362e-02
 -4.6820110e-03
 -9.9863736e-03
 -7.3264167e-03
 -9.6090566e-03
 -2.2423627e-02
 -2.6844561e-03
 -1.1351800e-02
 -2.6924826e-02
  3.9351769e-02
  1.9717863e-02
  2.0170110e-01
  1.7712097e-01
 -6.9866574e-01
  8.8634409e-02
  1.0633929e+00
  1.9739926e-01
 -6.1968114e-04
  4.2803016e-02
  2.3628962e-03
  7.2502727e-03
 -4.4932039e-03
  1.4822018e-02
  7.9867616e-03
 -2.0532364e-02
 -4.7852013e-02
 -9.8330127e-03
  8.4137795e-03
  6.7538167e-03
  1.2188165e-02
 -2.9068838e-03
  2.0140249e-02
 -1.5885698e-02
  3.4819577e-02
  5.6089801e-03
 -1.2967044e-02
 -2.3377653e-02
 -2.4422700e-02
  1.8955691e-02
  3.2286886e-02
  6.6582090e-03
 -2.8245408e-02
  2.5954536e-01
 -4.2641678e-01
  6.5515554e-03
 -9.9484696e-06
 -7.8905515e-02
  3.2424763e-02
 -5.9233611e-03
 -2.5314851e-02
 -6.5613720e-03
 -6.0835341e-03
  9.1310218e-03
  7.9427502e-04
 -5.0284774e-03
 -8.4173083e-03
 -1.2401737e-03
  2.3352090e-02
  9.1909869e-03
  2.9975578e-02
 -1.3906921e+00
 -7.0051677e-03
  2.4594816e-03
  6.5908143e-03
 -1.1934206e-03
 -8.0962079e-03
  1.3597691e-02
 -1.1788055e-02
  9.3135620e-03
 -3.6683909e-03
  3.3490830e-03
  3.1499546e-02
  6.0917895e-02
  6.7734277e-01
 -1.6771682e-02
  1.8531093e-02
  7.2509376e-03
 -3.8213457e-03
 -2.1760281e-02
 -5.4848935e-03
  4.9600140e-03
  2.8093966e-02
  1.0143382e-02
  3.0583812e-02
 -3.5754011e-03
 -1.7809035e-02
 -2.6855929e-02
  1.2213763e-02
  1.3749073e-02
 -4.7394959e-03
  3.3699239e-03
 -9.2723072e-03
  2.2840129e-02
  8.6082248e-03
  7.7185808e-03
 -4.4139638e-03
  7.2279363e-03
  3.1329904e-02
 -3.9588748e-03
 -1.2487085e-02
  3.7719046e-03
 -5.3315917e-03
  7.5283763e-03
 -1.6836731e-02
 -4.2856042e-03
  1.8566093e-01
 -8.3108097e-03
  3.6953012e-03
 -8.5721971e-05
  2.0622052e-03
 -4.5671226e-03
 -4.4868357e-02
 -1.6735831e-02
 -5.0786953e-02
 -2.4251810e-03
 -8.1574274e-03
  2.5954267e-03
  7.9841577e-03
 -2.7226027e-02
 -5.0815181e-03
 -2.1585047e-03
  9.8511092e-03
 -1.1321386e-02
 -2.3353366e-02
  1.5682096e-02
  1.6774780e-03
  5.5617415e-03
  1.2954615e-02
 -2.1072850e-02
  1.1264308e-02
  5.9006736e-04
 -5.0248397e-03
  6.2175885e-02
 -8.3621961e-01
 -1.0214070e-02
  2.0155178e-01
 -5.6682330e-02
 -9.5396268e-04
 -3.9782589e-03
  1.6073132e-02
  1.4150189e-02
 -1.3165947e-02
  2.8328761e-03
 -5.5527750e-02
 -2.5923687e-01
 -9.2023903e-01
  5.0621051e-03
 -1.8592607e-02
 -4.9446717e-01
  7.5386874e-03
  8.1049241e-03
  8.4439054e-04
  2.6244177e-03
 -6.0577947e-03
 -5.2019604e-06
 -3.1848592e-03
 -6.7358636e-03
  1.1318455e-02
 -1.0126083e-03
  1.0622341e-02
  8.3490752e-04
  2.2455202e-02
  2.3165126e-03
 -4.9939001e-04
  2.0627689e-02
 -5.9752758e-03
  5.8840658e-03
  2.0452384e-03
 -8.8342754e-03
 -2.1676442e-03
 -8.2715740e-03
  2.6967403e-02
  3.6478140e-03
  3.1238779e-02
 -8.7052053e-03
  1.3711604e-03
 -1.9489380e-03
  2.0894872e-02
 -6.0934233e-03
 -1.4749471e-02
  6.9951313e-03
  1.0483545e-03
 -1.8195711e-02
  5.2697290e-02
 -1.4044021e-02
 -1.9741723e-02
 -2.3889497e-03
  2.9212432e-02
 -5.8844700e-03
 -6.0850331e-03
  9.2077345e-02
 -1.1879489e-02
  7.0367552e-02
 -2.4824488e-01
  2.9482520e-01
 -1.4617451e-01
 -5.7005212e-03
  1.6593945e-03
 -4.9303593e-03
  3.3040296e-03
 -6.0026179e-04
 -2.8977269e-02
  1.3127854e-02
  1.0348440e-02
  6.6774487e-03
  2.2780083e-02
 -2.0641545e-02
  7.9422146e-03
 -9.1724197e-04
 -6.2543363e-03
  5.1210816e-03
 -1.0372464e-02
  1.2599194e-02
  1.4535973e-02
  8.1225875e-04
 -3.6707312e-02
 -3.8362686e-03
  1.0331624e-02
 -2.9392542e-02
 -2.2657828e-03
 -2.6384605e-02
 -3.5055928e-02
  8.0845827e-01
  4.0457647e-02
  3.9939165e-02
  4.4533831e-01
 -2.0632984e-01
  3.4656301e-02
  4.3205703e-03
 -1.7696440e-04
  1.1860703e-02
 -1.5989615e-02
  2.4167035e-02
 -2.4602480e-02
  1.6900769e-02
  6.5921150e-02
  2.8481553e-03
 -1.0314384e-03
 -1.1555472e-02
  2.0453038e-02
  8.8250474e-04
 -7.8321602e-03
 -6.9902814e-03
 -3.5573209e-03
  2.6284611e-02
  1.0231423e-02
  3.6857221e-03
  2.3452002e-04
  3.0568354e-03
  1.6913643e-02
  2.5990540e-01
 -9.8343529e-03
  5.7822610e-03
 -2.8831525e-02
  3.2088704e-02
 -1.6592949e-03
  3.9604813e-02
 -1.9071072e-02
 -7.3454762e-03
 -5.1608835e-03
  2.8594760e-03
  2.7678914e-03
 -4.0130764e-03
  2.0788081e-02
  1.0776043e-02
 -1.3309687e-03
  8.8337045e-03
 -4.7923211e-02
  2.7297733e-03
 -3.9837699e-02
  6.2719584e-02
 -1.1158057e-02
 -2.6747508e-03
  1.9175198e-02
 -4.1779451e-02
 -3.5716996e-03
  9.2803631e-03
 -3.7171580e-03
 -8.2459271e-01
 -1.2017961e-03
  4.1374941e-03
  5.0094761e-03
 -6.8282140e-03
  2.5654342e-02
 -3.4479075e-03
  1.4567127e-02
  3.2508157e-02
 -6.5946691e-02
 -2.6815068e-03
  3.9257973e-02
  3.2667404e-01
 -6.4848978e-03
  2.1557869e-01
 -4.4717737e-03
 -9.8254988e-03
  1.0421842e-02
 -4.3530478e-03
 -6.3712797e-03
 -1.2310561e-02
 -1.1197105e-02
 -1.0155024e-02
 -2.0261107e-02
  2.8244720e-03
  1.1091165e-03
 -4.8471587e-03
  1.4176202e-02
 -9.2814090e-03
 -1.6329514e-02
  1.4743387e-02
 -2.5939791e-02
 -3.6276583e-02
 -2.4984263e-02
  1.4061268e-01
  7.3903091e-02
 -3.4819849e-02
 -8.4113264e-03
 -1.9373355e-02
 -1.0389934e-02
 -1.4957896e-02
  4.8986528e-02
 -6.2995739e-03
  3.0851407e-02
  3.7081871e-02
 -3.0402007e-02
  4.0826700e-03
  4.8556332e-03
 -1.4658673e-02
  3.6013380e-03
 -1.5345876e-02
  1.7034516e-02
 -1.3121922e-02
  1.2157727e-02
  1.5367429e-03
 -2.2665360e-03
  1.1103293e-02
  9.4841449e-03
  3.6290340e-02
  3.1146456e-02
 -5.4128421e-03
  4.2818268e-03
  4.4986013e-02
 -2.2769852e-02
  2.4981618e-01
 -9.7570427e-02
 -1.1964928e-01
 -1.5848370e-01
  2.2275377e-02
  1.5197555e-02
 -1.0396237e-02
 -2.7987171e-02
  9.8427823e-03
 -8.6648958e-03
  1.1895376e-01
 -1.1062571e-02
  2.3047528e-03
  6.5364242e-03
 -5.6603447e-02
 -1.1891304e-02
 -2.5958358e-03
  3.5646662e-02
 -1.8126341e-02
 -1.1176193e-03
  1.3445985e+00
  3.2790145e-04
 -6.1074980e-03
  2.0203702e-03
  2.2437740e-03
  3.3448329e-03
  6.4452454e-03
 -1.6458676e-04
  2.3133011e-04
 -7.0214540e-02
 -1.2929024e-01
 -1.4196704e-02
  6.3806502e-03
  1.7770556e-01
 -1.2430051e-02
 -8.6719624e-04
  1.0121923e-02
  3.0193101e-03
 -9.7325528e-03
  2.6084119e-03
 -6.9170463e-04
  5.4184413e-03
 -5.0482735e-02
  3.5504375e-02
  1.0598419e-02
 -9.4727456e-04
 -5.5959350e-03
 -5.7481825e-03
  7.4125538e-03
 -2.7537649e-02
  7.9395715e-03
  1.1647486e-02
  5.9716860e-03
  5.4776920e-03
  3.2318357e-02
 -2.8195674e-02
  1.8001187e-01
 -1.0040402e-02
 -1.2200951e-02
  5.8063189e-03
  1.6360867e-01
 -4.2060606e-02
  4.0019783e-03
  1.0244513e-01
  2.3814468e-03
 -1.2569581e-03
  5.1568914e-02
 -1.1504002e-02
 -8.4251873e-03
 -4.8315827e-02
 -2.5881698e-02
 -1.2103830e-02
 -2.5909848e-03
  1.7153753e-02
 -3.6443125e-03
  5.2321728e-02
  1.7647684e-02
 -9.6837286e-04
 -8.8658032e-04
  9.4623417e-03
 -4.6106605e-03
  1.7539063e-02
 -2.5851032e-02
 -1.3796323e-02
  1.4176347e-02
  3.1055170e-03
 -1.1491884e-02
  1.9908961e-02
  6.4807781e-04
  1.0648430e-03
  3.2460984e-02
  2.4175233e-01
 -3.4634355e-02
 -2.9545143e-02
 -2.1849947e-02
  1.8735847e-02
 -1.1762298e-02
 -6.7424109e-05
  9.6214022e-03
 -2.3114391e-02
 -6.3090986e-03
  9.8262457e-03
 -8.2806926e-03
 -1.8072495e-03
 -1.9789748e-03
  1.2746250e-03
 -1.2686761e-02
 -1.1911035e-03
  2.0044115e-01
 -3.8233909e-01
  3.7563652e-02
  6.0097589e-03
 -2.8998792e-02
  6.1403587e-03
  2.9120103e-01
  2.2891963e-02
  7.2127236e-03
 -3.3970629e-03
 -1.1383165e-02
 -1.0481661e-02
  8.0580033e-02
  1.1358095e-02
  3.3773348e-02
 -7.9002362e-03
 -5.8624456e-03
 -1.0239865e-02
 -2.4215952e-02
  2.6531436e-03
 -5.1370491e-03
 -3.9204541e-01
 -4.6793879e-03
 -6.8588508e-03
  2.7542571e-03
  1.0459335e-02
 -7.3634833e-03
  5.2705929e-03
 -1.9820037e-03
  1.2555756e-02
 -7.0447288e-04
 -9.1912728e-03
  1.7501617e-02
 -1.3391541e-02
 -1.4001193e-02
  1.9851826e-02
 -1.1792332e-02
 -1.9077389e-03
  4.9783736e-03
 -1.1128339e-02
 -5.5296943e-03
  3.7928291e-02
  1.8918360e-02
  7.7409613e-01
  3.8530563e-03
  1.1617214e-02
  1.3668087e-02
  1.2129743e-03
  2.1674624e-03
 -6.9835437e-03
 -4.0478870e-02
 -3.0162910e-02
 -1.1757695e-01
  2.2015385e-02
 -5.1511694e-03
 -9.7756665e-03
  8.3307503e-03
  5.5853985e-02
  2.9794443e-03
 -2.4355436e-02
 -2.3120794e-02
 -3.0410649e-02
 -3.9002486e-02
 -1.3464092e-02
  2.9817095e-02
 -4.6370856e-02
  5.8486305e-02
  2.3524882e-03
 -1.6549164e-03
 -7.4586254e-03
  1.1365781e-02
 -5.9653665e-03
  3.7346534e-02
 -3.9343360e-01
 -5.4467732e-01
 -3.6105609e-01
 -2.0462264e-01
 -2.3143443e-03
 -1.8316403e-02
  1.1833728e-01
  2.4480693e-02
  1.3826492e-03
 -8.8076461e-03
  4.0905345e-02
 -3.7859387e-03
  7.4338471e-03
  1.0462283e-02
  8.1099056e-02
  1.7454813e-01
 -6.0163802e-03
 -2.8010819e-04
  6.8695843e-03
 -2.1956074e-03
  1.0520797e-01
  1.6735397e-02
  3.9433734e-03
  1.6703613e-02
  8.4381737e-03
  7.0401193e-03
  5.3709868e-04
  1.1654626e-02
  2.0615116e-03
  2.6237074e-01
  4.0563229e-03
 -4.7948547e-03
  1.8702628e-02
  1.5749281e-03
 -3.6329397e-03
  5.3406199e-03
 -3.2492824e-02
  2.3259453e-02
  3.0986870e-02
  2.9001713e-02
 -8.6540272e-03
 -3.2400927e-03
  6.6445493e-03
 -1.1442565e-02
 -1.4348699e-02
 -2.3017966e-03
 -3.1288066e-03
 -5.8741421e-03
  2.9949441e-03
  1.2747325e-02
 -3.2022808e-02
  3.7494018e-03
 -9.6327914e-03
  2.1473819e-02
 -1.0971945e-02
 -1.1635601e-02
  3.8032732e-03
  2.6332986e-02
  1.5008021e-02
 -1.3786642e-01
 -4.8657060e-01
 -7.8290515e-02
  2.5521193e-02
  8.1632525e-02
  1.3487489e-03
 -1.5177117e-02
  8.8997111e-03
 -1.0187404e-02
 -7.9190973e-03
 -8.2302289e-03
 -4.4677304e-03
 -1.1541712e+00
 -2.8892698e-02
 -1.0043420e-03
 -2.3339411e-02
  2.2012319e-02
 -1.2184815e-02
  2.0232249e-02
 -1.3268406e-02
  3.3489917e-03
  4.3752234e-02
 -7.4692625e-03
 -6.9956426e-03
  4.0922344e-02
 -1.6260145e-02
 -1.4310696e-02
 -2.4096387e-02
  1.1521843e-02
  1.4004691e-03
  4.3638685e-01
  3.0269295e-03
 -5.8726702e-02
  1.4948147e-02
  1.2986735e-02
  2.3672240e-02
  3.2755405e-02
  8.1904948e-01
 -9.1481032e-03
  1.4441147e-02
 -1.1515383e-03
  1.9516641e-02
  9.3597667e-03
  1.4330994e-04
  1.4081021e-02
  2.5179008e-02
 -3.1774994e-02
 -3.4634490e-03
  1.0890302e-02
 -8.3788140e-03
  1.1611776e-02
  1.6584964e-03
 -1.8319661e-02
  9.7896168e-03
 -2.3123965e-02
  7.1473829e-03
 -1.9254002e-03
  7.0526907e-03
 -2.5188732e-01
  1.0825803e-02
  1.5988640e-02
  2.4085145e-01
 -1.7576786e-02
 -5.9070401e-02
  7.0142940e-02
  5.1152888e-03
 -1.9167821e-04
 -1.8277088e-02
  3.0237292e-03
 -1.5706560e-02
 -2.8461587e-02
 -6.3716406e-03
 -1.3245167e-03
 -3.3873513e-02
  1.6757900e-02
 -2.6615199e-02
 -3.0839946e-03
  1.7601512e-03
 -4.2412649e-03
 -2.9130826e-02
 -2.2622712e-02
  9.2523795e-04
 -4.1540910e-02
 -1.0155143e-01
 -3.7915364e-03
  2.3568209e-02
 -9.2849240e-02
 -1.5139469e-02
  1.5517061e-02
 -3.9395131e-03
  2.0074312e-02
  5.6844598e-01
  1.5159260e-02
 -1.7326145e-02
  1.7455847e-03
  7.5334003e-03
  1.7227953e-02
  3.0630944e-02
 -6.4693548e-02
 -2.6003532e-02
 -3.6586805e-03
  2.3262490e-02
 -9.1446536e-03
 -5.9031371e-02
  8.2359724e-03
 -8.7660803e-03
  3.5493448e-02
  1.6704381e-02
 -1.9163263e-03
  4.9829157e-04
 -1.0934461e-02
 -9.0039326e-03
 -3.2968337e-03
 -1.4521746e-02
 -2.9154859e-02
  1.2591399e-02
 -4.8695821e-03
  2.1384389e-03
 -1.2085998e-03
  2.0289109e-03
  1.6241133e-02
  9.8862043e-03
 -2.1155309e-02
 -2.2139943e-03
 -2.1013396e-02
 -6.8080141e-03
 -1.0339814e-03
 -1.5722623e-02
  2.3013122e-02
  7.8469701e-03
  1.2465100e-02
 -1.2737540e-02
 -9.7201681e-03
  1.9958891e-02
 -3.0145584e-02
 -2.0236786e-02
  4.2743679e-02
  3.9130631e-01
 -1.5788557e-03
 -7.1300971e-03
 -3.6393147e-02
 -2.0011237e-02
 -4.2274776e-03
  8.2360292e-03
 -1.9876331e-03
 -6.3127847e-03
  1.3654375e-04
 -4.0076682e-03
  1.4512036e-02
  5.1832039e-02
 -9.3730606e-02
  9.2674918e-02
  4.6055749e-01
  6.2215000e-02
 -4.9619719e-02
  2.0959277e-02
 -4.8874687e-02
 -1.1173904e-02
 -7.1510803e-03
  3.3984820e-03
 -1.4023311e-02
 -1.2735752e-02
  3.7651125e-02
 -6.6401772e-03
  6.2669464e-03
 -8.9962613e-03
  2.3277950e-02
  2.1782542e-02
  7.6528750e-03
 -2.3042547e-02
  2.9038165e-02
  1.0009142e-02
 -2.7820576e-02
  8.7102242e-03
  9.4999410e-03
 -8.6186957e-03
 -4.1883169e-03
  1.6908228e-02
 -9.5954416e-03
 -2.1058402e-03
 -8.1383519e-02
 -3.2135165e-01
 -9.9540778e-02
 -1.0429215e-01
  3.1034952e-01
  1.9728395e-03
 -2.9584492e-02
  5.9311964e-02
 -1.7681984e-02
 -5.0528797e-07
  7.8777447e-03
 -1.6098559e-01
 -5.0222903e-04
 -2.0989900e-02
 -2.1612428e-02
 -7.9962863e-03
 -7.3792674e-03
  4.3657265e-04
  1.2223342e-04
  1.0841733e-03
 -1.7956465e-02
 -1.2092457e-01
 -1.4205297e-02
  1.2412862e-02
 -2.1513861e-02
  7.9858890e-03
 -2.2663700e-03
 -3.9282278e-03
 -1.4154043e-03
  1.9157264e-02
  3.1758856e-02
 -1.0441519e-01
 -1.5727786e-02
 -1.4317910e-01
 -3.5541315e-02
 -2.2819762e-03
  1.4664802e-02
  1.7053382e-02
 -5.9471158e-03
  2.5579170e-03
  5.0532829e-02
 -1.7688500e-02
  4.3672570e-03
 -7.0292056e-02
 -5.7687168e-03
 -2.9986430e-02
 -2.3456090e-03
  9.3858466e-03
  3.8239624e-02
 -1.0472510e-03
  1.1029892e-03
  4.6536021e-02
  1.5081021e-02
  2.0044751e-01
  1.6505709e-02
 -5.7988730e-03
  8.0555398e-03
 -1.4572255e-02
  3.7466411e-02
  4.9635726e-03
  1.4635519e+00
  1.6718194e+00
  3.6819449e-01
 -2.5472355e-01
 -9.2231132e-02
 -2.2025188e-02
 -1.8716205e-02
  2.8686998e-03
  1.0872661e-02
  1.1124795e-02
 -1.6042706e-02
 -1.5113403e-02
 -6.0491409e-04
  6.6865622e-03
  1.7454389e-02
 -1.3602241e-02
 -2.2852609e-02
 -9.8506333e-03
  3.9361999e-03
  1.7144607e-02
  1.6649717e-02
  9.2334962e-03
  3.2130919e-02
  5.5975098e-02
  2.1942500e-02
 -4.1194521e-03
  6.0403151e-03
  5.4028216e-03
  2.9447639e-02
  2.3159547e-02
  1.8645497e-01
  8.4115580e-02
  1.8413215e-03
  1.6252413e-02
 -1.8614326e-01
  2.7436176e-02
 -4.8733312e-03
  1.5143845e-02
 -1.7433078e-03
  2.5471052e-02
  1.4248621e-01
  2.7598708e-03
 -6.3734814e-03
  5.0932113e-03
 -2.9013728e-04
  2.4952762e-02
 -3.4485608e-03
  2.4777643e-02
 -2.1720782e-02
  1.8585648e-02
  6.6272416e-03
  2.8411087e-04
  9.5716259e-03
 -1.6534394e-02
  8.3330013e-03
  1.6955868e-04
 -1.2935272e-03
 -2.3729701e-02
  8.6795082e-03
 -7.2369687e-03
  4.4453335e-03
  5.2673411e-02
 -2.5737351e-01
  3.4498677e-02
 -1.6744623e-01
 -6.7418669e-03
 -4.1363642e-02
 -1.8654710e-03
  6.5907063e-03
 -2.2234017e-02
 -1.3722580e-02
 -4.7051767e-03
 -3.1327952e-02
  2.4403024e-02
  1.1664615e-02
  2.1987148e-02
 -1.0194866e-02
  1.4146637e-03
  4.5681827e-02
  1.7963072e-02
  2.8848367e-02
 -1.4449590e-03
  6.5268734e-03
 -3.5790293e-03
  2.1171464e-02
  1.3830869e-02
  2.3782128e-01
  3.7075169e-02
  5.4030027e-03
 -2.2167463e-03
  2.9820940e-02
 -3.9904092e-02
  1.6652577e-02
 -1.0883318e-02
  7.6833135e-01
 -3.1899054e-02
 -4.8982576e-03
  6.4429897e-01
  1.6118901e-02
  1.7826759e-03
  1.1875095e-02
 -1.4632317e-03
  1.4542151e-02
 -1.0379833e-02
  1.0914059e-02
  1.1197121e-03
  1.3607635e-02
  1.6667454e-02
 -2.5010282e-02
  3.4507220e-03
  3.4552615e-02
 -1.5032277e-02
  2.1925164e-02
 -3.3895370e-02
 -1.2142209e-02
  3.6119606e-02
  1.8610988e-03
 -1.1795126e-02
  7.9810889e-03
 -1.4003755e-01
  1.1713228e+00
  1.8483099e+00
  5.4639620e-01
 -1.0596522e-01
 -3.9980328e-01
  2.3248602e-02
 -1.8270192e-03
  4.5668002e-02
 -9.9165449e-03
  1.0428533e-02
 -7.4396660e-03
  7.1463198e-03
 -5.2032582e-03
 -4.6313945e-02
  1.9631572e-03
 -2.6471231e-03
 -5.4021045e-03
  2.9010985e-03
  1.1026365e-02
  3.4857221e-02
  9.3918480e-03
  2.1671005e-02
 -3.4375485e-02
 -1.9248292e-02
  1.9593580e-02
  3.4540457e-01
 -5.8652586e-03
 -9.7747715e-03
  9.0764351e-03
 -3.1224166e-03
  1.6617890e-01
  1.7825620e-01
 -4.6588518e-02
  4.4474110e-02
  3.2795321e-02
 -8.0730271e-04
 -1.0614933e-02
  3.2615423e-02
  4.9689854e-03
 -3.8685987e-04
  1.0863338e-02
 -1.3799189e-02
 -1.5575142e-02
 -3.0391985e-03
  1.0305826e-02
  5.1975373e-02
  6.0541155e-03
 -3.4129573e-03
 -8.6068586e-03
  1.0846470e-02
  3.0078266e+00
  7.4199624e-03
  5.1542979e-02
  1.2381369e-02
  7.1348869e-03
 -3.0384181e-04
  9.4579877e-03
  2.1511661e-03
 -2.1426501e-02
 -8.1213536e-03
 -7.4064600e-01
 -2.7209440e-02
 -1.7339417e-01
  1.9547103e-02
 -8.2969395e-03
  1.5590697e-03
 -1.6282649e-03
 -4.5741093e-03
 -3.4009556e-03
 -3.2696557e-01
  1.4436537e-01
  1.7973833e-04
 -2.2337455e-02
  5.8343852e-01
 -1.9760672e-02
 -7.3304521e-03
  3.9251554e-03
 -4.6231928e-03
 -1.2473160e+00
  1.0579932e-02
 -9.2254509e-04
  4.0957108e-03
  3.7491170e-03
 -4.1365281e-02
 -9.0560783e-03
  1.7335913e-03
  6.1240443e-03
 -2.8967494e-02
  8.6818764e-04
  1.9236326e-01
  2.5801513e-01
  5.2191917e-04
  1.8748362e-03
  1.5845588e-01
 -6.0701851e-02
  2.4357921e-02
  1.3625843e-02
  4.5586573e-03
 -1.3878791e-03
  7.0972624e-03
 -1.7638002e-02
 -8.8089961e-01
  3.2562704e-03
 -2.0763574e-02
 -4.1972257e-02
  3.5634842e-02
 -4.8995975e-01
 -1.1426819e-02
 -2.4454096e-02
 -6.0203467e-02
  1.2613824e-03
  1.2763212e-02
 -8.8624057e-04
  1.6770126e-01
  7.1719671e-03
 -4.0067271e-03
 -1.9135674e-02
 -7.1505411e-03
 -7.9704104e-03
  3.7149791e-02
  1.9812094e-01
  3.1148583e-01
  5.9248595e-03
 -3.3233517e-01
  1.5554632e-01
  2.3890076e-02
 -5.6255108e-01
 -4.6715736e-02
  3.1233835e-03
  7.5556198e-03
 -1.8734898e-02
 -1.1799054e-03
  5.3251229e-02
 -7.7931648e-03
 -1.3786835e-03
  7.3694639e-02
 -1.0582417e-03
  4.0292762e-02
  2.4499642e-02
  1.1854107e-02
 -4.5145623e-02
 -1.9499810e-02
  1.1679657e-02
 -8.7035252e-03
  1.4092838e-02
  2.1480254e-03
 -1.0185699e-02
 -7.9676643e-02
  1.3273138e-03
  3.0701889e-03
 -2.4773027e-01
 -3.3417431e-01
 -1.6225180e-02
  2.4435634e-03
  4.9298391e-02
 -2.3189332e-02
 -8.3822142e-03
  1.7643979e-02
  1.9193504e-02
  7.9974756e-03
 -9.7564850e-03
  2.0721670e-02
 -5.7619009e-03
 -2.1080060e-02
  3.9315511e-02
 -1.1277786e-02
 -5.7668891e-04
 -1.4249014e-02
  1.2013647e-02
  1.2400545e-03
  8.6763008e-03
 -3.9715399e-03
  6.0675998e-04
 -1.1284190e-02
 -1.2257148e-02
  6.1628846e-03
 -2.3552538e-03
 -1.5908023e-02
  2.3486938e-03
  6.5708952e-03
 -1.6636608e-02
  2.6435661e-03
  1.2583373e-02
  2.3525240e-02
 -1.9860772e-02
 -5.7608755e-03
  9.1465679e-04
  5.0260164e-02
 -3.8566310e-02
 -1.3822910e-03
 -4.0309997e-03
 -1.6791875e-03
 -1.0745700e-02
 -2.7046616e-03
 -2.4421204e-02
  1.6562013e-02
  1.4400959e-02
 -5.5514700e-03
  3.3807434e-02
 -6.0742438e-02
  7.9724826e-03
  9.6549476e-03
 -4.5292885e-03
  3.5276350e-03
  1.7226322e-02
  1.2499689e-02
 -9.0299873e-03
 -1.3187895e-02
  6.7705452e-02
  1.2761404e-02
 -7.1075238e-02
 -2.2233196e-02
 -2.4423411e-02
  2.0221105e-02
  1.2679380e-02
 -7.6430603e-03
 -4.6158573e-03
 -1.9261925e-03
  3.8743180e-03
  6.7196609e-03
  1.1770399e-02
  2.1850090e-03
  2.9006440e-03
  1.3030505e-02
  3.6952507e-03
 -5.9983176e-03
  6.2763058e-05
  1.6790261e-02
 -7.4597526e-01
 -5.1258650e-02
  1.7869283e-02
 -2.1153387e-02
 -6.1578155e-02
 -5.3820182e-03
  1.8255034e-03
 -1.6229894e-03
 -2.0778691e-03
  1.2351889e-02
 -5.2012894e-03
 -1.0568580e-02
 -2.1761104e-03
 -1.0677283e-01
 -9.6645072e-02
 -2.8117359e-01
 -2.0387466e-03
  1.8243488e-02
 -5.0239456e-03
  1.7486364e-02
 -6.1765347e-02
 -6.9113784e-03
 -8.6566880e-03
 -5.4501854e-03
  2.6141787e-03
 -3.6636319e-02
  2.7160497e-02
  3.0590100e-03
  1.3160289e-03
 -1.2537772e-02
 -1.6581904e-02
 -3.7338544e-02
  9.0779318e-03
  4.2435268e-04
  3.0405596e-03
  4.6771462e-04
  4.5034033e-03
 -2.8127537e-03
  2.2617420e-02
 -2.7163491e-02
  1.0257388e-02
  2.2337394e-04
  2.7341220e-01
 -1.5624524e-03
 -7.0248395e-02
 -1.1051556e-02
  6.4102978e-02
 -2.6816357e-02
 -1.7000219e-02
  1.9687791e-03
  2.3308467e-02
  7.6216967e-03
 -1.5554528e-02
  1.8761191e-03
 -1.7572852e-02
 -5.8761210e-04
 -9.3468027e-03
 -3.6558080e-03
 -6.2040924e-03
  2.5936199e-02
  3.9454862e-03
  4.6509880e-04
 -3.6026880e-02
  5.4226827e-02
  4.4788886e-03
  1.7184231e-03
  1.6758647e-02
  2.0255964e-02
  6.7723066e-01
  1.2934417e-02
  2.8045449e-02
  6.9631338e-03
 -3.0373451e-01
 -8.3688110e-02
  1.4437862e-02
 -3.9050620e-02
 -3.1559342e-01
  6.1587738e-03
  5.8294120e-03
  3.9314637e-03
  2.8063130e-02
 -9.2928028e-03
 -4.0623853e-03
  6.9078103e-02
  8.0955319e-02
 -2.4963593e-02
  2.7704220e-02
 -4.7378214e-03
 -1.3512900e-02
 -5.4019555e-03
  1.4737893e-03
 -9.5408494e-03
 -1.9327732e-02
  1.3212879e-02
 -2.5885146e-02
 -8.2923518e-03
  4.1225556e-02
  1.7398864e-02
 -2.4417985e-02
  6.4670615e-04
  7.6674619e-03
 -2.7035948e-02
  6.3443094e-01
  3.5116065e-01
  5.5187184e-01
 -6.4527698e-02
  3.1634507e-01
 -6.3059265e-03
  1.2632045e-02
  3.4289420e-02
  2.3822621e-03
  3.3717726e-03
 -3.8279113e-03
 -1.4933319e-03
  1.1546528e-02
  7.6856096e-03
 -5.4936539e-03
  7.0592570e-03
  2.3331488e-03
 -2.6449667e-02
 -1.2782266e-02
 -4.0794145e-02
  2.0098542e-03
  1.7723069e-02
 -1.4989474e-02
 -1.0742834e-02
  3.2609735e-02
  2.1317514e-02
 -9.6672829e-03
  1.8308815e-02
 -3.8131289e-02
 -1.0469586e-02
  2.2709997e-02
  3.0735636e-01
  1.3043434e-02
 -3.2964093e-03
 -7.3071960e-03
 -3.5532040e-03
  1.2207572e-02
 -1.1125962e-02
 -2.0547993e-03
  1.0822820e-02
  2.9398402e-02
  1.6511868e-01
 -2.3201149e-02
  2.7807824e-02
 -7.4339658e-03
  3.7969372e-03
  1.8778343e-02
 -4.7905167e-04
  2.2541573e-03
 -4.3326044e-03
  2.1189211e-03
  2.8633390e-02
 -1.1547127e-02
 -1.2091133e-02
 -1.1904879e-02
 -3.2396782e-03
 -6.0886289e-03
 -2.8530845e-02
  4.3868707e-03
 -1.2448442e-03
  6.9112259e-01
  5.5319560e-01
 -4.5806793e-03
 -1.5766345e-01
  1.7519726e-03
  1.0391831e-02
  4.0602935e-03
 -9.5167587e-04
 -8.2411396e-04
 -3.6434770e-02
  2.2935541e-02
 -3.6912933e-02
 -7.1517281e-02
  1.3338246e-02
 -2.4655752e-02
 -8.4019816e-03
 -1.1266945e-01
 -7.6894596e-04
 -3.1867336e-02
 -2.8422380e-02
  1.8445323e-03
  6.8445411e-03
  4.2953964e-02
 -1.7903538e-02
 -1.9478682e-02
 -2.4052253e-02
 -4.9730917e-03
  9.5062144e-03
  1.7786250e-02
  9.0419678e-03
  9.3227017e-01
  2.5105443e+00
  6.2368625e-01
 -1.1332202e+00
  3.7788096e-01
  8.1873862e-03
  5.1717621e-01
  4.3154418e-02
  5.1316894e-03
 -3.4230832e-02
  7.1905423e-03
  1.0507047e-01
  6.0092542e-02
 -6.5730447e-03
 -2.8381958e-03
 -9.0741903e-02
  3.0314664e-03
 -2.7184615e-02
  1.5162201e-02
  1.4116378e-03
  1.6089158e-02
 -2.3931747e-02
  2.1052193e-02
 -1.0891312e-02
  1.6127910e-03
 -1.0060604e-02
  1.6216978e-02
  3.8959195e-03
 -5.2641517e-01
 -2.1055324e-02
 -8.0203682e-02
 -4.0767175e-01
 -2.8536901e-02
 -1.8331580e-04
 -3.1039098e-03
 -3.2696726e-03
 -3.1622048e-02
  2.0973219e-02
 -3.4839995e-02
  1.2535034e-02
  3.3506718e-03
 -1.8066760e-03
  1.8954888e-02
 -1.8997589e-02
 -4.9943188e-03
 -1.3430770e-02
 -1.5132844e-02
 -1.4822482e-02
  1.3342925e-02
 -1.4770233e-02
 -3.0624904e-03
  1.8056501e-02
 -4.8168120e-03
 -2.9785803e-03
  3.7841894e-02
 -8.6896861e-04
  1.8074419e-02
 -2.0398907e-03
 -3.9441508e-04
  1.1955096e-02
 -3.2420349e-01
  4.3773231e-01
  9.2999771e-02
 -7.9272337e-02
  7.9183489e-02
  5.8316216e-03
  2.7182954e-03
  5.1177731e-03
  6.0187560e-04
 -1.8778130e-03
  3.4885436e-01
 -3.6112091e-05
 -8.4391208e-03
 -9.4758116e-02
  1.1542001e-02
  3.2896695e-03
  9.2678040e-02
  1.7259206e-03
  1.0852855e-02
  2.5806187e-02
  5.6984769e-03
 -3.7068038e-03
  2.2113895e-02
 -5.7659387e-03
  6.9423481e-03
  7.2778570e-03
 -3.3078715e-02
 -2.1737717e-02
 -2.2034930e-02
  1.0038476e-02
  1.1702321e-01
  8.4609486e-02
 -1.0708534e-02
 -4.6684861e-02
 -1.3196455e-02
  2.6246188e-03
  1.2927785e-02
  1.1390273e-02
  1.9370619e-02
 -4.3306185e-04
  3.9346240e-02
 -3.5815056e-02
 -2.8855321e-03
 -1.1467778e-02
 -7.1817613e-04
  4.4944823e-02
  6.3972939e-03
  2.0434266e-02
 -3.8634788e-02
 -1.2976374e-02
 -2.7127677e-01
 -1.5056508e-02
  7.2171152e-02
  2.5785491e-02
 -1.3312930e-02
 -2.5563309e-02
  1.5351696e-02
 -2.5709458e-03
  6.8161823e-03
  3.9946488e-03
 -4.9137203e-03
  7.0909542e-01
  3.9235793e-02
  9.5888644e-02
  2.1752521e-02
  1.9045521e-02
  8.8173002e-03
  1.9645752e-02
 -8.1404513e-03
 -7.3385388e-03
  1.6963053e-02
  1.1052124e-02
  1.3814812e-02
 -9.6533127e-04
 -4.2737378e-03
 -1.1270168e-01
 -4.2814438e-04
 -9.6729277e-03
 -1.8368481e-03
 -6.9119791e-03
  3.2167792e-02
 -6.3858629e-04
  4.9471259e-03
  2.5509768e-03
 -1.8794449e-02
 -4.3677878e-02
  9.8482771e-03
 -1.9725630e-02
 -1.1838521e-03
 -6.5162294e-03
  1.1426171e-03
  1.6754283e-02
 -1.2650194e-02
  1.1889228e-02
 -1.2469582e-02
 -1.3214990e-02
  1.1547742e-02
  8.0536045e-03
  2.7927857e-02
 -2.2586957e-02
 -1.1173046e-02
 -1.6152186e-02
  1.3687479e-02
  9.7092269e-03
  1.0419248e-02
 -5.6348518e-03
  7.0654340e-03
 -2.6018410e-03
  2.3322226e-02
 -3.1936741e-03
 -9.1264845e-04
  6.7604017e-03
 -2.4962146e-02
  1.1972186e-02
  6.4059265e-04
 -1.8554714e-02
  5.4050680e-02
 -2.4700291e-03
  2.5910921e-02
 -1.4196698e-02
  4.8135528e-01
  1.3390511e-03
  8.0987122e-03
  2.0720977e-02
  8.9912798e-04
  5.6572277e-03
  2.3116950e-06
  4.3273619e-03
  5.6885644e-03
 -5.2934829e-03
  2.0546041e-02
 -1.2499326e-02
  5.2592806e-03
 -1.7963819e-03
  1.9946877e-02
 -2.9270763e-02
  5.7744123e-03
  4.5792614e-03
 -4.7032661e-03
  1.4923988e-02
  1.9133673e-03
  9.7414013e-03
  1.2590522e-02
 -1.4089683e-01
  2.7466072e-02
  7.6438482e-03
  6.2516876e-03
  2.1424385e-02
  3.2028127e-02
 -9.1698701e-03
 -1.2165774e-01
 -1.7287552e-02
  3.2653332e-02
  6.1412402e-03
  2.5296942e-03
  6.8390203e-01
  7.9816096e-03
  6.4588770e-02
 -2.0850973e-02
  6.6452101e-03
 -9.2724282e-03
 -7.0333439e-03
 -1.7193358e-02
  1.4118017e-02
  1.6977885e-01
  1.8793222e-02
  2.8984991e-03
  9.4166044e-03
  2.9889920e-03
  1.0586225e-02
  7.4458071e-03
  3.2231261e-03
  2.1332782e-03
  8.0999145e-03
  3.1307258e-02
 -3.3781923e-02
 -1.2416917e-02
 -1.4360229e-02
 -1.5218163e-02
  8.4937306e-04
 -1.5945020e-01
  7.1327728e-01
 -7.3526204e-01
  8.0480665e-02
  7.2300696e-01
  1.9281222e-03
 -3.7196568e-01
  1.1782484e-01
  3.2630613e-01
 -1.5643505e-02
  1.8921407e-03
  6.5831102e-02
  3.4902087e-01
  8.2328180e-03
  1.1231202e-04
  8.9792907e-02
  7.9711431e-01
  1.4139899e-02
  1.8227868e-01
  1.0310645e-01
  1.1867079e-01
  1.1303960e+00
  6.2553338e-03
  3.1072339e-01
  1.3874344e-02
  2.0225629e-02
  5.6977384e-03
  2.1164330e-02
  2.4179939e-02
  3.9424971e-03
 -2.7304559e-03
  9.4143009e-01
 -7.3792418e-03
  1.0953413e-02
 -6.2885848e-03
  1.8499106e-03
 -2.2069769e-02
 -1.2716008e-02
  1.6094256e-02
  6.7868871e-03
  4.4500304e-04
 -4.6108201e-02
 -8.2975058e-03
 -1.8437566e-02
  1.8845424e-02
 -9.1598108e-03
 -7.3832966e-02
  5.3826384e-03
  3.3606945e-03
 -7.0488658e-03
  7.8489147e-03
 -1.0104024e-02
  1.8900998e-02
 -1.0349284e+00
  1.6289979e-02
 -3.3476788e-01
  2.3002511e-02
 -1.0962008e-03
  7.5397301e-03
  1.3525112e-02
  3.6861956e-01
  2.9119819e-03
  2.8133222e-01
  4.6833438e-01
 -5.4206795e-01
 -3.4477850e-03
  1.2978713e-01
 -1.5959160e-02
  8.2326354e-03
  2.9539939e-03
 -1.2193070e-02
  3.8122311e-03
 -1.4373624e-02
 -1.2373225e-02
  4.3570530e-03
 -5.8218571e-03
  2.4861372e-03
 -2.4279805e-02
  7.9921102e-03
 -1.3232595e-02
 -2.4742238e-02
 -2.6620065e-03
 -1.6170923e-03
 -1.6357510e-01
 -1.0318016e-02
  1.8467698e-03
  7.2847283e-03
  1.2863453e-02
  5.1599126e-03
 -2.6901081e-02
 -5.1996417e-02
  3.7268139e-02
 -9.3666185e-04
 -6.5581844e-04
  2.4606104e-03
  7.6910169e-03
 -2.3831471e-03
  4.0380642e-02
  1.9765142e-02
  2.3347642e-02
 -1.3093000e-03
 -5.6601912e-03
 -4.0026329e-02
 -2.8285448e-02
 -9.1472268e-03
  1.6257258e-02
  1.2049278e-03
  1.6075773e-02
  8.2486458e-03
  4.1545038e-03
 -5.7293579e-04
  1.9427153e-03
  1.3614522e-04
  2.0897053e-02
  3.3060018e-02
  9.9515272e-03
 -1.3169418e-02
 -1.9361464e-02
 -2.0934304e-02
 -1.5910001e-02
 -1.6757613e-01
 -7.6452601e-01
  1.2925907e-02
  1.3421913e+00
 -2.2516637e-01
  3.4642396e-03
  3.2241631e-03
  1.4183084e-02
  3.3707716e-02
 -1.2589730e-02
 -1.8993828e-02
 -8.6522077e-06
 -1.8355951e-02
 -2.1394538e-03
  1.3678257e-03
 -2.5178339e-02
  9.8994940e-05
  4.1488479e-03
 -4.9349980e-04
  2.2036122e-02
 -5.9303539e-03
  2.6884397e-02
 -9.2107775e-03
 -5.2058801e-02
 -1.5178749e-02
  2.2492178e-02
 -9.1056703e-03
  2.4400163e-02
 -2.5882302e-02
  5.2020196e-03
  5.1760701e-03
 -1.3815345e-01
  2.0217711e-02
 -1.4014791e-02
  7.3429774e-03
 -2.3863938e-02
  7.5981783e-04
  4.0507814e-01
  7.6242595e-04
  7.4209156e-04
 -4.4586076e-03
  1.1259798e-02
  2.6181627e-02
  2.1419035e-02
  1.3140620e-01
 -2.0192051e-02
 -9.3941893e-03
 -1.5176822e-02
 -9.5356507e-03
 -1.5741466e-03
 -2.0398356e-02
 -5.7441350e-03
  2.2403437e-03
 -1.9499986e-02
  7.6516013e-04
  7.5481972e-04
  6.3685765e-03
  8.1687085e-03
  1.1545878e-02
  4.0003196e-03
 -1.7471325e-01
 -8.5125044e-02
  2.5097771e-02
 -2.4469614e-02
  1.5789255e-02
  2.0699853e-02
  3.3069015e-02
 -8.4621198e-03
 -1.0528224e-02
 -2.0031884e-02
  4.7248080e-03
 -9.5728878e-03
 -2.2364741e-02
 -9.0120491e-03
 -1.4778685e-02
  2.5837930e-02
  3.1529196e-02
  6.8074437e-03
  1.5830241e-02
 -9.6644396e-03
 -5.1595890e-03
  3.0958207e-02
  1.2852170e-02
  8.1167193e-03
  9.5576203e-01
 -1.0690119e-02
  1.7811494e-03
  1.2861716e-02
  1.4478611e-02
 -1.6918043e-02
  3.6518449e-01
 -3.5859756e-03
 -8.2855094e-03
 -2.9129598e-02
 -6.7134211e-03
 -3.7678520e-03
 -2.0652739e-02
  6.1617899e-03
  4.9749347e-03
  4.2734393e-03
 -6.6913981e-03
  2.4578165e-02
 -2.3288388e-02
  3.0194365e-03
  2.0943612e-02
  1.7273400e-03
  2.0933733e-03
  1.1464447e+00
  1.8500609e-02
 -1.0302547e-02
 -2.4751404e-02
  5.5748760e-03
 -4.6310750e-05
  1.3439975e-02
 -1.2124600e-02
  6.2669627e-04
  4.1810181e-02
  1.2933454e-03
 -5.0914373e-02
 -2.6177190e-02
 -1.2116117e+00
 -1.1089548e+00
 -2.5872666e-01
  3.5399497e-01
  7.6719292e-02
 -4.3641450e-03
  5.1764902e-02
  4.4621434e-03
  4.1989557e-02
 -4.1463203e-03
 -4.2601326e-03
  5.3967400e-03
 -4.5075487e-02
 -2.1222144e-02
  5.4307538e-03
  1.8374072e-02
 -3.3915780e-02
 -2.2500025e-02
 -1.5770288e-02
  8.0401646e-03
  8.7290211e-03
 -3.2979816e-03
  9.4185118e-03
 -9.2268186e-03
 -1.3576493e-02
 -4.3848101e-02
 -7.4912035e-03
  2.8805025e-02
  6.3641649e-03
 -7.6845433e-03
 -3.3257771e-02
  1.3553200e-02
 -1.9603113e-03
 -3.3268440e-03
 -4.2584511e-03
  9.8488545e-03
  7.9709850e-04
 -1.9161649e-01
  2.5798347e-02
  6.4728688e-03
  1.1664136e-04
 -2.6927421e-02
 -3.7660051e-04
 -1.9163638e-02
 -1.9134926e-02
  3.2868315e-02
 -6.4717303e-03
 -1.6055558e-02
 -1.6799327e-02
  6.9195149e-03
  2.8231386e-02
  1.4755137e-02
 -3.1618472e-02
  1.0266788e-02
  1.5333211e-02
  1.5374214e-02
 -6.0962606e-04
 -2.3802673e-03
  3.0268488e-02
  3.0489311e-02
 -1.6905677e-03
  3.3185456e-02
 -1.8728139e-02
 -1.1104573e-01
 -3.2312977e-01
  2.0883128e-03
 -4.0768501e-03
  1.1382839e-02
  1.6036819e-03
  8.5498262e-03
 -3.5069240e-03
  9.8458782e-04
  1.3573799e-02
  9.0360772e-03
 -3.0369780e-03
  3.8743478e-03
  2.0722039e-02
 -1.3069088e-02
 -1.7241793e-03
  8.3954623e-03
  8.3534168e-03
 -1.6577419e-02
  2.1248123e-02
  2.7559053e-02
  8.5444991e-03
  4.5328182e-03
  1.6748751e-02
 -6.7807123e-04
 -2.8204473e-03
  1.2591516e-02
  1.5907612e-02
  7.7763373e-01
 -1.2176660e-01
 -3.0124135e+00
 -6.5124859e-03
 -2.2107884e-02
 -8.1717139e-03
  3.5298917e-02
  2.3752850e-02
  1.6417168e-02
 -1.1479951e-03
 -3.3057723e-02
  5.0080759e-03
  3.3547617e-02
  2.4036132e-02
 -9.9209985e-03
 -1.3708421e-02
  5.1500974e-03
  1.7266963e-02
 -5.1992927e-03
 -2.7649861e-03
  1.5494706e-02
 -6.6930517e-03
  5.9148665e-03
 -2.3443071e-02
 -1.0268174e-02
  7.3285010e-03
  5.5695358e-03
 -1.6587090e-02
 -1.3741842e-02
  2.6311219e-01
 -1.0783616e-01
  5.8242762e-01
 -8.1961282e-02
  2.9110242e-02
 -6.9856141e-03
 -5.1156944e-03
 -8.7836655e-03
  2.2806272e-02
  6.7150366e-04
 -2.9576795e-02
 -1.6497029e-03
  7.4877701e-04
 -1.4547664e-02
  5.5370056e-03
  3.6766033e-03
  4.0445328e-03
  2.9251925e-03
  2.3435207e-02
 -1.9984538e-02
 -1.4582222e-02
  2.3526351e-03
  2.6568279e-04
 -1.8578062e-02
  1.7498417e-02
 -9.0164877e-04
 -3.6581721e-02
 -4.1521587e-03
 -1.6349508e-01
 -1.5154457e-02
  4.4064362e-02
 -1.2591405e+00
 -1.2643110e+00
  8.0394351e-01
 -3.0673021e-01
 -8.5110851e-02
 -1.8397535e-01
 -4.9377333e-02
 -6.1562449e-02
  1.8228613e-02
  1.1140469e-04
 -8.1541890e-01
  4.6427166e-03
  3.6866797e-04
  5.4056672e-03
  9.7538168e-03
  4.5984358e-02
 -2.1622496e-02
 -9.1940779e-03
  7.3194899e-02
  5.1902905e-03
  1.0828601e-02
 -1.3458370e-02
  1.5753511e-02
 -2.2432942e-02
  3.0918179e-02
  1.5269864e-02
 -4.4954838e-03
 -1.4504185e-02
  7.6267174e-03
  9.5602506e-01
  7.5176217e-02
  7.9877567e-01
  6.0640097e-02
 -1.1850441e+00
 -1.0769964e-01
  4.6635556e-01
 -3.4185204e-01
  9.2445624e-01
  4.2619459e-02
  4.0147707e-01
 -3.3845460e-01
  1.2793455e-02
  2.6885457e-03
 -9.2771994e-03
  3.9470084e-02
  1.8877253e-01
  1.8153641e-01
 -2.1500422e-02
 -3.7069642e-04
  1.0171343e-01
 -4.3862477e-01
  6.1582577e-01
  2.7350765e-02
  3.4553723e-03
 -8.8340407e-03
  4.7085192e-02
  9.5050624e-03
 -4.7254693e-03
  6.6981761e-04
 -7.4354105e-02
  9.3894112e-01
 -2.6016722e-02
 -1.0735778e+00
 -5.0103541e-02
  5.2549359e-03
  8.8450890e-03
  1.0476743e-02
 -4.8756334e-03
  9.3258500e-01
  1.2810469e-02
  1.2029490e-02
  2.0927839e-02
  5.6407582e-03
 -1.6644577e-02
  2.4717016e-02
  1.4029331e-02
  5.4730447e-03
 -2.4201550e-02
  1.3217094e-02
 -8.0703187e-04
 -5.2348576e-03
  2.4295922e-03
 -9.8667033e-03
 -4.1328273e-03
 -3.9642635e-03
 -1.5093336e-02
  3.1859258e-03
 -1.0271684e-02
  2.1679636e-02
 -2.0521297e-01
 -1.7181089e-02
  1.3345252e-01
 -2.9598949e-02
  4.3598734e-02
  8.7402051e-04
 -8.6653784e-02
 -4.6743359e-03
  1.8383529e-02
 -7.6863475e-02
  1.0192512e-02
 -8.2815524e-05
  9.5874909e-03
 -9.9832239e-03
 -1.3391174e-02
 -9.5329741e-03
 -3.9962903e-02
 -5.0253738e-02
  3.1766262e-02
 -1.8293273e-02
  9.7579751e-03
 -1.6895328e-02
 -1.1243959e-03
 -3.2937512e-02
 -1.3291240e-03
 -8.5712438e-03
 -2.5568302e-03
  9.2734536e-03
 -3.4337384e-03
  1.4606601e-02
  2.7199658e-02
  2.8350127e-03
  2.9464906e-02
 -2.2680530e-02
  9.7445203e-03
  1.8984221e-01
 -3.4859363e-02
  3.8047504e-04
  5.1485145e-01
 -6.6155603e-04
 -2.8890695e-02
  3.6443856e-02
  1.2934846e-03
 -1.1873176e-02
  6.2441275e-02
 -1.1389769e-02
  5.6896392e-02
 -3.8252991e-01
 -4.8934654e-03
  1.7468141e-02
 -1.2548520e-02
 -5.4201116e-03
  1.5595326e-02
  5.5285557e-03
 -2.6126564e-02
  1.5087463e-01
  2.1041005e+00
  3.2387409e-02
 -1.0540386e-01
 -2.0399579e-01
 -3.7089344e-03
 -7.5536206e-02
 -1.2733142e-02
  5.8020655e-02
 -9.6375871e-01
 -3.1558853e-03
  1.1844275e-01
 -5.3399883e-04
 -5.4550964e-02
  2.5774309e-02
  7.2031603e-03
  6.8733948e-03
  6.0008979e-01
  5.4239416e-01
 -1.1503001e-02
 -6.7629670e-03
  2.4922473e-02
 -5.7484776e-01
  1.2503581e-01
  2.7766104e-03
  4.6079779e-01
  9.1476887e-03
  1.8532819e-01
  5.1752273e-02
  9.1087222e-03
 -8.9162338e-01
  7.6776618e-01
 -9.6279666e-02
 -2.5111077e-02
  1.2891597e-01
  8.0056461e-03
 -1.5896782e-02
 -3.1000590e-01
  1.6661406e-02
 -2.8631438e-02
  2.7324536e-01
 -1.4381455e-02
 -1.6589063e-01
  1.9871739e-01
 -1.2919117e-02
 -8.3806720e-03
  5.7856455e-02
  2.2840196e-01
  6.5221883e-02
  2.1432912e-02
 -3.5950527e-04
 -4.8007768e-02
 -1.6466125e-03
 -1.6397307e+00
  6.3764378e-02
 -1.7251410e-01
  2.2153430e-02
 -7.8541152e-02
  7.2049992e-03
  1.2293479e-02
 -1.0172234e-01
  2.1301961e-01
  1.0625188e-01
  1.1709474e-01
  1.8154722e-02
  3.8276859e-02
 -6.2846481e-03
  1.8056048e-01
  6.2444091e-02
  3.3851978e-01
  4.9011044e-02
  3.0854536e-02
 -1.2095547e-02
  2.5377283e-02
 -3.0010048e-02
 -1.2347339e-02
  9.8808281e-02
 -2.5139958e-01
 -1.6357212e-01
 -1.2952173e-02
  2.8183183e-01
 -1.1603146e-01
 -5.8676425e-02
 -7.3817849e-01
  4.8371889e-02
 -3.8927189e-01
 -5.0713085e-03
  4.3710493e-02
  3.9310809e-02
 -1.6350510e+00
  3.3225134e-02
 -3.8933896e-02
  4.4658177e-02
 -1.8529119e-01
 -4.0457152e-02
  6.0969006e-02
 -1.5115286e-01
  8.7296933e-02
 -6.7456854e-03
  2.1518014e-02
  6.9032229e-02
 -3.3365380e-02
 -5.9157395e-01
  4.1099468e-01
  2.9830599e-02
  3.3494721e-03
  3.4607912e-03
  3.0835627e-03
 -2.2411697e-02
 -1.0487380e-01
  1.1450969e-02
  1.2658073e-02
 -2.1650948e-01
 -1.1994227e-02
 -4.6993084e-03
 -2.4125531e-02
  9.4418516e-03
 -7.3420587e-03
  1.9205743e-02
 -8.5625416e-03
  1.0115042e-02
 -6.5751546e-03
 -9.7736099e-04
 -7.2141886e-03
 -4.4316977e-02
  5.5604108e-02
  1.6469013e-02
 -7.4003576e-03
  9.6416875e-04
  1.1964095e-02
 -1.1792536e-03
 -6.1174836e-03
 -1.4891666e-02
 -9.2407344e-03
  4.0142275e-02
  3.1902927e-03
  4.8642047e-03
  9.5067978e-02
  2.9207987e-03
  2.7591754e-03
 -4.7895317e-03
 -1.0144302e-02
 -9.0553693e-02
 -1.3008224e-02
  3.6014637e-04
  1.2090415e-02
 -4.3992009e-03
 -1.1250028e-02
 -8.4251007e-03
  1.0121722e-02
 -9.7408053e-03
 -3.6116296e-03
 -4.8966305e-03
  1.9605331e-02
 -1.3701690e-03
 -5.4728203e-03
 -6.5569784e-03
  1.5142540e-02
 -1.0254254e-02
  9.0539033e-05
  1.3527881e-02
  3.1188051e-03
  1.0126469e-02
  4.4676405e-03
 -3.7247990e-03
  4.2695040e-01
  7.0610619e-01
 -3.4875834e-01
 -8.4378421e-01
  7.8316295e-01
  8.2770303e-02
  6.2088507e-01
 -1.9546582e-01
  6.2376894e-03
  5.1386513e-02
  5.8082971e-03
  7.0814155e-02
 -5.9833091e-01
 -5.5460390e-02
  1.2600161e+00
  8.8513292e-02
  5.3825721e-02
 -9.8081654e-01
  5.5342987e-02
 -5.3062153e-01
 -1.4737400e-01
  4.8472378e-01
 -2.2158673e-01
 -3.2605761e-01
 -2.1975050e+00
  1.1852176e-01
 -4.8332464e-02
  3.9620873e-02
 -1.3058263e-02
 -8.3457130e-01
  8.0133080e-01
  4.4313487e-01
 -2.2479961e+00
 -1.9296650e+00
  2.0720719e-03
  1.1721837e-02
  2.1833366e-02
  2.0916309e-02
 -1.1593829e-02
 -2.4144394e-02
  9.5723495e-03
  2.5144783e-03
 -3.6587368e-03
 -2.1806606e-03
  7.4812741e-04
  1.0520284e-02
  9.4961813e-03
  1.2231770e-02
 -6.3356464e-03
 -1.4134622e-02
 -1.3346018e-04
 -6.6824825e-03
  9.8760065e-04
  1.8039336e-03
  1.3294306e-02
 -3.6519218e-02
  1.8752901e-02
 -1.0583913e-02
  4.1615055e-03
  9.0732187e-02
 -1.6717223e+00
 -1.5257677e+00
  1.2060446e-02
  3.8300699e-01
  9.1569877e-01
 -1.0663588e-01
 -6.9202734e-03
  1.3326347e-01
  5.1205367e-02
  3.4936022e-02
  9.9007860e-02
  4.9291626e-03
 -8.8908309e-03
 -1.3420114e-02
 -2.6640341e-01
 -4.6772030e-03
  1.8147830e-02
  2.4047042e-03
 -3.1755168e-03
  5.3865767e-01
 -2.8189477e-01
 -4.9997184e-02
 -1.3668808e-02
 -2.4000442e-02
  2.2386150e-02
 -2.2686873e-02
 -5.8526476e-04
 -7.4524744e-03
  3.3321750e-01
  7.3667676e-03
 -1.9863024e-03
  1.5412360e-01
  3.2733861e-02
 -3.5632771e-02
 -1.0748213e-02
  6.9370945e-03
  4.4315523e-03
  7.6142332e-04
  2.6324023e-03
 -1.8604386e-03
 -1.6808996e-02
  1.4130746e-02
  2.2800717e-01
  7.5265428e-04
 -2.1001741e-02
 -3.1559255e-02
  1.9684672e-02
  1.6510939e-03
 -8.4822550e-03
  1.5343137e-03
  6.5658069e-03
  1.9888247e-03
  2.3851148e-03
 -1.2709441e-02
  7.0477538e-03
  9.6566547e-03
  8.8240933e-03
 -3.0710109e-02
 -1.2327204e-03
  4.2840231e-02
  1.0394275e-01
  9.1407361e-04
 -2.8102362e-01
  3.1483865e-01
  6.8721175e-03
 -9.2077320e-03
  5.9568126e-02
 -3.6981290e-03
 -6.9021550e-03
  4.1350070e-03
 -1.6900098e-02
  3.6855424e-03
 -1.6846540e-03
 -1.4638470e-02
 -3.2412063e-02
 -1.5405694e-02
  8.4688729e-03
 -3.8824759e-02
  3.1398185e-02
  6.4871027e-03
 -2.4962975e-02
  8.1105279e-03
  5.9292940e-03
 -2.4598318e-03
 -1.3230138e-02
 -3.4632937e-03
 -1.3127351e-02
 -4.2520572e-02
 -2.1843376e-02
  4.1748919e-02
 -5.1845806e-03
  2.6277412e-02
 -6.7147627e-02
  1.2800951e-02
  1.2755442e-02
  1.5795690e-03
  3.1791545e-02
 -1.4318537e-02
  1.4232900e-02
  4.8041891e-02
 -7.7736094e-03
  7.4587669e-03
 -2.3278827e-02
 -3.2785833e-02
  1.0449439e-02
  3.3190334e-03
  2.1059433e-02
 -4.5477548e-03
 -3.6140494e-02
  1.1397335e-02
 -4.6125371e-03
 -6.7637446e-03
 -9.4779953e-03
 -1.6612796e-03
  6.3564457e-02
 -1.0702314e-02
 -1.3576712e-02
 -7.4743396e-03
 -7.5193369e-03
 -3.0733136e-02
  3.9878252e-01
 -2.6440111e-01
  1.9074848e-02
 -6.2524821e-03
 -1.7091600e-02
  1.4884419e-02
 -3.0241981e-02
  2.2220260e-02
  4.4238040e-01
 -1.2584825e-02
 -9.0788128e-03
  1.9861300e-02
  1.8444544e-02
 -1.1389934e-02
 -6.4240851e-02
 -1.7245289e-02
 -1.8377481e-02
 -7.3928512e-03
  1.6090959e-04
 -1.8337928e-02
 -7.2363960e-03
 -4.3844703e-01
 -7.0015723e-03
  1.4570230e-03
  1.2024029e-02
  3.8435958e-02
 -1.5723403e-03
  3.0442637e-03
  6.1604730e-03
 -4.9930625e-02
  2.6989681e-01
 -1.8139046e-01
  3.6474381e-02
 -7.5805706e-01
 -9.5179575e-03
 -5.6066971e-02
  2.5021344e-02
  6.7095074e-04
 -5.7713338e-03
 -2.0926677e-02
 -5.0289825e-02
 -9.1732470e-03
  4.4106152e-03
  2.0081425e-02
  1.1668731e-03
  9.5445169e-03
  4.6809432e-03
  4.2498432e-02
  2.7526987e-03
 -2.2407066e-02
 -3.4187217e-03
 -5.2815899e-03
  1.3019340e-03
  1.3891739e-02
  2.3986879e-03
 -1.3380283e-02
  9.1016917e-03
  7.2732684e-03
 -2.3018345e-02
 -5.1535517e-03
  4.9083641e-01
  7.3926097e-01
  5.0162312e-02
  1.1040692e-02
  6.5051094e-03
  1.8778399e-02
 -4.7511072e-03
  9.7220512e-03
  1.1660146e-02
  1.1944767e-02
  3.3483386e-02
 -1.1876807e-02
 -5.9561147e-03
 -2.3309526e-03
  3.0515564e-03
  5.2321102e-02
  1.4894871e-02
  1.8099077e-02
  2.2415710e-03
 -5.6329784e-03
  1.6450139e-02
 -5.8313762e-03
  1.0297848e-03
 -1.8742029e-02
  1.7170943e-03
 -7.1786605e-03
  2.3055758e-02
  1.0793180e-02
 -6.1079897e-03
 -4.2489287e-03
  1.6562866e-01
 -2.4214907e-01
  9.7528480e-02
  2.9089751e-02
 -4.1777149e-02
 -2.3107226e+00
 -6.2260348e-03
 -1.4448137e-04
 -2.8562576e-02
 -1.2804613e-02
  1.6351469e-01
 -6.1363345e-03
 -7.9486483e-01
 -1.8814565e-03
  1.4897577e-02
 -1.1885397e-02
 -1.5053187e-03
  4.2018346e-03
 -7.8963786e-03
  6.0377219e-03
 -5.4843161e-02
  9.7054215e-03
  2.7945582e-02
 -2.6668828e-02
  2.1920428e-02
  8.3885790e-04
  1.4151070e-02
 -3.0457610e-02
 -2.1348026e-02
 -4.4513989e-02
  4.0496093e-01
  1.4807416e-02
 -4.0953502e-01
 -1.1254793e-01
  9.6665611e-03
 -2.0448375e-02
 -3.8793024e-02
  3.7886279e-03
 -2.5247639e-02
 -4.0510979e-02
  1.8518262e-02
  2.5017536e-03
 -6.3159376e-02
  7.4144797e-03
 -6.4914031e-03
 -1.4031206e-03
 -1.7034966e+00
  2.2791680e-02
 -1.2004073e-02
 -4.7866050e-03
  4.8700780e-02
  2.6047989e-03
 -2.6412779e-03
  3.9412245e-02
  1.3197250e-02
  1.7121924e-02
  1.9155160e-02
 -1.2832381e-02
  9.7353332e-04
 -5.7322131e-03
  2.6345707e-02
 -1.7232978e-01
 -4.3546343e-01
 -2.1870704e-01
  1.0732031e-01
  1.4340194e-02
 -1.6815191e-02
 -2.4711033e-02
 -2.0089711e-01
  1.3025433e-02
 -1.0510867e-02
  2.0777164e-02
 -3.4735465e-01
 -6.1226501e-03
 -1.3836556e-02
 -3.3730890e-03
  2.2094408e-02
 -1.0671836e-02
  6.8979752e-03
  5.6094822e-02
 -1.7039930e-02
 -2.0894948e-03
  1.0628498e-02
 -2.5727866e-02
  2.5416177e-04
 -1.8510185e-02
 -2.0123534e-02
  2.2450726e-02
  1.6145518e-02
  7.3610060e-03
 -3.6649844e-01
  3.9681691e-01
 -5.5224020e-03
  9.8440543e-02
  1.2089377e-02
 -2.2950688e-02
  4.7990128e-01
 -2.9795791e-03
  1.5428957e-02
  2.6665652e-02
  6.7576747e-03
  1.3195428e-03
 -1.6375061e-03
 -2.0760219e-03
  9.0325931e-03
  9.1666728e-04
 -1.0770408e-02
 -1.9025369e-02
 -1.2738192e-02
 -1.0662584e-02
 -2.0224709e-02
 -1.2140913e-03
  9.5279887e-03
  1.0856695e-02
 -1.6420458e-03
 -7.4322028e-03
  1.1021042e-01
  1.5944550e-02
 -1.9349901e-02
  9.4441082e-03
  8.0985511e-03
 -5.7553794e-02
  6.7405604e-02
 -7.0953374e-03
  3.0078430e-02
  8.6012413e-04
  6.7324974e-02
  4.7916388e-03
  1.4090997e-02
 -3.9588537e-02
  3.3058953e-02
 -2.0229074e-03
  3.6109722e-04
  2.1015776e-02
  5.0638925e-02
  1.6140221e-03
 -2.7195180e-03
 -9.1085158e-04
  4.0686017e-01
  9.4949457e-05
  2.5031099e-02
  2.9439095e-02
  3.8376391e-02
 -3.9940253e-03
  2.1358086e-02
  1.3160170e-02
  1.4994062e-02
  1.9981626e-02
  1.4714460e-02
  5.1114883e-02
  3.2308741e-05
 -1.2993981e-01
  2.3949970e-02
 -3.9015281e-01
  2.4284603e-02
 -2.9719565e-02
  1.3610679e-01
 -1.0481383e-02
 -4.9998141e-03
  1.2506220e-03
  3.2604676e-02
  5.7391413e-03
  1.2880414e-02
  3.2006374e-03
  1.7302122e-02
 -2.7198181e-02
  7.9285875e-03
 -6.4106858e-03
  1.4648619e-02
  7.1071945e-03
  9.4684176e-02
  5.3423317e-03
  7.1098055e-03
  1.5637394e-03
  7.7522681e-03
  4.5897458e-03
  2.0359641e-02
  6.9827390e-01
  9.9609420e-03
 -2.6455658e-02
 -4.1057263e-03
 -3.3585567e-02
 -3.0235744e-03
 -1.2406404e-01
  2.5642535e-01
 -2.4254324e-02
  1.7258413e-02
  4.1005467e-03
 -1.4348479e-02
  3.8285838e-03
 -9.2523508e-02
 -1.6511145e-01
 -4.6139553e-01
 -2.2885056e-01
 -2.8510427e-03
 -1.6896699e-01
  4.2181421e-02
 -9.1731632e-03
  4.6969961e-02
 -1.2256094e-02
 -2.0601863e-01
 -8.4914459e-04
  4.6297945e-03
  1.0247170e-02
  1.0201341e-04
 -3.6332715e-02
  4.7553964e-02
 -2.0864049e-03
 -3.8090196e-02
  1.5472050e-02
  8.6728466e-01
  5.9691226e-01
  2.2424634e-01
  2.0930012e-01
 -6.5291333e-01
 -1.5448455e-02
 -2.0318380e-02
  1.5406077e-02
 -8.8905683e-04
 -1.1153718e-02
  2.7999362e-02
 -3.4146006e-03
 -2.1457888e-02
 -6.4122756e-03
  2.4315229e-02
 -1.2311982e-02
 -1.4879344e-03
  7.6162755e-03
 -5.3623702e-02
 -1.8226322e-02
 -2.5007066e-03
 -7.6260157e-03
  1.1811016e-02
  6.2076375e-03
 -7.4181981e-02
 -2.9243703e-03
 -2.1479294e-02
 -1.1621891e-02
 -3.7952780e-03
  7.3934984e-03
  9.4575010e-02
  3.9502198e-01
  1.3584292e-01
  3.1313366e-01
 -4.8197055e-01
  3.1387366e-03
  2.9895499e-02
  1.9582277e-03
 -1.6585719e-02
 -2.2330295e-02
 -8.0462648e-03
  2.6258017e-04
 -2.1377236e-03
 -9.0426794e-04
 -1.5907368e-02
 -1.3300600e-02
  1.4999384e-03
  3.9408743e-02
 -3.7983705e-03
 -3.0067869e-02
  4.6644593e-03
 -1.2357397e-02
  8.6153494e-03
  6.0819970e-03
  8.3516866e-02
 -5.2396501e-03
  1.5170474e-02
 -7.8225759e-04
  8.7768128e-03
  2.6850067e-02
  4.9676874e-01
 -2.0963147e-01
 -4.0003923e-01
 -2.5338677e-01
  2.7116287e-01
 -1.2436092e-01
  2.2356197e-02
  1.4139506e-03
  1.2131865e-03
 -3.1955049e-03
  2.3116702e-03
 -3.8202260e-02
 -2.8850060e-02
 -8.6592063e-03
  3.5944926e-03
 -2.4101878e-02
  8.7598301e-03
 -4.3314023e-04
 -2.1800022e-03
 -2.2440905e-02
 -2.8330613e-02
 -5.5025578e-01
 -1.3480074e-03
 -1.3746705e-02
  4.1171210e-03
 -5.7892330e-02
 -5.4985692e-04
 -9.8044788e-03
 -7.4201012e-03
  4.9842848e-03
 -7.5114211e-03
  1.1978943e-02
  4.7987611e-03
  2.8051850e-03
 -1.0824398e-01
 -1.7238416e-02
 -1.0048317e-02
 -4.1012946e-03
 -3.4574606e-02
  4.8032273e-03
 -2.0450579e-01
  1.8410174e-02
 -6.9303592e-03
  1.5284744e-03
 -7.0824879e-03
 -1.6860157e-02
 -6.7011081e-03
 -3.6708175e-04
  1.8870473e-02
 -1.5713500e-02
  6.9725499e-02
 -2.1431205e+00
 -5.9670713e-03
  1.7539276e-02
  1.0665038e-02
 -1.0162509e-02
  6.5997738e-04
 -5.9262747e-03
 -1.6291019e-02
  2.2192896e-04
  3.9357230e-02
  3.0391820e-04
 -7.3132413e-03
 -3.9304742e-03
  5.4021082e-03
 -4.6392509e-01
  8.2559057e-04
 -6.2445668e-03
 -7.3514156e-02
  1.3397790e-02
 -1.3775808e-02
 -9.6577555e-03
  3.2275677e-02
 -1.6023499e-01
  8.8017266e-03
 -7.8812689e-03
 -1.0802235e-02
  3.6170427e-03
 -7.7310489e-03
  2.4718044e-02
  1.7941955e-03
  4.9423333e-03
  4.9649468e-03
 -3.2049420e-03
 -1.3157298e-01
  5.3923144e-03
 -1.3812770e-02
 -3.9032511e-03
  1.3606121e-04
  7.1734809e-03
 -6.8083899e-03
 -6.0112812e-03
  1.2641808e-01
  1.7051509e-02
  5.4998528e-03
 -5.9773214e-03
  5.2951515e-02
  2.8106457e-02
 -2.5649073e-02
  8.2547348e-03
 -6.8898713e-03
 -1.3809427e-02
  8.3342688e-03
 -2.8451692e-02
  1.2885763e-02
  4.9574454e-03
  8.6149806e-03
  1.1029425e-02
 -1.2737084e-02
 -1.2282487e-02
 -2.1707054e-02
  6.5455982e-03
  4.1359745e-02
 -1.4114301e-03
 -6.0328245e-03
 -3.8451233e-03
 -7.5794617e-03
 -1.7040048e-04
  3.2921080e-02
 -1.7194314e-02
  4.9992299e-01
  1.4704946e-01
  2.0432639e-01
  8.2966313e-03
  2.1540847e-02
  1.6741063e-02
 -2.7941231e-02
 -8.8849931e-04
 -9.0705855e-03
 -5.2539860e-03
 -3.7067872e-03
 -2.0020392e-02
  2.1757772e-02
 -2.1760322e-03
 -2.2073165e-02
  3.0329921e-03
 -7.3211594e-03
  5.6472380e-02
  5.3199981e-03
 -5.1500265e-02
  1.9914884e-02
  2.7312811e-03
 -2.4392636e-02
 -1.9160490e-02
  3.8909145e-02
 -6.7277355e-03
  2.2214500e-03
 -4.2319838e-03
  2.1090096e-02
 -1.1378517e-02
 -1.3321594e-02
 -1.1685580e-02
 -1.1928909e-02
  1.1754379e-01
 -1.4390741e-02
  2.3502519e-02
  1.5166588e-01
 -1.3861631e-03
  4.2599980e-03
  1.3130621e-02
  4.6250001e-03
 -4.4144951e-02
  5.1856493e-03
  1.9281572e-02
 -5.8329036e-03
  1.3669497e-02
 -2.6256310e-02
  1.8456860e-02
  7.8903800e-03
 -1.1549606e-03
 -3.2672635e-01
 -1.8535228e-02
  4.6263233e-02
  1.2134158e-02
  3.9551243e-02
  1.6605122e-02
  2.0074040e-01
  4.2832494e-03
  7.2198804e-03
  2.2483299e-02
  2.1582857e-02
 -4.1585583e-02
 -2.4711869e-03
 -9.9680060e-01
  4.8498074e-03
  5.6045246e-04
 -1.0634340e-02
  4.7745020e-03
  4.0306798e-03
 -6.9957497e-03
 -2.9658657e-03
 -2.9822273e-02
  1.3303099e-02
  8.9492612e-03
 -6.3097798e-03
 -4.9546408e-03
 -4.0528093e-02
 -8.3393569e-04
  4.1350378e-03
 -2.0110013e-02
 -5.5138092e-03
 -3.4321796e-02
 -1.2929778e-02
 -1.0749208e-02
 -8.3170431e-03
 -1.3628996e-04
 -7.8347260e-03
  8.2234498e-03
  1.1425083e-02
 -5.5294302e-03
  5.6645982e-02
  1.2142781e-02
  2.5605245e-03
  1.4494713e-02
  1.1980347e-02
 -4.1596990e-02
  1.6053174e-02
 -3.1202629e-03
 -5.9336726e-02
  1.2843199e-02
 -2.9391814e-02
  1.8750561e-02
 -3.8342696e-02
 -3.3910479e-03
 -9.0107834e-03
 -1.9500913e-02
  3.8903176e-03
 -5.1389504e-03
  1.0179190e-02
  3.4130287e-01
  2.5564730e-02
  4.5436289e-02
 -1.7988227e-02
 -6.3679785e-02
 -1.3430649e-02
  1.9329125e-02
  1.0848991e-02
 -1.1352400e-02
 -4.9009016e-03
 -6.7812852e-03
  8.0042511e-02
 -2.0672697e-01
 -4.7709954e-01
 -6.9952250e-01
 -5.7350409e-01
  4.9401253e-01
 -7.9783857e-02
 -1.1110888e-01
 -9.7398317e-01
 -2.2926383e-01
  3.7750804e-01
 -2.5798516e-02
 -3.5665840e-01
  2.1371618e-01
 -2.9280216e-01
 -4.5081827e-01
  2.4413671e-01
  2.7884313e-01
  1.6013416e+00
  6.3767785e-01
  2.8394008e-01
  2.2292010e-01
  1.5222061e-02
  4.3871939e-01
  7.0835382e-01
 -1.5303538e-02
  3.1286922e-01
 -2.6760593e-01
  2.3789913e-03
  1.2171847e+00
  2.9150883e-03
  5.9861201e-01
 -3.3432425e-03
  1.3207933e-01
  1.2658091e-03
 -1.7615773e-02
  1.5952580e-03
 -9.6247708e-03
 -4.0511703e-03
  1.6081333e-02
 -1.1323527e-02
  4.3342239e-03
 -3.8023486e-03
  1.8823132e-02
 -3.9009660e-02
 -2.1079425e-03
 -8.1442194e-03
  1.5350416e-02
  5.1621310e-03
 -2.5053304e-03
 -8.6501660e-03
  4.0544812e-02
 -9.2691956e-03
 -8.4988102e-03
  3.5560634e-03
 -9.8087164e-03
 -9.7419610e-03
 -1.0040880e-02
 -6.2232479e-03
  2.6457387e-03
 -4.9182928e-01
  1.4061070e-02
 -1.2450841e-01
  8.1505798e-02
 -8.8685974e-03
 -1.4353358e-02
  8.5103055e-03
 -5.0981337e-01
  1.1049437e-02
 -1.3282232e-02
 -6.8183588e-03
 -1.2707962e-04
 -1.6666418e-04
  1.4830155e-02
  7.7600270e-03
 -4.6918876e-03
  2.5476662e-02
 -1.0335652e-02
 -9.6782977e-03
 -1.9812953e-02
 -1.0086723e-02
 -1.3278344e-02
  1.0396525e-02
  1.9200126e-02
  2.1948159e-01
  6.5041962e-03
 -1.8603269e-02
 -2.0142674e-02
 -4.1334038e-03
  5.1603109e-01
 -3.2660565e-01
  9.0753138e-01
 -3.2061659e-02
  6.7883842e-02
  2.2153687e-02
  1.0266730e-03
 -1.0204406e-02
 -7.3414394e-03
  2.0000644e-02
 -9.8371496e-03
  2.1560477e-02
  2.2785296e-03
  6.9920598e-03
  7.2640616e-01
 -1.1716538e-02
  1.7490204e-03
  3.1702421e-03
  1.5642514e-02
  2.2135671e-02
 -6.2492834e-03
  4.7821789e-03
  2.4211723e-03
 -1.0693382e-02
 -8.0034984e-03
 -2.3341374e-02
  2.3979936e-03
  5.7651079e-03
 -1.9883711e-02
 -2.2513801e-03
 -4.0892877e-02
  5.5229329e-03
 -6.0710287e-01
  3.3201319e-03
  9.8090672e-01
 -1.5137315e-02
 -9.9384990e-03
  5.2844398e-02
  5.2717691e-03
 -2.0166805e-02
  7.8400029e-03
 -1.3667863e-02
  3.8655605e-02
 -1.9822795e-02
 -1.1504440e-02
 -5.5110063e-03
 -9.4475793e-03
  3.8345326e-02
  3.7162762e-02
 -7.9555595e-03
  5.7947929e-03
 -1.8046349e-02
  5.6160814e-03
 -4.5940612e-02
 -3.8635905e-03
  1.9212374e-02
  8.0797216e-03
  1.7503040e-02
 -3.8160242e-03
 -5.2252030e-03
 -3.6059117e-03
 -1.5993012e-01
 -4.4350097e-01
  1.7891331e-03
 -1.3194411e-03
 -7.3581927e-02
 -3.0875934e-02
 -2.0407005e-03
  8.9385426e-03
 -5.9176907e-03
 -5.0299749e-02
 -2.2027366e-02
  3.2151371e-02
 -1.8536272e-03
 -8.8072065e-03
 -1.3963231e-02
  3.3056170e-02
 -4.4726194e-03
  8.3901524e-04
  1.9930255e-02
  2.8379691e+00
  9.6965255e-03
  1.3091494e-02
 -3.3406429e-03
  1.5610395e-02
 -1.0379529e-02
 -1.2151423e-02
  6.0257916e-03
  1.4470682e-02
 -7.0966734e-03
  1.6285412e-03
  6.7458493e-03
  1.4331181e-02
  7.6572597e-03
  7.0009152e-03
 -3.4783464e-02
  5.0436594e-03
 -8.7552122e-04
  6.5065376e-03
  9.4728861e-03
 -1.7356239e-02
 -3.3745553e-02
 -4.9825390e-03
 -4.9096239e-03
  1.5992600e-03
  2.4800032e-02
  4.4098678e-03
  4.2385353e-05
  2.7206831e-02
  2.1184500e-02
 -4.6297731e-03
  7.1060653e-03
  5.2893832e-03
 -1.0851227e-02
  1.3373683e-02
  2.1464305e-02
 -3.5074877e-03
  2.5421770e-03
 -3.2284532e-02
  9.2583075e-03
  7.8852484e-03
  3.4503687e-02
  2.4417315e-01
 -3.7603821e-03
  8.3962111e-03
 -7.5917756e-06
  1.6429764e-01
 -4.9397368e-03
 -3.3775723e-04
 -2.4690777e-02
 -4.8707812e-03
 -3.8198818e-02
  2.6479552e-03
 -4.6272907e-02
  5.2742190e-03
  3.5949014e-03
  1.3280868e-02
 -1.9113390e-02
 -2.3797092e-03
 -1.4813527e-02
 -1.4688389e-03
  1.5993788e-03
 -6.5570506e-03
 -1.1078831e-03
 -1.1447647e-02
 -9.8644957e-02
 -1.0015036e-02
  1.8201589e-03
  8.5512232e-03
  2.0408200e-03
  1.9586599e-02
 -1.3628399e-03
 -2.2451798e-02
  3.3475313e-02
  3.8909132e-03
 -1.1338944e-02
  9.2985824e-04
  5.0539649e-03
 -5.1819449e-03
  8.1526262e-01
  1.5483817e-02
  1.3130570e-02
  1.7211068e-02
  2.7462812e-02
  1.6029680e-03
  9.4968090e-03
  2.2169488e-02
 -1.5806418e-02
 -7.0128622e-03
 -7.0762071e-03
 -1.7263560e-02
 -9.3013803e-03
  1.3535392e-02
  3.1806389e-03
 -1.7585067e-05
  4.5026061e-03
 -1.6646808e-02
 -1.5553281e-02
  4.5382823e-03
 -1.0854257e-02
 -6.1350554e-04
 -2.0866936e-01
 -1.2267847e-01
  6.8006650e-02
 -3.9968053e-01
 -3.2378566e-03
 -1.6836908e-02
  3.9267246e-02
  6.7200302e-03
 -2.3102423e-02
 -2.1702409e-02
  1.8035643e-02
  2.6756348e-02
  1.5038979e-02
  1.3511487e-03
  9.9037914e-03
 -1.8410452e-02
 -1.2543334e-02
 -4.3861542e-02
 -1.9884733e-02
 -8.7783344e-02
  8.0366144e-03
 -7.9749329e-03
 -4.8737261e-03
  1.8719530e-02
  1.9967656e-03
  2.8134508e-03
  8.5782921e-03
 -2.7185706e-03
  6.1901432e-02
  5.4189160e-02
 -3.4283414e-01
  1.2046467e-02
 -8.6320445e-02
 -4.8735014e-01
  2.4988893e-01
  1.6847536e-02
  3.0798888e-02
  9.2393635e-03
  2.4410430e-01
  3.8899574e-04
  3.6830135e-02
 -4.4001592e-03
 -2.1565375e-03
 -6.9282786e-03
  3.2611012e-02
  4.2937443e-02
  6.0728644e-03
 -5.7106182e-02
  1.3434095e-02
  5.5349348e-03
 -8.2269935e-03
  1.8276332e-02
  8.8255033e-03
  1.5229522e-02
  1.8848096e-03
  2.9261813e-03
 -2.0990323e-02
  7.6008281e-03
  1.6474886e-02
 -2.3198659e-02
 -1.1321907e-01
 -1.0720102e-01
  2.8885207e-01
 -8.8904351e-02
 -1.6531331e-02
 -3.4245279e-01
  1.6601066e-01
  2.2892046e-03
 -1.8668394e-01
  2.2107682e-01
  3.5594583e-02
 -1.2055655e-02
  1.3968697e-01
 -3.8707584e-02
  1.7059165e-01
  2.9601836e-01
  1.6947599e-01
 -3.4752786e-01
  2.2156085e-03
  1.2635983e-02
 -2.6457873e-03
 -8.4506720e-03
 -1.1954480e-02
  1.1351544e-02
 -4.2671648e-01
  4.7692418e-02
 -7.3454745e-02
 -1.0948860e-02
  2.8698443e-02
 -1.0932149e+00
  1.1171640e+00
  2.1844298e-02
  1.5971384e+00
  9.7525692e-01
  9.7208589e-01
 -3.5403002e-04
  7.2118634e-04
 -2.5241932e-02
 -4.7460642e-02
  1.1665199e-02
  1.2108226e-02
  1.4994345e-03
  4.1119154e-03
  6.2832437e-03
 -8.6797485e-03
  2.3941809e-02
  1.5721230e-02
 -1.0315504e-02
  2.2390359e-03
 -6.0904019e-02
  9.0645384e-03
 -3.5131462e-02
 -9.3541339e-02
 -1.3570932e-02
 -3.3835976e-03
  6.5085045e-03
  5.2026333e-03
 -1.3139028e-02
 -7.0109405e-03
  1.4212520e-02
 -8.5634002e-03
 -5.0041389e-01
 -3.9874353e-02
 -4.9654711e-03
 -4.5332513e-04
  6.6276868e-03
 -5.7351105e-03
  7.5899381e-03
  1.3380192e-04
 -1.5501817e-02
  1.9819725e-03
 -4.8599769e-03
  6.4652134e-03
 -3.6023792e-02
  2.8670589e-03
 -8.0879275e-03
 -4.6269465e-03
  1.4969402e-02
 -1.4961066e-02
 -6.8410635e-03
 -5.6636021e-03
 -3.6010291e-02
  7.3281475e-03
  5.5620231e-02
 -6.0428232e-03
  8.0318665e-03
  2.0214960e-02
  1.0134376e-02
 -1.7789839e-02
 -1.3515916e-02
  6.8818384e-01
  1.7663115e+00
  1.5407376e+00
 -4.1638249e-01
 -9.1478187e-01
  2.0869847e-02
 -6.3878849e-02
 -5.3464323e-03
  2.6782898e-03
  2.4937108e-01
 -1.2311814e-01
 -2.4909985e-01
 -6.9622272e-03
 -1.5023175e-01
 -3.3291299e-02
 -1.4743641e-02
 -1.4449193e-01
 -5.3803653e-01
 -2.3880757e-02
  3.3422393e-01
  2.1359056e-02
 -9.1333017e-02
 -8.5745722e-02
 -5.8059335e-01
 -7.4135143e-01
  2.8815852e-02
 -8.1224460e-03
  1.7302981e-02
  6.2351176e-03
 -6.4716386e-03
 -6.9277368e-02
  1.9037150e-01
  5.2270728e-01
  4.0815806e-01
  1.0233485e-02
  2.8109727e-02
  6.0357664e-02
  2.7213863e-03
  1.0393698e-02
  3.5897570e-03
  4.1334081e-02
  5.5485599e-02
 -4.3696065e-05
  4.1526988e-02
 -6.4539742e-03
  1.0976510e-01
  4.4115629e-02
 -6.3084019e-03
  5.3963526e-03
 -4.7514657e-03
  1.2372625e-04
 -4.5601273e-04
  1.3248798e-02
  1.2182267e-03
 -5.0396784e-03
  6.2537432e-02
 -1.5346040e-02
  1.9565184e-02
 -7.3130513e-03
 -1.2070284e-02
 -7.8194290e-01
  1.2089814e+00
  1.2989992e+00
 -7.3654294e-01
 -9.8974955e-01
 -1.0981189e-01
 -2.6280740e-01
  2.7718446e-01
 -3.4882586e-02
  5.3467833e-02
 -4.5998058e-01
 -1.7897785e-02
 -3.0791514e-02
 -1.8559587e-01
 -1.0649507e-01
 -3.8923985e-01
 -2.2032066e-01
  4.1475254e-03
 -6.0075045e-02
 -8.6949393e-02
  1.3420965e-02
 -8.3619110e-02
 -2.1810888e-01
 -9.8474056e-02
  9.0300841e-03
  1.1648783e-02
  2.0322076e-03
 -9.6358135e-03
 -7.8204954e-03
  1.8432280e-02
  6.6608381e-03
  2.0879133e-01
  9.1400594e-02
 -1.1386248e-02
 -2.7849841e-01
 -1.3067897e-01
 -3.2006808e-02
  7.6475097e-03
 -8.9650219e-03
  4.3677972e-03
 -1.8097663e-02
  4.4017518e-03
 -4.6906183e-03
 -1.6351962e-02
 -3.8705654e-03
  1.4740778e-02
 -1.8213660e-02
  5.0146284e-04
 -8.7522604e-03
 -2.9704785e-03
  2.1893473e-03
 -2.0655060e-02
  7.3040365e-03
 -6.8194762e-02
  1.4025941e-02
 -4.1818521e-03
 -6.2194616e-03
  2.4300532e-02
 -2.9672107e-03
  2.1511735e-03
  1.8514062e-01
  6.1191052e-01
 -4.3605494e-01
 -2.3385048e-01
  7.8427806e-02
 -6.7494102e-03
 -5.7355715e-03
 -1.4686241e-03
  3.5310478e-03
 -7.2934729e-04
 -5.8373767e-03
  2.5862623e-03
 -1.8687902e-02
  1.8599926e-02
  2.7035445e-01
 -3.9172899e-03
 -9.4490424e-03
  2.2550428e-01
  5.7146117e-02
  1.4892894e-02
 -9.4006341e-03
  1.0364751e-03
  3.9347291e-02
 -3.7384789e-02
  1.1207049e-02
  3.5158633e-03
  2.6559702e-01
  2.9561697e-03
  4.0716898e-02
 -3.1163149e-02
 -8.2879566e-02
  4.3953322e-02
 -9.6669698e-01
 -9.3447727e-01
  1.0180899e+00
  2.2960799e-02
  2.2280394e-01
  1.6178811e-01
  1.6897866e-01
 -6.0001247e-02
  2.1838048e-01
  8.3189800e-02
  7.1513042e-02
  2.0084728e-02
 -4.0862754e-02
  8.8185236e-02
  1.0457338e-01
  1.3908729e-01
  5.3973652e-02
 -1.6826950e-02
  2.0348048e-02
 -6.2834569e-03
  1.0004047e-01
  4.4197258e-02
 -8.1833601e-02
 -1.4476364e-02
 -1.1766616e-02
  2.7673091e-03
 -6.5493407e-03
 -6.2651205e-01
 -4.4850702e-03
  1.8336291e-03
 -8.6493500e-02
 -7.3786937e-03
 -2.6257304e-02
 -6.0594763e-04
  2.2592373e-02
  1.2501198e-02
  1.0984198e-03
  1.1140269e-02
  2.8328021e-04
 -1.8209916e-03
  4.2745052e-03
 -9.2328049e-02
 -2.6909218e-03
 -5.6033130e-03
 -3.5267409e-03
  4.0897715e-01
  6.4014316e-02
  7.9203174e-03
  1.8132377e-01
 -1.8624304e-02
  3.3962536e-03
  2.3343846e-02
 -3.8114053e-03
  3.5639829e-03
  1.0501335e-02
 -7.5530144e-03
 -1.0460938e-03
 -2.0461870e-02
  7.2181574e-03
 -1.9170895e-03
 -1.4836358e+00
 -1.2158188e-02
  8.8629425e-03
  7.1839774e-03
 -6.8374979e-03
  3.7736327e-03
  1.1767684e-02
  4.2104106e-02
 -2.2458307e-02
  6.7469878e-03
  1.4043608e-02
  2.6909277e-02
  2.3751242e-02
 -4.7929976e-03
 -6.4030271e-03
  1.5815983e-02
  2.5133323e-02
 -7.8084803e-01
 -1.0856077e-02
  3.0438767e-03
 -1.2071769e-02
 -3.2272112e-02
  1.2547302e-02
  7.8631800e-01
  1.3891440e-03
 -1.2389945e-02
  6.0381023e-03
 -1.7606718e-02
  1.2033565e+00
  4.0332037e-01
 -2.9706836e-01
  3.3754671e-01
  2.8197509e-01
  1.8055964e-02
  2.4963910e-02
  1.6704893e-02
 -8.3893919e-03
 -3.2256774e-03
 -1.9243615e-02
 -3.9004032e-02
 -2.2762451e-02
  1.1935710e-03
  2.2371611e-02
  3.8516525e-02
 -2.1302430e-02
  5.6096252e-02
  1.7049970e-03
 -9.7047128e-03
  2.6280444e-02
  1.9504441e-02
 -4.4218620e-04
  4.4482261e-02
 -7.8098257e-03
 -1.3244879e-02
 -1.6938871e-02
 -5.9356652e-03
  4.1550948e-04
 -1.8799827e-02
 -1.5372390e-01
  5.5935705e-01
 -1.5009837e-01
 -1.1663008e-02
 -1.6687704e-03
 -8.3717881e-03
 -4.3221500e-02
 -2.4998503e-02
 -4.6908767e-03
  6.6420896e-04
  5.6501622e-03
 -9.9531993e-02
  4.0404527e-03
  4.7525518e-02
 -1.8572114e-02
 -1.8774865e-02
  6.7270468e-03
 -9.4935391e-03
  6.0114037e-02
  1.0347263e-02
 -9.2888055e-03
  1.2046210e-02
 -3.9440244e-03
  7.9243230e-03
  3.2810632e-02
 -2.6951998e-02
 -8.1400815e-03
  2.0192513e-02
  5.5062715e-03
  2.4574170e-02
 -5.0764517e-03
  4.8182243e-01
 -3.2692753e-02
 -3.2405031e-01
  1.5586652e-02
  6.0759131e-03
 -6.0206545e-03
 -8.2739037e-01
  1.8792823e-02
  4.0505931e-02
  2.1215087e-02
  1.2035564e-02
  1.1254469e-03
 -5.3074323e-03
 -8.7618092e-03
  7.3738175e-04
  6.9721288e-04
  7.7296919e-03
  1.1195669e-02
  3.5823558e-02
 -6.4555164e-03
 -1.0676040e-02
  1.7027203e-02
 -5.4013422e-03
 -3.4510336e-04
 -6.1938283e-03
  6.8443948e-03
 -9.2352396e-03
  9.7613342e-02
 -1.7829569e-02
 -8.1657684e-01
 -8.6846679e-01
  6.1630654e-01
  7.0361590e-01
  2.9312082e-02
  3.6397457e-01
  1.9824161e-01
  3.8418719e-01
  1.3044387e-01
  2.7426890e-01
  6.9006139e-01
  5.6505334e-02
  1.1621396e-01
  2.4392863e-01
  2.5081353e-03
  2.8339428e-01
 -4.2552661e-02
  1.4613085e-02
 -2.0675857e-03
  6.7036921e-01
  5.7744784e-03
  9.8875891e-03
  2.5429869e-01
  3.7457966e-03
 -8.6335796e-01
 -2.4162509e-02
 -1.2413970e-02
 -1.0241541e+00
  7.9428992e-06
 -9.3902074e-02
  1.4205317e-02
 -5.5699658e-02
 -5.0387427e-02
 -1.0586313e-01
 -7.0747021e-03
  7.1653477e-03
  1.1062385e-01
 -1.9030882e-02
 -9.1548925e-03
 -6.0502491e-03
 -2.6269672e-03
 -1.0297458e-02
  3.6676187e-04
 -2.3229257e-03
  2.6968309e-01
  4.7400840e-02
 -1.6931312e-02
 -3.8091782e-03
 -4.7985488e-03
 -4.9098027e-03
 -1.1947352e-02
 -4.1280966e-03
 -7.4620848e-04
 -1.7286896e-03
  5.5127181e-03
 -1.8810006e-03
  1.3098970e-02
 -7.0335163e-04
 -2.8228525e-02
 -3.3988184e-04
  4.6415845e-01
  3.2988533e-02
 -2.5536010e-01
 -6.9801289e-01
  2.4610431e-01
  1.0942001e-02
  5.2197891e-01
  3.0125711e-02
 -9.1738440e-02
  1.5118183e-03
  7.0696822e-03
 -3.7431248e-02
 -5.1414794e-01
 -2.9519128e-03
  1.8631807e-02
 -7.9588841e-05
 -4.1713277e-03
 -7.0315821e-04
 -1.6278633e-03
 -8.8644298e-03
 -5.8836206e-03
 -1.4005199e-01
 -2.9123319e-02
  3.1332370e-02
 -1.1054793e-03
  2.3534957e-02
  8.1135072e-02
  1.4327896e-02
 -2.6126230e-02
  4.2044267e-02
 -2.9258758e-02
  3.9851904e-02
 -1.3837131e-02
  2.6585646e-03
 -2.1183876e-02
 -1.1621671e-02
  1.1711498e-02
  4.3749688e-03
  1.8480571e-02
  4.3674954e-03
  2.9636542e-03
 -1.2382082e-02
  2.0512450e-02
 -4.5523988e-03
  1.9954961e-02
  2.8739877e-02
 -3.1620253e-05
  1.0611678e-02
  7.3622941e-04
  1.2098918e-02
 -1.0256089e-03
 -1.6602451e-02
 -1.2031414e-03
  1.5288754e-02
  3.9807286e-02
  2.3989869e-02
  1.4502635e-02
 -8.8787759e-03
 -8.2452409e-03
 -2.3400487e-02
  1.7034027e-01
  1.3883024e-01
  1.0211528e-01
 -3.0579753e-02
 -2.8910461e-01
  2.0182368e-03
 -1.1333204e-02
  2.2466140e-02
 -3.7273157e-02
 -1.1057964e-02
 -1.6218558e-02
 -4.2590369e-02
 -1.1544809e-02
  4.2051775e-03
 -2.6925812e-02
 -1.4086272e-01
  1.0802481e-02
 -1.2181130e-03
 -9.7958986e-03
 -3.8650688e-03
  2.2887954e-02
 -6.4017437e-03
 -1.3312753e-02
 -1.3171539e-02
  2.1939534e-03
 -2.3467399e-02
  8.3447332e-03
 -4.3477761e-03
  5.9692403e-03
  8.4107079e-02
 -8.9993989e-03
  1.9354827e-03
  4.3555457e-02
 -1.3482367e-01
  1.7381640e-01
 -2.4934914e-02
 -9.9749537e-03
  1.4141997e-02
  1.4998857e-02
  3.4821313e-03
  6.8745534e-03
 -5.0141513e-03
 -8.7673329e-03
  1.4057221e-02
  5.7238978e-03
 -3.1787653e-02
  2.3214035e-02
  2.8424555e-02
 -8.3763646e-03
 -2.3076630e-03
 -6.9065653e-03
 -5.3236395e-04
 -1.4359334e-02
  1.3148109e-03
 -3.0738967e-03
 -1.5500709e-03
  2.2159724e-02
 -3.0726450e-03
  3.4550078e-02
  4.8926413e-02
  8.0305248e-02
  8.5075989e-02
 -3.4515288e-02
 -3.4542762e-02
  1.2824202e-01
  2.6274154e-02
  2.9327016e-02
  8.4017757e-03
  1.2975805e-03
  2.3591343e-02
  5.3607393e-02
 -1.1652544e+00
 -8.0001820e-03
 -2.4042230e-02
 -5.1158881e-03
 -3.7611779e-03
 -1.0530783e-02
 -8.7445893e-04
  5.9244316e-02
 -3.8349249e-03
 -6.6171801e-03
  2.5077988e-03
  2.2102714e-02
 -5.9550427e-02
  6.5251119e-03
 -2.4010764e-02
  1.8489920e-03
 -9.4683422e-03
 -2.8907184e-03
  9.6523091e-03
  4.2471075e-03
 -3.1001702e-02
  1.3749024e-01
 -1.9363066e-02
 -1.3118227e-02
 -9.5152277e-03
  2.7005814e-02
  2.8633813e-05
  1.4631409e-03
 -4.0389206e-02
 -1.8626658e-02
  2.6559029e-02
  9.0164118e-02
 -2.2560291e-03
  3.1280071e-03
 -1.4084059e-01
  3.4802936e-02
 -7.8910850e-02
 -6.4706653e-03
  1.4711212e-03
  2.2779902e-02
 -7.9165207e-04
  1.3401667e-02
 -4.6534957e-03
  1.8985985e-02
  3.9099980e-02
 -1.0818047e-03
  5.9289690e-03
  1.9500976e-03
  1.1628170e-02
  5.0417099e-02
  1.6102368e-01
 -3.9214513e-01
  1.4256364e-01
  3.9323443e-01
 -1.1621623e-02
  1.5020367e-02
  4.6252392e-02
  1.7909399e-01
 -2.8442508e-01
  2.8223438e-02
  2.3159485e-03
 -8.8592395e-03
  1.4035116e-01
 -1.3824317e-01
 -1.0515162e-02
  4.8903644e-02
  1.4360200e-01
  7.4519753e-02
 -2.4728252e-02
 -1.5074987e-03
 -1.9893959e-02
  1.2757888e-01
  4.3637704e-02
  3.6540592e-01
 -2.6321262e-03
 -3.2635878e-03
 -1.2092622e-02
  1.8779090e-02
  9.6337676e-02
  1.8778229e-02
 -1.4230731e-01
 -2.0717913e-01
 -3.6119926e-03
  1.3483053e-03
  4.9135415e-03
 -9.5029762e-03
  1.2792634e-02
 -6.3694194e-03
 -1.1728702e-02
 -4.2189765e-03
 -3.6299609e-02
  2.8434850e-03
 -2.2432109e-02
 -2.4762692e-02
 -1.6040449e-01
 -2.7967889e-03
  4.6346476e-03
 -1.7288851e-02
 -4.4502400e-02
  8.3499830e-03
 -1.5365603e-02
 -2.1255122e-02
 -4.8035666e-02
  3.5958271e-02
 -1.3915632e-02
  1.8855112e-02
  7.4248025e-03
  2.6727792e-02
  4.6864145e-02
  9.0550007e-03
  1.4303684e-02
  4.3571196e-02
 -1.6567176e-02
  3.2302332e-01
 -1.7879838e-02
 -1.0607642e-03
  1.3147157e-02
  1.3034935e-02
  6.3342586e-02
 -3.1243004e-03
  7.7807698e-03
  2.7970849e-03
 -7.9743527e-03
 -4.5559364e-03
  1.2825112e-03
  3.3091737e-03
 -1.9377710e-02
  6.8999761e-01
  9.1359541e-03
 -4.8192669e-02
 -2.3504907e-02
  1.1898507e-04
  3.8779441e-03
 -1.1521163e-02
  9.7765569e-03
  1.4958024e-03
  2.1614819e+00
  7.1134511e-03
  3.5765443e-02
  1.5868407e-02
 -2.5221014e-02
 -1.2084211e-02
 -1.3591029e-02
 -6.5536392e-03
 -6.5142452e-03
 -6.7532854e-03
 -3.1123698e-02
  2.0370083e-03
 -8.6195180e-03
 -8.4957723e-03
  2.0151832e-03
 -2.5096642e-02
 -2.2759896e-03
  5.7151648e-03
 -1.6376946e-02
 -2.5171945e-02
  5.3413212e-05
 -1.2867784e-02
 -3.0286619e-02
 -5.0726034e-02
 -4.3558618e-03
 -2.6818568e-01
  3.0338107e-02
  2.6011504e-02
  1.9405801e-02
 -4.8028646e-04
  1.1968915e-02
 -2.7257320e-01
  1.4015902e-02
 -3.9566439e-03
 -7.7609648e-03
  1.3441906e-03
 -1.1355938e-02
  1.4639482e-02
  1.1583812e-02
 -2.0265207e-02
  1.0716576e-02
 -2.0077204e-02
 -1.2462582e-02
  5.2194777e-03
  2.5744175e-03
 -2.4852906e-03
 -1.2973938e-02
  3.5412887e-03
  8.3993739e-03
 -2.7378590e-03
  1.6566848e-02
  1.2047137e-02
  1.0302029e-02
 -2.0118846e-02
  4.0091876e-02
 -4.1229337e-02
 -1.9359296e-03
 -7.3647034e-01
 -7.7454915e-04
 -1.0325421e-02
  1.5013448e-02
 -3.0394660e-03
 -3.3060764e-03
  5.5845778e-02
 -9.7818568e-04
 -2.5555030e-02
  2.0562198e-03
  1.7499977e-01
 -1.6059911e-02
 -2.6831599e-03
 -7.5243637e-03
 -3.3067141e-03
  1.2827912e-02
 -3.2633956e-04
 -2.2358734e-03
 -1.7393725e-02
 -3.7201416e-02
  1.5020303e-02
  5.3161677e-02
 -8.7282993e-03
  1.4189776e-02
 -2.2739237e-02
  7.2939247e-03
  1.3831082e-02
 -1.1152841e-02
  3.4018862e-01
 -4.3752819e-02
  2.7829543e-02
  9.8897247e-03
 -2.6010582e-03
 -4.2311749e-03
  1.8935017e-03
 -2.2605665e-03
 -1.0980373e-03
 -5.2747536e-01
 -8.8192090e-02
 -5.7660072e-04
  2.5357695e-02
  1.3752758e-02
 -2.0437164e-02
 -6.6704252e-03
 -7.6633614e-01
 -1.0316752e-02
  3.6349576e-03
 -5.6925574e-03
 -1.1897448e-02
 -2.4179667e-02
  2.2704912e-02
  5.7341591e-03
  4.3322085e-03
 -3.6429295e-03
  1.5886210e-02
 -4.6751738e-04
  1.1531021e-02
 -1.1307541e-03
  3.5178788e-02
  1.3350854e-02
 -3.1073713e-03
  2.2070508e-02
 -3.0750614e-03
 -1.1448192e-02
  2.2411905e-03
  1.3563197e-02
 -4.7283530e-02
  1.1073388e-02
 -9.4670737e-03
 -1.9878659e-03
 -1.6442496e-02
 -5.6257259e-02
 -1.2074742e-02
  1.6806597e-02
  3.0194697e-01
  1.1565469e-03
  1.0577375e-02
  2.2859160e-02
 -3.1045604e-01
 -5.0272589e-04
 -1.1757378e-02
 -4.9780211e-03
  2.3879023e-02
  9.5144846e-03
 -1.1891145e+00
 -5.7974411e-03
  2.5037108e-03
  2.3898620e-02
 -2.7746454e-02
 -2.0174643e-02
 -2.3160918e-02
  1.6101496e-03
 -3.4341529e-01
  1.5011232e-02
  1.1130917e-02
 -2.9353049e-02
  5.0913036e-01
  9.2313832e-01
  4.0364805e-01
  5.6133515e-01
  1.0841488e+00
 -8.6732125e-03
  3.2473609e-01
 -1.6844928e-02
  3.8054742e-02
  3.5939908e-01
  5.5909342e-01
  2.5267202e-01
  2.1578956e-02
  2.5173925e-02
  7.4778891e-01
  1.3927126e-02
  8.0860384e-02
 -4.9360048e-02
 -1.7074935e-02
  6.2144595e-01
 -5.0059837e-01
 -7.4421070e-03
  9.3293443e-02
 -4.7358684e-03
  1.3606347e+00
  1.4216850e+00
 -1.6713977e-02
  1.1495101e-01
 -8.1132782e-01
 -1.2937401e-01
  2.2096062e-02
 -3.4227417e-04
  1.4657373e-02
 -3.5771162e-03
  4.2806864e-02
 -3.5471059e-03
 -1.3723153e-02
  1.2678336e-03
  2.3895251e-02
  4.3216031e-03
 -1.3316010e-02
  3.9232341e-03
 -1.1733681e+00
 -2.2329122e-04
 -1.5064773e-02
  3.9063915e-04
 -1.1179914e-02
  1.2226040e-02
 -8.9297658e-03
  2.7305817e-02
 -2.1297818e-02
  2.2820666e-02
  5.5250628e-03
 -3.3347898e-03
 -4.4633504e-02
  1.8105794e-02
  3.2653455e-03
  8.4383385e-03
 -6.6281538e-03
  4.2382899e-01
  2.5311616e-01
  1.0572395e-02
  5.4612807e-03
  1.6224866e-03
 -2.0461052e-03
 -2.1881064e-02
 -9.6026165e-03
 -3.0336168e-03
 -6.9631042e-04
 -3.2142124e-03
 -6.6744382e-03
  1.3172410e-02
  1.0989692e-02
  2.8602697e-02
 -2.3149649e-02
 -2.2920242e-03
 -2.1595083e-02
 -5.2425649e-04
 -3.9633205e-03
  4.8153743e-04
 -2.9309317e-03
  1.6405864e-02
 -2.2234622e-02
  2.1808514e-02
 -1.3010151e-03
 -1.9099990e-02
  3.0028392e-03
 -9.3688094e-04
 -3.5647086e-03
 -2.7855184e-02
 -2.1239574e+00
  4.6311769e-01
  1.3726103e+00
 -4.2602226e-01
  2.8749213e-01
 -8.6857071e-03
 -4.6304274e-02
  1.0922762e-02
  6.5774139e-04
  5.7869488e-03
 -1.0463123e-01
 -5.3086456e-02
 -4.5642457e-03
 -2.7171465e-02
  1.6709199e-02
 -5.5580635e-02
 -1.7340722e-03
  1.8001419e-02
 -6.2086782e-03
 -4.3955725e-02
  7.8694206e-03
 -3.8941689e-02
 -9.8746128e-02
 -8.7949801e-03
 -1.1378066e-02
  3.1534580e-03
  2.3557104e-02
 -3.5644416e-03
 -2.0263769e-02
  2.7484670e-02
 -4.2248207e-01
  8.3800085e-02
  4.5147371e-01
 -2.5077382e-01
 -1.3597097e-01
  2.2678523e-01
 -1.5802603e-02
  5.4827850e-02
  1.5084353e-01
 -2.0318416e-01
 -1.3112552e-01
 -3.1633507e-02
 -3.0593015e-03
  7.3071490e-03
 -2.3319900e-01
 -1.2188605e-01
 -1.8433489e-01
  8.0541223e-02
 -8.8808946e-03
 -1.0179247e+00
  2.0386837e-03
 -1.0552829e-02
  1.1534659e-01
 -1.5678354e-02
  6.6221368e-01
 -3.9965287e-03
  1.6825752e-02
 -7.8344699e-03
  5.6996760e-03
  2.1872680e-01
 -2.2583628e-01
 -5.6794608e-01
  1.2351340e-01
 -9.5336363e-02
  1.9807259e-02
  2.6464649e-04
 -2.2275345e-03
 -1.5622132e-02
  2.2012377e-02
  2.9030718e-02
 -2.9893965e-03
  1.8744889e-03
  5.7701841e-03
  5.4502920e-03
  1.4322348e-02
  1.3204351e-02
 -1.6002622e-02
  4.2820274e-04
 -1.2478527e-03
 -7.1119168e-03
 -1.6671792e-02
  4.4030833e-01
 -1.3763615e-02
 -6.0585425e-03
 -1.3109589e-01
 -1.6093634e-02
  4.3281452e-03
 -3.3855289e-02
  8.6790154e-04
  5.0785992e-04
  7.5541392e-02
 -1.1709180e-03
  3.5465227e-03
 -1.1299223e-01
 -6.6576824e-03
 -1.8913059e-02
  9.7513959e-02
 -8.0288528e-03
  1.0421509e-02
  1.1927893e-02
 -1.1025803e-02
  1.6068308e-02
 -4.0798349e-04
 -5.7199751e-03
  3.7683561e-02
  4.6393592e-02
  4.8495263e-02
 -2.2179710e-02
  1.1163021e-02
 -9.6184025e-03
 -5.3556641e-03
  9.1110989e-03
  2.6239926e-02
 -3.3017159e-03
  1.0433512e-02
 -1.4971436e-02
  1.0519416e-02
  6.3221641e-03
 -2.4884900e-03
 -3.6392987e-02
  2.1342576e-01
  8.6335814e-01
  1.3087103e-01
 -1.5226154e-01
  1.3533181e-03
 -7.3557501e-03
 -2.1525759e-03
 -1.8211355e-02
 -2.5824399e-03
 -3.3148039e-02
 -1.9364236e-02
  7.7484427e-03
 -1.2892112e-02
 -1.5192873e-02
 -1.5827621e-03
  3.6928955e-02
  8.1525475e-01
 -4.5374278e-03
  3.8930022e-03
  9.6044000e-03
  6.2314430e-03
  5.5213630e-01
 -1.2237646e-03
  1.0483932e-01
 -5.1592556e-03
  6.9298493e-03
 -3.7671950e-02
  6.6748722e-03
 -5.4579689e-03
 -1.4005722e-02
 -9.2570987e-03
  1.3119687e-02
 -3.1503062e-03
 -5.6723481e-01
  1.2759379e-02
  6.1969091e-03
  6.1489213e-03
 -1.0811139e-02
  7.0466441e-03
 -1.3312365e-02
  4.5918813e-03
 -3.6918761e-03
 -6.5625897e-03
  5.5383877e-03
 -1.2526355e-02
  8.6046215e-03
 -2.1851221e-03
  9.0307454e-05
 -2.1498850e-02
 -7.3588090e-03
 -3.7865734e-03
 -2.1865360e-02
 -1.6841593e-01
  2.3894029e-04
 -2.9998859e-02
  1.7258392e-04
  3.0304086e-03
 -4.2415899e-04
  1.1040673e-02
  7.9999929e-03
 -9.9775732e-02
  3.0081210e-01
  1.8019264e-03
  6.7333141e-03
 -1.2018146e-02
  2.8208354e-03
 -1.8433055e-02
  1.9533724e-01
  9.1202678e-03
 -1.1618715e-02
 -2.3874225e-02
  8.8159991e-03
  7.8391684e-03
  8.9349989e-03
  1.0799981e-02
  1.6013652e-02
 -3.2092951e-02
  4.0242583e-03
 -4.3325271e-03
  2.9045412e-02
  5.9929885e-02
 -9.0945186e-03
 -5.2058618e-03
 -1.4831251e-01
  7.3203431e-03
 -3.0448986e-02
  6.2939706e-03
 -1.6488356e-03
 -2.4220297e-02
 -4.5633782e-03
 -4.7969571e-01
  2.9909152e-01
  5.0845301e-01
 -3.5620648e-01
 -6.8969220e-01
  4.3239826e-01
  1.4118105e-01
  5.4306966e-01
  8.8094380e-03
 -3.0234551e-01
  8.8511724e-03
  2.9976454e-01
  1.5710412e-02
  8.8050358e-02
 -7.6532729e-02
 -1.2041532e-02
  7.6957023e-01
  3.1492341e-01
  1.1472575e-01
  3.3417398e-01
  1.5374446e-02
  8.1914393e-03
  2.2811559e-01
  4.3961856e-01
 -9.1882098e-01
  1.4364714e-02
  5.7399389e-03
 -6.1466515e-01
  2.8721860e-03
  3.1702465e-01
 -1.0568936e-02
  3.4954515e-03
  1.1603401e-01
 -6.0855186e-01
  1.2409116e+00
  1.7109009e-02
  1.4612611e-01
  5.4652207e-03
  4.0385615e-02
  8.5412270e-01
 -3.1917389e-02
 -1.8724111e-01
 -3.3276670e-02
  1.6870257e+00
 -4.9617227e-02
  2.0830054e-02
 -1.5019743e-02
 -4.2520568e-02
 -1.5122925e-01
  1.6031012e-01
  3.4124416e-01
  1.4116650e-02
  9.6033141e-03
 -1.0092630e-02
  3.3812582e-02
  1.9990688e-02
 -5.5086706e-04
 -2.7055770e-01
  2.5242674e+00
  3.6409963e-02
 -1.7284855e-02
 -1.0501039e+00
  7.7080661e-01
  3.8385734e-02
 -1.4295733e-03
 -2.9768154e-03
  1.0526381e-02
  1.2249690e-02
 -3.0210560e-02
  4.3039298e-01
  1.3489714e-01
  3.3645933e-03
 -9.1292463e-02
 -6.3024308e-03
  9.7642273e-01
  6.0857013e-03
  1.4808591e-01
  1.0452558e+00
  1.0340564e-02
 -3.8087245e-02
  3.8555101e-02
 -1.0940192e-01
 -9.6967757e-02
  7.2862744e-01
 -5.6807487e-03
  5.4132116e-01
 -9.9051772e-03
 -9.9717388e-03
 -6.7402776e-03
 -3.8983658e-02
 -9.8109013e-01
 -5.4774153e-01
 -4.1394189e-01
  1.3718063e-02
  2.6190253e-02
  1.8580887e-02
 -1.4657562e-02
 -8.7957410e-04
 -1.1877694e-02
 -1.9918942e+00
  1.3349268e-02
  1.3330396e-01
 -8.3836213e-02
 -1.5298823e-01
  1.3641473e-02
 -1.5750028e-02
 -1.9875322e-02
 -1.6223264e-01
  1.5409543e-02
 -6.7487723e-01
 -5.3648666e-02
 -1.8403342e-02
  7.2559923e-01
  2.0689879e-02
  4.7610858e-01
 -6.8924226e-02
 -3.8930751e-02
  3.3984475e-02
  2.9306971e-02
  2.4721389e-01
  8.6935349e-02
  7.9709619e-02
 -3.2782394e-02
  2.8178096e-01
  5.5444837e-03
  1.7623195e-02
  2.7309440e-03
 -1.0810991e-01
 -1.0084204e-01
 -2.8122377e-01
 -1.1983123e-01
 -5.2310441e-02
 -2.1217268e-02
  1.5181229e-02
 -1.4125204e-01
  3.3974174e-02
 -5.6842426e-03
  9.9245142e-03
 -5.1373047e-01
 -3.9638707e-01
 -1.1726724e-01
  6.9544435e-01
  2.7313190e-02
 -8.5754216e-02
 -2.2210725e-02
 -2.1354012e-02
  8.5538039e-03
  1.1524913e-01
  6.8973601e-02
  2.9147074e-01
  1.5312541e-01
 -1.0843243e-01
  3.5727221e-01
  9.8484375e-02
 -1.7750575e-01
 -6.4811073e-02
  3.9806122e-01
 -5.9121329e-01
 -1.1661735e-02
 -1.3462017e-01
  4.1017503e-02
 -7.4311030e-01
  6.3696876e-02
  1.9097121e-01
  9.3295677e-03
 -2.6391444e-01
  2.8207304e-02
 -2.2517516e-01
  2.5640631e-02
  6.9187924e-02
  3.7672527e-02
 -5.9755534e-01
 -1.3464853e-01
  2.0758087e-02
 -3.4379270e-02
  9.6188951e-03
  6.4519539e-02
  1.3330373e-01
  6.0264720e-04
  3.6961451e-01
  9.2464462e-03
  3.7066373e-03
 -5.8843404e-01
 -4.7979242e-01
  3.5332087e-01
 -1.2331861e-02
  8.0788493e-02
 -4.9560512e-03
  4.2414431e-02
 -1.2235612e+00
  1.9133156e-03
 -1.8080105e-01
  3.8378048e-01
 -2.5902948e-01
 -7.1625739e-02
  8.4998282e-03
 -7.4719433e-03
  1.1895916e-02
 -8.4940337e-05
  4.2705382e-03
  2.2911279e-02
  1.8598679e-02
 -2.2701465e-02
  6.4906113e-02
  1.9164650e-02
  1.0002256e-02
  9.7980425e-03
  4.5947477e-02
 -1.2918570e-02
 -1.9471373e-02
  9.2217773e-03
 -3.1112626e-03
  9.8471474e-03
  5.6869267e-03
  1.1207299e-02
 -4.2616591e-01
 -2.1911771e-03
  1.6932553e-02
  6.8217092e-03
  4.7033507e-02
 -9.4096264e-04
  5.9744149e-02
 -2.3114069e-01
 -2.3040053e-02
  7.3030585e-01
 -1.6757850e-02
 -3.0558856e-02
 -4.4601333e-01
 -2.0490920e-02
  5.5086305e-03
 -1.1502287e-02
  6.5299869e-03
  3.9639175e-03
 -3.0335781e-01
  5.2234088e-03
  2.1748180e-02
  9.9403383e-03
 -2.0449875e-02
  5.1033210e-02
 -2.0602318e-02
  1.7185302e-03
 -8.1241905e-04
 -1.5151436e-02
 -1.5675901e-02
 -1.1299003e-02
  6.5482766e-03
 -1.3693751e-02
  1.1641586e-02
  1.5053943e-03
 -1.5607509e-01
  3.7063909e-01
  1.3304286e+00
  1.4750878e+00
 -6.5319192e-01
  7.3626584e-01
  6.2827962e-03
  6.4626448e-02
 -6.6104094e-03
 -3.4308307e-02
 -1.9811613e-02
  2.7086379e-02
 -1.2862425e-02
  7.8570656e-03
  9.6017001e-03
 -4.2988313e-03
 -4.9193879e-03
 -3.8859986e-02
 -5.2250759e-03
 -1.9441115e-02
 -2.4275001e-02
 -3.5904797e-03
  1.5138229e-02
 -2.1004040e-02
 -4.6613663e-03
  2.6777053e-02
 -1.1884204e-02
  3.7046603e-04
 -2.6091410e-02
 -4.9157593e-02
  2.0677296e-02
  1.3029491e+00
 -6.6426909e-01
 -6.1473042e-01
  6.5170407e-01
  3.1606126e-01
 -5.0736952e-01
  4.0869310e-02
  6.0680736e-02
 -1.7660297e-01
  5.9414920e-03
 -6.6366774e-01
 -5.1417737e-03
  6.0770258e-02
  1.7800756e-01
 -2.1049654e-02
  5.5358046e-01
 -6.4792976e-02
  5.7762027e-01
  4.6094470e-02
  2.0354563e-02
 -6.5233350e-02
 -5.0822005e-02
 -1.6470110e-02
 -4.6092053e-03
  6.7012464e-03
 -3.6562997e-01
  3.0679274e-02
  7.9260385e-03
  3.5420423e-03
  1.7539768e-03
  5.1471806e-01
 -5.5989760e-01
 -5.9621289e-02
 -5.0418097e-01
  1.6736397e-01
 -1.4269145e-01
  1.4071441e+00
  1.1907871e+00
  6.0764652e-01
 -1.3595804e+00
 -1.7798228e+00
 -1.5602086e+00
 -2.7762785e+00
  1.4569659e+00
 -1.6005214e-01
  2.0693798e+00
 -1.0149227e-01
 -1.1477361e+00
 -9.8445117e-01
  6.2539160e-01
 -1.7824647e+00
 -1.2444510e-02
 -2.9607582e-01
 -7.6083589e-01
 -3.3590105e-01
  2.0477884e-01
  1.8854914e-02
 -1.6502248e-02
 -5.3211223e-02
 -7.0755822e-03
  7.3319566e-03
 -1.4671164e+00
  6.3096291e-01
 -4.8476776e-01
  1.7597268e+00
  7.3909503e-01
 -7.1892305e-03
  3.1837340e-02
 -9.4045084e-03
  2.6137523e-02
  3.1681532e-01
 -1.7029339e-02
  1.0074162e-01
  1.6105590e-02
  9.7383093e-03
  7.6181707e-03
  4.8650149e-04
 -9.5078181e-03
  7.7864393e-03
 -7.4229119e-03
  3.8364027e-02
  1.0214123e-02
 -5.0049704e-02
 -1.0667370e-02
  9.2290044e-03
  4.9228560e-02
 -1.6292660e-02
  2.8912232e-03
 -1.2495700e-02
 -4.8230420e-04
 -1.5445647e-01
  4.0193509e-02
  3.7685040e-01
 -5.5578761e-02
  4.2453572e-02
 -4.2735285e-04
  4.7414452e-03
  4.8896942e-02
  7.9304829e-02
  4.9515191e-02
 -8.2592461e-03
 -9.8179961e-03
  1.4805270e-02
  2.0422533e-02
  4.7699403e-02
  9.8657049e-03
  1.0805978e-02
 -1.3384179e+00
  1.7835677e-02
  2.6995108e-02
 -1.7360052e-02
 -5.1271529e-03
 -2.3746345e-02
 -5.2482388e-03
 -1.3888809e-02
 -3.3809710e-02
  2.1134906e-02
  3.1193220e-03
  8.1740199e-03
 -3.3115398e-03
 -1.4039300e-01
 -1.8713499e-03
 -4.1768458e-02
 -1.4112613e-01
 -1.0974311e+00
  4.6150672e-01
 -1.3637237e-02
 -3.5043517e-01
  6.4430246e-03
  9.5240232e-03
  2.3092262e-02
  8.6846296e-03
  1.7478185e-03
  2.5828806e-01
  6.7141926e-05
  4.2815098e-01
  1.6720821e-03
  1.5307110e-02
  1.6303893e-02
  1.2827914e-02
  3.6074705e-02
 -2.2160619e-02
 -1.9410957e-02
 -1.0661106e-02
  1.2948358e-02
  4.7054500e-03
 -3.1254380e-03
 -9.3040541e-03
  6.3433844e-01
 -1.9871790e-03
 -3.4826437e-03
 -1.4261323e-01
 -3.2693502e-02
  2.8001487e-01
  2.8369129e-01
 -5.5903640e-02
  1.6073074e-02
  5.3825665e-02
  1.4387894e-02
 -2.1904515e-02
 -5.2293144e-02
 -1.1956125e-02
  8.2868055e-02
  9.3798205e-04
  6.2045478e-03
 -2.7457965e-03
  4.2608245e-03
 -1.7774712e-02
 -1.5974360e-02
  2.4792295e-02
 -1.7456926e-02
 -8.4569454e-03
 -1.9057691e-02
 -7.6231215e-04
 -1.2095520e-02
  2.7054693e-03
 -5.5938988e-04
 -4.4185570e-03
  5.5579869e-03
 -1.1773233e-02
 -4.1821918e-01
  2.4064396e-01
 -6.9013053e-01
  1.0816245e-02
 -1.4851573e+00
 -1.4273924e+00
 -8.9960778e-01
 -9.9141532e-01
 -5.6523567e-01
  1.0660322e+00
 -2.0257990e+00
 -2.9971123e-01
  6.1460751e-01
 -1.0660741e-01
 -1.3531824e+00
 -6.4033645e-01
 -2.4564211e-01
 -1.8137817e-01
 -6.8835512e-02
  1.7142877e-03
  1.2542549e+00
 -2.1899156e-02
 -4.7089919e-02
  9.3470767e-02
 -5.3444620e-02
  2.2756794e-01
  5.8771383e-02
  1.6203575e-01
 -7.6305709e-04
 -4.2156368e-03
 -6.5564990e-02
  5.3450376e-02
  4.4234645e-01
  2.6378894e-01
 -5.6983359e-02
 -8.0552620e-01
  8.2159710e-01
  9.4532448e-01
 -4.7659141e-01
 -2.7833497e-03
 -3.4463014e-02
 -5.4157423e-03
  7.1989948e-01
 -3.4669037e-03
 -2.6207063e-02
 -2.5028318e-02
 -1.2846448e-02
 -2.5645462e-01
 -3.8663629e-01
 -7.0066556e-02
  5.0351247e-02
  1.9116433e-02
  2.7790624e-03
  2.4301704e-02
  1.0010500e-02
  6.9403998e-03
  2.1437770e-03
  3.6506105e-02
 -1.5520509e-02
  9.2929928e-04
 -5.8349550e-02
  2.1233957e-02
 -5.1169902e-02
 -6.0006673e-03
  3.5209206e-03
  7.3555604e-02
 -1.3034373e-03
 -3.2015308e-04
  6.8880138e-03
 -2.0486832e-02
  8.0574090e-03
 -1.8170492e-03
  3.3908321e-03
  1.0537882e-02
 -8.1189973e-03
 -5.7843933e-04
  4.9745059e-03
 -5.2537099e-03
 -1.5344981e-02
 -3.2721979e-03
  2.0629713e-02
 -5.4755812e-03
 -1.7637399e-03
  3.4790765e-02
 -2.9366093e-03
  2.1096330e-02
 -2.7081438e-03
 -4.9392288e-03
  2.2843456e-02
 -7.4082138e-03
 -1.4829989e-02
  3.8861099e-01
 -7.5310715e-02
  3.0941230e-03
  4.0268898e-03
 -1.2676899e-02
 -5.1018372e-03
  2.9312847e-03
 -2.2862935e-02
  3.8240891e-04
  2.6271336e-03
 -4.6757109e-02
 -1.9452468e-02
 -3.3945404e-02
 -4.2389616e-02
 -2.6094866e-01
 -5.9653629e-02
 -1.5752845e-02
 -1.3745459e-02
  1.2436547e-02
 -9.9213878e-03
 -2.1383172e-02
  1.9038379e-02
 -3.0262142e-03
 -3.2399658e-03
  4.3699395e-02
  8.0508780e-04
  5.2324188e-04
 -8.9101642e-03
 -7.1094476e-02
 -4.1845426e-01
 -1.0307886e-01
 -7.2162971e-04
 -1.5924599e+00
 -2.8928471e+00
 -8.4451234e-01
 -2.7195358e-01
 -1.0590328e+00
 -4.8048511e-01
  1.9117953e-01
  2.6128718e-01
  3.0501086e-01
  4.0535802e-01
 -5.7512784e-01
  2.0842273e-03
 -7.4181366e-01
  6.2681567e-03
  1.3995637e-02
  3.1729388e-01
 -2.1782976e-03
  1.1087145e+00
  4.0334109e-02
  5.4141246e-02
  3.3068955e-01
  8.0674877e-03
  4.1084375e-02
  1.2546534e-02
  5.5678707e-02
  9.6748779e-03
 -9.3263024e-03
 -7.5179845e-01
 -2.9687548e-02
 -6.0252148e-01
  1.0908661e+00
  2.1111992e-01
 -6.4061113e-02
 -1.7124066e-02
 -2.4599548e-01
 -1.8087891e-01
  2.6218956e-03
 -7.3804357e-03
  2.2993045e-02
  1.8208225e-01
 -3.2078265e-04
 -1.1155575e-01
  2.8643662e-01
 -9.7919017e-02
 -3.7998714e-02
  2.4327669e-02
  1.1914563e-02
  1.7708795e-03
  1.0600116e-03
  9.9404603e-03
  2.1700831e-03
 -5.2455803e-03
  1.1274789e-02
  6.7065163e-03
 -2.4380401e-02
  7.9353396e-03
 -2.2265192e-03
  1.8406159e-03
 -1.0766264e-02
 -1.2350643e-02
 -7.5292483e-02
 -9.2318055e-04
  6.8432995e-04
 -6.9652533e-04
  4.6417508e-03
  3.8172768e-03
  1.8494286e-01
  2.7557112e-02
 -2.6534826e-02
 -6.5173018e-03
 -2.6460081e-02
 -3.0315751e-02
 -8.1872577e-03
  1.7781460e-03
 -6.4155232e-04
  1.7853811e-02
 -4.4040047e-02
 -1.3262713e-02
  1.0523205e-01
 -1.3035740e-02
  1.9043987e-03
  8.2027176e-03
  4.2009361e-02
  8.5974773e-03
  1.2193214e-02
  2.0091038e-02
  2.8908311e-03
 -1.6550688e-03
 -1.3423346e-01
  2.7873775e-01
 -1.4535518e-01
 -1.8508717e-02
 -6.4892285e-03
 -3.1341955e-03
  7.1371205e-02
  1.9235473e-02
  2.0248054e-03
  7.0388384e-02
 -1.7329685e-02
 -2.8750977e-02
 -7.8619574e-04
  2.5103519e-02
 -6.2618339e-03
  3.3700719e-04
  1.6511431e-02
 -1.6470175e-02
  1.7574854e-02
 -2.1921644e-02
  4.5024537e-02
 -1.0919733e-02
  1.1639944e-01
  3.2904297e-02
 -6.1588613e-03
  4.0892884e-02
 -1.7868645e-02
  1.9144721e-02
 -1.1793334e-02
 -6.1543095e-03
  2.0473525e-02
 -2.8529428e-02
  5.7909624e-03
  4.6622366e-02
 -2.4241188e-03
 -2.3595359e-02
 -5.2963304e-03
  1.3984451e-02
 -4.2716884e-03
  6.5529351e-03
 -9.0741646e-03
  1.5634913e-02
  2.3842005e-03
 -6.2248986e-03
 -2.7184233e-03
 -6.9736335e-03
  3.5157451e-01
 -1.1042804e-02
  2.9652480e-03
  9.4133336e-03
 -2.1595354e-03
  2.0941641e-02
  8.6818956e-04
  1.0510952e-02
 -9.0164812e-03
  1.4873599e-02
 -4.1264589e-03
  1.6525961e-02
 -1.7379774e-02
  1.5298314e+00
  9.2347091e-01
  1.1683276e+00
  5.8364862e-01
  1.8093854e+00
 -5.5456007e-01
 -6.9128633e-02
 -2.4406264e+00
  2.0601220e-02
 -5.9456951e-03
  1.5813191e+00
  7.2897910e-03
  6.0136408e-01
  1.7489460e-01
  1.2096625e-01
  5.4289675e-01
  1.0743099e-01
 -2.3978449e-01
  1.3729909e-02
 -5.1085490e-01
  2.1139838e-01
 -2.0878525e-03
  1.3212802e-02
 -2.4659169e-04
  1.0947268e-02
  1.6210838e-01
 -4.7324756e-03
  5.0795586e-03
  4.9310690e-03
  1.8773155e-02
  3.2870863e-03
  2.2219586e+00
 -4.1161585e-03
  4.8430942e-02
  9.5536697e-01
  1.4812870e-02
 -1.3116127e+00
  3.2654016e-03
  7.5085737e-02
 -8.8572334e-03
  2.1711508e-02
 -2.8170461e-03
 -1.3210523e+00
 -2.7172347e-03
  9.0459250e-03
 -4.8466498e-04
  1.3643962e-02
 -4.6627517e-03
  1.0698052e-04
  7.2827265e-03
 -8.0240685e-03
  1.5561332e-02
  4.1017756e-02
 -2.5229177e-02
  1.1728081e-02
 -3.2509831e-04
  1.0126951e-03
  2.7455345e-03
 -9.2275413e-03
  6.6036396e-03
  6.8496158e-03
 -8.3150389e-03
 -2.0468317e-01
  4.2283130e-01
 -3.4867894e-02
 -8.4548056e-01
  5.8858744e-03
  8.0850273e-01
  1.0665607e-02
  2.3072106e-03
 -3.4675002e-02
 -6.9480218e-02
 -6.1516031e-03
  1.8407017e-02
 -9.1100484e-03
 -1.3533889e-03
 -1.3730495e-02
  6.8632322e-03
  1.0667243e-02
  4.0641196e-02
 -8.7193483e-03
 -1.4900742e-03
 -1.5030834e-02
  2.5016141e-05
 -1.5238445e-02
  2.6940934e-03
  1.3394358e-02
 -2.7262336e-01
  1.9127948e-03
  1.9940878e-03
  5.9139864e-03
  6.9182515e-02
  1.3824785e-02
  3.7466428e-01
 -2.1916423e-02
 -2.1987963e-01
 -9.7193653e-03
 -2.5739271e-02
  6.2183579e-05
 -2.7363352e-02
 -6.7627132e-03
  2.4479058e-02
  7.5702802e-03
  6.7592137e-03
 -1.3695847e-02
  7.9324078e-03
  1.1317918e-02
  3.9234152e-03
 -3.5795171e-02
  6.9147507e-03
 -1.3637722e-02
 -1.3386596e-02
 -1.9293049e-02
 -9.2249319e-02
  3.3764169e-03
  7.8286491e-03
 -4.3819636e-01
  1.7457219e-03
  4.1018687e-03
  6.0185427e-03
 -1.1262910e-02
 -2.1939105e-03
 -2.7964991e-03
 -1.5377440e-02
  8.2200263e-03
  2.0430140e-02
 -1.8905560e-02
 -2.4315137e-02
  1.1589625e-02
 -5.6414539e-04
  1.5127501e+00
 -6.0020458e-02
  7.4876663e-03
 -1.7450148e-03
  4.1355561e-03
 -1.1661162e-03
 -8.6429538e-03
  1.3954845e-03
 -1.3541117e-02
 -7.8209648e-03
 -7.4517964e-03
 -4.7580879e-03
  1.7102500e-02
 -2.3287615e-02
 -3.4448896e-03
 -7.0652105e-02
  2.0919958e-02
  1.1647858e-02
  1.9092085e-02
 -4.0792073e-03
 -8.7821987e-03
 -9.1701493e-02
  2.0360179e-01
  4.6719506e-01
 -3.3176668e-02
  1.8632956e-04
 -3.1386435e-02
  2.6146970e-03
 -3.5439541e-03
 -1.9307094e-02
 -2.0948634e-02
 -2.6905159e-03
  1.0288575e-02
  8.2677780e-03
  1.7444957e-02
  1.7819949e-03
  6.5406235e-03
 -1.9271792e-01
  3.7309088e-02
 -2.4060318e-02
  3.5398277e-03
  4.7325832e-03
  1.1427355e-02
  1.6863573e-03
 -4.4219038e-03
  2.6835343e-02
  7.6610730e-03
  1.9899001e-03
 -3.6138069e-02
 -1.0940939e-03
  3.8331114e-03
 -8.4457844e-02
  1.4861468e-02
  6.0663976e-02
 -4.0523126e-03
  6.5193939e-01
  1.1926985e-02
  1.4674611e-02
  7.3984065e-03
 -7.1372199e-03
  1.9039361e-02
  2.5532730e-03
 -1.1045447e-02
 -4.1228449e-03
  8.5145858e-04
 -1.0911178e-02
  5.5514667e-03
  6.3016843e-03
  2.6182257e-04
 -8.9416225e-03
  5.2843662e-03
 -2.6290881e-02
 -1.2400622e-02
 -6.0865707e-03
 -1.7990852e-02
  5.1527623e-02
 -1.2803510e-02
 -2.1010077e-04
  4.6924320e-03
 -1.1276910e-02
  3.9183121e-02
 -3.1987853e-02
 -3.0075772e-02
  1.3506487e-01
 -1.2889279e-02
 -3.1161498e-02
  3.3628780e-03
 -1.5145290e-02
  1.1866838e-02
  5.7966034e-03
 -1.0927842e-01
  2.5711698e-03
  6.7577050e-03
 -1.6753504e-02
  4.1875471e-03
  2.0517288e-02
  2.8417030e-02
  1.2242083e-03
 -7.1831224e-03
  4.4296314e-03
 -2.7950237e-02
  1.4823326e-02
  3.6987945e-04
  1.0352171e-02
 -3.9446126e-03
 -6.9695185e-03
  3.4562382e-03
 -1.9022267e-02
  8.2281566e-01
  5.4194299e-03
 -6.2256515e-01
  2.4434000e-01
 -2.7342672e-02
 -5.4395878e-01
  2.9669730e-03
  2.3606185e-02
  1.2499222e-03
  2.6002308e-02
 -3.2586684e-03
  3.0663494e-02
  2.0980550e-02
  2.6411379e-02
  2.5651425e-03
  1.0339813e-02
 -1.1239982e-03
 -4.9248557e-03
 -1.0626982e-02
 -1.6968198e-02
  2.2866593e-04
  1.8445285e-02
  9.8752277e-04
  2.4145388e-03
 -6.7454777e-03
 -7.8265192e-03
 -2.0039298e-02
  1.0029018e-02
 -1.9962811e-03
  9.5094964e-03
 -1.4437951e-02
  1.0125849e-02
 -1.6680177e-01
  4.0140581e-01
  1.1559425e-02
  1.6677941e-01
 -2.9480374e-01
 -3.4311943e-02
  6.1863745e-03
  8.2215127e-03
 -4.1798197e-02
 -1.6492014e-01
 -3.9530683e-01
  1.3290309e-02
 -2.3420248e-03
 -6.2527996e-03
 -1.1776307e-02
  8.8389240e-02
 -8.6249495e-03
  7.5196377e-03
 -5.2428063e-02
 -1.1288618e-02
 -1.9308779e-01
  1.1461805e-02
  3.8179915e-02
 -2.9941583e-02
 -3.8462061e-02
 -5.2017204e-02
  5.8933385e-03
 -3.4853113e-03
 -2.6194234e-03
 -2.2267915e-02
  2.9774898e-01
 -4.6065885e-01
  2.2372119e-02
  6.1776781e-01
  6.6513531e-02
 -4.3190895e-03
 -4.1887127e-03
 -1.8782803e-03
  1.7411018e-02
  1.1759968e-02
 -1.1308404e-02
  9.4790170e-03
  7.3127556e-03
  1.3153464e-02
 -2.9721087e-02
 -3.3296777e-03
 -6.1463881e-03
  5.6247972e-03
 -5.9996955e-03
  7.3089055e-04
  3.7171340e-03
 -3.5766687e-02
 -1.2058251e-02
 -1.1805762e-02
 -3.2805043e-04
  5.2887138e-02
  2.1715896e-02
 -2.3493579e-02
  4.7596283e-02
  6.5740157e-04
  8.8475924e-03
  9.2201345e-03
  5.5413037e-03
 -3.9078798e-02
 -1.2505534e-02
 -4.4257795e-03
 -8.2052369e-03
  3.6716604e-04
 -1.2902719e-02
 -5.9695956e-03
 -9.6058575e-03
  2.5341354e-02
 -2.9278038e-02
  3.0192712e-02
 -4.2059948e-03
  5.3783555e-02
 -5.2678484e-02
  1.4595687e-03
 -1.8677888e-02
 -5.5608819e-03
 -6.9304570e-03
  6.3388325e-02
 -1.7408824e-02
  2.2513766e-03
 -8.0113932e-03
  1.5804440e-03
 -1.0961661e-02
  4.8689605e-03
 -5.8173947e-03
 -7.9401881e-03
 -1.5007888e+00
 -7.5474542e-01
 -1.3148608e+00
  7.0020372e-01
 -1.0876374e+00
 -3.5959095e-01
  1.8880814e-01
 -1.1119308e-02
 -3.3164866e-02
 -1.7526945e-01
  2.0817030e-02
 -4.3694018e-03
  2.2510698e-01
  1.3602687e-01
  8.2072681e-03
  3.0495340e-01
 -4.9006133e-03
 -1.5182394e+00
  2.6273078e-01
 -3.0941493e-03
  7.9965536e-03
  3.4996241e-03
 -2.2537219e-03
 -3.3341963e-02
 -3.5402369e-02
  3.0512267e-01
  2.2827433e-02
  8.2356296e-03
  1.0941372e-03
  2.9550763e-02
 -1.7185053e-03
  9.4830133e-03
  3.1583071e-02
  1.6838772e-02
  1.8140567e-02
  5.9728133e-03
  3.7253045e-02
 -1.9133143e-04
 -4.4263657e-03
  7.4010617e-03
  2.2874106e-02
 -3.4492377e-02
 -2.3258207e-02
 -3.0108753e-03
 -1.5348711e-02
 -2.8022569e-02
  5.1133577e-03
  1.2692170e-01
  6.2471912e-03
  4.8104529e-03
 -3.0757667e-02
  3.8737578e-03
  1.0486548e-02
  5.7295060e-01
 -1.3977423e-02
  2.1795330e-03
  2.1586769e+00
 -3.9569292e-02
  5.7421482e-01
  8.1042601e-03
  1.6954059e-02
 -3.5276669e-01
 -9.5103882e-02
  6.4755106e-01
  3.3021789e-02
  6.6636577e-03
  1.4530290e-02
 -2.8932467e-02
 -1.7129215e-04
 -9.4966209e-03
  2.6532751e-02
 -2.6525662e-03
  1.4295562e-03
 -2.2406034e-02
 -4.3795253e-03
 -9.7749149e-03
  8.1470562e-03
  2.2894051e-03
 -1.2589030e-02
 -2.1874314e-04
 -2.7709888e-02
  1.1836925e-02
  2.1260502e-02
 -5.2927863e-03
  3.7364156e-03
 -4.1167010e-02
  8.2663558e-03
 -1.0545972e-02
 -7.0241949e-04
 -1.0894570e-02
 -4.4493574e-01
  3.5432968e-02
  7.1311837e-01
 -1.8329889e-02
  2.1098162e-01
 -3.7041709e-02
 -8.1368466e-04
  6.1089432e-01
 -3.7386350e-04
 -1.5207793e-03
 -1.1646991e-03
  8.7957159e-03
 -1.4333150e-04
  7.9115210e-03
 -1.6959352e-02
 -3.0230884e-02
 -8.3355177e-03
  5.8565391e-03
 -4.8062645e-02
  1.1409071e-02
  1.2185250e-02
 -9.9237002e-03
  2.6652461e-01
  3.0303353e-03
  3.3653025e-02
  4.9177086e-04
  8.4207803e-03
  3.8624636e-03
 -7.1523082e-04
  1.7582783e-02
  1.0475743e-03
  1.8223874e-01
 -3.6526185e-02
 -4.2740500e-01
 -4.9663419e-01
 -2.9377442e-02
  7.3985429e-03
  6.8304301e-03
  5.3904974e-03
  6.3251937e-03
  1.6311781e-01
 -1.2859710e-03
 -5.3142081e-03
  1.3039577e-02
  3.8886476e-02
  5.3385380e-03
  2.4022063e-02
  6.6028563e-03
 -8.4141515e-02
  2.2877303e-03
  8.9056315e-03
 -3.1158945e-03
  9.8298974e-03
  1.1376773e-02
  2.4948396e-02
  3.0244142e-02
 -3.1348949e-03
 -1.0375437e-02
 -4.9009938e-03
 -3.5091735e-02
  1.6153773e-03
  8.8043690e-01
  1.1427163e-01
  5.8053023e-01
  1.3609011e-02
 -5.5922680e-03
 -2.4911910e-03
  1.2141941e-02
  1.8006360e-02
  1.7257391e-02
 -4.9810666e-03
  1.9592784e-02
  2.1697243e-03
 -4.2973072e-03
  6.6986233e-03
  5.4064230e-03
 -2.9579313e-03
  2.7862566e-02
  1.0862866e-02
 -3.4987272e-03
 -1.2853538e-02
 -2.3335235e-03
  6.5555924e-04
 -1.9096093e-02
 -3.3422334e-03
 -3.1275425e-02
 -1.0578256e-02
  2.8280546e-03
 -7.1397317e-03
 -1.0169791e-02
  1.6192043e-03
 -4.4095002e-02
 -8.8006116e-02
 -5.8252648e-03
 -8.0423057e-03
  2.7242225e-02
  3.5829362e-03
  6.9456766e-03
  2.7023615e-02
  4.6658460e-03
  1.7159943e-03
  8.0410242e-03
 -2.1230702e-01
 -1.1496351e-03
 -8.1102457e-03
 -3.2822324e-03
 -8.1587033e-03
  3.8440105e-02
  3.5428707e-02
  3.6563901e-03
 -1.9065751e-02
  1.2549388e-03
  1.4673876e-02
  1.4405331e-02
  8.7146247e-03
  2.2082647e-02
 -1.0952468e-03
 -4.4217226e-03
 -3.4744751e-03
  2.0416427e-02
 -3.1953233e-01
 -5.5028009e-01
  4.4827563e-01
 -4.3306354e-01
  7.0536751e-01
  1.2512523e+00
 -1.8360301e+00
 -8.2887709e-01
  2.3822688e-01
 -4.2273930e-01
 -5.6297243e-01
 -2.7424464e-01
  2.8906059e-01
  1.9881407e+00
 -4.8968473e-01
