nep4 3 Rb H S 
cutoff 6 4 39 14
n_max 4 4
basis_size 8 8
l_max 4 2 0
ANN 30 0
  7.0810157e-01
  5.1999801e-01
 -6.6180611e-01
  2.0100224e-01
 -6.8283153e-01
  7.6941453e-02
  1.0103380e-01
  3.1632435e-04
 -2.9702011e-01
  1.2413149e-04
  1.6742444e-05
  2.8648433e-01
 -2.2994680e-04
  6.7963405e-04
 -1.9330320e-04
  4.5746790e-05
  1.8727696e-01
 -5.3266420e-05
 -9.8029256e-02
  2.6991205e-05
 -7.7738316e-04
  7.7527583e-02
 -1.7634559e-04
  1.0540806e-04
 -1.3073580e-04
  3.4542464e-02
  3.8574035e-05
 -7.3254190e-04
 -8.0114951e-05
  1.6380067e-06
 -1.1712824e+00
  6.4154017e-01
 -1.4295584e+00
  7.0954329e-01
  5.5295169e-01
  8.8140719e-02
 -6.7330484e-04
  1.9938290e-05
  2.0926075e-01
  1.0438101e-04
  6.5454806e-06
 -4.8961129e-02
  2.2749843e-04
 -3.3554778e-04
  1.8305886e-04
  1.5048063e-01
 -3.2262512e-02
  4.8291629e-05
  4.6451976e-05
  2.3650875e-05
  1.9017337e-03
 -1.2628334e-03
 -3.7653157e-05
 -5.5752327e-05
  8.5442291e-05
 -7.7489461e-04
 -4.1501153e-06
  2.5721863e-04
  2.4620179e-04
 -5.9195032e-04
  3.5503537e-05
 -2.6600312e-05
  1.5220608e-05
  3.9522602e-05
 -4.0921946e-05
 -9.2761857e-06
  1.9787822e-04
 -4.7380257e-05
  6.5007684e-05
  8.4611034e-05
  7.0923425e-06
 -9.5511794e-05
 -3.5388846e-05
  1.7681092e-05
 -4.4378645e-05
  1.6081348e-04
  3.4808149e-04
  1.0843464e-04
  1.6116418e-04
  1.3182202e-04
  4.9502749e-05
 -2.8761438e-05
 -5.2625124e-05
  5.2457151e-05
  7.5325828e-05
 -7.6818353e-05
 -1.2639207e-04
  1.7118020e-04
 -2.7926051e-04
  8.5770720e-05
  4.3474182e-01
  1.4423995e+00
  1.1947769e+00
 -2.2797409e-01
 -9.9523306e-02
 -4.1889590e-01
 -1.3002710e-04
  1.7996666e-05
  3.9663887e-01
  1.5057219e-04
 -2.4694900e-01
 -1.6311398e-01
  6.2748080e-04
 -5.4925034e-04
 -2.5622189e-04
 -2.5818989e-01
 -7.6760165e-02
  5.1866140e-05
  1.0461277e-01
  2.1692927e-05
  1.1227692e-03
 -7.8995043e-04
 -1.9777033e-06
 -3.3953766e-06
  7.4667150e-07
 -1.8540092e-04
 -8.1705490e-05
 -1.9161333e-04
  3.8332710e-04
 -6.4186534e-05
  3.1274190e-04
 -9.3026329e-06
  6.0491475e-05
  1.1921811e-04
 -2.9291878e-05
  1.2485049e-04
 -3.5920828e-05
 -6.6035704e-05
  1.9685702e-05
  6.9636849e-06
 -4.0205032e-05
  6.2160099e-05
  1.3027246e-04
 -1.1398397e-04
 -2.6733149e-04
  1.0164570e-04
 -1.2124531e-04
  1.4856461e-04
  1.8374425e-04
  6.5927423e-05
 -4.3228847e-06
 -1.3772640e-04
  1.9123788e-04
  3.0747349e-05
 -2.0508745e-05
 -1.8211645e-04
  7.8541976e-05
 -3.2622780e-04
  3.6011024e-05
 -9.6289499e-05
  5.2923959e-04
  1.1747946e-04
 -2.5632602e-05
 -8.7910907e-05
  2.1687354e-05
 -3.6572645e-05
  1.1556182e-04
 -2.9062037e-04
 -4.6124467e-05
  4.4135253e-05
 -8.0252012e-06
  1.6370510e-04
 -1.5124283e-04
 -2.5967404e-04
 -6.9928647e-05
  2.1525988e-04
  1.7670543e-04
 -1.2328412e-04
 -1.2292249e-04
  2.0249744e-04
 -8.3673840e-06
 -2.7756943e-05
 -1.8308251e-04
 -5.1860629e-06
  1.2355487e-04
 -2.8009084e-04
  8.8228962e-06
 -1.1431190e-04
  5.7365629e-05
 -8.4744803e-05
  1.7724349e-04
 -4.4137974e-05
  4.5987945e-05
  1.4686104e-04
 -8.3816733e-05
  1.9082678e-05
 -8.5837091e-05
 -2.2944820e-04
 -6.5938060e-05
 -3.2083455e-05
  2.9235645e-04
 -2.6580819e-04
 -9.4175793e-06
  8.3075254e-05
  2.7098568e-04
 -1.3760049e-04
  1.8258852e-05
 -1.2594886e-05
 -9.0172180e-05
  6.8854810e-05
 -2.0797739e-05
  8.5386760e-05
  3.3040178e-05
 -5.6106397e-05
  3.6657362e-05
  4.3981308e-05
  1.1075514e-04
  2.9483254e-04
 -1.1405874e-05
  1.9637635e-04
  8.8583015e-02
  2.1589177e-03
  9.1176093e-01
  6.3183874e-02
  2.8645307e-01
 -9.1787875e-03
 -2.9236904e-01
 -7.5725893e-06
  2.9639420e-01
  1.0474680e-04
  4.2216951e-05
 -4.3323562e-01
  5.6263281e-05
 -1.1343518e-03
 -4.6463779e-06
 -9.2957756e-03
 -3.7167835e-01
 -9.8917684e-05
  2.1241449e-01
 -1.5392856e-04
  9.6771559e-03
 -2.6555961e-01
 -3.5143421e-05
  1.0622952e-04
  6.9036389e-05
 -3.8026799e-02
  1.2706465e-04
  3.8609989e-05
  5.0000125e-04
 -1.1376855e-04
 -4.4433436e-05
 -3.7316091e-05
 -1.3689861e-04
  4.1373112e-04
 -1.3473396e-04
  9.2806025e-05
 -8.7918757e-05
 -4.3553275e-05
  6.1654318e-05
  8.7104898e-05
  7.0201986e-06
  1.0890053e-04
 -9.9552948e-05
  9.0084381e-05
  7.4477728e-05
 -1.8770363e-05
  3.4555924e-05
 -4.6150017e-05
  1.2565136e-05
 -2.8013270e-05
  9.9696037e-05
  3.5255671e-05
  1.7879081e-05
 -9.6418466e-05
 -2.0429550e-04
 -1.2820822e-03
 -8.4430452e-05
 -6.6629582e-05
 -9.7868338e-05
  1.0866365e-04
 -7.5798821e-01
 -8.2929999e-01
 -1.5734148e-03
  1.3652293e-01
  1.4306294e+00
  1.1822528e+00
 -7.4995321e-01
  4.6265355e-05
  8.5354650e-06
  2.8805487e-04
  4.8820305e-01
 -2.7807730e-01
  2.0058847e-04
 -3.0736253e-04
  3.1091990e-05
  2.5764960e-01
 -4.1174558e-01
 -9.9728932e-05
  8.3037242e-02
 -2.2002101e-04
  1.9428601e-02
 -2.5923976e-01
  1.1755863e-05
  2.1859180e-04
  1.1012566e-04
 -5.0217379e-02
 -3.4836205e-05
 -8.3346946e-05
  1.6115671e-04
  3.5439280e-05
  1.1289700e-04
 -5.4025044e-05
  2.4789146e-05
  4.7674017e-05
 -1.7704866e-04
  1.1946766e-04
  5.9573482e-05
  4.0154398e-05
 -2.2274509e-04
  4.8270340e-05
 -2.6191911e-04
  4.0513976e-05
 -2.6069515e-04
 -1.8106820e-04
 -6.1543702e-05
  2.6506276e-04
  3.3771452e-05
  1.7084775e-04
  8.3256797e-05
 -4.3806256e-05
 -1.0785431e-04
  7.2228468e-05
  1.7763893e-04
  1.6627551e-05
  2.4304849e-04
  1.5342994e-04
  2.0048539e-05
 -1.4188131e-03
  3.4103647e-05
 -4.3911296e-06
 -2.1678521e-05
 -1.0662575e-05
  1.8491195e-05
 -2.5924447e-04
  4.7670361e-05
 -9.1634382e-04
 -8.3536079e-06
 -8.7829554e-05
  3.4990142e-05
  3.5307705e-05
  1.8162840e-05
 -1.4065888e-05
  1.2100762e-04
  1.7212002e-04
 -6.2020708e-06
 -7.3144613e-05
 -1.3111196e-04
 -2.4346920e-04
  1.8368919e-05
  1.8495177e-05
 -5.1056384e-05
 -3.6428386e-04
 -7.8772617e-05
  6.1625542e-05
 -3.9504735e-06
 -1.2594434e-04
 -5.8122667e-05
  1.2733777e-04
  1.0525100e-04
  1.2308973e-04
  7.9277277e-05
  3.8593472e-04
  4.7355792e-05
 -6.6016342e-05
  2.5619231e-05
 -5.4616808e-05
 -5.2807496e-05
 -1.0414235e-05
 -1.2609191e-04
  1.8980537e-04
 -2.1695548e-04
 -7.0255529e-04
 -6.9831600e-05
  9.0399692e-05
 -1.9808504e-04
  1.0767216e-04
  1.5210360e-04
  5.7070105e-05
 -1.7642992e-04
  8.6119995e-05
  1.3148659e-04
 -3.5931839e-06
 -2.0128975e-04
  6.8889414e-05
 -8.3577608e-05
  7.3767019e-06
 -1.2702539e-05
  1.2404573e-04
  8.5146305e-05
  1.4788506e-04
 -7.8852405e-05
 -1.7929131e-04
 -3.1843502e-04
 -6.7090434e-05
 -1.1943582e-04
 -1.5084003e-05
  5.1877083e-05
 -3.5080335e-05
  1.2191301e-04
 -6.7592905e-06
 -4.0296516e-05
 -2.4793722e-04
 -1.6845517e-04
  4.3238819e-04
  4.7016211e-04
  1.8952132e-04
  4.8895032e-05
  1.3540686e-06
  2.9681933e-05
  1.1659691e-05
  6.6898798e-04
 -6.1632963e-05
 -1.3651930e-04
  1.8750412e-04
 -5.3085463e-05
  3.6142719e-05
 -4.8024810e-04
 -4.0215938e-05
 -2.5299558e-04
  3.9172071e-05
  1.0804536e-04
 -1.2268039e-05
 -2.2589562e-04
  8.6430271e-05
 -1.8675589e-04
  2.2843478e-05
  1.6074706e-04
 -9.5398587e-05
 -7.7270910e-05
 -1.5443815e-06
  1.0165161e-05
  1.5147011e-04
 -4.7596044e-05
  4.0794699e-04
 -1.8173590e-06
  1.4557388e-05
 -2.6206444e-05
  1.4374380e-04
  1.0489560e-04
  1.1036467e-04
 -2.8513659e-05
 -3.6226269e-05
 -1.2416372e-05
 -1.1492756e-04
  1.5888119e-04
  5.0420617e-06
 -1.2093331e-04
 -2.6730098e-05
 -5.1340652e-05
 -2.8641057e-06
  6.7729730e-04
 -3.5239664e-05
 -1.5259746e-05
 -6.4448395e-05
 -2.3791696e-05
 -2.6649510e-04
 -4.0288985e-05
 -1.1462453e-04
 -1.2303241e-05
 -1.5999658e-04
 -1.7734434e-04
 -5.9806247e-05
 -2.8750315e-04
 -5.3936208e-04
  1.0508196e-04
 -3.7069331e-05
 -4.8055721e-05
 -2.0522779e-05
  4.9555194e-05
 -6.2926665e-05
 -2.6637460e-07
 -5.1891129e-04
  6.0338434e-06
  1.8660179e-05
  6.6817258e-05
  1.0961539e-03
 -6.7702349e-05
 -8.5706990e-05
 -6.4436063e-05
  1.2352513e-06
 -3.8051847e-05
 -2.6337072e-04
  1.8497027e-01
 -1.2634628e-04
 -3.1633579e-05
 -1.0030689e-04
 -5.5891729e-04
  2.3217285e-04
  7.8730576e-04
 -7.5892036e-05
  3.4055942e-05
 -9.0958165e-06
  1.1861417e-05
  1.0356418e-04
 -2.5366073e-05
 -1.1525554e-04
 -4.7058135e-04
  1.6443794e-04
 -2.1325411e-06
  3.2399796e-04
  2.3617630e-04
 -1.0012634e-04
 -1.0363280e-04
 -4.1538474e-06
  3.2455264e-05
  5.3543325e-05
 -7.6090735e-05
 -1.3432024e-06
 -8.4512263e-05
 -1.0549422e-05
  1.0606402e-04
 -8.4080893e-05
 -6.6218124e-04
  9.8211392e-05
 -6.2021812e-05
  8.3479317e-05
  1.7721727e-04
  8.3992913e-05
  4.5994896e-04
 -7.2959294e-05
  2.4099645e-05
 -1.6304675e-05
 -2.7233436e-05
 -7.7853088e-05
  4.5353590e-05
  3.1727875e-05
  1.7124682e-04
  1.5407513e-04
  2.0715783e-04
  9.6215208e-06
 -6.1149018e-05
  8.8039415e-05
  2.7775164e-05
  7.1404931e-05
  1.8658619e-04
 -6.4175292e-05
 -2.0165760e-05
 -8.0842285e-05
  7.3913725e-05
 -5.8706330e-05
  1.4092684e-04
 -4.0807863e-05
 -6.6268294e-05
  8.5945074e-05
 -2.1317799e-04
 -2.3547029e-06
  7.5162755e-04
  8.8718596e-05
  1.5047111e-05
 -5.9437763e-05
  3.4765521e-04
 -2.4979781e-05
 -5.0258946e-05
 -1.0844863e-04
 -2.2024647e-04
 -1.2061137e-04
  7.1745468e-05
  2.6707095e-05
  2.3059981e-04
  1.8903127e-04
  3.6765522e-04
 -7.6243968e-04
  6.4347267e-05
  1.4215469e-05
 -4.5852004e-05
  9.9776080e-05
  1.4748944e-05
 -6.1149192e-05
  3.2933053e-04
 -1.4593640e-05
 -1.9538459e-01
 -4.4052709e-02
  6.5583758e-02
  3.0578244e-01
  2.6111063e-02
 -2.2718047e-04
 -7.8200428e-05
 -5.9497328e-05
  2.3640867e-02
 -1.8083592e-04
 -2.1612518e-04
 -2.4619173e-02
 -1.2879680e-05
 -3.8829836e-05
 -4.2548092e-04
  1.4899725e-04
 -2.6770709e-03
 -1.7845140e-04
  6.4874691e-04
  2.8539132e-04
  8.4000942e-04
 -2.2011549e-05
  7.0847993e-05
 -1.4026169e-04
  1.6344814e-06
 -1.6906134e-04
 -3.2522021e-05
 -1.1790620e-04
 -2.7382050e-05
  3.4346344e-04
 -7.1301124e-06
 -7.8361290e-06
  1.0779335e-07
  8.9163703e-05
 -9.8654484e-05
  1.7733090e-04
 -4.3221732e-04
 -1.6479698e-04
 -1.6139897e-04
  4.6623329e-05
 -1.5183424e-06
  2.6620718e-04
 -1.0499558e-05
  1.4374930e-04
 -1.7961201e-04
  1.2202977e-04
 -2.3036475e-05
 -3.2566139e-04
 -1.2829888e-03
 -7.7356541e-05
 -7.6713091e-05
  2.3500328e-05
  5.7878922e-05
  1.8504819e-04
  4.5606589e-06
  2.4226712e-04
  1.1234002e-04
 -2.2914826e-05
  4.8287282e-05
 -1.0710797e-05
 -2.5858408e-01
 -2.3670462e-01
  1.7402872e-01
  9.8910022e-01
  1.0259745e-01
 -2.6998061e-01
  1.9529906e-01
  8.2657280e-05
 -1.4861043e-02
  9.3040690e-05
 -3.2561729e-04
  1.7691208e-01
  1.5340514e-04
  2.8331051e-04
 -6.5050226e-05
 -2.7000171e-01
  1.7294802e-01
 -2.7613094e-04
 -1.3287334e-01
  1.2332633e-04
 -3.0342594e-03
  4.9905457e-02
  5.5078871e-04
  7.0163574e-06
  5.7243998e-04
  5.4140789e-03
 -2.1070011e-05
  8.3150568e-05
  2.0159742e-04
 -7.2251954e-05
  1.7936773e-05
 -3.1772113e-05
  2.0969686e-05
 -3.5441940e-04
  9.1624934e-06
  1.0370352e-04
 -3.1261996e-05
 -9.4034976e-06
  1.7710515e-04
  7.7519828e-05
 -1.9142497e-04
 -1.5573169e-05
 -2.8844993e-04
  5.2883290e-05
  1.4508727e-04
  3.0856201e-05
 -1.4738488e-04
  1.2659407e-04
 -1.7999093e-05
 -2.2079240e-04
 -2.2276436e-06
 -2.8995859e-05
 -6.1376959e-05
  2.5157171e-04
 -4.1548279e-04
 -1.9810852e-04
  8.6747030e-05
 -7.6619042e-05
 -3.2905155e-04
 -3.9724513e-05
 -2.2490492e-05
  3.6757599e-06
  1.2589565e-05
 -1.2670738e-04
 -2.2517126e-05
  1.0334628e-05
 -1.6576149e-04
  6.0435510e-01
  6.2715670e-05
  4.8635047e-05
 -4.4924667e-04
  1.1766608e-05
  9.8600565e-04
 -2.2993359e-05
 -4.0396535e-05
 -1.1709978e-05
 -9.8945435e-05
  4.6952270e-04
 -5.6742057e-05
 -2.4482439e-04
 -2.2321163e-05
 -1.8389606e-05
 -6.4865322e-05
 -6.6765938e-06
  1.5075877e-04
 -6.3561005e-05
  5.8324691e-05
 -4.6170605e-04
 -1.1602242e-04
  2.5392152e-04
  3.2874453e-04
  6.7144727e-05
  2.7957596e-04
  4.0831743e-05
 -2.6699136e-05
 -5.0031489e-05
 -9.9762598e-05
 -1.2692758e-06
 -1.0814757e-04
  7.2883966e-05
  1.4716657e-04
  2.3589149e-04
  3.6731431e-05
 -6.4977699e-05
  6.3509970e-06
 -1.6904858e-05
 -2.7773156e-06
  5.6296383e-05
 -2.6478365e-04
  8.6798245e-06
 -1.0860508e-04
 -8.9684116e-05
 -3.1088508e-05
 -8.2646889e-05
  7.7774319e-05
  3.8413302e-05
  3.0633574e-04
  2.1857372e-04
  1.3666938e-04
 -2.8357489e-04
 -4.0604034e-01
  9.1013610e-01
  5.4354334e-01
  3.4843704e-01
 -1.2112681e+00
 -1.0581988e+00
 -6.9809086e-03
  4.6896806e-04
  7.3257619e-01
  8.8844999e-06
 -4.6491477e-01
 -4.6248472e-01
  6.4707390e-05
 -9.7658206e-04
  1.3593218e-04
 -2.1071596e-01
 -3.0977190e-01
 -1.8713986e-04
  2.3776619e-01
  5.7363130e-05
  1.2367805e-04
 -2.0446393e-01
 -4.1752800e-04
 -2.0199006e-04
  7.4038660e-05
 -5.6684233e-02
 -1.4440396e-05
 -3.7056652e-05
 -2.2268681e-05
 -9.6903456e-04
  1.8706245e-04
 -1.0372722e-04
 -3.8535742e-05
  1.4671702e-04
  2.8580309e-05
  3.7040907e-05
  3.3287200e-05
  1.3243577e-04
 -8.2403851e-05
 -1.2004479e-04
 -2.9356110e-05
 -7.7747565e-05
  1.0911828e-04
  1.4741138e-04
 -3.4536404e-04
 -5.0382743e-05
  1.6916031e-04
 -7.4485273e-05
 -8.4180201e-06
 -3.3464810e-04
 -1.2861837e-04
  7.5417905e-05
  1.4876004e-04
 -5.2688545e-05
  1.0996471e-03
  3.8466442e-05
 -8.0559221e-05
  3.0367318e-04
 -1.0456251e-03
 -2.0064949e-04
 -6.2909508e-05
 -6.5838351e-05
  5.2183794e-05
 -2.5773033e-02
 -2.9672574e-05
 -5.1320007e-05
 -1.3820871e-04
 -1.3507584e-04
 -1.2782012e-04
 -7.2940267e-05
  1.2050541e-04
  2.2030238e-04
 -9.2234972e-05
 -2.6085378e-05
  6.6026164e-06
  9.5476949e-05
 -4.5078956e-05
 -3.0797682e-04
  1.1625492e-05
  3.1619253e-05
  8.4103136e-05
  1.5205928e-04
 -6.2791130e-04
 -1.2360546e-02
 -7.1744435e-05
  4.5894791e-04
 -5.2898413e-05
 -2.5347877e-05
  5.5720546e-05
  6.0885737e-05
  1.2308333e-04
 -1.3568206e-04
  5.1263912e-04
  2.3853609e-04
  2.3459016e-04
  1.4317631e-05
 -1.3058310e-04
 -3.4287228e-04
  2.9853731e-04
 -1.7996573e-04
  4.7722024e-05
  6.5287764e-05
 -5.4293814e-05
  1.4526854e-04
 -1.7460337e-05
 -5.5244334e-05
  1.0258008e-04
 -7.4942858e-05
  1.2986473e-04
 -2.6447651e-05
  3.0223793e-05
 -2.7729220e-05
  2.9290577e-05
  8.6989377e-05
  3.3815566e-05
 -1.4305551e-04
 -1.0077303e-05
 -1.5605894e-04
 -1.0016874e-03
 -2.8772398e-05
  1.1054940e-02
  3.3860740e-01
  1.9880851e-01
 -3.1237522e-01
 -6.8580312e-01
 -3.0905864e-01
  7.8943998e-02
 -2.2892284e-05
 -1.8494330e-02
  4.0585910e-06
 -4.8819536e-04
  4.9786765e-02
  2.3717992e-04
  2.6706897e-04
  1.1638846e-05
 -4.7433013e-03
  4.8295144e-02
  3.2113876e-05
 -1.5110788e-03
  1.4428300e-04
 -2.0476111e-05
 -7.7254623e-07
 -3.3660742e-06
 -5.5086821e-05
  3.0332511e-05
 -9.8984456e-05
  9.5751391e-05
 -2.7329006e-05
 -1.0809298e-04
  1.6067141e-04
 -5.4710239e-02
  2.5522023e-01
 -2.2885262e-05
 -6.6570133e-01
  6.6255125e-05
  1.2804437e-04
  2.1853502e-05
 -1.0681314e-01
 -1.4708054e-05
 -4.3402798e-02
 -5.1465988e-05
 -1.4330872e-05
  3.8128575e-05
 -8.9369896e-05
 -7.1722519e-05
  2.0915897e-04
  2.4764946e-05
  1.3804496e-05
  9.6545715e-05
  2.0662954e-02
 -1.1357837e-05
 -5.9872735e-02
  2.2273690e-04
 -6.6373577e-05
 -5.0917235e-05
 -7.0148307e-01
  4.3487249e-05
  1.9667746e-04
  1.0390715e-05
  3.0452260e-03
  7.4660647e-01
 -7.8869522e-01
 -1.0491785e-04
 -6.8497705e-01
  1.1597315e-04
  2.0492334e-05
 -3.0871055e-05
 -1.0051550e+00
 -1.0514944e-02
 -1.2370676e+00
 -3.2840646e-05
 -1.3484144e-02
  3.5663157e-05
  4.3150532e-05
  1.9661794e-04
  1.0845027e-04
 -2.4574159e-01
  3.2323245e-05
 -8.4135099e-06
 -4.1945243e-01
 -4.0366569e-05
  8.3572143e-01
  4.6204485e-05
  1.6865171e-04
  3.1062675e-04
 -1.0356466e+00
  5.9791790e-05
  1.7484888e-05
 -7.4827127e-02
  5.7264036e-01
  1.3597517e-01
 -6.5586525e-03
 -7.2538629e-02
  5.7020241e-01
 -1.9309802e-03
  2.1949803e-05
 -6.1436644e-05
 -6.9282311e-01
 -8.2708085e-01
  7.5738862e-02
 -1.3062940e-04
  7.7643958e-03
  5.5415034e-01
  1.2601203e-04
 -4.8483143e-05
 -1.8291568e-06
 -7.5423147e-04
 -2.6114079e-01
  1.8058769e-02
  4.9744252e-05
  1.7763366e-04
  5.8014251e-05
  1.3828459e-05
 -1.9987546e-04
  4.6461594e-04
 -4.5051733e-05
 -2.0017951e-05
 -6.1890799e-01
 -2.2325720e-04
  1.1149150e-04
  7.0864260e-02
 -4.8493004e-01
  3.4906682e-01
 -1.3445306e-01
  4.7197989e-01
  1.2697098e-04
  4.3023193e-01
 -5.7356822e-01
  3.0040573e-03
 -1.0857068e+00
 -4.4884995e-02
 -3.9144728e-01
  4.9264991e-01
  4.0175888e-04
  5.7932121e-01
 -1.1135351e-04
  2.8913978e-01
  1.3942520e-01
 -9.4327605e-01
 -1.8513949e-01
 -9.0546689e-07
  9.4744237e-03
 -1.4699212e-02
 -2.3820135e-03
  1.4372177e-01
 -1.2450313e-04
  1.9319436e-04
  1.9697048e-01
  6.2615603e-02
 -1.7976185e-02
  2.8156640e-04
  2.0949147e-04
  4.9995873e-05
  2.6695151e-04
  5.1709914e-05
 -3.4180176e-04
  2.6945170e-05
  8.5054460e-05
  2.2579396e-04
 -8.9812238e-05
 -5.6142872e-03
 -1.5281305e-05
  1.4065456e-04
 -4.4508575e-04
  3.7942245e-06
  1.5368754e-04
  6.0983200e-04
  1.1916141e-04
 -2.9354743e-04
  1.3222353e-04
 -8.6996406e-05
 -1.8986610e-04
  1.9717070e-05
  1.0121882e-04
  4.9127273e-05
  1.7868335e-05
  7.1607560e-06
 -6.0182148e-05
  9.5866102e-04
  4.3685017e-05
  7.9058489e-04
 -6.3385727e-05
  1.2626924e-04
 -1.4786469e-04
  1.0180216e-04
 -1.4803154e-04
  7.9408514e-05
 -1.7793289e-05
 -2.4590663e-06
  1.7703924e-04
  2.2424790e-03
 -3.4880574e-04
  1.4918280e-04
  1.7013378e-04
 -9.1905694e-04
 -2.2174515e-04
  5.7559722e-04
  1.4614472e-04
 -5.2149437e-04
  1.9778790e-05
 -3.3681086e-04
 -3.7520242e-04
  1.5738480e-04
 -1.3827418e-04
  5.3051099e-05
 -7.5451419e-05
 -4.2180698e-05
  1.5397050e-04
 -2.0545491e-04
 -4.5775068e-05
  2.1609238e-04
 -3.6020129e-04
  1.0096361e-04
  6.7022961e-06
  3.3216341e-04
  1.4421978e-04
 -4.6971269e-04
 -3.4691995e-05
  2.0849651e-04
 -2.2461776e-04
 -7.2127135e-05
  2.8269365e-04
  1.0183765e-04
  2.3382831e-04
 -6.2786689e-04
 -1.0469870e-04
 -9.5590212e-06
 -1.8330093e-04
 -2.1103549e-05
 -7.7639055e-04
 -7.1297894e-04
  3.3847864e-05
  2.7165894e-04
 -5.5301603e-05
 -4.5197580e-06
  7.0583861e-04
  1.8096344e-04
 -2.0967114e-05
  3.4446868e-05
 -1.7179869e-04
 -5.5631372e-06
  1.2852679e-04
  3.1191250e-04
 -2.1230585e-04
  5.0283287e-04
  5.2244886e-05
 -7.1154194e-05
 -5.6019594e-04
 -1.3672754e-04
  5.4969925e-05
  4.6299367e-05
 -2.0693391e-04
 -1.6884793e-05
 -4.5438759e-05
 -4.2940148e-05
  6.2506988e-05
  2.8376997e-04
 -1.3710631e-04
 -3.2024534e-04
  5.3476129e-04
 -5.3272441e-05
 -1.5444378e-04
 -1.4473281e-04
  4.1358135e-04
 -3.6924530e-02
 -4.6917057e-06
  7.0576614e-05
  1.3104170e-04
  3.8075166e-05
  2.3719507e-05
  4.4040017e-02
  1.5116747e-01
  1.5808216e+00
 -6.0827774e-01
  4.5465317e-01
 -8.5661456e-04
  6.1567014e-05
  3.5116684e-01
 -6.3811950e-02
  1.7474174e-01
  8.6683329e-05
  1.1728488e-02
 -7.3455405e-01
  2.9812014e-01
 -8.6464547e-04
 -6.9834481e-05
 -5.4555800e-05
 -1.3723467e-01
 -7.0806826e-05
  1.0444489e-03
 -1.3526045e-03
 -1.5322377e-06
 -4.0828824e-01
  4.7722948e-04
 -4.6522040e-05
 -2.2336098e-04
  1.3130959e-04
 -4.0568791e-02
  1.4283443e-03
  1.8260653e-04
 -5.5396243e-04
 -8.5956497e-05
  2.1936634e-05
 -4.1740036e-06
  1.6364719e-04
 -2.1879094e-04
  1.4258368e-04
 -4.6789800e-04
 -6.0756935e-04
  3.5754929e-04
 -3.2115221e-04
  3.2392831e-04
  1.0278190e-04
 -2.3458272e-04
  1.3105184e-04
  6.9393520e-04
  2.5015304e-06
  9.5189891e-05
 -2.7883114e-04
 -1.4157323e-04
 -1.3133320e-04
 -1.9945602e-04
 -3.4832025e-05
  1.7720340e-04
  2.2859828e-04
  2.3654896e-04
  4.5480970e-06
 -6.5759166e-05
 -1.4722945e-04
 -1.8856750e-05
 -8.2021645e-05
 -3.2121470e-04
  1.8468253e-04
 -2.4247241e-01
 -2.3256068e-04
 -1.9241834e-05
 -6.9762903e-01
 -1.8941188e-04
  1.0420085e-05
  1.7890117e-04
 -9.4045106e-05
  1.1719199e-04
  6.7580855e-05
  5.7246635e-04
  2.9967848e-04
  9.5109091e-05
  9.5143027e-05
  5.0909413e-05
  4.6720615e-04
  1.2951356e-04
  5.4628024e-05
 -2.6847719e-04
 -3.0851547e-04
  3.9173235e-04
  9.1397982e-05
 -4.5637504e-04
  2.7493306e-04
  2.0969788e-02
 -6.3193140e-05
  1.6979354e-04
  3.0304884e-04
 -4.0407223e-05
 -1.7763382e-04
 -1.6539589e-05
  7.2558405e-04
  3.2552754e-04
  1.6159790e-04
 -4.0630187e-04
  1.3585403e-04
 -2.1495181e-05
  2.8275250e-04
  8.0900331e-04
 -6.4322019e-05
 -2.1119857e-04
 -1.8454240e-05
 -9.9272031e-05
 -2.7853489e-04
  8.9009023e-05
  4.5679574e-04
 -1.3886705e-04
 -3.0899475e-05
  1.1700664e-04
 -8.9629975e-05
 -1.7299510e-05
 -7.2599808e-04
  1.8263660e-05
 -1.1343844e-04
  1.1179624e-04
  3.5584561e-04
  9.9270022e-05
 -1.1358310e-02
  7.1142249e-02
  1.4535781e+00
  5.0271791e-04
  2.9499855e-05
 -6.3215214e-04
  1.0743330e-04
 -3.5055730e-01
 -1.2635177e-01
  4.8133619e-02
 -1.4856445e-05
  6.4729934e-04
 -4.7174570e-01
 -1.0300263e-04
 -4.1171932e-04
 -6.0821010e-04
 -1.9581817e-05
 -1.5189162e-01
 -6.4427749e-04
  3.0250763e-04
  9.7877797e-05
 -8.6927647e-04
 -2.0956284e-01
  1.1471395e-04
 -3.1987283e-06
 -1.3188922e-04
  8.6287182e-06
  3.3547139e-01
  8.8106986e-05
  1.2819447e-04
 -8.6891623e-06
 -2.2450504e-01
 -1.2684028e-01
 -5.0144359e-02
 -2.7369437e-01
 -4.7787873e-04
 -7.8371253e-05
 -4.9597258e-03
 -6.4173378e-02
  7.6569803e-03
  6.8560599e-05
  1.4124259e-02
  8.0679670e-02
  1.8823092e-03
 -4.4816494e-04
 -1.1031293e-05
 -1.9385036e-04
  7.2430179e-02
  6.8963654e-02
 -1.4800945e-05
  4.5944777e-05
 -4.3528406e-03
  5.0019789e-02
 -1.3296916e-04
 -2.6937391e-04
  1.2735451e-04
  1.3075801e-05
  3.1042120e-01
 -5.7651935e-04
  2.1770340e-04
  6.9308036e-04
  3.6208447e-05
 -2.4006260e-06
  8.4242238e-06
 -7.7582517e-05
 -1.8600692e-04
 -8.0452883e-05
 -4.1765037e-05
  1.7286849e-04
  5.0438754e-04
  2.0162141e-04
  3.6147243e-04
 -2.7532398e-04
  6.0397979e-05
 -7.8458688e-06
 -1.6789435e-04
 -2.7138891e-04
 -5.7821060e-05
  1.1447495e-05
 -3.5105757e-05
  4.6767844e-05
  4.2442749e-05
 -2.5008498e-05
  1.9649511e-04
  2.8394921e-05
 -1.6264823e-05
  1.0186343e-04
  6.1211533e-05
  1.6276294e-04
 -3.7289190e-04
 -2.0701750e-01
  7.8111753e-04
  1.9260269e-04
  1.2432745e-01
  1.5278462e-04
  1.8002324e-04
  1.0814414e-03
  1.9597979e-01
  1.0199316e-01
 -6.9025420e-02
  8.7418681e-05
 -1.7292862e-03
 -4.1570267e-04
 -1.0137072e-04
  2.8727725e-04
  1.4700104e-05
 -5.2848904e-06
 -3.0553294e-04
 -1.1924193e-03
 -1.8916279e-04
  1.2391040e-04
 -8.5765365e-05
  2.7531470e-04
 -6.5665710e-04
 -5.7175406e-04
  1.7321551e-04
  3.6260279e-04
 -9.2969500e-02
 -2.4111089e-04
 -1.7282569e-04
 -1.4853783e-04
  6.2234525e-05
 -6.1820087e-04
  1.0795495e-04
 -1.5443991e-04
 -1.5588211e-04
 -3.3161297e-04
 -1.1291883e-04
 -2.8282719e-05
 -2.4073117e-05
  2.6977752e-05
  4.0430036e-06
  8.5946653e-05
  4.6007725e-04
 -5.2987161e-04
 -3.0435494e-05
 -1.4719588e-04
  3.6024696e-05
 -1.1023987e-04
 -1.1626636e-04
  7.3662144e-05
  6.3765602e-04
  7.4736017e-05
 -2.3661120e-04
 -5.2834739e-04
 -1.3146349e-06
 -4.5683515e-05
 -1.9940114e-04
  7.1066213e-05
  2.0340125e-05
 -7.6773065e-01
  8.5834362e-02
 -5.7068473e-01
 -1.0942982e+00
  2.1608232e-01
  4.9070302e-05
  2.6673832e-04
 -8.9972138e-02
 -7.1898180e-01
  1.6672876e-01
 -4.8354678e-04
  2.0028175e-01
 -1.2649668e+00
  2.9618737e-01
 -1.9136083e-04
 -1.8259318e-05
  4.7872283e-05
 -9.3628657e-01
  1.5919037e-01
 -3.9355972e-04
 -7.2686737e-05
  1.0620787e-04
 -8.5638978e-02
  3.0441558e-02
  8.0499391e-05
 -1.8247818e-04
  1.2176994e-05
  2.7403846e-01
  3.5758538e-04
  3.7743864e-04
 -1.0068090e-05
 -3.5595128e-04
  3.7183988e-04
  1.6582974e-04
  7.0854563e-05
  2.3740822e-05
 -8.1810867e-05
  3.5254124e-03
  1.6491973e-03
 -5.2729325e-04
  5.0224575e-05
 -1.0640698e-04
  1.1563589e-01
  1.3856341e-04
  4.2414409e-04
  2.4607312e-04
 -5.1564950e-04
  1.7272677e-02
  1.6515172e-05
  1.2121737e-04
  1.0302475e-04
  5.6908524e-04
  6.1912957e-04
 -3.2941120e-05
 -1.4499264e-05
  8.9345740e-05
  3.0371231e-05
 -2.5758176e-05
  2.1942481e-04
  1.4788765e-05
 -2.0029223e-04
 -4.7699120e-04
  2.6031046e-05
 -2.0865694e-04
 -5.1198812e-04
 -2.4864712e-04
  3.0421140e-04
 -1.5553937e-02
 -3.5825927e-02
  2.0055787e-04
  4.9651833e-04
  9.1715243e-05
 -1.7944540e-04
 -3.3618733e-05
 -4.2238328e-04
  1.7837543e-04
 -1.5043533e-04
 -5.7223113e-04
  1.0841025e-04
  2.8881002e-05
  5.8727502e-04
  4.5202014e-06
  2.0842186e-04
 -2.7469501e-05
 -5.1061561e-05
  4.9767106e-05
 -3.4447588e-05
  1.3221577e-02
  1.2780754e-03
  4.2398566e-05
 -1.1325692e-04
  2.1307559e-04
  1.5961632e-01
 -1.4120716e-01
  1.7960001e-05
  2.2155749e-04
  9.4619638e-05
  1.9375142e-01
  7.8476599e-04
 -8.4582710e-04
 -4.3091562e-04
 -1.8532372e-04
  1.1418915e-02
  5.0330324e-05
  6.8573645e-05
  3.8940612e-05
 -4.8764643e-05
  2.2548536e-04
  1.1271185e-05
  5.8735503e-05
  2.4081560e-04
  2.1868916e-03
 -2.1289237e-04
  4.6039502e-05
 -1.8471495e-05
 -4.2127533e-04
  3.0107129e-05
 -1.8376592e-01
  1.1607674e-04
 -4.2565101e-05
  3.2327248e-04
  5.8265845e-04
  6.5168360e-04
  9.4444935e-05
 -7.4764139e-05
 -8.9262100e-04
  1.2465704e-03
 -6.8960646e-05
  4.6111539e-04
 -3.2134179e-04
  7.7404247e-06
  5.9467813e-05
 -2.1453921e-04
  8.1687373e-05
  1.2271130e-04
  1.4163324e-04
 -6.3683209e-04
  1.4223771e-04
 -8.5877784e-04
 -2.6434931e-05
  5.8560483e-05
 -5.8099915e-05
  1.4149690e-04
  1.0543846e-04
 -3.3560656e-05
 -5.9563263e-06
  9.7157987e-04
  5.3200922e-05
  3.1047926e-05
 -8.1701495e-04
  5.0843733e-05
 -6.8291295e-01
  1.1323196e-01
  8.3797413e-04
  2.0138240e-01
  3.4675099e-06
  4.8859866e-04
 -3.6167738e-01
  6.3901773e-04
 -7.6533464e-04
 -9.6756456e-05
 -3.0219372e-02
 -2.6534680e-01
 -3.3620899e-03
  6.4137671e-04
 -3.5561714e-04
 -4.7854451e-06
 -2.2975778e-02
 -3.5560533e-02
  2.4839176e-04
  1.3765923e-04
  1.6007482e-04
 -6.5021135e-02
  1.4685659e-04
 -2.6998663e-04
  4.0372754e-07
 -3.7482987e-05
 -2.4966354e-02
  1.3097825e-04
  1.7693143e-05
  3.8456885e-05
 -1.7207605e-04
 -7.7910481e-05
 -4.0328948e-04
 -5.3240728e-05
 -8.6927394e-05
 -2.5078118e-05
  4.3395576e-05
  6.4766232e-04
 -2.3441262e-05
 -3.0014749e-05
  1.0819565e-04
 -2.2095237e-04
 -4.7374597e-05
  4.3510736e-05
 -2.5427247e-05
  5.7921618e-05
  5.0195103e-04
  1.7872450e-04
 -1.8645177e-04
  2.4925315e-04
  3.2246771e-05
 -6.5015767e-05
 -2.5726788e-04
 -2.8757789e-04
  4.2140633e-05
 -2.1185320e-05
 -3.1803275e-04
 -8.2854576e-06
 -2.1321375e-04
 -7.7486748e-01
  1.9849019e-01
  4.4217825e-01
 -5.3471905e-01
  1.0751745e-01
 -1.2642451e-04
  7.4116811e-05
  7.1089882e-01
  7.2802953e-02
 -1.8746349e-01
 -4.2259318e-05
 -1.7018087e-01
  1.1672413e+00
  5.6289070e-07
  3.5906684e-02
 -5.2503700e-04
 -1.6773773e-04
  5.2306211e-01
  1.8131801e-04
 -1.6659422e-02
 -3.6702963e-04
  5.7294703e-05
 -8.2789302e-02
 -4.3548847e-04
  6.7471818e-04
  1.8252631e-05
  1.6314242e-04
  6.3521785e-01
  6.1855273e-04
 -9.1099116e-04
 -1.0752517e+00
  1.8132358e+00
  7.3633077e-05
 -1.0569372e+00
  3.9542001e-02
 -2.2231195e-04
  1.8570313e-02
 -1.5542531e+00
  1.4733118e-01
  2.1830332e-03
  1.3940068e-04
  2.6265782e-04
 -1.1273353e+00
  2.0257166e-02
 -1.8736915e-04
  3.6552676e-04
  6.1362479e-02
 -1.4318402e+00
  7.5103818e-03
 -4.3004562e-04
  2.8741179e-04
  5.6906737e-04
 -6.9706064e-01
  3.1395329e-04
 -1.1345925e-04
 -2.1077586e-04
  7.4298300e-06
 -1.6273212e+00
  8.5508387e-04
  8.1507629e-04
  9.2705428e-05
 -1.1886823e-05
  2.8602529e-04
  3.2136129e-04
  3.2627279e-06
 -1.3480432e-04
 -4.3354163e-04
 -3.5222305e-04
  1.7307514e-04
  3.1492452e-04
 -1.8622602e-03
  3.2648342e-04
 -1.7896736e-04
  2.5239229e-04
 -9.7524760e-05
 -1.0987779e-04
 -2.6905822e-04
  5.1055936e-04
  5.8882601e-05
 -2.2079900e-04
  1.2986752e-04
  2.5028249e-04
  1.8832387e-04
 -1.7602014e-04
  2.7512386e-04
  1.4142023e-04
  5.4265297e-06
  6.9274916e-04
  4.9437146e-04
 -7.0777780e-05
 -2.0300262e-04
  1.3582393e+00
 -1.6187099e-01
 -7.0061445e-01
 -7.3430181e-02
 -1.1294850e-04
  1.6436292e-03
  3.6932182e-01
  2.7050823e-01
 -4.1735981e-02
 -1.6750688e-04
 -2.1942657e-04
  3.0139911e-01
  6.1408413e-05
 -2.6172949e-05
 -1.7706426e-04
 -1.7110497e-04
 -3.0952814e-01
  1.1908394e-04
  8.9851848e-05
 -7.7575882e-05
  2.5435255e-04
  1.7761500e-01
  1.0369450e-04
 -1.3601137e-04
  8.4419971e-06
 -1.0164221e-03
 -1.6510002e-01
  2.3142769e-04
  1.6630677e-04
  1.6730037e-04
  4.1637432e-02
 -4.3151616e-03
  6.4395499e-01
 -2.4781056e-01
 -3.7049627e-04
 -2.0154240e-02
 -5.1461905e-01
 -3.6592612e-01
  2.9293215e-01
  1.6757673e-04
  2.7433898e-02
  1.8242851e-02
  4.0167535e-05
  5.8261674e-05
 -1.2581433e-04
 -5.2777190e-02
 -5.3265751e-03
  1.5332802e-04
  2.3865577e-02
 -5.6352728e-04
 -8.2109682e-03
  1.7311126e-01
  3.1672604e-04
  1.1534613e-05
  3.6692347e-06
  9.0820322e-05
  1.5832801e-01
 -1.0105418e-02
  9.0868707e-05
  1.6636430e-05
 -1.3794118e-04
 -1.1142268e-04
 -1.3516874e-04
 -4.1079878e-05
 -4.2704411e-05
 -7.5031836e-05
  2.1192776e-05
 -9.0885071e-05
 -5.4499466e-04
  1.8082857e-04
 -1.9179925e-04
 -1.0712606e-04
  2.0160922e-04
  3.3790636e-04
 -4.4996501e-04
  3.6855961e-06
 -2.3552573e-04
  1.4040567e-04
  1.9075781e-04
  5.2889936e-05
 -1.4781843e-04
 -9.1073613e-05
 -4.5048848e-05
 -4.7367357e-05
 -5.8213633e-04
 -1.7634568e-04
  3.3883789e-05
 -5.9283939e-05
 -9.3638164e-06
 -2.3091666e-03
  1.7955087e-02
  2.8846930e-03
  8.0548059e-03
  6.8990333e-04
 -6.7141617e-04
  2.5772272e-02
  3.8264062e-02
  1.9445121e-01
 -2.1139953e-02
 -8.6356665e-04
 -5.1948767e-02
  1.0014517e-03
  3.2959651e-05
  3.1497166e-01
  1.3469634e-04
  2.1531837e-04
 -2.1389031e-04
 -3.2383006e-02
 -2.2686603e-04
 -3.2040093e-04
  6.6133492e-02
 -1.4856500e-05
  5.6928984e-05
 -2.6285634e-05
 -3.0471787e-05
 -5.3117677e-05
 -1.0243654e-01
  1.2597810e-03
 -7.7547644e-05
 -3.0963039e-02
  2.1854964e-01
  2.0010164e-02
  6.4201005e-02
  8.4687673e-02
  3.5518548e-04
  2.2123907e-02
 -1.4065462e+00
  1.6496594e-01
 -4.1498309e-01
 -1.4389875e-04
 -1.0521292e-01
  1.5055397e-01
  8.8601792e-03
  7.4804935e-05
  1.0995814e-04
  8.6930417e-02
  6.0891163e-01
 -3.4546675e-03
 -1.9968491e-02
  1.2460971e-04
  3.7509375e-04
 -1.2012544e-01
 -6.0782462e-05
 -1.5129712e-03
 -2.5911741e-05
  1.0644925e-04
 -4.4899201e-01
  1.7138610e-04
 -9.8316646e-05
 -1.8779060e-01
  6.1924922e-01
 -1.1145473e-04
  1.2574547e-05
 -2.2848092e-04
 -1.0238926e-04
  6.2659347e-01
  1.8513416e-05
  4.3557654e-04
 -5.2992633e-05
  3.7662903e-04
  3.5527343e-01
 -3.2623579e-05
  3.8762888e-04
  7.4687450e-05
  4.8974767e-01
 -5.0752965e-04
  2.4459849e-04
 -3.3789061e-04
 -5.6789379e-04
  4.1095302e-01
  2.1198692e-04
  2.7675846e-01
  3.4042507e-01
 -4.6865334e-04
  1.1143855e+00
  5.7557595e-01
 -1.7243761e-04
  1.6724350e-04
 -5.8588892e-02
  2.0377778e-01
 -9.0879387e-01
 -6.1850354e-02
 -2.8379221e-05
 -4.4809833e-05
  7.4339965e-05
  5.0191742e-01
  1.8703552e-04
  1.2391970e-01
 -4.7038036e-04
  1.8793386e-01
  2.7031529e-01
 -9.9996906e-03
 -2.6416841e-01
 -3.5280238e-05
  6.5681744e-01
 -9.6573770e-02
  1.1233567e-01
 -1.0598703e-01
 -1.6268145e-04
 -3.6362374e-01
  1.4725905e-04
 -6.8010986e-01
  7.7179414e-01
  3.5332609e-02
 -2.2474101e-01
  4.9041939e-01
 -1.0104491e-04
 -4.4805214e-01
 -3.6503738e-01
  2.1812050e-01
  6.3112132e-02
 -2.8431141e-01
 -2.6993698e-01
 -5.4438382e-01
  2.6979335e-02
 -8.0439588e-04
 -3.5639289e-01
 -4.5633288e-03
  9.5484173e-01
 -1.1998571e-06
  2.2942297e-02
  1.0180067e-01
 -1.1297394e-01
  1.8214609e-01
  2.0415564e-01
  6.8026491e-02
 -4.9727541e-01
  8.7359823e-02
 -1.6489693e-04
  4.6953194e-02
  3.2146400e-04
  2.3745768e-05
 -1.2660076e-04
 -5.0565464e-05
  1.2546203e-04
  1.5373183e-04
 -2.8465400e-04
  1.0370305e-04
 -3.5518347e-04
 -2.2359469e-04
 -1.5097616e-04
  2.6772454e-04
 -6.4827087e-05
 -1.8817979e-04
  2.5955314e-04
 -5.0660263e-05
  1.3242981e-05
  1.3225435e-04
 -4.0062128e-05
  5.3512347e-05
 -1.6050680e-04
 -1.7465393e-04
 -5.8984355e-05
  5.3004903e-04
  5.1612624e-05
 -5.2749241e-05
 -3.5356669e-04
  5.3093668e-06
  4.8497418e-04
  2.6985328e-04
 -3.5126682e-04
  1.3221409e-04
  9.1346694e-05
  7.2312119e-05
 -7.2576702e-05
  1.3964907e-04
  1.9056048e-05
 -3.7399495e-05
 -1.0978837e-04
 -6.4629043e-05
  4.4496257e-05
 -3.1173293e-04
 -2.5745363e-05
 -3.8631444e-04
  1.8117487e-05
 -7.1651819e-05
 -2.2867476e-05
  4.7029983e-04
 -8.7580775e-05
 -1.8747387e-04
  1.6635652e-04
  1.7397806e-04
  1.7210381e-05
 -6.0587485e-05
  2.7538699e-04
 -6.2008694e-05
 -5.5804075e-04
  1.6273558e-05
  1.5981658e-04
 -3.1717194e-05
 -6.6199345e-06
 -1.4312325e-04
  4.9071914e-06
  7.7850898e-05
  2.8194845e-04
  2.6055588e-04
 -4.9221177e-05
  2.3405199e-04
  9.7796394e-05
 -8.0914207e-02
  3.7978189e-05
  3.6954119e-05
 -2.4211947e-02
 -7.9730982e-03
 -2.2772904e-03
 -2.1839733e-05
  1.0088686e-01
  7.7582750e-04
 -1.6732382e-02
 -1.1980390e-04
 -7.4911182e-04
 -1.2343447e-02
  5.1275101e-03
 -6.7163460e-06
 -2.0534247e-02
 -2.4030190e-04
  8.9568645e-02
  2.0148915e-04
  7.0731208e-04
 -4.4575395e-04
 -2.9510842e-04
  8.7099237e-04
  1.3882155e-04
  1.1972128e-03
  4.3942538e-05
  2.1972090e-05
 -6.3197498e-05
 -2.2223148e-04
  1.0168306e-04
  2.5130301e+00
 -5.3880952e-04
  8.9542311e-01
 -3.2645220e-01
 -5.3511870e-01
  5.7688158e-04
 -6.2172968e-02
  5.1648724e-01
  5.2230328e-02
 -5.2821940e-01
  7.4981037e-04
 -2.9992822e-04
 -2.4216679e-04
  4.4306198e-01
 -5.0291693e-04
 -4.4530414e-02
 -1.9875832e-03
  4.1857877e-01
  7.9541773e-02
  5.2264914e-02
 -2.4502847e-04
 -2.8103022e-02
  8.3700791e-02
  3.6789377e-03
 -1.4883532e-05
  4.8197323e-04
 -4.8339897e-04
  4.3558539e-04
 -4.7563834e-05
  3.1024209e-04
  1.5410723e-04
 -1.6653142e-04
  4.4483956e-04
  4.6413798e-02
 -3.5561345e-04
 -3.8233255e-05
  4.9564691e-04
  2.2959190e-05
  1.8894854e-04
 -8.5595471e-05
  2.1090587e-05
 -2.4698104e-04
 -3.7332138e-04
 -4.4665323e-04
 -2.0742644e-05
 -2.4169516e-04
  6.1267283e-04
  1.3583306e-04
  3.9062451e-04
  1.2094319e-04
 -2.6953366e-04
 -1.1442197e-04
  5.8174250e-04
 -2.6203195e-05
  4.9307273e-04
 -2.2307689e-04
  6.6425869e-06
 -5.3657026e-05
  4.3899595e-06
  3.4910685e-05
 -4.4613885e-04
  2.6385812e-04
 -1.3985902e-04
  3.6651647e-04
  1.8650776e-04
 -3.1397480e-04
 -2.9673549e-06
 -2.6183794e-04
 -1.2947826e-04
 -1.7640888e-04
  2.5070514e-04
 -2.1986350e-05
  1.2577150e-05
  1.8491915e-04
  1.3940356e-05
 -1.0733631e-06
  8.7408233e-05
 -8.5102416e-05
 -2.0113309e-04
  4.5041626e-04
 -1.4192068e-04
  2.3478766e-04
  4.2713390e-07
  4.4036089e-05
 -3.6535357e-04
  3.2579072e-05
  9.7459051e-06
 -1.3246532e-05
  7.8098012e-05
 -9.7983884e-06
  2.4467206e-04
 -2.2653951e-05
  4.2248616e-04
  5.2299896e-05
  4.8943749e-04
  3.0470178e-06
  1.2448558e-04
  9.2546215e-06
 -1.3177226e-04
  3.6622907e-04
  7.9112164e-05
 -4.3488736e-04
  5.6786444e-05
  7.5796932e-05
 -9.5426149e-05
  1.1213688e-04
 -2.9722889e-04
 -1.3344478e-03
  1.3735647e-04
  1.5068389e-04
  6.2786415e-04
 -1.6695201e-04
 -1.4926356e-05
 -1.0227369e-05
 -3.5171008e-05
 -1.2636051e-04
 -2.4366280e-04
  4.2113061e-06
 -6.2129155e-05
  7.1523405e-05
  3.7333483e-01
 -6.8515271e-01
  2.3657421e-02
  1.2971267e-01
 -7.1551728e-01
  6.5391161e-02
 -3.2072321e-03
  9.4788894e-02
 -6.0872281e-01
 -8.6212642e-02
 -7.0182810e-05
  2.3590331e-03
  1.7908941e-03
 -1.2923410e-03
  3.6774766e-01
  6.2205657e-02
  2.1147353e-03
 -2.5514615e-01
 -3.1793077e-04
 -5.3799275e-04
  3.6265308e-04
  3.3423820e-04
 -4.3850247e-04
 -7.5463904e-05
 -1.5752102e-03
 -1.2269635e-04
 -4.1240908e-04
 -7.0240331e-04
  4.3045660e-04
 -1.3453567e-05
 -1.0999665e-04
 -7.9731217e-05
  2.2881564e-04
 -2.0413677e-01
  8.3949541e-05
  6.0198003e-05
 -1.3418160e-04
  4.6144921e-02
 -5.4603035e-05
 -2.8167364e-05
  1.2901533e-05
  8.9235386e-05
 -7.8458525e-06
  6.4557949e-05
 -3.5676744e-04
  1.4374548e-04
 -2.8498619e-04
  1.8945877e-05
 -1.3914669e-04
  1.2900456e-04
 -1.5169451e-03
  1.5035688e-04
  6.2794345e-05
  2.3528395e-05
  1.8458416e-04
  2.6388270e-07
  4.1331688e-04
 -3.7143967e-04
  7.5271055e-05
  2.9377354e-04
 -1.7929524e-01
  4.3201575e-01
  2.5061474e+00
  2.1373711e+00
  2.7927628e-01
  2.5539228e-04
 -2.5865552e-04
 -2.3895927e-01
 -6.1501336e-04
  5.6717785e-05
 -1.5991071e-04
 -5.3056539e-04
  2.6425868e-04
 -2.1721092e-03
 -1.0168868e-04
  7.0623755e-05
  1.5063363e-04
 -1.3208530e-05
 -1.2142663e-03
 -1.1660644e-03
 -4.4768222e-04
 -1.6972590e-04
 -9.7946450e-02
  1.0024080e-04
  2.4355703e-04
 -5.9100897e-05
  4.1206734e-04
 -1.1247156e-04
  1.2153868e-04
 -1.5399668e-05
 -8.8204324e-01
 -1.6487318e-05
  4.2940572e-01
  9.3168253e-04
  2.0296098e-01
 -1.3460086e-04
  9.7596826e-04
  2.0766526e-04
  1.2118309e-04
 -7.1365162e-06
  1.0833296e-04
 -7.6866947e-04
 -4.5743516e-05
  4.4153807e-05
 -1.0800397e-03
 -1.1993426e-04
 -2.0323842e-04
  5.7157502e-04
 -3.2173415e-05
  7.1542883e-05
  7.5049677e-05
  8.5152991e-05
 -5.8054404e-05
 -6.9796992e-04
 -1.1331436e-04
  2.8362512e-04
 -6.4234882e-05
  5.1504362e-04
  1.2564928e-04
 -1.6826236e-04
  6.6027125e-05
 -3.7262322e-07
  3.0117863e-04
  7.3830881e-05
  2.1077333e-04
  6.6832421e-05
 -7.8778256e-05
 -2.3471522e-04
  6.2003848e-04
  7.0778420e-04
  1.1451124e-04
 -2.4298376e-04
  8.2431779e-06
  5.3237301e-05
 -3.6558713e-04
 -1.8232762e-05
 -1.4184930e-04
 -2.0763735e-04
  1.0812950e-04
  4.3261498e-05
 -1.1431866e-04
 -1.6828594e-04
 -2.7772825e-04
 -3.8605786e-04
 -2.0294249e-04
 -6.7140805e-05
  3.1313830e-05
  6.0736830e-04
  2.3780900e-04
 -1.3214076e-04
  5.3692088e-06
  7.5782009e-05
 -2.3856365e-04
  3.6024463e-05
 -7.4438954e-05
 -5.7772763e-06
 -3.6337085e-05
  2.5587724e-05
  2.2257998e-06
  2.1198938e-04
  8.3429317e-05
 -3.0789080e-05
 -3.6519385e-05
 -2.0529227e-03
  2.7272748e-04
 -5.4374359e-05
 -7.2420502e-05
  1.5321393e-04
  1.2419102e-05
  5.1820028e-04
  7.8752601e-05
  9.8682576e-05
  1.0685600e-04
 -1.7127159e-04
  2.0313270e-04
 -1.0536400e-04
 -8.0283222e-05
 -9.9586090e-05
  2.6283314e-04
  6.1194522e-05
 -8.4245221e-05
  8.2997780e-05
 -1.2473782e-04
  1.8408583e-04
 -2.0737156e-04
 -9.7452983e-04
  5.4988748e-05
 -1.0439863e-04
 -1.0243383e-03
 -9.1932061e-06
 -2.2766773e-04
  2.3187540e-04
 -4.3367242e-04
  2.3885483e-04
  6.0234795e-04
 -1.8873738e-04
  1.4433492e-05
 -5.3920274e-05
 -2.1716779e-04
  4.2486401e-05
  9.7145703e-06
  7.7048280e-05
  8.8762070e-05
 -2.4069255e-04
  1.4052343e-05
 -8.4498606e-05
  1.6185768e-04
  3.9946684e-04
  2.1592603e-04
  2.0400142e-04
  6.1216277e-05
 -2.8431157e-04
  9.9285238e-04
 -2.0445439e-04
  6.8135974e-05
  1.2427169e-03
 -1.6239412e-03
  5.9061515e-04
 -1.1248981e-04
  1.8154937e-04
 -1.6482971e-05
  2.6829961e-05
  2.5066442e-04
 -3.0779876e-05
  4.0794365e-04
 -9.3506445e-04
  7.3928852e-05
  3.2582320e-04
  7.8649951e-05
 -3.6519658e-04
  3.5883808e-05
 -1.0454239e-04
  2.2030208e-04
 -2.5671141e-04
 -4.7927146e-04
  3.1151794e-04
 -2.7444396e-05
 -9.9371522e-05
 -1.0155755e-03
 -1.7268582e-04
  3.8558841e-01
  9.3669802e-01
  1.2418556e+00
 -1.4676766e-01
  2.7811325e-01
 -7.8951761e-02
  1.9704616e-03
  5.7729382e-02
  3.9021963e-01
 -2.2986839e-02
  2.0935598e-01
 -1.0234592e-01
  1.1820909e-01
  2.3644650e-01
 -1.9898745e-01
 -1.7180098e-02
 -1.9042431e-01
  1.2458392e+00
  1.4727820e-02
 -3.2423995e-02
 -2.2049230e-01
 -4.9445055e-02
 -8.9121662e-02
  9.1254324e-02
  9.7790785e-02
  6.8560279e-05
  2.4410983e-05
 -6.1764097e-04
 -1.0973489e-04
  4.8472546e-03
  8.6576635e-01
 -4.7128868e-01
  2.0706803e-01
 -8.2766795e-01
  7.5426310e-02
  3.5611123e-01
 -4.4406865e-02
 -5.9170496e-01
  2.5357902e-01
  1.4825572e-01
 -1.0106348e-03
  1.8202713e-01
  5.9634782e-03
 -1.3784131e+00
 -2.7099249e-01
  4.8948023e-01
  2.9837629e-01
 -3.6291227e-02
 -1.5252649e-03
  1.3035651e-02
  2.9680404e-01
  2.2939952e-01
 -2.5220327e-02
 -2.9546590e-04
  5.2757101e-04
 -5.6088995e-04
 -1.7144078e-04
 -1.6516231e-03
  3.8891469e-04
 -1.4689852e-01
  9.0161426e-05
  8.4814616e-04
 -3.0983172e-06
 -4.4248445e-05
  1.0750540e-04
 -4.7898713e-05
  1.7059883e-04
 -3.4737808e-05
 -8.9236186e-04
  1.7751050e-04
 -8.3298510e-04
 -2.0475376e-05
  6.4110187e-05
 -2.2085298e-04
  1.1746378e-04
  5.7846242e-05
 -2.8543856e-05
  2.3276548e-04
 -9.7993012e-05
  6.5130196e-05
 -3.4687319e-04
  2.4197661e-04
 -1.8744064e-04
  2.0921456e-05
  1.3389921e-05
 -1.4697935e-04
 -7.3308824e-05
 -2.8617926e-05
 -3.5013410e-04
 -4.2213625e-05
  3.1573278e-01
 -3.8873228e-01
 -3.5834780e-01
  6.7950869e-01
  6.1431140e-01
  1.2447185e-01
  1.1237575e+00
 -3.6312857e-01
 -4.1877246e-01
  1.2338960e-01
 -5.8477669e-04
  7.7392250e-01
  1.1277952e+00
 -1.0279518e+00
  1.2289833e+00
  7.7892512e-01
  5.8695507e-01
  3.5708705e-01
 -6.4150321e-01
  5.6612968e-01
  6.1715561e-01
  8.9055306e-01
 -2.3330308e-02
 -3.0274478e-01
  5.7976413e-01
 -2.9483932e-04
 -7.3217824e-02
 -7.4056610e-02
  2.6829980e-04
 -3.4727350e-01
  4.9211016e-01
 -4.3411872e-01
 -7.4144614e-01
  4.4540972e-01
  6.0924393e-01
 -6.8543311e-05
  2.9460454e-04
  3.1236403e-03
  1.2645298e-01
 -1.5456128e-03
 -6.8208174e-05
  3.8265058e-05
  6.9889415e-05
 -8.6594409e-06
 -2.7854374e-04
 -1.4473537e-03
 -2.5849734e-04
  5.2122399e-02
  1.2666186e-03
 -1.5588189e-03
 -1.1735677e-03
 -2.3928375e-04
  7.7056917e-05
 -3.0486240e-06
 -1.0857889e-05
  7.6228898e-05
  1.8242111e-04
 -2.9471677e-04
 -2.4197617e-04
 -5.1756629e-06
 -3.4198233e-01
  2.4107119e-02
  2.0948629e-01
  7.1946662e-03
 -3.8065511e-01
  5.7052211e-03
 -1.1569149e-03
 -2.3487566e-01
 -3.3475825e-04
  1.1892451e-03
 -6.3529464e-05
  4.0323000e-02
  2.7733855e-03
 -1.0593083e-03
  5.0182775e-02
  1.8115684e-02
  1.3679772e-02
 -7.0388794e-02
 -2.8514920e-04
 -1.6289992e-05
  1.2863182e-02
  9.5192215e-04
  2.2767507e-04
 -1.7088004e-04
  7.0168853e-02
 -7.2176368e-07
 -1.9749741e-04
 -3.1586189e-04
  7.6480275e-05
 -4.1505916e-04
 -4.2419968e-04
  2.0761754e-06
  8.4202460e-05
  1.5617472e-04
 -1.0107789e-05
  1.7848176e-04
 -5.3489934e-05
  3.6431760e-05
 -7.0791037e-05
 -1.1019113e-04
  7.6552678e-05
 -1.1559471e-05
 -7.6276810e-05
  5.7971734e-04
  3.8308138e-04
 -8.6822474e-05
  2.1147430e-04
  2.3023687e-05
 -5.5903447e-04
 -6.3318557e-06
  6.8332323e-05
  1.9723251e-04
 -4.3467939e-04
  2.0362635e-04
 -4.1826296e-04
  2.9052264e-05
  5.7114492e-05
 -3.6244269e-04
 -3.2668799e-04
 -4.5132500e-04
 -1.2638116e+00
 -2.0063889e+00
 -7.0249110e-01
 -3.7016910e-01
  2.3578772e-01
 -2.2325794e-04
  1.0077244e-01
  5.7067394e-01
  1.0131085e-04
 -7.0069400e-03
 -9.7638427e-04
 -2.2981666e-01
 -3.3979657e-01
  2.6126918e-01
 -2.7456293e-01
 -3.1689659e-01
 -6.0508650e-02
 -4.8084563e-05
  7.0710661e-04
  1.8280395e-04
 -3.4479901e-02
 -3.9549027e-02
  5.0236344e-02
  3.5534817e-05
 -3.8114622e-02
  1.6306318e-05
  3.2668194e-04
  2.3172814e-03
 -1.6549467e-04
  2.1802232e-04
  7.2568588e-02
  4.2237255e-01
  6.3065451e-01
  1.5639706e-02
  3.5584429e-01
  6.0695782e-04
 -3.8370592e-04
 -7.8759837e-04
 -1.0977563e-04
  1.1906816e-04
 -3.0388581e-05
  9.7716103e-05
  8.6807355e-04
  1.5172466e-04
  2.0063251e-04
  2.7604357e-04
 -6.6573506e-05
 -3.5867658e-03
 -1.4150265e-04
 -1.6924168e-04
 -1.7313301e-04
  4.2072239e-05
  2.4967769e-04
  7.5978569e-05
 -1.0250168e-04
 -5.6028063e-04
 -9.9119940e-04
 -4.3882735e-04
 -2.0477394e-04
 -5.0289708e-04
  5.0490864e-02
  1.1464223e-03
 -5.2017564e-01
  7.4738219e-02
 -3.4101343e-01
  3.5980658e-04
 -3.2661294e-04
 -3.0034533e-04
  9.7323951e-05
  3.1531512e-04
 -1.5055823e-04
  3.8079062e-04
 -8.0843492e-05
 -3.1631407e-03
  8.8000507e-04
  4.6505249e-04
 -2.8349772e-05
 -2.6115334e-02
 -3.2394255e-06
  5.3323329e-05
 -2.8782568e-04
  5.4656807e-04
  5.1050767e-05
  5.7755304e-05
  7.7561662e-04
  1.0001539e-04
 -4.4932065e-04
 -5.4228870e-04
 -6.3901342e-04
 -4.5870470e-07
  1.6577644e+00
  1.6980869e-01
 -7.6735243e-03
  1.8595526e-02
  1.3861519e-03
 -1.0796585e-04
  3.9725222e-05
 -1.6996903e-05
 -2.0237955e-04
  2.2465398e-03
 -1.2368966e-04
  1.5818323e-04
  1.4276588e-05
 -5.6648500e-05
  3.6148264e-04
 -9.8476958e-05
 -5.7177444e-05
  9.0238209e-06
 -9.5862997e-05
  2.8506410e-04
 -1.3862198e-04
 -1.7656821e-05
  7.9085512e-05
 -2.9856263e-04
  6.6639375e-05
 -9.2613671e-05
 -1.6859816e-04
  2.5162310e-05
 -2.9270834e-04
 -1.0350550e-04
  3.5367062e-05
  5.8978541e-05
  6.3155589e-05
 -4.8025866e-04
  9.0599700e-05
  2.2750952e-04
 -6.7937915e-04
 -5.5521239e-05
  6.2282721e-05
  3.3665809e-04
  4.5666366e-04
  4.4219167e-05
 -1.6551321e-04
  7.9365367e-07
 -4.5842541e-04
  1.6191149e-04
 -2.1264417e-05
 -2.0634138e-04
  1.4956923e-04
  5.0466071e-05
  1.7069252e-04
 -6.4126689e-05
 -4.8764068e-05
  1.7280727e-06
  3.0613195e-05
 -2.6532606e-04
 -3.0951994e-04
 -1.1534466e-05
  4.1707698e-04
  3.2109478e-05
 -8.6531203e-05
  6.8268608e-05
 -4.0868926e-04
  3.4893249e-04
  7.5444975e-04
  6.1178580e-05
 -5.9660946e-05
  6.6435721e-05
 -2.7789018e-04
 -7.9490383e-06
 -3.4461377e-07
 -3.2754586e-04
  3.6942874e-05
 -3.1759831e-05
  4.7361049e-05
 -9.2404814e-05
  6.0623079e-05
 -1.7974777e-05
 -1.7282233e-04
  2.9472860e-06
  5.3657062e-05
  3.9401848e-02
  2.2337977e-04
 -6.4142904e-04
 -3.6422259e-04
  6.8463232e-05
  2.4693907e-06
 -1.2277799e-04
 -1.4427434e-04
 -1.5685961e-05
  1.6877467e-04
 -2.1997564e-03
 -1.8132873e-02
 -1.1337763e-06
 -9.9825284e-06
 -2.5789824e-04
  9.2404276e-05
 -1.3186017e-04
  2.2031057e-04
  4.0804775e-04
 -9.6165124e-05
  3.6886337e-05
 -2.9991730e-04
 -1.3576302e-05
  2.7208703e-04
 -9.9136187e-06
  1.7007149e-03
 -9.6731738e-04
 -7.8620214e-04
 -3.4471272e-05
 -6.6388843e-06
  6.5849679e-07
 -5.5623834e-05
 -7.9234640e-05
  2.1477781e-04
  2.5463829e-04
  3.6216384e-06
  6.0973769e-05
 -5.4156790e-05
 -5.6358025e-05
 -5.5466563e-04
  2.6882096e-04
 -1.1688239e-03
 -6.3750682e-05
  7.7637672e-01
 -4.4316744e-06
 -4.1076567e-04
  1.2598712e-04
  7.8084075e-01
  3.0998373e-05
  7.7269763e-01
 -4.9278209e-01
  5.7515725e-05
 -2.8678798e-04
 -2.2135158e-05
 -3.6464786e-04
 -1.4362067e-01
  7.9858166e-01
  1.5017371e-04
 -8.4267654e-02
  6.5615577e-01
 -8.0725431e-02
 -2.3860099e-04
 -5.7856160e-01
  2.8780252e-01
  1.3001096e-02
  2.5490913e-01
  3.0808445e-05
 -2.7385095e-05
  5.2125577e-02
  6.8684918e-01
 -4.4370856e-05
 -6.7628651e-05
 -4.6738762e-01
 -6.3652128e-01
  2.4046816e-05
  5.2416966e-05
  1.3599613e-05
  9.7338301e-01
 -1.2217698e-01
  2.5637656e-01
 -3.5082814e-01
 -8.4796600e-04
 -3.4391411e-04
 -1.9794337e-02
 -9.3945400e-06
 -1.4928545e+00
  1.1352707e+00
  2.4080920e-04
  1.5754811e+00
 -5.1512325e-01
  5.7748097e-01
 -3.1606772e-04
 -8.0428219e-01
  2.9849914e-01
  3.7046722e-01
  1.9143288e-01
  1.2058209e-04
 -1.9164392e-05
  1.6224003e-04
  1.6670116e+00
 -1.2063339e-01
  8.4770769e-01
 -3.1469789e-01
 -3.1394377e-01
 -8.1776015e-02
 -7.7338523e-01
  8.6777371e-01
  8.6830419e-01
 -7.6093787e-01
  8.0169135e-05
 -2.9084163e-03
  3.0414612e-04
  2.6617222e-04
  1.4655164e-05
 -1.5454109e-02
  3.0785659e-01
  6.9125396e-01
  6.1036926e-04
  2.2651972e-01
 -1.2285647e+00
 -1.9929428e-01
 -3.3847198e-05
  4.3912270e-04
  3.4801406e-01
  5.0827670e-01
 -9.6953040e-01
 -8.8420707e-01
  1.2485191e+00
 -5.0064850e-01
 -5.7869887e-01
  1.4617555e-01
  3.6447573e-02
  5.9281915e-01
  6.4764416e-01
 -1.0879711e-01
  1.6489084e-01
 -1.7841895e-01
  6.5302753e-01
  1.4854677e+00
  2.4908283e-04
 -2.0594575e-04
  3.7651539e-01
  1.6788170e-02
 -2.5936085e-01
 -8.7907314e-01
  1.0182687e+00
 -1.2330253e+00
 -5.5334675e-01
 -2.8240028e-01
  4.2710389e-04
 -5.4197663e-01
  1.8359318e-01
  4.2250711e-01
  1.2705625e-02
  4.3560529e-01
  3.8082693e-02
 -4.3164411e-01
 -2.4793415e-01
  4.8163524e-01
  8.6044364e-02
 -5.9257907e-01
  3.2064654e-02
 -3.9986994e-02
  1.1711259e-01
  2.7117902e-01
 -5.1874781e-01
  1.5204964e-03
 -5.6343198e-01
  1.3717043e-01
  7.1561956e-01
  2.9934677e-01
 -7.1137494e-01
 -8.4445670e-02
  6.8736589e-01
  3.2358992e-01
  2.7349788e-01
 -1.2277735e-02
 -3.1326541e-03
  4.1954315e-01
  1.0364260e-01
  3.0983412e-01
  4.8891857e-01
  4.5340306e-01
 -1.6261113e-01
  1.1472082e-01
  2.3038305e-01
  1.5727267e-02
  6.0266204e-02
 -1.2575093e-01
 -1.5502107e+00
 -3.2638101e-05
 -5.4060918e-04
 -8.1746064e-02
 -5.7283118e-03
 -6.3590927e-04
  7.0745014e-02
  6.3920440e-04
 -7.4846119e-02
  1.6208307e-05
  3.1737673e-01
  6.1286014e-01
  2.8468868e-01
  1.9304280e-01
  1.9268711e-01
  3.4337598e-01
 -1.2788324e-01
 -7.0132065e-01
 -2.8585994e-01
 -6.5055713e-02
 -1.3831734e-03
 -1.1158543e+00
 -1.4695287e-01
 -3.2953760e-01
 -1.3629713e+00
  6.4656055e-01
  3.4902978e-01
 -6.2089515e-01
  4.0909824e-01
  7.4167001e-01
 -1.7152084e-03
 -1.0747052e-02
  7.1757719e-02
 -4.2095113e-01
  1.5905240e+00
 -1.0231296e+00
 -1.4676130e-01
  6.1530513e-01
 -5.4704705e-03
  3.7412012e-01
  3.8699874e-01
  1.0688882e-01
  1.6745436e+00
 -1.1095996e+00
  8.4651724e-02
  6.4464355e-01
  2.1428865e-04
  5.2427363e-01
 -1.4081064e+00
 -9.4619131e-01
  3.8513175e-04
  6.0663080e-01
  1.0736060e-02
 -1.3742453e-01
 -5.9744763e-01
  5.0450438e-01
  6.7050852e-02
 -2.2809905e-01
  1.7936586e-01
  1.3990860e-01
  1.4351534e-03
 -5.9259897e-01
  8.9758617e-01
 -3.3140615e-01
  1.6165815e-01
 -5.9224188e-01
  2.4566045e-02
 -3.9082892e-02
  6.0338583e-02
  1.4684209e-01
 -1.6323078e-01
 -6.9484897e-02
  4.2075181e-01
  5.8271873e-01
 -5.8068639e-01
 -6.9057268e-01
 -3.8008746e-02
  1.9296683e-01
 -1.5507436e+00
  9.2521787e-01
 -5.2500618e-01
 -9.5311743e-01
  1.1407939e-04
 -1.8541916e-01
 -2.9777089e-02
 -5.5802248e-05
  5.8721565e-02
 -3.8321152e-02
  1.1276508e-04
  3.0318996e-01
  1.4341983e-04
  8.4751809e-01
  8.5468298e-01
 -2.3142012e-02
  1.3108966e-03
 -1.4493853e-03
  1.1709540e-04
  8.2824802e-01
 -1.5741640e-01
  9.2132294e-01
 -3.8578084e-01
 -2.6437357e-01
 -2.3231928e-01
  1.0657395e+00
  2.8952897e-01
 -6.8772376e-01
  1.0354143e+00
  9.9612910e-01
 -6.5979147e-01
  4.5688528e-01
 -5.1808292e-01
 -1.0601753e-02
 -6.4683342e-03
  3.7891835e-01
  6.2256154e-02
  5.1745671e-01
  9.5280338e-05
 -7.6440905e-05
 -1.1486144e-01
  1.3755114e-02
  2.7104506e-01
  1.8573758e-01
 -2.7089885e-01
 -2.8283533e-01
  1.2421061e+00
 -9.1183722e-01
 -1.2716821e+00
  5.4420059e-05
 -1.7581272e-01
  2.9887795e-01
 -1.2237657e-02
  2.4199158e-01
 -7.6045305e-01
  1.2435341e+00
  3.0370319e-01
 -1.2071826e+00
  1.5954982e-01
 -1.9800147e-01
 -7.4092990e-01
  1.4117254e-01
  3.4634531e-01
 -6.8594131e-04
 -9.0991870e-02
  5.4090064e-02
 -5.1555216e-02
  5.0435983e-02
  2.2320016e-01
 -2.0855628e-01
  8.7672609e-01
 -5.1582005e-02
  2.2799605e-01
 -5.5944687e-01
 -3.0626360e-02
 -4.5576486e-01
 -1.2691425e-01
  7.8293778e-02
  5.1766360e-01
 -1.8872241e+00
 -4.7074404e-01
 -2.3929092e-01
 -4.1751164e-01
  6.9537169e-01
 -1.5167536e-01
 -1.7090079e-04
  1.2158110e-04
 -1.3131899e-04
  4.8206579e-02
 -3.0697807e-05
 -2.0491394e-05
 -2.6725227e-04
  3.4808287e-01
  5.6461595e-05
 -4.4763468e-02
 -1.3664817e-04
  3.6172234e-02
 -7.2456563e-01
  4.2887103e-02
  8.6372876e-01
  7.5287207e-05
 -3.8740420e-01
 -1.8768583e-01
 -2.3472850e-01
  2.5916557e-05
  7.6577079e-01
  2.9684263e-01
 -1.7768367e-04
  2.2065289e+00
 -2.1988963e-01
  4.5371252e-01
  2.0837832e-04
  3.3013421e-05
  2.4531262e-03
  1.5101471e-04
  2.3712812e-01
 -1.4133921e-01
  1.0104586e+00
  1.9198301e-01
  4.1137945e-02
  9.6857722e-05
 -2.2342221e-01
 -3.8295249e-05
  1.4648591e-01
  6.6234821e-01
  5.9153730e-01
 -3.5570616e-01
 -9.6743196e-01
 -6.2675005e-01
 -1.9245391e-01
 -8.3964616e-02
 -2.8410953e-01
 -3.3353219e-05
 -1.8530768e+00
 -5.3520286e-01
 -5.4237378e-01
 -5.5868506e-01
 -4.1044574e-02
 -4.9514413e-01
 -1.1794188e-04
  7.8969441e-02
  5.4616507e-02
  1.3030015e-01
  6.3726079e-01
  2.0879270e-01
 -1.0233869e-01
  3.5692364e-02
  8.8971019e-01
 -1.1638424e-03
  4.5678779e-01
  4.3038589e-01
 -1.5937470e-01
 -2.1306514e-04
  1.1043028e+00
 -8.6420424e-02
 -2.0805180e-01
 -1.0025703e+00
 -9.3796217e-01
  1.2357442e+00
  6.6039461e-01
  3.0994180e-01
 -1.6810969e-03
 -6.9751543e-01
 -5.8026920e-04
  4.2653605e-01
  1.3217434e-01
 -1.2267421e-05
 -3.6081856e-01
  2.4450940e-04
 -8.3155802e-04
 -1.9793466e-05
 -2.0702388e-04
  1.0915437e-05
 -1.0654730e-04
 -1.5831736e-04
 -7.3934788e-01
 -6.7050750e-03
  1.8425933e-04
  4.1900927e-04
 -4.0303048e-01
 -3.0499142e-01
 -1.7996566e-04
  6.8574816e-05
  5.1233672e-02
 -5.4695141e-01
  2.4589816e-01
  1.1090695e+00
 -6.0879603e-02
  1.3114370e-01
 -7.0588045e-02
 -2.5472766e-01
  3.6977258e-01
 -1.8657740e-03
 -2.5799629e-01
 -1.1500340e+00
  1.2806227e-02
  3.5757621e-05
 -1.2636530e-01
 -6.4332105e-02
  3.2677504e-04
  2.5530031e-05
  1.3324626e-02
  1.3444188e+00
 -1.0461154e+00
 -6.0285925e-04
  6.6498846e-01
 -5.0674554e-02
 -7.9906829e-02
 -5.1226532e-01
 -3.6818348e-02
  3.9858140e-02
 -1.0505896e+00
 -8.1497234e-01
  2.3099454e-01
  1.6740035e-01
 -1.5126637e-03
 -4.9575604e-02
  1.1141750e-03
 -3.8032699e-01
 -4.6365032e-05
 -1.3593464e+00
 -3.4937987e-01
  1.2357619e-01
  1.6189295e-01
  1.7571461e-01
 -4.1768420e-02
 -1.1179339e-04
  2.8715672e-02
  1.8238133e-01
 -3.7054998e-01
 -3.7193105e-02
  1.0201699e+00
 -4.6423686e-01
  1.4185008e-01
  2.0159292e-01
 -1.7504506e-02
  9.7686881e-01
 -1.2977442e-04
 -8.0490227e-06
  2.9982755e-01
  1.3260285e+00
 -1.4667292e-04
  7.6868355e-06
  3.5804711e-05
 -3.7567979e-01
  6.9714111e-01
 -1.3133200e-04
 -4.9723538e-05
 -2.8610630e-05
  5.0733346e-05
 -2.3627767e-04
 -1.5609436e-05
  6.2023573e-05
 -1.2240258e-04
  1.7042704e-01
 -1.0663707e-04
  1.1180696e-04
  8.0039912e-01
  1.1386622e+00
 -1.3307234e-05
 -1.1038266e-05
  6.2435603e-05
 -4.2328183e-03
 -7.8764576e-01
 -5.7356613e-04
 -2.7596543e-05
  2.1741548e-01
  1.3840351e-01
  1.6454625e-05
 -7.0888709e-05
  1.6945365e-04
 -7.7301586e-01
 -1.0901706e+00
  7.7589961e-05
 -4.9765070e-04
  3.2678196e-01
  6.4318174e-01
  9.8457436e-05
 -4.6961111e-05
  1.3003434e-04
  1.4539024e-01
  1.0095967e-03
 -8.3729450e-04
  1.1507179e-04
  5.3880852e-01
  8.3762413e-01
 -5.0895575e-05
  1.0081692e-04
 -1.3356107e-05
 -1.3314657e+00
  7.3240347e-02
 -2.8672710e-06
 -2.4704388e-04
  1.1569887e-01
  3.5401005e-02
  3.2608202e-04
 -1.8956329e-06
  6.7421474e-04
 -4.8627222e-05
  2.4976392e-01
 -2.1720259e-04
  3.7670379e-05
  6.3295996e-01
  1.2560614e+00
  1.2741820e-04
  8.7874134e-05
  2.6351583e-04
 -4.5772481e-01
 -6.4803487e-01
 -7.8956154e-04
  7.4938427e-05
  6.3616395e-02
  1.0390436e-04
 -2.3694100e-05
  2.2439992e-04
  4.0177252e-02
 -7.8086871e-01
 -3.8019261e-01
  4.1516070e-04
  3.7140251e-04
  2.9141776e-02
 -1.2379437e-01
  1.4671548e-04
  8.2971349e-02
  2.3819824e-01
  5.3260195e-01
  7.4884129e-01
  1.1905707e-04
  1.5868394e-04
 -1.5562162e-01
  1.2259667e-05
 -2.5826224e-04
  9.1768845e-05
  4.5445384e-04
  1.3939599e-03
  1.1196109e-01
  8.5128559e-05
  7.5910495e-05
  7.6522148e-05
 -6.6170370e-04
 -1.4326068e-04
  3.4610775e-01
  3.8843751e-05
  3.0122456e-01
 -5.0511527e-01
  9.0371286e-05
 -7.7486504e-05
 -1.5644906e+00
 -4.9258232e-02
 -1.6993184e-04
  1.4495468e-01
  2.2401619e-01
  3.9075437e-01
 -7.0539463e-01
  1.3740818e-04
  6.9572788e-04
 -8.0141222e-01
 -3.9187671e-05
  8.5317013e-05
 -6.8492396e-04
  8.3180913e-04
 -4.9802742e-04
  3.8526523e-01
 -1.2407100e-04
  1.1756958e-05
  1.4222461e-01
 -5.5411253e-03
 -2.6214337e-05
  6.5307277e-01
  6.6166937e-01
  7.2649187e-01
  1.1861155e+00
  1.6469967e-04
 -7.7270503e-05
 -1.7733129e+00
 -1.4334649e-01
  2.0939411e-05
  2.0508386e-01
 -4.0335756e-02
 -2.4837610e-01
  1.8669094e-01
 -8.0847218e-05
  2.0215524e-04
 -1.3047732e+00
  3.5171580e-01
  1.6570602e-04
 -1.2581173e-03
 -2.1112333e-01
 -1.0979442e-01
 -1.3094432e+00
  4.9187605e-05
  2.5784022e-05
 -2.6433950e-04
 -9.4745332e-01
  1.5269229e-01
  1.0405701e-01
  7.0134771e-01
 -9.3171000e-04
 -1.7316358e-03
  3.2215721e-05
  3.6718713e-05
  6.3389539e-06
  1.3997457e-04
 -1.1057132e-01
  1.5835762e-01
 -7.7226901e-01
  1.0524222e+00
  2.9464245e-01
 -6.3299048e-01
 -2.2440539e-05
 -7.9333567e-04
  4.9288028e-06
  7.1457366e-06
  1.0207918e-04
 -5.1929444e-01
 -1.1148001e-04
  1.4084636e-01
  3.2343571e-05
  1.3620617e-04
 -5.3631895e-05
  2.4975876e-05
  1.3114228e+00
  3.0636236e-02
 -7.3907650e-01
  8.5242760e-01
 -1.2413521e+00
 -6.0434997e-01
 -7.0225974e-06
 -5.0874110e-05
  5.0872208e-05
  2.0651896e-01
  2.9225703e-03
 -1.9401063e+00
 -9.4488144e-01
  5.2673578e-02
 -1.1500956e-04
 -3.2704855e-05
 -1.6850903e-05
 -4.5389719e-05
 -2.2241911e-01
 -8.6143549e-04
 -8.0265480e-01
  1.1560521e+00
  3.8684702e-01
 -5.7678568e-01
  3.0737039e-05
  2.2831755e-05
 -8.8277724e-05
 -3.5616469e-01
  1.6007209e-01
  1.6014153e+00
 -6.9453239e-01
 -4.4911140e-01
  3.0614636e-04
  4.4281114e-05
 -3.7663674e-04
  1.6051250e-04
 -6.7108375e-01
  2.5428036e-01
  3.5542706e-01
  7.4155600e-06
  2.9386449e-01
 -4.7839004e-01
  2.5931411e-04
 -1.5450684e-04
  2.0332473e-04
  8.7902874e-02
 -3.3287033e-02
 -2.2058496e+00
 -6.2901743e-02
  1.3480333e+00
 -2.6296070e-04
  2.7904780e-05
  1.2185638e-04
 -1.9839485e-05
  6.5441400e-01
 -9.6339032e-02
 -1.0454892e+00
  9.1876948e-01
  6.5570360e-01
 -3.3711877e-01
 -1.6538226e-05
 -3.5221830e-01
  9.2844206e-01
  2.6098356e-01
  6.0694721e-02
 -4.7890493e-01
 -8.0737907e-01
 -6.7056507e-01
  5.5697607e-04
 -3.9497644e-04
 -4.0370791e-04
  2.4315153e-05
  5.0021068e-04
  1.1238584e-05
 -3.9383280e-01
  1.1681216e-04
  1.7974392e+00
 -1.5554235e-05
 -1.6210726e-04
 -3.3170012e-01
  8.0981123e-01
 -1.5317766e-05
 -7.1947114e-04
  3.7681457e-01
 -2.8727862e-01
 -2.3555284e-02
  3.6194022e-05
  8.8473877e-05
 -7.1264170e-03
 -1.1042840e-05
  4.3268287e-01
  1.4980909e-01
 -1.2606906e+00
  5.3287733e-01
 -8.1005260e-02
  1.2300305e-04
 -1.9961964e-04
 -7.9178855e-02
  6.0626745e-01
 -2.3587096e-01
  4.8734739e-02
 -1.4185870e-01
 -8.2779521e-01
  4.9696097e-01
  1.4276000e-03
  2.7334831e-05
 -2.7180949e-01
  1.1042755e-01
  1.5872428e-01
 -4.6126731e-03
 -5.7516509e-01
  5.8175385e-02
 -8.2269812e-01
 -4.1474981e-05
 -1.6128286e-04
 -2.1595038e-01
  3.4416771e-01
  8.6762346e-05
  7.9764009e-01
  7.2073823e-01
 -2.2253059e-01
 -3.1785470e-02
  9.9086992e-02
 -1.6714461e-05
 -1.2576249e-01
  3.3796677e-01
 -6.6720694e-02
  3.5081527e-01
 -8.4178716e-01
  7.2097772e-01
  1.3442308e+00
 -1.0412819e-03
  6.0722936e-04
  1.7880001e-04
  1.1290003e-01
  2.8597766e-01
 -2.0968309e-02
 -2.0375729e-01
  9.1610277e-01
  5.9768349e-01
  1.9086874e-01
 -4.4753302e-05
  3.0860316e-04
  7.4074151e-06
  1.3996096e-02
 -3.3005651e-02
  7.5968194e-01
  1.4891747e+00
 -2.1326309e-03
 -2.4539736e-04
  2.1148873e-04
  1.5556482e-04
 -5.7975907e-05
 -6.3018681e-04
 -5.1304285e-04
 -1.0358549e-01
  9.4565802e-04
  4.2282879e-02
  1.0979329e-05
 -1.7726238e-04
  6.1252395e-05
 -2.4389714e-05
  3.3654453e-04
  4.7802645e-01
  1.8132180e-01
  3.2496419e-02
  3.3615074e-01
  1.5886713e-05
  6.7944828e-05
 -7.3435600e-05
 -1.1505202e-04
  1.2833996e-01
 -6.8031782e-01
  8.6523896e-01
  1.4246476e+00
 -8.2989931e-01
 -1.6417451e-05
  4.5385586e-06
  5.1726496e-05
  3.2641430e-04
 -7.3570540e-05
  3.2922626e-01
 -8.7698513e-01
 -8.1668085e-01
 -5.9945130e-01
  4.4076785e-07
 -2.9896544e-05
 -4.7126032e-05
 -4.7571104e-04
  4.6667540e-01
  3.0661572e-02
 -1.2354970e-01
  1.2522435e+00
 -1.2700839e+00
 -3.4057503e-03
 -5.1951228e-04
 -5.8118399e-05
  2.7302822e-05
  4.5090652e-04
 -2.2246428e-01
  1.1455944e+00
 -4.9863669e-01
 -5.3529024e-01
  4.2950061e-05
  6.1172039e-05
 -3.5159526e-05
 -2.9149996e-05
  1.6376644e-04
  2.1944760e-01
  3.2183766e-01
 -3.3774081e-01
 -4.3514970e-01
 -4.0701713e-02
 -4.7731239e-05
 -4.1615738e-05
  5.1414281e-05
  2.6448429e-01
  2.7569707e-02
  7.5313769e-02
  1.3274887e+00
  4.7714046e-01
  6.9351913e-04
  7.6321043e-02
  7.6321043e-02
  7.6321043e-02
  7.6321043e-02
  7.6321043e-02
  1.5436670e-01
  1.5436670e-01
  1.5436670e-01
  1.5436670e-01
  1.5436670e-01
  5.3780839e-02
  5.3780839e-02
  5.3780839e-02
  5.3780839e-02
  5.3780839e-02
  3.7036084e-02
  3.7036084e-02
  3.7036084e-02
  3.7036084e-02
  3.7036084e-02
  2.3594406e-02
  2.3594406e-02
  2.3594406e-02
  2.3594406e-02
  2.3594406e-02
  5.0087042e-02
  5.0087042e-02
  5.0087042e-02
  5.0087042e-02
  5.0087042e-02
