nep4 3 Be Ge N 
cutoff 6 5 113 59
n_max 10 8
basis_size 10 8
l_max 4 2 1
ANN 50 0
  1.7923318e-01
  1.9308524e-01
 -2.2364016e-01
 -8.5467389e-03
  9.7833104e-02
  8.9384682e-02
  4.1021645e-02
  1.7751172e-02
 -2.5908183e-02
 -6.9409898e-03
 -7.8596979e-02
 -6.0879741e-02
  1.1371211e-01
  4.6161544e-03
 -2.7072776e-02
  3.0767567e-02
 -3.6094792e-02
  2.6497601e-02
 -5.2699771e-02
 -2.3553463e-02
  8.2196936e-02
 -2.3897713e-02
 -9.7092487e-02
 -7.2496459e-02
  8.1435870e-03
 -9.3933918e-02
  1.4834878e-02
  2.0550992e-02
 -4.1966431e-02
 -8.0686189e-02
  7.7573396e-03
 -2.0272823e-01
 -1.0439949e-01
  7.7199973e-03
 -7.6914266e-02
  5.6018606e-02
  8.9801271e-03
  4.0353764e-02
  4.3452499e-03
  8.1431635e-02
 -4.4261705e-02
  2.3761511e-02
  8.6399838e-02
 -7.1323384e-03
  1.6208494e-01
  4.5182836e-01
  3.6425725e-02
  2.4459970e-01
 -1.3760625e-02
 -3.3683535e-01
 -2.2148704e-02
  1.6619129e-02
  1.3460090e-02
 -3.1349044e-02
  6.9872484e-02
  7.0180498e-02
  3.5106231e-02
  1.0221983e-02
  1.6491828e-02
  6.5419711e-02
 -4.9603533e-04
 -1.9089805e-02
 -2.6913364e-03
  8.0653332e-02
  1.8169934e-01
 -7.5965261e-01
  1.5837784e+00
  1.9355558e-02
 -5.3802669e-01
  1.2020026e+00
  3.5405093e-01
  3.0264908e-01
  6.1526358e-02
 -9.8034300e-02
  1.3494268e-01
 -2.0912881e-01
  2.5013882e-01
 -6.0960305e-01
  1.1269924e-01
  1.0575968e-01
  5.3593546e-02
  1.7517652e-02
 -8.7903492e-02
 -1.0137475e-01
 -1.6598558e-01
  2.7538180e-01
 -1.2381826e-01
  7.7349029e-02
  2.2139227e-02
 -1.6090868e-01
  2.3644765e-01
  9.9351127e-03
  4.5865312e-01
  1.8985344e-01
 -4.9335748e-02
  9.9150646e-01
 -7.8838587e-02
  9.9447501e-01
 -4.6932486e-01
 -1.0696585e-01
  4.3730140e-01
  2.9991612e-01
 -3.0266020e-01
 -4.3556925e-02
 -3.3278782e-02
 -8.4793895e-02
  2.5557119e-01
  1.5959212e-01
 -6.1286229e-01
  2.1925771e-01
  6.1712891e-01
  5.7237744e-02
  6.7550845e-02
 -5.8370668e-02
 -1.2683327e-01
  2.0679727e-02
  4.0311348e-02
  9.1485903e-02
  9.1908246e-02
 -7.8596391e-02
 -2.1754527e-03
 -1.1774152e-01
  1.7477106e-02
 -3.3712774e-03
 -7.3526904e-02
 -1.7998649e-02
 -1.5460626e-02
 -5.5793345e-02
 -2.4050955e-01
 -2.7674673e-02
 -1.0929119e-01
 -5.9582537e-01
  2.6525053e-01
 -6.6302747e-02
  2.8496307e-01
 -2.5711560e-03
  1.3262550e+00
  2.3871008e-02
 -7.9521472e-03
 -1.9020079e-01
  1.2671078e+00
 -1.3258095e-01
 -2.5934912e-02
  1.9416789e-02
  1.0254730e+00
 -1.9933362e-02
  3.3365596e-02
 -8.5800871e-02
 -3.8438588e-02
 -5.7797581e-02
 -2.2101477e-02
  1.2829074e-02
  7.3977813e-02
  3.4766760e-02
 -4.0263920e-03
  1.1730596e-02
  6.8132961e-03
 -1.0328161e-02
  6.5526878e-03
 -8.3996341e-02
 -1.4283182e-01
  6.9977798e-02
 -4.0188659e-02
 -6.9347762e-02
  5.5273421e-02
  1.3719189e-02
  3.2675260e-01
  1.5211766e-02
  8.2811117e-03
 -5.3515285e-02
  2.0262733e-02
 -8.8209547e-02
 -4.9125776e-02
  7.0643142e-02
 -1.8722247e-02
  2.6628233e-02
 -7.3217653e-02
 -6.2736869e-02
  2.7328083e-02
  2.2764729e-02
  1.2078550e-01
 -2.9196577e-02
 -1.0826635e-03
 -1.2625195e-02
  2.6455738e-02
  4.3018226e-02
 -1.3810207e-01
  4.0799314e-03
  1.6241610e-02
  1.0296229e-02
  3.6885922e-03
 -5.8090799e-02
  4.5717277e-02
  5.5067871e-02
 -2.1520136e-02
 -5.1914239e-01
  3.3496488e-02
  1.1009050e-01
 -1.0207174e-02
  1.4629361e-01
 -4.0751150e-01
  8.6595225e-01
  1.5681125e-01
  6.0090661e-02
  5.2986789e-01
 -4.3142576e-02
 -4.2254120e-02
  2.2661353e-02
 -1.3759195e-02
 -4.1576750e-03
 -1.3351227e-01
  5.9111551e-03
 -1.0083320e-01
  8.9606009e-03
 -5.4456964e-02
  2.5580745e-02
 -7.0651812e-03
  3.5822228e-02
 -4.3863326e-02
 -3.2263458e-02
  1.6509816e-02
  1.0936175e-01
  5.1710182e-01
 -2.4912309e-02
 -2.5366871e-02
 -5.4241065e-02
  2.7271232e-03
  1.3803305e-01
 -5.9060045e-02
 -4.7968026e-02
 -2.7362630e-02
 -3.6013357e-02
 -9.0624727e-02
  1.9172989e-01
  2.2416549e-02
 -3.0647555e-02
  3.9141409e-02
  5.4344689e-03
  7.6925401e-03
 -1.8068377e-02
 -2.1579541e-02
 -1.5451980e-02
 -1.4063729e-03
 -3.8434695e-02
  2.8096417e-02
 -7.7870488e-02
  3.0482929e-02
  6.1278630e-02
  2.7135534e-02
 -4.5613600e-03
  7.5455667e-03
 -3.7348211e-02
  2.8397487e-02
  6.9280684e-02
 -1.6561491e-02
 -8.9227438e-02
  1.6851958e-02
 -7.5720131e-02
  1.4012611e-01
  8.0560364e-02
 -7.3731816e-01
  9.3294972e-01
 -4.6452978e-01
  9.7376049e-01
 -1.1887459e+00
 -8.2649952e-01
  1.8698241e+00
 -1.1407357e+00
 -8.3483964e-01
 -1.2592444e+00
 -8.8237774e-01
  9.1778927e-02
  4.2893082e-01
  6.8153167e-01
 -1.7764322e-01
  4.4287473e-01
  2.7227381e-03
  5.7908720e-01
 -1.7189275e-02
  9.8100775e-01
  9.0870403e-02
 -3.0115041e-01
  8.7642692e-02
  3.7095007e-02
  4.1574561e-03
  1.2108736e-01
 -2.1292667e-01
  2.2809869e-01
 -1.8804798e-01
 -6.9260299e-02
  6.7676227e-03
  9.3257148e-03
  2.8077643e-02
 -1.7973985e-01
 -6.8298131e-02
 -2.4564293e-01
 -8.8413775e-01
  4.4423010e-02
  2.0725358e-02
 -2.0193239e-01
 -5.1272355e-02
 -2.1182391e-01
  5.9448616e-03
  3.4009051e-02
 -5.7356022e-03
 -2.9894808e-01
 -2.8875126e-03
 -9.0278536e-03
 -2.8425990e-02
 -1.1530821e-01
 -8.8888749e-02
  1.9195747e-01
  6.6816360e-02
 -1.3375543e-02
  3.0921337e-01
 -6.0067013e-02
  1.3067436e-01
  5.2382145e-03
  5.8155891e-02
  3.7213910e-01
  1.3415672e-02
  2.4678096e-02
 -8.5619837e-03
  2.3068814e-01
 -4.1015781e-02
 -1.1065180e-02
 -6.3650452e-02
 -2.3782524e-01
  6.4298157e-03
  3.5755049e-02
 -7.4875122e-03
 -3.7228547e-02
  2.3760036e-02
  6.1952308e-02
  6.4366893e-03
  9.5257116e-03
  7.0381284e-02
  8.3240509e-01
 -1.2909491e-01
  7.8814765e-03
  4.4205707e-02
  3.4885753e-02
  5.1736828e-02
  2.6663134e-01
  3.2386582e-03
  1.7744382e-01
 -1.0403302e-01
  1.8122595e-02
  5.0587766e-02
  1.5039511e-01
 -9.9099122e-02
 -1.0289437e-01
  1.0208339e-02
 -1.1494762e+00
  7.4513637e-02
 -4.4449929e-02
 -1.7761560e-02
  1.0445726e-01
  5.7668179e-02
  3.5067067e-02
  1.2026661e-03
  2.8826561e-02
  4.9036765e-03
  7.7654220e-02
  3.8040492e-03
  4.8528299e-02
 -1.2118183e-01
  3.0225694e-02
  1.7395735e-02
 -3.4821592e-03
  5.9303985e-04
 -7.2634792e-01
  5.5515829e-02
  5.2395579e-03
  1.3757843e-03
 -4.5700978e-02
 -2.5077772e-03
 -2.5599418e-02
 -2.5577068e-03
  6.4761229e-03
  6.3870815e-03
 -2.6121333e-02
  9.9478804e-02
 -1.2655683e-01
  1.8190455e-02
 -8.3334483e-03
  6.3507289e-02
  7.2451219e-02
  3.8324706e-02
  3.5838634e-02
  1.5319109e-01
 -4.7277030e-02
  5.4089099e-01
 -3.1921148e-01
 -3.5230815e-02
  1.5908296e-01
  7.9156868e-02
  3.6881101e-01
  6.9370127e-04
  3.0868664e-01
 -1.2027080e-01
 -1.0388747e-01
 -1.0870583e-01
  5.8629755e-02
  7.8039631e-02
 -2.3847485e-03
 -3.7664484e-02
 -4.1418392e-02
 -1.1118058e-02
  5.7148557e-02
 -1.6568911e+00
  2.0350711e-03
  1.0129017e-01
  4.5021571e-02
 -1.1153897e-02
 -2.2165727e-02
 -6.7335679e-03
 -1.1327942e-01
  5.9325054e-02
  5.3508200e-02
 -8.3255246e-02
 -3.2875095e-02
 -2.8654551e-02
  3.0189091e-03
 -3.4548121e-03
 -5.2743834e-02
 -5.4522537e-02
  2.8948579e-03
 -1.6996214e-01
  3.5991900e-02
  1.6972445e-02
 -1.1737410e-02
  2.8573614e-02
 -1.4758752e-02
 -1.9136819e+00
 -1.8888234e-01
  1.0663234e-01
  1.9680139e-02
 -1.0947875e-02
  2.1894330e-02
  7.4805170e-01
  3.7065398e-02
  2.2484876e-02
  2.2828883e-02
  1.2968741e-01
 -9.6029013e-02
 -1.2305544e-01
  3.2784052e-02
 -3.2684252e-01
 -6.8867289e-02
 -3.0488649e-03
  7.1345423e-03
  2.0565519e-03
 -1.4053102e-02
  1.1860943e-02
 -4.8854053e-01
  2.0809731e-01
 -7.1661003e-02
  1.0193696e-02
  8.5365742e-02
  1.6530083e-01
 -7.5583212e-02
  5.7854021e-01
  3.9808203e-02
  8.2061052e-01
  4.1831824e-01
  2.0305647e-02
 -1.5416148e-02
 -1.8927795e-01
 -7.3178172e-02
  6.6994116e-02
 -1.1105133e-02
  6.7875272e-01
  6.2394971e-03
 -2.4644487e-01
  1.4316685e-01
  2.2035193e-02
 -3.0208498e-03
  1.9869242e-02
  3.5899468e-02
  9.8711913e-03
 -1.0578222e-02
  1.4053114e-01
 -1.8351151e-02
  1.4473221e-01
  9.0347994e-03
  1.2001766e-01
  1.1529963e-02
  7.3645219e-02
 -2.4133094e-03
  1.8508209e-02
  1.9133244e+00
  8.1953742e-03
 -3.7771303e-02
  4.4805568e-02
 -1.3154205e-02
 -8.2410067e-02
 -4.1076999e-02
  8.0799058e-02
  4.1296508e-02
  1.2983730e-01
 -5.1141470e-03
  4.9337666e-02
 -5.7145375e-01
  5.4484673e-02
 -6.2222928e-02
  2.2448268e-02
 -2.7653053e-02
 -2.3636464e-02
  3.1023806e-02
 -2.5476916e-03
  8.9483783e-03
 -1.0205446e-03
 -1.1582842e-02
 -3.8444293e-03
 -1.1727500e-01
 -1.2866404e-03
  1.8198034e-02
  5.0009560e-02
  8.9781340e-03
  1.6108621e-03
  8.5078436e-01
 -1.7883724e-02
  2.1014478e+00
 -1.5746627e+00
  1.2066203e+00
  1.9515850e-01
 -3.6987096e-01
  2.9398066e-01
  1.1516212e-01
  7.6576132e-01
  1.1975697e+00
 -3.1266755e-01
  6.9848990e-01
  2.4518485e-01
 -5.7028532e-01
  6.8009019e-01
  2.6477531e-01
 -3.1590089e-02
  1.9298455e-01
  2.7768037e-01
  9.8038286e-01
  9.9765605e-01
 -7.2802198e-01
 -2.2721708e+00
  2.3663712e-01
  6.6451961e-03
  1.5268601e+00
 -7.0050031e-02
  6.2821764e-01
 -1.4498615e+00
 -2.5854336e-02
 -2.0757094e-01
  1.6231749e+00
  5.9426177e-02
 -2.4401772e-01
 -5.1225311e-01
 -3.6706424e-01
 -9.9051267e-01
 -2.3585138e+00
  3.1181228e+00
 -1.5782235e+00
  1.4548001e-01
  1.6050473e+00
  1.4149423e+00
 -6.5246195e-01
  1.3869950e-01
  7.3127195e-02
  6.4195253e-02
  2.8367604e-03
 -4.1345865e-01
  3.3029947e-02
  1.0570569e-03
 -3.0821961e-01
  3.1421936e-01
 -7.7975370e-02
 -7.4338150e-01
  2.8601137e-01
  1.0933437e-01
  5.1135519e-03
  1.3974655e-01
 -8.8229060e-02
 -9.2190219e-04
  9.7481646e-02
  2.3097087e-01
 -1.7029133e-02
  3.8545167e-01
 -5.8766477e-02
 -1.3004857e+00
  3.9740998e-02
 -1.2610523e-02
  2.9078461e-02
  1.8912497e+00
  3.0579105e-02
 -8.1556424e-02
 -2.8522300e-02
 -3.5418652e-02
  1.0456172e-01
 -2.2774806e-02
  2.4010812e-01
 -3.4465605e-01
  4.7295587e-03
 -5.0412089e-02
 -1.8087472e-01
 -9.7957544e-02
 -5.4070890e-01
 -4.0278107e-01
 -1.1362269e-02
 -2.8204711e-02
 -6.2518221e-01
  8.4311021e-03
 -3.3984706e-01
 -3.2056034e-02
 -3.0946168e-01
  2.9826546e-01
 -5.7192903e-02
  1.2478016e-01
 -2.2947811e-01
 -7.7373616e-02
 -3.1703226e-02
 -1.2848539e-02
 -7.6824859e-02
  4.2971529e-02
 -3.6875904e-02
 -5.2101915e-03
 -3.0268257e-02
  1.4013404e-03
  3.1428091e-02
 -1.3034473e-01
  6.4409510e-03
 -4.3240795e-01
  1.5862158e-02
 -3.3893126e-01
 -7.6338403e-02
  9.9988384e-03
 -3.4903340e-02
  1.2280923e-01
 -2.8863184e-02
 -1.0043467e-01
  1.5441462e-01
 -9.1052651e-03
  1.3558098e-02
 -2.1154169e-02
  1.6328262e-01
  3.2100931e-02
  2.8470601e-03
  1.5671106e-02
  5.6477699e-02
  3.2304689e-02
  2.8699607e-02
  1.6904620e-02
 -1.3060611e-01
  1.3143678e-01
  1.4113986e-02
 -8.7680466e-02
 -1.9075081e-01
  3.2828867e-01
  1.1244580e-02
 -5.7026658e-02
  2.3335800e-02
  4.0313196e-01
 -6.6778791e-01
  7.9221144e-02
  6.1967917e-02
  1.5613082e-02
  7.6815151e-02
  1.9774046e-02
 -6.1416853e-02
  1.1391117e-01
  6.3340150e-02
  8.9623265e-02
 -1.0651211e-01
  5.0047070e-02
 -5.5974334e-02
  3.2211545e-01
 -7.3768057e-02
 -1.9567391e-02
  4.4929598e-02
  1.6307442e-02
  8.4438920e-02
  5.3672951e-02
  1.6108427e-02
  1.0301969e-03
 -8.8693701e-02
  2.9098248e-01
 -1.1725647e-01
  3.8419489e-02
  7.5428896e-02
 -6.3594043e-02
 -1.7103606e-01
 -7.1598470e-02
 -2.1660689e-02
 -5.3478656e-03
 -4.6752803e-02
 -2.3069787e-03
  1.0715404e-01
  3.9609972e-02
  4.1242145e-02
  3.4091029e-02
  7.9078563e-02
 -4.8939276e-02
  9.9886870e-03
  4.6830787e-03
  5.6673005e-02
 -3.2463407e-03
 -1.3445757e-01
  1.9167090e-02
  7.3792869e-03
 -1.5867608e-02
 -1.2351033e-02
 -8.4672263e-03
  1.0396853e-01
  1.3619046e-01
 -1.3528292e-01
 -1.4795034e-02
  9.5982306e-02
 -1.8047912e-01
 -2.3955357e-01
  8.8383161e-02
 -3.2006621e-02
 -4.4590631e-01
 -2.0581929e-01
  1.5258576e+00
  4.0009451e-01
 -1.3941780e-01
  2.5006655e-01
  6.3468307e-02
  1.0235768e-01
  1.7895082e-02
 -1.9866467e-01
  5.6859607e-01
 -2.8748974e-02
  8.2956098e-02
  1.3930452e-01
  4.5449662e-01
 -5.1278237e-02
 -1.5700887e-01
  5.7471931e-02
  3.9482914e-02
 -1.4947531e-01
  3.5024665e-02
  6.2574088e-03
 -4.0867379e-01
  1.6377013e-02
  2.9264694e-01
 -1.4685823e-01
  5.7479583e-02
  8.7636225e-02
 -1.7544854e-01
 -2.4006623e-04
 -8.1956989e-01
 -1.7146262e+00
  5.9822435e-03
  1.0015590e-01
 -4.7705895e-01
  5.2990016e-02
 -3.1986657e-01
  6.6861518e-02
 -1.7772451e-01
  4.0819388e-02
 -7.7906275e-01
  7.6650046e-02
  1.1389417e-01
  1.6370706e-02
 -6.3895985e-02
  2.1571137e-03
 -4.6142437e-02
  3.4526570e-03
  1.0891382e-03
  4.4248247e-01
 -1.6541156e+00
 -1.4142782e-02
 -3.6663678e-02
  7.8466952e-02
 -1.2196529e-03
 -7.1896356e-01
 -1.8814729e-03
  1.4151236e-02
 -1.0017240e+00
 -7.4453562e-02
  6.9901175e-03
 -7.8165866e-03
 -6.3703334e-01
  7.7748704e-03
 -1.5871761e-02
  1.1298512e-01
 -1.5362522e-01
  2.3341045e-02
 -1.4916371e+00
 -1.3570674e-01
  2.9893210e-02
 -3.9910924e-02
  2.7879950e-02
 -4.2772330e-02
 -5.7358403e-02
 -4.2164564e-02
  2.5303630e-02
  1.4099182e-01
 -2.5725832e-02
 -1.3856734e-01
 -3.6220897e-03
 -4.4817901e-03
  1.8087339e-02
  7.1543328e-02
 -1.2091726e-02
 -4.9676649e-02
  7.4841110e-03
  8.3709415e-03
 -1.6641544e+00
 -9.2581958e-02
 -4.2827103e-02
 -1.0217506e-01
  5.2406443e-03
  1.1606311e-01
 -5.6201994e-02
 -2.7244536e-02
 -7.5991522e-03
 -1.5962194e-01
 -2.5731014e-02
  4.0253058e-02
  4.3721384e-04
  3.9929368e-02
  8.7505922e-02
 -3.1675698e-04
 -1.3313494e-03
  2.8829964e-02
  1.9691961e-02
  3.6758548e-03
 -1.0995957e+00
  3.5263218e-02
  6.4077750e-03
 -1.4380192e-02
 -3.4969438e-02
 -1.1118546e-02
  1.5828042e-01
 -1.7220199e-02
  1.0623128e-02
 -7.5573348e-02
 -2.9909724e-01
  4.2200193e-02
  1.4662170e-01
 -2.1697441e-02
  2.6987486e-02
  1.0584357e-02
  3.9560799e-02
 -5.4231543e-02
 -3.4340139e-02
  1.7446855e-01
 -1.0675631e-01
 -6.6777796e-02
  2.7185303e-01
 -2.6894030e-03
 -2.9289316e-02
 -9.7388932e-03
 -9.4121858e-02
 -3.2366316e-03
 -1.1696038e+00
  3.4438659e-02
  9.4364905e-01
  1.0723837e-02
 -1.4866954e-02
 -1.4230354e-02
  5.7536792e-02
  6.9425099e-02
  4.9322687e-02
  8.3578840e-02
  3.1948261e-02
 -3.1629256e-03
  1.2315025e-01
 -2.6090674e-03
  2.2786498e-02
 -5.0158999e-03
  2.5772110e-01
  1.4438015e-01
  7.9778209e-03
 -2.2766159e-01
  5.1849388e-02
 -4.2934265e-02
  5.1624873e-03
 -1.5523742e-01
 -1.8969353e-01
 -2.5389826e-02
  6.8392693e-03
  2.1761851e-02
  2.1170491e-02
  9.8884158e-02
  9.5886206e-03
  9.8146684e-04
 -5.0376009e-02
 -3.6129955e-02
  4.8387866e-03
 -5.0601476e-01
  1.5746513e-02
 -1.2008955e-01
 -2.9694753e-02
 -6.1185807e-02
  2.0100752e-02
  1.4753761e-02
  1.2926851e-01
 -3.5676237e-03
  9.1583200e-02
  4.7452811e-02
 -2.1475762e-02
 -9.6525475e-03
 -1.7704723e-02
 -1.8489482e-01
  1.1884103e-02
  4.3758303e-02
 -3.1978483e-03
 -1.3836543e-01
 -1.3277632e+00
 -3.4640300e-01
  5.2060288e-01
  7.8794992e-01
 -6.5343451e-01
 -2.1286029e-01
  1.2200700e-01
 -6.3299692e-01
 -1.1951592e+00
  5.1191074e-01
 -1.5091298e+00
 -4.9340028e-01
  3.8368251e-02
  9.6645802e-01
  4.6519816e-01
  2.1569684e-01
 -4.6368653e-01
  3.8709533e-01
 -2.5596276e-01
  6.3333952e-01
  8.3826309e-01
 -1.5470763e-02
 -1.0997937e-01
  3.9946309e-01
  5.1289707e-01
 -5.2757502e-02
 -1.0459141e-01
 -6.9572484e-01
  6.6472471e-01
  2.9003804e+00
 -2.3521489e-02
 -6.8665934e-01
 -1.0215782e-02
 -9.4647497e-01
 -6.4382786e-01
 -1.2431744e+00
 -5.6059122e-01
  4.1778633e-01
  7.6262885e-01
 -4.8322788e-01
 -8.5556787e-01
 -8.2752359e-01
 -4.8017547e-01
 -1.4330298e+00
  1.2921422e+00
 -1.3031973e-01
 -2.1714330e-02
  4.1583698e-02
 -3.0020583e-01
 -2.1910970e-01
  5.1605684e-01
  7.0523435e-01
 -9.9465437e-03
 -1.6701035e-01
 -9.2321587e-01
 -1.3070884e-02
  1.8892033e-01
  9.6331676e-03
  5.4475132e-02
 -1.0595334e+00
  2.1652456e-01
 -1.4095913e-01
  4.0650934e-02
  1.8928172e-02
 -3.9132488e-01
 -4.4503465e-02
 -1.0846264e-02
  5.8158357e-02
 -1.0418845e-01
  4.9432043e-02
 -1.5434511e-02
  1.2902814e-01
 -1.5922599e-02
  9.3918582e-03
  2.5245014e-03
 -1.4628978e+00
 -2.8259195e-02
  2.9397855e-02
 -5.1897522e-02
 -5.3047199e-02
 -4.4736765e-02
  7.4594386e-02
  9.5340870e-02
  6.7660719e-02
 -8.3326064e-03
 -4.1225731e-02
  2.5403785e-02
  2.4419865e-02
 -7.9631761e-02
  1.9274522e-02
 -1.5525628e-02
  1.9374847e-02
  7.2816998e-02
  7.1950421e-02
  2.1641465e-02
  3.0274920e-02
 -6.8604890e-03
 -1.5640456e-02
  2.7013367e-02
  8.7397732e-03
 -4.9795263e-02
  2.2077584e-01
 -7.0552669e-02
 -4.0789703e-03
  2.5766488e-02
 -4.7358108e-01
 -5.1685110e-02
 -1.2935768e-01
  1.9086076e-02
 -5.1043462e-02
 -1.0671948e-01
 -1.3022124e-02
  2.0355791e-01
  7.6870467e-03
 -2.3721266e-03
  1.9702029e-01
  7.8796111e-02
 -5.7192873e-03
  6.1093620e-03
  1.5273659e-02
 -5.4972146e-02
 -1.9899521e-02
  7.5824358e-02
 -9.7846217e-02
 -7.2751351e-02
 -3.6662795e-02
 -4.3278623e-02
 -2.6484996e-02
 -1.7571954e-01
  2.6039196e-02
  3.8689068e-01
  3.7956279e-02
 -2.7048728e-01
 -1.2946695e-02
  2.2687536e-02
  4.5052309e-02
  6.7318529e-02
 -1.1444572e-01
 -6.7633383e-02
 -2.6275036e-01
 -8.1395142e-02
 -1.9235237e-02
  8.7355105e-03
  8.8761501e-02
 -9.3364969e-02
  5.3714192e-03
  3.5655122e-02
 -1.6682404e-01
 -5.1562015e-02
  1.8952432e-01
  8.2756495e-03
  2.6378102e+00
 -3.3089720e-02
  8.3549097e-02
 -1.6556354e-01
  7.9558998e-02
 -1.0261583e-01
 -4.5270706e-03
  3.4027219e-02
 -8.3853051e-02
 -2.1950401e-02
 -4.8224252e-02
  1.4446957e-02
 -1.5488790e-01
 -7.9095550e-02
  1.1325902e-02
 -3.4830213e-02
  5.9173867e-02
 -5.6034047e-02
  2.5624230e-03
 -4.0684393e-04
 -1.0756224e-02
  1.8252325e-03
 -4.3930397e-03
 -1.0867614e-02
 -1.6245574e-02
  1.3774526e-02
 -2.9104587e-02
  1.6492824e-01
  1.2909855e-01
  3.5368572e-03
  4.2974517e-02
 -2.1814631e-02
 -1.1588119e-02
  1.2352277e-02
 -3.1422209e-02
 -2.0777633e-02
 -4.0491249e-02
  9.4732260e-03
  3.3894982e-02
 -6.3496277e-02
 -2.1358345e-02
 -2.5049547e-02
 -1.0499032e-01
  1.5398365e-01
  6.5009631e-02
 -3.6790121e-02
  2.1343213e-02
  9.3694516e-03
  7.7359110e-02
  4.5556206e-02
 -2.3743143e-02
 -3.3033065e-02
 -5.4739252e-02
 -2.2629459e-01
  4.5432127e-03
 -5.8643986e-02
  9.3246847e-03
 -2.3905795e-02
 -6.2428299e-02
 -5.0014958e-02
 -4.0986565e-01
 -1.9405013e-02
 -4.4341595e-03
  9.8234549e-02
  3.4157231e+00
  3.0435916e-02
  1.2548515e-01
  7.9491828e-03
  2.4020414e-01
 -8.4019024e-03
 -3.2278036e-03
 -3.2241438e-03
 -9.5753253e-02
 -6.4379409e-02
 -1.1396897e-02
 -4.2643651e-02
 -1.8408947e-02
 -3.2275051e-02
 -1.4638759e-01
 -1.1056781e-01
 -5.2597683e-02
  1.9104626e-02
 -4.2152140e-02
  9.2316307e-03
 -6.6553270e-03
  3.5686985e-02
  9.7293623e-02
 -1.6174834e-02
 -1.0626118e-02
 -2.1272671e-04
  1.9518629e-02
  5.5848123e-03
  3.2105461e-02
  6.9692865e-02
  1.7635727e-01
 -1.6378863e-02
  2.5433579e-02
  9.5633119e-03
  2.1919904e-02
  9.1919294e-03
 -5.4716352e-02
  6.3624363e-03
 -4.6919389e-03
 -6.0828954e-02
 -9.6328139e-02
  4.1955043e-02
 -1.4632848e-02
  1.9487407e-02
  1.8744556e-02
 -6.5880805e-01
 -2.2259353e-01
 -5.8638871e-01
  9.6329473e-02
  2.0908038e-01
  6.1190987e-01
 -4.0932313e-02
 -9.2540228e-01
 -2.5974882e-01
 -1.4585900e-01
  3.3034721e-01
  3.2400429e-01
  1.7005593e-01
 -2.7349025e-01
  7.1319222e-01
  1.3008265e-01
  2.1490662e-01
  5.0904793e-01
 -2.1280369e-02
  5.7671137e-02
  8.2056280e-03
 -2.5389078e-01
  2.0509550e-01
  3.3177131e-01
  1.6611670e-01
  3.5713896e-02
  2.8359878e-01
  9.6013471e-03
 -9.8699975e-01
 -6.9425136e-01
  1.1309745e+00
 -3.9616499e-02
 -4.4018629e-01
  8.1109390e-02
  1.0214754e+00
 -2.5903061e-01
  4.8239484e-01
 -6.1093338e-02
 -8.4621793e-01
 -3.9080551e-01
  7.1750683e-01
 -5.3823769e-02
  5.1311757e-02
  8.2812637e-02
  3.9098951e-01
 -1.1034263e+00
  2.9015138e+00
 -3.2403970e-01
 -6.7735381e-02
 -5.5171009e-03
  1.3205132e-02
  1.4938667e-01
  4.8222408e-02
 -3.1868700e-02
  1.9040288e-02
 -1.7809799e-02
  1.5995649e-01
  3.3598430e-02
 -2.5518134e-04
  2.5767148e-01
  2.5820299e-03
 -5.1502980e-02
  7.9933935e-01
 -1.6766171e-01
  1.3156598e-02
  1.3500973e-02
  1.0961757e-01
 -3.0625388e-01
  3.1714950e-02
  1.5184349e-01
 -4.3132469e-02
 -2.1986863e-01
 -2.2991051e-01
  1.9882742e-02
 -2.0655165e-03
  4.2575225e-02
  6.6350132e-02
  4.0190839e-03
  9.0008765e-02
  7.2990969e-02
 -2.5935672e-02
 -1.2071365e-01
  1.1837669e-01
 -7.2399201e-03
  2.4734765e-02
  9.9317078e-03
  2.8741093e-02
 -8.2507730e-03
  3.4263663e-02
 -6.1401449e-02
 -1.6938066e-02
  2.6079586e-02
  2.9341988e-02
  2.1922417e-02
  3.1038020e-02
  9.0463310e-03
 -1.0335425e-01
  8.4966600e-02
  1.0913179e-02
 -2.8593007e-02
 -7.8543127e-03
  7.6392815e-02
 -1.6230002e-02
 -2.7523242e-02
  3.4483723e-02
 -1.1636111e-01
 -1.1135226e-02
  2.5263302e-02
 -4.0822025e-02
  7.0014410e-02
 -3.0986108e-02
  1.0805903e-01
  9.7633436e-02
 -1.1405323e-02
  6.3011616e-02
  4.5608636e-02
 -4.5987085e-02
  2.4671473e-02
  4.9914122e-02
 -6.7016231e-03
 -2.0609517e-02
  1.2526426e-01
 -4.2078409e-02
  3.1525277e-02
  1.4294858e-02
  1.7372081e-01
  1.3388911e-01
  3.7041459e-02
  5.0876144e-02
 -6.9572151e-02
  3.4239945e-01
  4.3927640e-02
 -9.1745548e-02
 -5.9707358e-02
 -2.0477740e-01
  2.8914449e-01
 -1.0301664e-01
  3.6216740e-02
 -7.8398492e-03
 -1.8402292e-01
  2.3590934e-01
 -3.1326558e-02
 -6.4763151e-02
 -1.0832076e-01
  1.1025673e+00
  4.3705840e-02
 -9.1903005e-03
  1.5239202e-02
  1.9691476e-01
  2.3035833e-01
 -8.6311325e-03
 -5.1093930e-01
  1.9968461e-02
 -9.9513065e-03
  1.1237290e+00
  7.1653284e-02
 -2.8469793e-02
 -2.6199722e-01
 -2.1515571e-02
  7.2954195e-03
 -8.3063236e-03
 -8.3649255e-02
 -4.9127708e-03
  8.7434687e-03
 -8.4245898e-02
  3.7894588e-02
  1.8678340e-01
 -4.1646967e-03
  1.8518833e-03
  4.6182848e-03
 -4.4310677e-01
 -7.9000220e-06
 -3.3609308e-02
 -5.8139380e-02
 -2.7210757e-03
  2.6470371e-02
 -2.1630850e-02
 -1.2277966e+00
 -2.0586760e-01
  3.6356229e-02
  2.1865947e-02
 -2.1076863e-01
 -7.7974297e-02
  5.4590467e-02
  2.3531804e-02
  3.4049999e-02
 -3.2284301e-02
 -9.9402145e-02
  1.1161555e-01
  7.7142455e-02
  1.0029799e-01
  2.5837241e-02
  7.7164814e-02
 -2.2788916e-03
 -1.9787811e-02
 -7.8257956e-03
  7.0766449e-02
  2.9697153e-01
 -3.1926434e-02
 -2.7794760e-01
  1.2209128e-02
  3.9968370e-03
  3.4248680e-01
  1.0778794e-01
  1.1293155e-01
  5.3759232e-02
 -3.5202984e-02
 -2.6225273e-02
 -5.4349095e-02
  7.9558911e-03
 -8.1877135e-02
  2.0798014e-02
 -2.9492986e-01
  8.2033046e-02
 -8.3072059e-02
 -2.4957860e-02
  3.0824305e-02
 -3.8294658e-02
 -2.4388790e-02
 -1.4535761e-01
 -1.3033452e-02
 -9.6512772e-02
 -2.7379671e-01
  9.3564354e-03
 -1.0969144e-01
 -1.5083283e-01
 -3.6212172e-02
  2.2256961e-02
  1.7781950e-03
  1.7914328e-01
  1.2116550e-01
  1.0389104e-01
  4.9528793e-02
 -2.1080353e+00
 -1.6596979e-02
 -6.3613486e-03
 -3.4854691e-02
 -2.3790060e-01
 -2.1110676e-01
  8.3480263e-03
  2.7400704e-02
  4.6594996e-02
  4.5108995e-03
 -1.1580737e-02
 -2.4259795e-02
  2.5127518e-01
  1.4675872e-01
  7.4503317e-02
  2.1103239e-02
  1.0471000e-01
  2.0973910e-02
  2.0858902e-02
  4.3566637e-02
 -2.3828328e-01
  6.1154619e-02
 -8.8606551e-03
 -3.2076247e-02
 -1.7081887e-02
 -4.2566784e-02
 -4.4605322e-02
 -6.5133415e-02
 -6.1127043e-01
 -6.1199802e-01
  2.1433562e-02
 -3.6188763e-02
  1.6365981e-02
 -7.3912810e-03
 -3.0837052e-02
 -1.8523339e-02
  2.4782815e+00
  5.1939346e-02
 -5.0453257e-02
  7.2696602e-01
  2.5952507e-02
 -8.1828550e-02
  5.2163642e-02
 -3.1009592e-02
  1.8794745e-02
 -2.3112673e-02
 -3.6671571e-02
  5.5514975e-03
  3.7325669e-02
 -1.3051460e-02
  8.4953502e-02
  6.5583354e-03
  1.0253823e-01
 -5.6115318e-02
 -5.6950110e-03
  3.6673121e-02
  5.8761399e-02
 -1.3675466e-02
  1.1323985e-02
  3.9178662e-02
 -7.1328998e-02
 -5.7795826e-02
 -1.5988087e-03
 -2.1630991e-02
 -2.3238622e-02
 -3.8567428e-02
  7.2647263e-03
 -4.3514598e-02
  2.3788949e-02
 -7.5141504e-02
 -1.0064791e-01
  1.1625577e+00
  3.4483995e-03
  6.5435968e-02
 -9.1485403e-02
 -4.4636499e-02
  5.1715039e-03
 -4.3616492e-02
 -3.1961784e-02
 -1.0325303e-02
  1.0540399e-02
 -1.6997974e-01
 -4.6274513e-02
 -3.7088118e-02
 -8.5101031e-02
  2.8655635e-02
  4.4886820e-02
  7.8060436e-03
  4.5307400e-03
  1.4058618e-01
  5.1211134e-02
 -1.2059534e-02
 -4.2826483e-01
  9.9646103e-01
  1.9174752e+00
 -1.7017474e+00
  2.8986249e-02
 -2.3853576e-01
 -1.4068956e+00
  5.8210653e-01
  3.9721799e-01
  1.2026829e+00
 -8.3910006e-01
 -4.3520569e-03
 -7.8336090e-02
  4.2506009e-01
  1.0022224e-01
 -4.5587036e-01
  7.4952620e-01
  5.8013594e-01
  2.0201115e-02
 -5.4572088e-01
  3.6012426e-01
 -3.7139360e-02
 -1.6542722e-01
 -9.1974491e-01
  2.6360517e-02
 -1.1514682e+00
  3.5569245e-01
  2.4227175e-01
  1.2618872e+00
  1.8547285e-01
 -9.0384185e-01
  2.4844754e-01
 -5.9522863e-02
 -9.2600979e-02
 -2.9563671e-01
 -6.7378551e-01
  9.7665948e-01
 -2.8033912e-02
 -7.7502471e-03
 -3.9310881e-01
  6.0350978e-01
  1.2967488e+00
 -2.7502975e-01
 -6.6474541e-03
 -1.9810848e+00
  7.6349598e-01
 -8.8025779e-03
  1.8039696e-02
  8.2914177e-03
  1.2623217e-02
  6.1263877e-01
  3.0158287e-01
  4.8145011e-02
  5.2023895e-02
 -2.5121170e-01
  5.7018399e-02
  8.0257326e-02
  3.5997245e-02
  8.8520445e-02
 -3.7915383e-02
  1.0247151e-01
  2.2627053e-01
  4.1845117e-02
 -1.3085280e-01
  4.1262567e-01
 -4.2171657e-02
 -3.7787929e-02
  7.2903955e-01
 -1.9758411e-02
 -1.5556804e-02
  5.1512633e-02
  3.2531224e-02
  7.7032216e-02
 -2.0402867e-02
  2.1425394e-02
  1.7810779e-02
 -1.8437745e-03
 -1.7576708e-02
 -6.8612383e-03
  3.2036873e-03
  2.9176358e-02
 -4.1453347e-02
 -1.4355863e-02
 -8.4991828e-02
  1.2523821e-01
  5.4322187e-02
  1.7468678e-02
 -5.8300465e-02
 -9.7075410e-02
 -5.0398238e-02
  1.8521151e-01
  3.5754923e-02
 -4.7266673e-02
 -2.3515871e-02
  5.9795298e-02
 -5.2273910e-02
  8.6884368e-03
  1.0257444e-01
 -8.9336075e-03
 -1.4414553e-01
  6.5533525e-01
  6.3264382e-04
 -6.4543742e-01
  3.5646513e-02
  2.4083661e-02
 -5.3934656e-02
  1.2084351e-01
  1.5280673e-01
 -3.4195907e-02
  1.2847475e-02
  3.9547235e-02
 -1.8575594e-02
 -1.0964785e-02
  9.1643054e-03
  1.3765187e-02
 -2.8181070e-02
  3.8732816e-02
  2.4316344e-02
  1.4111802e-02
  1.1856284e-02
  1.6628834e-03
  1.1940881e-02
  1.7854473e-02
  2.4392931e-02
  4.5517421e-01
 -1.0046203e-01
  1.5560323e-01
  7.9127276e-01
  7.6875336e-02
 -1.1476424e-02
  5.8429980e-01
 -1.0722326e+00
  6.0117289e-02
  7.1338665e-01
 -2.4645905e+00
  6.9469774e-01
 -1.3230686e+00
  1.9100479e+00
 -6.8502051e-01
 -2.5354342e+00
  7.3996788e-01
  1.3347511e-01
 -5.6790960e-01
  1.5725890e-01
  1.6639975e-01
  6.9268388e-01
 -7.2149158e-02
 -6.3716266e-03
 -1.7546339e-01
  4.5743936e-01
 -7.6668513e-01
  7.6648422e-02
  3.1002060e-01
 -8.7263972e-01
 -1.2785770e-01
  3.2182340e-02
  5.3982574e-02
  1.4132601e-01
 -2.9561591e-01
  1.3476490e+00
  9.0762907e-01
  8.3440684e-02
 -1.9059433e-01
 -3.4877266e-05
 -1.5516754e+00
  1.1558396e-01
 -1.1507733e+00
 -7.0440210e-02
 -2.2626747e-01
 -1.5396850e-01
 -4.9236706e-01
  2.3814555e-01
  1.7507207e-01
 -2.2991399e-01
  8.9307979e-02
  2.3256526e+00
 -5.7584342e-02
 -1.8604562e-02
 -1.5761357e-02
 -6.1474372e-02
  2.0588042e-01
  8.3648048e-02
  1.0195605e-02
  3.5959028e-02
  1.0636742e-01
 -7.8206994e-03
 -4.3649912e-02
  3.1207651e-02
 -3.1786881e-02
 -4.3383349e-02
  1.2549566e-01
  5.3042896e-02
 -6.2901331e-03
 -8.8420264e-02
  3.0044086e+00
 -5.3304337e-02
  1.3465324e-02
 -4.8279207e-02
 -1.1248745e-01
  7.4629515e-02
 -4.1752223e-02
  1.1369719e-02
  3.3050042e-02
  7.6486692e-02
  4.4996038e-02
  8.3988652e-02
  2.1759838e-02
 -2.5176149e-02
  6.4458494e-04
 -7.9810597e-02
  6.0728457e-02
  5.3187720e-02
 -1.6137209e-02
  7.2179148e-03
  5.8429617e-01
  6.1437953e-02
 -1.3189052e-03
 -3.0070610e-02
  5.8778446e-02
  3.0139593e-02
  1.4574984e-02
 -1.3937768e-02
 -2.0788693e+00
 -4.9133725e-02
  3.6419023e-02
 -3.5922948e-02
 -6.2709764e-02
 -2.3422662e-02
 -5.1149786e-02
 -6.2676087e-02
 -1.5929581e-01
 -3.7329916e-02
  1.6995575e-03
  1.9116029e-02
  1.9386550e-02
 -7.7254280e-02
  1.2399315e-02
 -4.4777621e-02
 -9.6681155e-02
 -2.5556913e-02
  1.9965405e-02
  4.5626927e-02
 -4.1691032e-03
 -2.6685328e-03
  2.4368236e-02
 -5.4614089e-02
  5.5647176e-02
  3.2517269e-02
  2.0297710e-02
  2.2868574e-02
  1.5788965e-03
 -4.0139426e-02
 -7.2567806e-02
 -5.3063203e-02
 -1.5041960e-02
  7.1609221e-02
 -1.0288751e-02
 -3.5694435e-03
 -1.4227918e-01
 -3.4292798e-02
 -1.7857667e-02
  4.4172043e-01
  2.7318808e-01
 -1.4738712e-02
 -9.9162124e-02
 -1.2516263e-01
 -1.2152382e+00
 -7.1441852e-02
 -1.4159377e-01
 -4.5620129e-02
 -3.9222348e-01
 -7.4633644e-03
 -1.1823625e-01
  2.2646453e-02
 -4.0324042e-03
 -1.1635443e-01
 -1.0419165e+00
  9.8405965e-03
 -1.5301454e-02
 -3.5647418e-02
 -1.7988181e-02
 -4.9467821e-02
 -1.0128669e-01
  1.6325435e-03
 -1.4324264e-01
 -2.7651189e-02
 -9.9518001e-02
  3.1435411e-02
  2.3400027e-02
  3.9190929e-02
  8.4858658e-03
  8.0141209e-02
 -6.2688977e-02
  1.4530647e-01
 -2.4505246e-02
 -8.6616568e-02
 -2.1382816e-02
 -1.1905915e-01
 -1.3166964e-01
  3.9406577e-03
  1.5109549e-02
  3.9429119e-01
 -2.7859282e-02
 -4.0883150e-02
 -1.2653777e-01
  1.1221129e-01
  1.8507735e-01
 -2.1192381e-02
  2.3331794e-01
 -1.5400897e-01
 -8.6434716e-03
  6.0393985e-02
  9.3939215e-02
  1.7570648e-02
 -5.2788004e-02
 -2.8624276e-02
 -4.3850739e-02
 -2.0399936e-02
  7.5628527e-02
  1.2389112e+00
 -5.1947120e-03
  8.0253230e-03
  3.1500850e-02
  5.4848719e-02
 -4.3858796e-02
  3.5042945e-01
  2.0176195e-01
 -2.0847504e-01
  3.8495424e-01
 -3.5300869e-01
 -2.5850469e-01
 -9.4258420e-02
  3.0578887e-01
  1.1533463e+00
 -5.1333123e-01
  2.0805962e+00
 -9.6509658e-02
 -5.8490318e-01
 -1.6377881e-01
 -7.1445364e-01
  1.6089469e-02
 -2.7289319e-01
  5.0464678e-01
 -2.7311563e-01
 -3.7466660e-02
 -1.0720472e-01
  8.1478402e-02
 -1.1614361e-01
  4.0212554e-01
  5.4628122e-01
 -5.0380748e-02
 -2.2497227e-02
 -3.7192675e-01
  5.7535809e-02
 -7.0224887e-01
  5.0722998e-01
 -6.4377213e-01
 -2.2693740e-01
 -6.5911710e-01
 -2.2413440e-01
  2.4090406e-01
 -4.6348101e-01
  2.0172630e-02
 -7.8573965e-02
  1.1510343e-02
 -1.4988538e-02
 -8.1008272e-03
 -1.1817322e-01
 -8.3630931e-01
 -9.8089570e-01
  5.3279990e-01
 -3.3345083e-03
 -2.1057887e-01
  3.1027168e-02
  8.7754533e-02
 -1.6827045e-01
  3.7115794e-01
  7.6495409e-02
  2.4689081e-01
  5.0996676e-02
  1.8068369e-01
  2.4609882e-01
  2.7283788e-01
  6.6667154e-02
  1.8761201e-01
  8.5008861e-03
 -1.6321288e-01
 -1.6994875e-02
  2.1045280e-01
  1.8138796e-03
  4.1294008e-01
  4.5415804e-01
  5.2670866e-01
  1.0188482e+00
 -4.7370303e-01
  4.5224902e-01
  3.6604598e-01
 -1.1891180e+00
  1.3785595e-02
  1.3333920e-01
  2.6702282e-01
 -3.3411330e-01
  6.4363742e-01
 -8.8268608e-02
  3.8286206e-01
  2.1418019e-01
  3.6744413e-01
  2.2428364e-03
 -3.2635009e-01
  4.1863257e-01
 -2.0717122e-03
  6.3212830e-01
 -1.2801621e+00
 -2.0000151e-01
  1.3212730e+00
  5.1029231e-02
  2.9942011e-02
 -1.7658415e-01
  5.6442368e-01
  1.2154652e-01
  1.2446507e-01
  3.0523810e-01
  2.4369508e-01
  6.8246923e-02
  1.5008008e+00
 -4.8974073e-01
  4.4119823e-01
 -2.2041544e-01
  1.0494349e-02
 -1.1897720e-01
 -4.2432014e-02
 -2.0298997e-01
  1.2800245e-01
 -8.2483196e-01
 -1.0514864e+00
 -4.4785559e-02
  6.1373021e-02
  1.0482211e-02
 -3.0043816e-02
 -6.3424394e-02
 -2.9530317e-02
  1.0091220e-01
 -7.8883898e-03
 -4.1930587e-03
  1.3328227e-02
 -2.3395346e-02
 -9.2203617e-03
 -4.4975258e-02
 -9.6993610e-02
 -6.0378812e-02
 -5.5517279e-02
  6.0510483e-02
 -2.7491309e-02
 -4.4846199e-02
  2.4001586e-01
  3.5836294e-02
 -4.3244252e+00
 -1.6162921e+00
 -1.4822340e-02
 -1.5475368e-02
  6.2022799e-01
 -1.8077914e-02
  7.9587642e-03
  2.1679321e-02
 -1.7003109e+00
 -7.3504753e-02
 -1.3774450e-02
 -3.7257370e-02
 -1.2109477e-02
 -7.2020106e-02
  4.8956223e-02
 -2.6122568e-02
  9.0619892e-01
  3.8262468e-02
 -7.1188230e-03
  4.5109972e-02
  4.9903156e-04
 -8.2979731e-02
 -5.8891688e-02
  2.5751403e-02
  5.7406560e-02
 -2.7293575e-03
  5.3095654e-02
 -1.3292466e-02
 -8.8054843e-02
  1.7903720e-01
 -1.3289346e-02
  1.3665864e-01
 -4.3912467e-02
 -3.7513743e-03
  4.0503503e-03
 -5.4259624e-02
 -4.2868614e-02
  1.1831767e-02
 -3.5303242e-03
  8.2770204e-03
  2.9447565e-02
  6.0853578e-02
  3.8040537e-02
 -8.1312627e-02
  8.2857810e-02
 -2.4856692e-02
  1.6609104e-03
  2.4486247e-02
  3.2228131e-02
  1.7570889e-02
  4.3291438e-02
  1.3352601e-02
 -3.3152601e-01
 -1.9426623e-01
 -4.5854669e-02
 -8.6528681e-02
  7.6771933e-03
  1.8480429e-02
  1.0031860e-01
  8.5294461e-03
 -2.1158254e-01
 -2.6334871e-02
 -1.0506921e-01
  7.6268964e-02
 -3.5838938e-01
 -2.7881566e-01
  1.1106988e-01
 -8.9402443e-01
 -7.9742861e-01
  8.8732368e-01
  5.8330148e-02
  1.4788304e-01
  6.1152228e-03
 -8.3498710e-01
  4.4707420e-01
 -2.2822635e-02
 -1.3707496e-02
  1.8913873e-02
  1.2461159e-01
 -1.5217651e-02
  3.2772399e-02
 -1.5307864e-02
  6.1241385e-02
 -6.5109700e-02
  6.4947653e-01
  3.3205301e-02
  1.7943520e-02
 -1.4907657e-01
  5.1520869e-02
  5.7431310e-02
  7.8683965e-02
  2.2285521e-02
 -4.6105664e-03
  2.3593565e-03
  3.4342134e-01
  1.3060266e-02
 -3.1951528e-02
 -1.7552063e-01
  3.3320531e-02
 -3.8977236e-01
  2.6959686e-02
 -1.0908157e-02
  2.4407098e-01
 -7.8444161e-02
 -4.0959008e-03
  2.2001013e-02
 -1.1110900e-03
  3.6729509e-01
  5.7019410e-03
  1.8040754e-01
  1.1500099e-01
 -6.5939724e-02
 -2.0677820e-02
 -3.4843590e-02
  1.4221954e-01
 -7.9672672e-02
 -1.5034338e-02
 -8.0633593e-01
 -5.4740880e-02
 -7.6116508e-01
 -2.4422926e-03
 -4.2172056e-03
  1.0322348e-01
  4.1222330e-02
  4.6008646e-02
  5.5772066e-02
  3.4130700e-02
 -7.0863822e-04
  1.1583992e-02
  4.0183559e-01
 -1.0101862e-01
 -4.1173789e-01
  8.0403650e-01
 -7.5361246e-01
 -3.3029786e-01
  2.2647327e-01
  2.0846205e-02
 -2.6026452e-01
  2.9057068e-01
  2.8082061e-01
  8.0245756e-02
  6.9363832e-02
 -5.2494770e-01
 -5.1847205e-02
 -4.7952467e-01
  2.0221029e-03
 -1.7083505e-01
  9.6639022e-02
  1.7336822e-01
 -1.2172091e-02
 -3.0559955e-02
  2.1474862e-01
  1.6059245e-01
 -9.1079777e-01
 -2.5242135e-01
  2.0110770e-01
  1.1928011e-01
 -1.1357521e-01
 -6.4213695e-03
 -5.2784616e-03
 -1.2127410e-01
 -2.0173380e-01
  1.0485436e-01
  2.3395117e-01
  4.4155529e-01
  1.2427519e-01
 -7.0396769e-01
 -9.8540381e-02
 -3.1829599e-01
 -3.2978523e-01
 -1.5797485e-02
 -5.8986153e-02
  2.2780982e-01
  5.9360135e-01
  1.3275383e-02
 -5.1267188e-02
 -3.1193564e-02
  1.0768212e-01
  4.1546334e-02
  5.5600900e-02
 -5.0724578e-01
  3.8481370e-02
  1.6724993e-02
 -3.6473259e-01
  3.5859126e-01
  7.8216270e-02
 -2.5413858e-02
  6.6237487e-02
  3.7913540e-01
 -6.0356513e-04
 -1.3661009e-01
 -3.2798294e-02
 -1.7816315e-03
 -9.4307929e-02
 -1.8034600e-01
 -9.9553652e-02
  2.1275027e-01
 -2.2644676e-01
  1.0081810e+00
 -1.9507131e-02
  7.1159955e-03
  7.9733156e-02
  2.7699716e-02
  6.0122043e-02
 -2.8128508e-01
 -4.0322226e-01
 -3.4705613e-02
  2.2503033e-01
 -9.6137762e-02
  2.4473475e-02
  2.4329983e-02
 -8.7227330e-02
  1.3627659e-01
  2.6174150e-02
 -1.6539218e-01
 -6.3006572e-02
 -1.7579103e-02
 -2.1020962e-02
 -7.8157373e-02
 -9.3262263e-02
  3.1887952e-02
 -2.0045012e-01
  5.0608391e-01
 -1.6518468e-01
  1.3815553e-01
  2.1618653e-02
  2.6288989e-03
  1.4137590e-01
  5.8813319e-02
  2.1360767e-01
  1.7565237e-01
  1.2548241e-01
  3.3717090e-03
 -9.4015397e-02
 -2.9376277e-03
 -1.3477029e+00
 -1.6667585e-01
 -1.5070796e-01
  7.9793312e-02
  2.9799307e-02
  4.7721327e-03
  4.7604740e-02
 -1.3819262e-01
  1.2188814e-01
  4.3178149e-02
 -1.4616020e-01
 -3.5943605e-02
  1.3391210e+00
 -3.5156541e-02
  4.7832839e-02
 -1.1862175e-01
  2.0769065e-02
 -9.6299157e-02
 -2.3852551e-02
 -2.0779178e-02
  2.2300014e-02
  9.9208374e-03
 -4.8700571e-02
  2.3979943e-02
  2.1578309e-01
  3.0618531e-01
  1.1521316e-01
  8.1163013e-01
  1.8883988e-01
  4.2558944e-01
  5.8445001e-01
 -2.6632157e-01
  1.8991444e-01
  5.3619963e-01
 -4.1419083e-01
 -4.2103067e-02
  5.1756495e-01
 -2.9745027e-01
 -7.7328974e-01
  9.6791379e-02
  6.6616371e-02
  2.2346666e-01
 -2.5426266e-01
 -4.1874755e-02
  4.4691044e-01
 -6.0686529e-01
 -1.4297745e-01
  5.3963667e-01
 -5.8730274e-01
  2.6257050e-01
  3.4169164e-01
  1.8739818e-01
 -2.6400890e-03
  1.0898568e-01
  2.7418667e-01
  8.1909198e-01
  1.2525126e-01
 -4.2583551e-02
  3.0818539e+00
 -1.8925717e-03
 -5.8614784e-01
 -2.4653254e-02
  2.2325926e-01
 -1.4014567e-02
 -3.5247443e+00
  2.1823195e-01
  1.0610586e-01
  4.9887368e-01
 -1.3963024e-02
  3.7678990e-01
  5.7077082e-03
 -8.0937810e-02
  1.8774560e-02
  4.3892069e-03
  1.0367284e-01
 -1.0578404e-01
  1.6867673e-02
  1.1588057e-02
  8.1747726e-02
  4.7941860e-02
  8.2934335e-02
  1.2634245e-01
  1.0369520e-01
 -5.6200508e-02
  4.3555479e-02
 -1.0491274e-02
  5.5753026e-02
  1.4857322e-02
  6.9330059e-02
 -6.4924556e-01
 -8.8889909e-01
 -1.8677832e-01
 -1.9857086e-01
 -3.1975722e-01
 -9.6109904e-02
 -4.6988893e-03
 -5.6389809e-01
 -8.5764384e-01
 -9.1991478e-01
  6.7033666e-01
  2.2280481e-02
 -1.1652809e-02
 -1.4206070e-01
  5.4686087e-01
  4.6739072e-02
 -6.4322516e-02
 -2.0081781e-02
  1.4872538e-01
 -1.8455882e-02
  1.2656504e-01
 -1.4581391e-02
 -2.4552245e-03
 -9.7902203e-03
 -1.3152799e-01
  1.4469634e+00
 -1.6133910e-01
 -7.9371947e-01
  1.2388916e-01
 -6.0534623e-02
 -8.7890014e-02
 -7.8417085e-02
 -1.1672390e-01
 -7.0522577e-01
  3.0894035e-01
  2.9811653e-01
 -1.7629327e-01
  1.5900294e-01
  2.1180767e-01
 -7.0141804e-01
 -8.8154702e-03
  2.2383173e-01
 -2.1632745e+00
  1.0148755e-01
  1.2596543e-01
 -3.3115057e-04
  4.1257445e-02
  5.8618276e-03
 -2.1872404e+00
  5.4209020e-02
 -6.2416596e-03
 -7.5631082e-02
  5.0673254e-02
  2.7334133e-02
 -9.9413912e-04
 -3.5594562e-01
  2.5081670e-02
  1.8778187e-01
  1.9450525e-02
 -5.3537665e-03
 -1.2256995e-02
  1.2452733e-02
  3.2390255e-02
  1.0692466e-01
  5.5761535e-02
 -8.9825171e-01
 -1.7434220e-01
 -3.6652032e-01
 -3.9318681e-02
  1.1348045e+00
  2.4911641e-01
  9.2229921e-01
  2.5085092e-01
 -2.1881778e+00
  7.3109388e-01
 -1.7354835e+00
  1.5766451e-01
  3.3919979e-02
  4.3755332e-01
 -3.5954198e-01
 -9.8514032e-01
 -1.0364681e+00
  1.4042585e+00
 -5.9885946e-03
  5.0820065e-01
  3.9269799e-01
  2.0655504e-01
  2.0642781e-01
 -3.7316483e-02
 -6.6371518e-01
 -3.8311639e-01
  8.5903347e-01
  2.9610404e-01
 -3.8692859e-01
 -2.2070907e-01
  4.2718459e-02
  1.4598193e-02
 -1.8604705e-01
 -3.9153886e-01
  2.3207724e+00
  7.4274130e-02
  6.8192816e-01
  9.7960815e-02
 -3.0695653e-02
  6.7232627e-01
 -5.0261762e-05
 -2.5008428e-01
 -4.5479155e-01
  1.9101535e+00
  1.3006952e+00
  1.7991269e-01
  1.2468754e-01
 -1.5878421e-01
 -1.4803222e-01
  1.5372137e-02
 -9.5983157e-03
  1.5482686e-01
 -8.4386062e-04
  2.6473470e-02
  1.6848391e-01
 -2.3089148e-02
 -5.4428585e-02
  1.2557322e-02
  1.8494794e-01
  8.3025340e-03
  2.0896886e-02
  2.5575412e-02
  9.1893226e-02
  1.5017439e-01
 -5.0981522e-01
 -2.2256784e-02
 -1.6106293e-02
  3.5968640e-01
 -1.2755814e-01
 -8.3738260e-02
  1.3593969e-02
 -3.4021294e-01
 -6.7572616e-02
  4.3018874e-02
  2.4329249e-02
 -4.7359571e-02
 -6.6062175e-02
  4.8892323e-02
 -1.1280033e-01
 -1.5617074e-02
  7.7753124e-04
 -3.0216791e-03
  5.7616223e-02
 -7.4097984e-02
 -1.1954371e-01
 -2.0100288e+00
  3.9138240e-01
 -6.7367375e-02
 -2.9387943e-02
 -1.5352488e-02
 -4.2456839e-02
  7.9744905e-03
 -1.1978514e-01
 -5.9611473e-02
  4.2795137e-02
 -1.4136354e-02
 -5.6146730e-02
 -2.8309309e-01
 -4.5493048e-02
 -3.7106372e-02
 -5.3757023e-02
 -3.6638632e-02
  4.4438182e-03
  4.1191209e-02
 -2.9342288e-02
 -1.2911950e-02
  1.8339798e-02
 -2.2535844e-02
 -8.6067300e-03
  2.5545256e-03
  6.8242610e-02
 -2.0674857e-01
 -5.7967217e-03
 -2.1013746e-02
 -8.4235981e-02
  4.9014430e-02
 -8.7325610e-02
  1.0340750e-01
 -1.0938118e-01
  1.2412074e-02
 -1.0013348e-02
 -1.0093373e-01
 -1.7461166e-02
  1.1829472e-01
  8.5628197e-02
  1.2645917e-01
 -3.2180861e-01
  3.9319653e-02
  4.5340132e-02
 -2.6970598e-01
 -2.1725290e-01
 -5.0645787e-02
  2.1389335e-01
 -2.5218476e-02
 -1.3864322e-01
  3.7665355e-01
  3.6168611e-01
 -1.8769419e-02
  1.6065195e-01
 -6.2993519e-02
 -1.0872161e-01
 -1.1700216e-02
 -1.0063802e-01
 -1.1567354e-01
  1.4672421e-01
 -1.1347939e-02
 -1.0169138e-01
  1.7209832e-01
 -1.7134086e-03
 -1.9370459e-01
  1.3672905e-02
 -1.1059491e-01
 -9.2411399e-02
 -2.6400443e-02
 -6.2430922e-02
  2.1535577e-02
 -4.7802133e-03
 -6.4482868e-02
  3.1475177e-01
  1.7066045e-02
  1.7082663e-01
  6.3889278e-03
  2.2874509e-01
 -8.8378541e-02
  4.6559326e-02
 -1.1780325e-01
 -4.1053994e-03
  1.4507941e-02
 -2.6083313e-02
 -6.7936047e-04
  6.1980613e-02
 -1.2052290e-01
 -9.9510131e-03
 -9.5517591e-02
 -3.3721469e-02
 -7.5721931e-05
  5.5727068e-02
  5.8725860e-02
  1.2369163e-02
 -3.1268291e-04
  9.3280915e-03
  6.0720496e-02
 -1.2592840e-01
 -2.2154050e-03
 -1.5964927e-02
  4.8744254e-02
 -7.0332043e-02
 -1.8104995e-02
  7.1342804e-02
  6.5562725e-03
 -2.1969892e-02
 -4.4757675e-02
 -3.3955343e-02
 -6.2602535e-02
  1.6295840e-03
  4.4777047e-02
 -2.6299076e-02
 -1.4763450e-02
  1.5404549e-03
 -6.0593128e-01
 -2.1433960e-01
  1.2205707e-01
  1.4435194e-02
  1.9876696e-02
  3.2900177e-02
 -2.6036623e-01
  1.2085025e-02
 -6.5853470e-03
 -5.1752538e-03
  5.0049219e-02
  8.4100381e-02
  7.5675435e-02
 -7.8860513e-04
 -3.2306323e-03
 -3.0045217e-02
 -4.0789261e-02
  1.1918955e-03
 -9.8701559e-02
 -1.2827947e+00
 -2.7875558e-02
  2.9297424e-03
 -8.6273588e-02
 -4.2991671e-01
  6.2948458e-02
  4.8171692e-02
 -4.3936633e-02
 -2.8836297e-02
  6.3165702e-02
  3.1747878e-02
  1.7229060e-02
  1.1451456e-01
  9.2361219e-02
 -6.8802841e-02
  1.1933430e-01
  9.4533624e-04
  6.6984780e-02
  2.0026132e-01
  5.7343516e-02
  1.6015960e-02
  4.4347879e-02
  1.5028205e-03
  6.6602334e-02
 -4.3153733e-02
  9.7483203e-02
  3.0536743e-02
 -1.9766323e-01
 -5.4374915e-02
  2.0899102e-02
  4.8378911e-02
  1.9876619e-01
  4.6139996e-02
 -4.5857362e-02
  4.0123541e-02
  1.3750464e-02
 -1.7245013e-02
  3.9279968e-02
  4.3359336e-02
 -5.4460127e-02
 -4.8065181e-03
 -8.8356428e-02
  2.5672022e-01
 -4.4314835e-02
 -7.5264126e-02
  5.8196593e-02
 -6.0977004e-03
 -1.0170250e-01
 -1.2184762e+00
 -2.5881580e-03
  2.0297120e-04
  1.7327744e-01
  4.7903401e-03
  3.5601418e-02
 -6.5458909e-02
  1.2887356e-01
 -1.1815142e-02
  2.2853988e-01
 -3.8943201e-02
 -2.6611760e-01
  8.5815653e-02
  1.2646312e-02
 -7.3765434e-02
 -1.2741075e-02
 -4.5660906e-03
 -4.2392481e-02
  8.3549306e-02
  1.4493923e-02
 -8.1020635e-01
 -3.5523713e-02
 -1.2277865e-02
  6.2425470e-01
  9.2719525e-02
 -5.5849407e-02
  4.3437365e-02
  1.1987872e-01
 -6.3097198e-03
 -2.2560637e-02
  2.0835745e-01
 -1.5912812e-02
 -1.1660848e-01
  3.7014265e-02
 -1.0668229e-01
 -2.2882115e-02
 -9.9372238e-02
 -8.1594596e-03
  2.1967309e-02
  9.2783533e-02
 -4.4363365e-02
  2.7543047e-02
 -2.6671080e-02
  3.7839979e-02
 -1.0958709e-01
  7.0084129e-03
  6.6325739e-02
 -1.8811844e-02
 -9.6034684e-04
  3.4149148e-02
  1.1640273e-01
  1.6237980e-02
  7.0407368e-02
  4.1103430e-02
 -2.7620872e-02
  5.0524462e-02
  7.2981436e-03
 -9.9310279e-02
  1.7350435e-02
  5.0462540e-02
 -2.9644236e-02
  4.2935498e-03
  4.0233780e-02
 -7.6735248e-03
  2.4972379e-02
  3.2982890e-02
  1.4644590e-01
  9.3437590e-02
 -6.4448941e-01
 -1.5182766e-01
 -1.6915625e-01
  1.0174557e-03
 -4.0948462e-02
 -2.9376050e-02
  2.6333263e-02
 -2.0766977e-02
 -8.8008223e-03
 -6.1086275e-02
  4.0051226e-02
  1.4200072e+00
 -1.5512077e-02
  1.2870637e-02
  1.1096882e-01
 -2.0069001e-02
 -7.9325512e-03
  6.5075263e-02
 -9.2416070e-02
  7.7701010e-02
 -4.9276445e-02
  1.2095518e-02
  2.5804333e-02
  1.6498761e-02
  2.7520929e-02
  4.3466348e-02
 -1.2387431e-02
  1.0465625e-01
 -5.5812057e-02
  3.3588309e-02
  1.1042882e-02
  2.6184255e-02
 -2.5743011e-03
  2.3218382e-02
  2.5727539e-03
  1.7687771e-02
  1.2714724e-03
 -4.0824968e-02
  4.1323360e-03
  3.2407075e-02
 -9.7549729e-02
  7.4601598e-02
  3.0005300e-02
 -5.9526738e-02
  1.3079165e-01
 -6.6518992e-02
  2.7247168e-02
 -1.4865783e-02
  1.7785557e-01
  1.7281605e-02
  5.1548393e-03
  1.7258607e-02
  4.8880532e-02
 -6.7001186e-02
 -3.6676228e-02
  6.3374743e-02
 -7.4130613e-01
 -1.2099714e-01
  4.0605375e-01
 -9.9628612e-02
 -7.6269269e-01
  6.3254021e-02
 -2.0770139e-01
  7.3890710e-01
  1.1503923e+00
 -5.4521918e-01
 -1.0957202e-01
 -1.0583606e-01
 -1.5144122e-02
  7.3148519e-02
 -1.8380560e-02
 -5.0408971e-02
  6.1421912e-02
 -2.6783448e-02
 -3.5690030e-01
 -7.1122277e-01
  1.4673701e-01
 -2.6625898e-02
 -3.7043072e-02
  1.2481708e-01
  1.4116628e-02
 -7.0412487e-02
  1.0031936e-01
  3.2582295e-01
 -2.1702342e-01
 -5.9916150e-02
 -1.5256704e-01
  2.6750546e-03
  7.0036128e-03
 -4.8225004e-02
 -8.3752885e-02
 -6.7886241e-02
  7.8191822e-03
 -2.3938781e-01
 -8.7892875e-02
 -1.4749012e-02
 -3.1086373e-01
  4.1859623e-02
  2.5153728e+00
  8.0533862e-02
 -2.3152895e-01
 -7.4999177e-01
 -3.3522919e-02
 -1.4571872e-02
 -1.2712085e-01
  6.4023808e-02
  3.1862948e-03
  1.0274609e-01
 -1.1928916e-02
 -1.3666339e-01
 -3.3147439e-02
 -2.2141160e-02
 -9.3876924e-03
 -8.3275000e-03
 -4.7656361e-02
  1.1871906e-01
 -1.3382711e-02
  4.4449922e-03
  1.3883387e-01
  7.6347339e-01
 -1.6587118e-02
  2.8161740e-01
  5.2048802e-01
 -1.1658857e-01
  9.6916837e-01
  1.1446649e+00
  1.7276810e-01
  4.7715562e-03
  1.0689553e+00
 -1.5521429e-01
  2.9887581e-01
 -3.7792566e-01
  1.9280826e-01
  1.7944830e-02
  4.1779312e-01
  3.2436863e-01
  1.2308302e-01
  2.3820346e-02
  3.2878395e-02
  6.8860406e-01
 -8.8378184e-02
 -2.4277174e-03
 -7.3616192e-02
  1.5422063e-02
 -1.4898516e+00
  2.8490603e-01
  1.4708388e-01
  2.0469842e-03
  4.9740456e-02
 -2.6656022e-02
 -4.3453786e-01
 -2.3841970e-02
  1.7672306e-02
  4.1601750e-01
 -7.4092112e-02
 -7.5784288e-02
  1.6767070e-01
  7.1771264e-02
 -6.7292270e-04
  5.5614239e-01
 -1.5292121e-02
  1.6507683e-02
  1.0777244e-02
 -8.8629887e-02
  5.6004629e-02
  1.1564302e-01
 -9.4731539e-02
 -1.0493103e+00
 -6.9128076e-04
  8.6095649e-01
 -2.5189035e-02
  1.3403030e-02
 -6.6839240e-02
 -2.2191288e-02
 -1.9798327e-02
 -1.2509596e-01
  1.9418359e-02
  5.2807733e-02
  4.4342998e-02
  4.2110104e-02
  6.0357810e-03
 -2.4937047e-03
  9.7033001e-02
  3.9484248e-02
 -3.1527806e-02
  1.2592296e-01
  1.3694556e-01
  3.7238458e-01
  9.9536195e-02
 -4.6044526e-01
  4.7208726e-02
 -7.2215199e-01
 -2.4084352e-01
 -2.3673363e-01
  3.5037151e-01
 -4.0869966e-02
 -1.5802488e-01
  3.7909296e-01
 -8.1715631e-01
  7.4307930e-01
 -1.3682273e-01
 -7.1044278e-01
  8.0154315e-02
  2.9642611e+00
 -3.1240547e-01
 -5.5679195e-02
  2.9131172e-02
  8.7995954e-02
  6.9512188e-01
  7.8182839e-02
  6.1048943e-01
  5.6261547e-02
  7.0239552e-03
  1.4826843e-01
 -2.4629518e-02
 -3.4090836e-02
  1.1077355e+00
 -2.0187111e-01
 -7.4027568e-01
  1.2495719e-02
  1.7534128e+00
  8.7735176e-01
  4.1025400e-01
 -1.9225262e-02
  3.7999859e-01
 -1.0921644e-01
 -2.4053982e-01
 -7.0500992e-02
  4.5307390e-02
  7.2230071e-02
 -1.3051619e-02
  2.8771663e-02
 -1.1725401e-02
  4.9647791e-03
 -2.5563678e-02
 -1.7931576e-01
  7.9503126e-02
 -1.1657215e-01
  1.0566094e-01
  7.5553611e-02
  3.7502538e-02
  1.3348562e-01
 -4.3811776e-02
 -7.3521048e-02
 -2.9781276e-02
  3.0563979e-03
 -2.7329883e-01
 -4.6395160e-02
  1.0879444e-03
 -1.0706922e-01
  4.3995120e-03
 -1.2564052e-02
 -6.7120433e-01
  7.0207186e-02
  3.1535588e-02
  3.7163270e-01
  1.5267869e+00
  1.3800347e-01
  5.5354744e-01
 -1.4004159e-01
  1.4764205e-01
  1.5859045e-01
  3.4571938e-02
 -2.0201247e-02
 -2.5964253e-02
 -4.6881288e-01
  3.0920941e-02
  1.5865969e-02
  1.2267495e+00
  1.2609273e-01
  2.5438918e-02
 -1.8459250e-01
 -2.4077154e-03
  9.9006020e-02
 -7.0427030e-02
 -3.1615487e-01
 -2.1005902e-01
 -6.4885154e-02
  1.1931679e-01
 -7.1638525e-01
 -1.9515289e-01
 -9.3777001e-02
 -1.1733103e-01
 -5.1463462e-02
  4.6164487e-02
  1.2699637e-02
  5.4202650e-02
  1.3404804e-02
 -1.4061683e-02
 -1.7643513e-01
  3.2335657e-01
  2.7235270e-02
 -1.3334684e-01
  9.2120327e-02
 -2.9004002e-01
 -1.7857241e-02
  3.7748687e-02
  3.5374667e-02
 -5.8370695e-02
  6.1438819e-03
  1.6625705e-01
  1.6042069e-01
  1.1659568e-02
 -9.8492205e-03
  4.5554459e-02
 -1.2728667e-01
 -1.8665953e-01
 -3.5045788e-02
 -2.1737373e-01
 -5.8390755e-02
  3.4836423e-02
  2.5883058e-02
 -1.6685663e-01
 -4.4825245e-02
  1.9499173e-02
  1.1406956e-03
  8.6192511e-02
  8.0893260e-01
 -1.2966624e-01
  4.0950533e-02
  1.2431787e-01
 -3.4352012e-02
  3.2857735e-02
  2.1363322e-02
  1.0388482e-02
 -4.5472789e-03
 -4.7694210e-02
 -3.2163154e-02
  1.7907612e-02
 -2.6964765e-02
 -3.8471907e-02
 -7.9672530e-02
 -6.2904149e-02
  1.5205477e-02
  4.9977660e-02
  4.6339504e-02
  4.9601328e-02
  8.9281626e-02
 -1.8524073e-02
  5.8303148e-02
  1.1635583e-02
  4.5279325e-03
  1.5669899e-02
 -6.5765269e-03
 -7.3328152e-02
 -3.3153009e-02
  1.8942855e-02
 -8.4355116e-02
 -1.3058742e+00
 -2.0081684e-02
  1.8164989e-01
 -1.7039822e-03
  5.6141093e-02
  2.8657882e-02
  8.5720997e-03
 -5.9221942e-02
 -5.5167187e-02
 -3.1478032e-02
  4.6058122e-02
 -4.2809974e-02
 -1.4904561e-02
  6.4266555e-02
  1.3527988e-02
  2.6565537e-02
  6.8285458e-02
 -2.1925338e-03
 -4.3307573e-02
 -1.9544090e-01
 -2.4110166e-02
 -1.5096736e+00
 -1.1482556e-01
  2.4831060e-02
 -5.1357038e-02
 -2.3965659e-02
 -2.1815646e-01
  2.6867371e-02
  2.6170062e-02
 -6.8870507e-02
 -8.3055444e-02
 -1.2547064e-02
 -4.7752783e-03
 -3.3267251e-01
 -4.9458537e-01
 -9.9028656e-03
 -5.8276433e-01
  1.7750922e-01
 -4.4203553e-02
 -5.1442522e-01
  8.9216247e-02
 -9.3990922e-01
 -3.9995259e-01
 -5.4167196e-02
 -2.1321122e-01
 -6.5108225e-02
  1.9725393e-01
 -8.3889437e-01
  4.1748813e-01
 -4.2845171e-02
 -1.0978540e-01
 -4.9413159e-01
 -7.8273371e-02
  1.5340413e-01
 -5.5358496e-02
  1.1120550e-01
  2.4973793e-02
 -4.0065494e-01
  1.7426390e-02
  6.4519793e-01
 -6.0795242e-01
 -1.1523968e+00
 -1.2746914e-01
 -1.4648269e+00
 -6.0236925e-01
 -4.6835783e-01
  1.9683624e-02
 -6.0330939e-01
  1.0968996e+00
 -1.8667064e+00
 -7.5753641e-01
 -9.9827722e-02
  2.3641618e-01
  8.8477150e-02
  3.0700892e-01
 -1.5563342e-01
 -2.0992005e-01
  1.4611369e-01
 -3.6359185e-01
 -2.3891410e-01
  6.7285903e-02
  3.2848559e-02
 -4.7090463e-02
  6.2840715e-02
  2.9225310e-02
  1.2119538e-02
 -2.7078977e-01
  1.6081186e-02
 -9.1074944e-02
 -8.1236973e-02
  1.8582945e+00
 -1.1768261e-01
  5.9729543e-02
 -1.7246689e-01
  5.9183642e-02
  3.7388951e-01
  4.4367678e-02
 -1.3513163e-02
  8.3392717e-02
  1.6562188e-01
 -4.8067356e-03
  1.4082761e-01
 -9.6048445e-02
  1.1549498e-01
 -8.4715486e-02
  5.5177327e-02
 -1.4399119e-02
  3.2646167e-01
 -3.8362741e-02
 -6.9170468e-02
  2.8250683e-03
  1.5082194e-02
  2.6094159e-01
 -1.0000041e-01
  7.9695426e-02
  6.8255872e-02
  1.3921133e-02
  4.9292117e-02
 -1.7088991e-02
 -3.0981187e-02
  9.4618239e-03
  5.4936358e-03
  9.6276961e-02
 -7.6565959e-02
  2.4050049e-02
  1.0051157e-01
  1.5797198e-02
 -6.8526999e-03
 -3.4650523e-02
 -5.9306096e-02
 -1.3938290e-01
 -2.3682144e-02
 -1.1765779e-02
  1.3277938e-02
  5.0816935e-02
  1.6570607e-03
  4.8790455e-02
 -5.7788540e-02
 -3.2630230e-03
 -7.4054538e-03
 -1.4994862e-02
  2.2547936e-02
  1.8628268e-02
  1.0830478e-01
  2.8384600e-02
  2.3754623e+00
  3.0765941e-02
  3.2800678e-02
  9.7050928e-03
 -6.6780686e-02
  2.0964224e-04
  3.8791469e-01
 -7.6321056e-03
 -3.0794529e-02
  8.2800992e-02
  3.4374334e-02
 -2.7558459e-02
 -2.3111669e-02
 -3.2467401e-01
 -2.0683009e-02
  5.4272827e-02
  2.5916327e-02
  3.3439323e-02
 -3.3061881e-02
  8.8880264e-04
  2.7739609e-02
  4.5728095e-02
  4.8682157e-02
 -1.8055899e-01
 -8.7309659e-02
  2.6069021e-02
 -7.3093884e-02
 -7.5220823e-02
 -4.4330251e-03
 -2.6677686e-03
  7.1381037e-03
 -9.8337959e-03
  2.2887599e-03
  2.0956326e-01
 -6.6865467e-02
  3.7554365e-02
  6.0994834e-02
  7.4795544e-02
  8.3227605e-02
 -8.8857085e-02
  5.5764381e-02
  1.3666537e-02
  2.1474700e-02
 -1.0298259e-02
 -6.8935100e-03
  8.9641087e-02
 -4.2014578e-03
  7.9475977e-03
 -3.6491218e-03
  1.7517929e-01
 -3.8766760e-02
  5.5360831e-02
 -8.5981160e-02
 -1.0808671e-01
 -5.0324168e-02
  1.1186108e-02
  1.1524126e-01
  3.1085337e-02
  7.0360757e-02
  1.1281150e-02
  2.4186058e-03
 -2.1901977e-01
 -3.6989134e-02
  3.6946710e-03
  2.2996452e-02
 -3.6679480e-02
  1.0250671e-01
 -1.8770115e-02
  7.6599360e-02
  4.3279356e-03
 -3.1617865e-02
 -5.2189447e-02
 -9.1470685e-03
 -1.4551874e-02
  1.6520644e-02
 -5.4943287e-03
 -4.6798680e-02
 -9.9199284e-03
  8.4599838e-02
 -5.1308367e-02
 -1.2023451e-02
  2.6152637e-02
 -1.4281175e-01
  9.6429503e-03
 -1.1829016e-01
  3.5576036e+00
  1.5364610e-01
  1.5364820e+00
  2.5793675e-02
  9.0650171e-02
  7.4935418e-01
 -2.2002654e+00
 -7.5776881e-01
  2.0599306e-02
 -2.0504621e-01
 -4.1950679e-01
  1.4427152e-01
 -6.5802030e-02
  4.1076336e-02
  2.0539515e-02
 -2.3739060e-02
 -4.0200585e-01
 -3.7625879e-02
  5.2233525e-02
  2.0439056e-01
 -1.1109946e-01
  2.3342220e-01
  1.6385497e+00
  2.3749948e+00
 -2.0093443e+00
  1.6514552e-04
  2.6658716e-02
  5.9859985e-01
 -3.3896791e-03
  8.2055353e-02
 -3.1323564e-01
 -7.3550299e-02
  4.1140571e-01
  8.7901467e-01
 -9.0808105e-01
 -8.2608163e-03
  1.4588600e-01
 -2.9355200e-02
 -2.3928780e-02
  3.3795383e-02
 -1.5363240e-02
  1.0735640e-01
 -6.1304617e-01
 -1.0224116e+00
 -3.5889360e-01
 -6.5868330e-01
  1.4466150e-01
  1.5051367e-02
  4.8603874e-02
 -1.7279996e+00
  4.2738590e-01
 -6.7638554e-02
  5.0845128e-01
 -2.4620778e-04
 -2.1269086e-01
 -3.3899885e-01
  1.9967230e-01
  1.5583861e-01
  8.9325860e-02
  2.7450186e-01
  1.3738033e-01
  3.2388885e-02
  2.4420162e-01
  7.6036178e-02
  2.2124309e-02
  3.6832662e-03
  5.6872594e-01
  9.1175675e-02
 -2.7587766e-02
 -6.1404530e-02
  1.5563815e-02
  1.1312729e+00
 -8.2560718e-02
 -6.3496971e-01
  2.2533040e-03
  1.8391551e-01
  1.0287999e+00
 -8.4522653e-01
  1.6516887e-01
  2.3418497e-01
 -6.2947112e-01
 -3.3214229e-01
  2.3714863e-01
  1.4290708e+00
  4.2429778e-01
  4.2557351e-02
  2.3079905e-01
 -5.4423150e-02
  3.2917976e-01
 -1.6141240e-02
 -4.1379574e-01
 -3.4613729e-01
 -2.6491368e-01
 -2.3284222e-01
  1.4593683e-01
 -3.5155553e-01
  1.6682507e-01
  1.1206025e-02
 -7.4739081e-01
  1.3866767e+00
  1.0571094e-02
  7.0305043e-01
  3.7640503e-01
  6.9417015e-02
 -2.7103164e+00
 -8.7010980e-01
 -6.3454092e-01
 -3.2830849e+00
  1.8926682e-02
  4.4468531e-01
 -1.2314429e-02
  8.4413511e-01
 -2.1304817e+00
  1.5718824e-01
  1.4235468e-01
 -2.9933149e-01
  2.1276255e-01
  2.5664186e-03
  4.0463053e-02
 -1.1202505e-01
  4.8062939e-02
  1.4772203e-02
  1.6928349e-01
  1.1588758e+00
  6.9722317e-02
 -7.0578586e-03
 -6.8396717e-01
 -5.5863827e-01
 -4.3090980e-02
  6.6684908e-01
  4.7070388e-02
 -1.7527267e-02
 -3.2666531e-01
 -1.5429749e+00
  2.1746278e-01
 -3.0003693e-02
 -3.9894640e-01
  1.0132577e-01
 -1.8636659e-01
  1.7430030e-01
 -5.7227449e-03
  8.2624098e-03
 -2.0187218e+00
 -3.0033752e-01
 -2.8111432e-03
 -3.5820313e-02
  5.0168164e-02
  5.1121570e-02
 -8.2866158e-03
  2.8663902e-02
  2.4243474e-03
  8.9272857e-02
  1.0428210e-01
  2.9798217e-02
 -1.1663177e+00
 -7.7317574e-04
 -1.2869960e-02
 -1.5838819e-02
 -1.3815257e-01
  5.1316184e-01
  5.0431471e-02
  1.3823976e-02
 -9.1096625e-02
 -1.5063269e+00
 -1.1857704e+00
 -9.8836148e-01
  1.0379683e+00
 -2.8740716e-01
 -5.0202423e-01
  2.2893622e+00
  2.5370026e-01
 -1.8546359e-01
  1.2597926e+00
  4.5483354e-01
 -2.4765299e-01
  1.8576777e+00
  3.0133018e+00
 -1.6276428e-01
  4.4737765e-01
 -9.4689816e-01
  7.6029144e-02
 -6.5800703e-01
  2.6449949e-01
 -7.8115606e-01
 -2.4780199e-01
  9.4571570e-03
 -6.7429048e-01
  4.4275571e-02
  2.1892481e-01
 -2.3184347e-01
  8.5325837e-01
 -4.8382521e-01
 -3.4302509e+00
  5.0807303e-01
  1.4728923e-01
  1.6339177e+00
 -7.7475756e-02
 -1.1476122e+00
  8.2983243e-01
  1.4699320e+00
 -9.2043154e-02
 -1.8445007e+00
 -5.4692473e-02
 -6.7122541e-02
 -4.6125114e-01
 -1.1149655e-01
 -1.2327353e+00
  1.0731161e+00
  1.6629722e+00
  1.8871773e-03
 -1.0316046e-01
 -1.2749539e-02
 -5.9210978e-02
  2.0723750e-01
 -1.4930661e-01
 -1.1949116e+00
  2.0750955e-01
  2.4039157e-02
  1.5232160e-02
  1.7941144e-01
  6.9828457e-03
 -3.3191978e-03
 -5.4137368e-02
  8.7892815e-02
  1.1315634e-02
  4.5316359e-03
  5.2350378e-01
 -8.9729346e-02
  1.3398395e-01
  7.8713745e-02
 -5.2463241e-02
 -2.0725306e-02
 -5.7656679e-02
 -1.2612095e-01
 -4.4830512e-02
  3.6695752e-02
 -1.1063457e-01
 -9.7891269e-04
  1.7792298e-01
 -7.7378727e-04
 -4.1427377e-01
  1.5654473e-01
  3.1683261e-03
 -8.7493611e-03
 -6.3951218e-01
  8.5558994e-03
 -8.6519074e-01
  5.1192399e-02
 -1.3323841e-02
  8.4065154e-02
  4.0257461e-03
 -4.1794060e-03
  1.5065599e-03
 -2.6943984e-02
 -1.0917366e-02
 -3.8219165e-02
 -1.0276089e-02
 -6.1706375e-02
 -3.2857463e-02
 -8.5178306e-03
 -1.3692050e-01
 -2.1994939e-02
 -2.1661140e-02
  2.1769680e-02
  1.0619889e-02
 -3.7530385e-04
  3.1630695e-02
  7.8269862e-02
  2.8907854e-02
  4.9407169e-02
 -6.7010531e-03
 -1.5936725e-02
  1.0703531e-03
 -2.5699049e-01
 -1.8298201e-02
  4.1811153e-02
 -2.0285667e-01
 -3.1969980e-03
  1.4783686e-01
  1.9668568e-02
 -1.6709282e+00
 -2.5937112e-02
  1.2233800e+00
  4.3579754e-01
  5.6907650e-02
  9.6582733e-02
 -4.3381434e-03
  1.9317260e-02
  7.8050937e-03
  1.3080821e-03
  1.2395684e-02
 -1.4736454e-02
  8.6058807e-01
  8.1431669e-01
  3.1885009e-02
  7.6353930e-02
  3.6103625e-02
 -3.3337504e-01
  2.6624691e-02
 -9.1549531e-02
  2.3170273e-01
 -2.5606608e-02
 -7.8229852e-02
 -1.8651050e-02
 -2.1903648e-03
  5.3271554e-02
 -1.9139349e-02
 -3.5452742e-02
  5.2484749e-03
 -4.5260113e-02
  6.0286503e-02
  8.3217487e-02
 -2.6710568e-02
 -9.5082499e-02
 -9.7205043e-02
  1.4255093e-02
 -3.8208950e-01
 -6.6901641e-03
 -1.7082058e-02
  1.3845581e-01
 -1.0301020e-01
 -1.0898288e-01
  2.4923368e-01
  6.1498187e-02
  6.5468240e-04
 -1.5797473e-01
  4.3707002e-02
  1.2934659e-01
 -5.1947646e-02
 -6.4004727e-02
  1.7918432e-02
  5.3968281e-01
 -2.1075975e-02
  1.4886404e-02
  6.7472314e-03
 -3.9113149e-01
  3.9360020e-02
  1.0565642e-01
 -8.8097513e-02
 -2.1286398e-02
 -5.1404666e-02
  1.4857066e-01
  4.2771786e-02
  1.2380518e-01
 -1.1187463e-01
  4.8371144e-02
  2.4095101e-02
  7.1058407e-02
 -1.0013358e-01
 -4.5821648e-02
  3.3796698e-02
 -1.1400045e-01
 -1.1218254e-02
  1.3476012e-02
 -3.9315924e-02
  6.2610740e-03
  4.5120500e-02
  6.8637771e-03
 -3.9337608e-01
  5.7435501e-01
 -2.6397452e-01
  4.6386805e-01
  1.0269883e-01
 -2.2005422e-01
  9.0411954e-02
  5.5613655e-01
 -1.0737607e+00
 -1.2407707e-01
 -1.1385135e-01
 -1.1295590e-01
  2.6648271e-01
  1.4347969e-01
  4.3556958e-02
 -3.8137985e-04
  4.0182742e-01
  1.9162633e-02
 -2.2320540e-01
 -5.0404441e-02
 -8.3454056e-03
  1.2364682e-01
  4.9584042e-02
 -2.8353959e-02
  2.3981415e-01
  7.4399427e-02
  2.2593883e-03
  1.1895108e-01
  1.6928186e-01
  1.5592369e-01
 -1.5641488e-01
  1.5210879e-01
  7.8026760e-01
  4.1062925e-02
 -7.3432950e-03
  7.2537285e-01
  4.3295220e-01
 -1.3747608e-02
  7.9201895e-01
 -2.6701868e-01
 -5.1028764e-01
 -4.4672865e-02
  2.3622692e-02
 -1.7952827e-01
 -2.1472153e-01
  5.3978038e-01
 -1.1471390e-01
  8.3573367e-03
 -3.5883194e-01
 -7.7056843e-03
  1.0140187e-01
 -3.3734969e-03
  3.8714647e-02
 -7.8832870e-03
 -1.5010962e-01
  1.3075228e-01
 -5.7489043e-03
  2.0660870e-02
 -4.9035415e-02
 -4.2351258e-01
  4.3437671e-02
 -6.2116631e-03
  1.8566811e-02
 -1.9481958e-01
  3.7938140e-02
 -4.3907920e-01
 -1.9051038e-01
 -8.9746751e-02
  7.9534525e-01
 -1.2068906e-01
 -4.7374806e-01
  4.3131480e-01
  1.1637843e+00
 -3.4126559e-01
 -1.1303597e-02
 -1.0342779e-02
  4.8245698e-01
  9.4678454e-02
 -6.5794694e-03
  2.0153586e-02
  1.0196995e-01
  4.6327978e-02
 -1.2428900e-02
  8.8712949e-01
 -4.1579451e-02
  3.2699205e-02
  1.5581293e-01
 -1.5031205e-02
  3.7291009e-02
  2.2038577e-02
 -1.0796674e-01
  7.0280448e-02
  8.9442030e-02
  1.0290031e-02
 -3.7667610e-02
 -1.0598318e-01
 -5.3533692e-02
 -2.4128500e-02
  4.4175256e-02
  2.2927936e-02
 -1.9977327e-02
 -4.6822261e-02
 -1.3697917e-02
  9.3789995e-03
 -4.3452522e-03
 -5.3797387e-02
 -1.3138819e-02
 -1.0280980e-03
 -5.6758843e-02
 -5.0062045e-02
 -1.7207924e-02
 -3.3244137e-02
 -4.1885085e-02
 -3.0909998e-02
  6.7060873e-02
  1.7398175e-02
 -1.3872956e-02
 -2.6602386e-02
 -2.2379711e-02
 -9.6285954e-02
 -1.6378267e-01
 -6.1144214e-02
  1.1434135e-01
 -2.9916031e-02
 -9.7159304e-02
  6.6578194e-02
 -2.3447324e-02
 -3.3327054e-02
 -4.7709516e-01
 -6.1805537e-03
 -8.2728580e-02
  1.3925372e+00
  3.1453452e+00
 -1.5059325e+00
  2.0502001e-01
 -9.8655432e-01
 -1.2395843e+00
  1.2188715e+00
 -6.7153776e-01
  8.4011412e-01
 -7.0170385e-01
  1.2785454e+00
  1.6432472e-02
 -8.3658391e-01
  8.5667467e-01
  4.7007379e-01
 -4.4206902e-01
  7.3366404e-01
  7.0132083e-01
 -2.8218949e-01
 -2.7718592e-01
  8.6698657e-01
  7.2864163e-01
 -1.5680999e-01
 -8.0943331e-02
 -1.1394948e+00
  9.6573788e-01
  3.4722751e-01
  6.4853561e-01
 -1.8303726e+00
  1.1883298e-01
  2.4455328e+00
 -6.8906270e-02
 -2.2275902e-01
  8.7925220e-01
  2.4753787e-01
  4.5089264e+00
  1.4608172e-01
  2.5825715e-01
 -1.0984448e+00
 -1.1335190e-01
 -1.2378104e+00
 -1.1073775e+00
  1.7742351e+00
 -1.3137801e+00
  1.0932689e+00
  2.9811593e-02
  1.5087973e-01
 -7.2306516e-03
 -2.0350355e-01
  1.5561737e-01
  3.0510651e-02
  1.0852813e-01
 -2.7191011e-02
 -7.3571420e-01
  2.5408320e-02
  5.7138320e-02
 -7.2494611e-02
 -1.1812543e-01
 -3.2173879e-02
 -1.6156128e-01
 -1.1393567e-01
 -1.0533817e-01
  2.7515855e-01
  3.4096241e-02
  2.7531658e-03
  2.1893473e-02
  4.5632713e-02
 -1.2761725e-01
  3.8148038e-02
 -3.2041630e-01
  6.8053091e-03
  2.6592282e-03
 -1.5543902e-02
 -1.3179730e-01
 -2.4564864e-02
  4.8567605e-01
  7.1987920e-02
  6.9228008e-02
 -3.5530191e-02
 -3.2348000e-04
 -2.7467506e-02
 -3.1371284e-02
  1.7734041e-04
 -5.6223303e-02
 -1.9682031e-02
 -1.3182373e-02
  2.0279640e-02
 -1.5505401e-02
 -2.2510627e-02
 -7.4320622e-02
 -1.0320481e-01
  9.4500706e-02
  1.7920195e-01
  6.3093446e-02
 -2.3801541e-02
 -1.4162717e-02
 -3.5319213e-02
 -1.1135212e-01
  4.9605216e-03
 -2.8217588e-02
 -7.4865244e-02
  6.3925222e-02
  6.1436482e-02
  1.2604450e-02
  7.7720612e-02
  9.8971687e-03
  6.7648973e-04
 -6.6276930e-02
  3.4789485e-03
  3.3843045e-03
  6.9405299e-01
 -4.1710851e-03
 -2.4644548e-02
  2.9446237e-02
  5.8093563e-02
 -3.7237080e-03
  9.1277093e-02
  7.5080119e-02
  4.1092198e-02
  2.3894772e-02
  3.3339530e-02
  7.6874182e-02
 -9.7216435e-02
  9.7970515e-02
  3.0096462e-03
 -7.3314616e-03
  2.7387481e-02
  4.0767357e-02
 -6.5176815e-02
 -6.6407859e-01
  1.2102578e-01
 -1.3216720e+00
  8.5988522e-01
  6.4383090e-01
  7.9399431e-01
  1.4272287e+00
  9.0266950e-03
 -7.9994744e-01
 -8.1384218e-01
  7.7161056e-01
 -4.6374750e-01
 -6.1501421e-02
 -5.3980428e-01
 -1.2551048e+00
 -5.0633293e-01
 -1.1839642e-02
 -7.7647352e-01
  3.2526436e-01
 -8.5289532e-01
  5.2835083e-01
 -2.5061452e-01
  1.9439590e-01
 -3.3264089e-02
 -2.2917262e-01
 -6.7744553e-01
 -2.1131351e+00
 -1.0369041e+00
 -1.2769322e-01
  8.7568521e-01
 -1.1628180e-01
 -9.4233620e-01
 -1.0935544e-01
 -3.4060863e-01
 -2.4583007e-01
  1.4029306e+00
  8.0055922e-01
  4.8419040e-02
  8.3199888e-02
 -9.0417668e-02
 -3.4139693e-02
  1.1090128e-01
  3.8974455e-01
  1.2990146e-02
  1.9608262e+00
 -1.3137431e-02
 -4.8296531e-03
 -1.9899592e-01
  1.6806157e-01
  3.0689305e-02
 -8.0705956e-03
 -2.1863269e-02
  8.9083992e-02
  4.8425448e-01
  4.5938835e-02
 -6.1271574e-02
 -2.0439301e-02
  5.7899855e-02
  4.4029921e-02
 -5.8118816e-02
  1.6347775e-02
 -1.7421685e-01
 -9.1685623e-02
 -4.2980787e-01
 -2.4338183e-01
 -6.0555432e-02
  7.6509798e-01
 -1.0934699e-01
 -2.4634612e+00
 -1.1588490e-01
 -6.5889198e-01
  2.0951457e-02
  4.0298026e-02
  6.5450639e-01
  1.9017504e-01
  5.7142265e-02
 -1.5984321e-01
  5.9993770e-03
  7.2355300e-02
  4.7576915e-02
 -4.9360278e-03
  1.8821247e-02
  3.3580113e-02
  9.2048496e-03
  4.7660641e-02
  5.2932343e-03
 -7.1387514e-03
 -5.7792567e-02
 -4.4822816e-02
  2.0591082e-02
 -6.0085766e-02
  6.6725872e-02
 -1.9769464e-03
 -4.1584559e-02
  1.0111017e+00
  2.9515603e-01
 -2.7757883e-02
  3.8644567e-02
  4.2473012e-01
  9.6953332e-02
 -7.0499415e-03
  1.0737530e-01
 -2.0503983e-02
 -4.4974644e-02
 -1.3244785e-02
  4.5194007e-02
  2.9167585e-02
  8.4590452e-04
 -6.4908572e-02
  4.1390594e-02
 -7.1524218e-02
  1.7569605e-02
  1.2102564e-01
  1.6012357e-01
  8.8320272e-03
 -4.7754720e-02
 -1.4090246e-02
  3.1057836e-02
 -1.5200985e-02
 -8.1898086e-02
 -4.6490435e-02
  1.3941728e-01
 -5.6731561e-03
 -4.1578162e-02
 -8.9621190e-03
  5.8134239e-02
  1.8726124e-03
 -9.8016234e-03
 -7.7110782e-02
  3.0949159e-02
 -8.7266289e-02
  2.2238662e-02
  1.9627366e-02
 -1.5944310e+00
  3.8028967e-02
  8.7442182e-02
 -2.8559560e-01
  4.0632822e-03
  7.9174119e-01
 -8.3070230e-03
  4.8337091e-02
  3.2842588e-02
  9.1172896e-02
 -4.6720635e-02
  9.6120283e-02
 -1.2816496e-01
 -4.8373900e-02
  3.3996686e-02
  5.7269618e-02
  5.6543738e-01
 -3.8703438e-02
 -1.1200306e-02
  9.8922728e-03
 -1.4480184e-01
 -4.0042091e-02
 -1.6309924e-02
  8.6109288e-02
  3.8074113e-02
  6.2331446e-02
  4.1519117e-02
  3.9917793e-02
  1.3677485e-02
 -4.6569340e-02
  2.8207570e-02
  3.5880387e-02
  6.8505543e-01
  2.7250757e-02
  6.1567985e-02
 -2.7140312e-02
  4.9702626e-02
  3.9015764e-03
 -3.5792876e-02
  7.9218104e-02
 -6.0842098e-03
  1.4098082e-02
 -4.0366720e-02
  1.4598701e-02
  2.4196904e-03
 -5.3404268e-02
 -2.0204347e-02
  2.7387998e-01
 -6.4716071e-02
 -5.5572283e-02
 -3.1634752e-02
  7.1407601e-02
  7.6516807e-02
 -3.9605498e-02
 -8.1029005e-02
  4.1446257e-02
 -6.1012496e-04
 -1.6316397e-02
 -2.0629138e-02
 -8.2681835e-02
 -5.4403320e-02
  9.2658717e-03
  1.7389574e+00
 -2.7351547e-02
 -2.3499180e-03
  1.3166074e-02
 -9.3450472e-02
 -3.3578721e-03
  3.1769697e-02
 -4.1185468e-02
 -3.2322764e-01
  6.7313328e-02
 -3.8878705e-02
 -5.4398086e-02
 -1.1024396e-02
 -1.0081224e-02
  2.0865066e-02
 -1.8742433e-01
  1.2388146e-01
  1.6255422e+00
  2.0250415e-03
  5.3810365e-02
  8.4052712e-02
  1.0502318e-01
  1.2490818e-02
  2.4553902e-02
 -4.1600959e-03
  6.2666461e-03
 -3.5519487e-01
 -1.4791125e-02
  4.0906626e-03
 -4.2522773e-02
 -1.4534532e-01
  2.8413704e-02
 -9.1356575e-02
  4.0988769e-02
 -1.0506399e-01
 -6.6795103e-02
 -2.3756917e-01
  6.1035246e-02
  1.9262115e-02
 -9.9022001e-02
  4.8381402e-03
 -4.2854520e-03
  1.4323415e-02
 -5.1021438e-02
  8.4952056e-02
  1.1093494e-02
 -3.7777372e-02
  1.7855570e-02
  1.2153739e-01
  3.9576209e+00
  7.1376339e-02
 -8.8748448e-02
 -5.1217270e-01
 -2.9614069e-02
 -4.4472441e-02
  1.4880417e-01
  3.3253223e-02
  9.0288036e-02
 -3.1745532e-03
 -3.6030363e-02
  6.0967773e-02
 -2.1392185e-02
  5.8034744e-02
 -3.8148057e-02
 -1.3024122e-02
 -2.9231276e-02
  7.2502508e-03
 -2.0685782e+00
  1.2918359e-01
 -2.2328950e-02
  2.7461854e-01
  9.6643984e-02
 -1.4901632e-01
  1.4430013e-01
 -7.4715130e-02
 -2.2828137e-03
  1.2381147e-02
  2.0376019e-02
  1.8384087e+00
 -6.1709333e-02
 -3.5324483e-03
 -1.0772968e-01
 -6.9631696e-02
 -5.8767829e-02
 -7.4872980e-03
 -5.4658934e-02
  2.3455212e-02
  3.0198382e-02
 -1.2246145e-01
  6.0535435e-02
  7.9210728e-02
 -2.3946617e-02
  2.6949262e-02
 -1.2425548e+00
 -6.6511326e-02
  2.1564623e-02
 -4.3203428e-02
 -1.2433288e-01
  1.4533744e-02
  1.3735344e-02
 -7.4665183e-01
  6.2756635e-02
 -6.6093363e-02
  8.9398608e-02
 -8.6857677e-02
  1.9551307e-02
 -9.2573039e-02
  1.8066187e-04
 -2.5049966e-02
  2.3013917e-04
 -7.8229204e-02
 -4.7757025e-03
 -3.3822265e-02
  1.2047776e+00
  6.0878865e-02
 -4.5250680e-02
  4.6411720e-03
 -1.8514211e-01
 -5.8314282e-01
 -1.2903992e-02
 -2.3409316e-02
 -2.4538031e-02
 -2.1735489e-02
 -5.6657825e-02
  6.5872639e-02
  9.4883166e-02
 -6.9495030e-03
  3.7316713e-02
 -1.3829193e-02
 -4.1178979e-02
 -3.7187085e-02
  1.1631383e-01
  8.4342688e-02
  7.6057926e-02
  2.2180657e+00
  2.7046558e-02
 -5.2189074e-02
 -9.5136935e-04
  1.0126045e+00
 -4.6311460e-02
  3.2793432e-02
 -4.2309619e-02
  1.4447115e-01
  2.3393877e-02
 -1.7478200e-02
 -8.2791083e-02
 -1.7483667e-01
 -2.9405694e-02
  8.9727350e-02
  9.3600787e-03
 -8.0762602e-02
 -2.1099588e-02
 -3.6788487e-04
  8.3635356e-03
 -1.5147154e-01
 -1.2473175e-03
 -1.3417183e-02
  7.4932389e-02
  4.1848909e-02
  1.0484629e-01
  6.7544221e-03
  6.2937510e-01
  1.1250722e-02
 -6.5084793e-02
 -2.6924888e-02
  8.8902026e-02
  5.5017155e-02
  1.7417660e-03
  1.0378144e-01
 -1.0102405e-01
 -2.9358039e-02
 -1.7370112e-02
  1.9182019e-01
  3.7004896e-03
 -1.5699189e-02
  3.8426090e-02
 -9.6778415e-02
 -5.8177669e-02
  3.0606125e-02
 -1.8052330e-02
 -7.2385564e-02
 -5.3079907e-02
 -1.1329905e-02
  3.1603956e-01
  3.4181844e-02
 -3.3267979e-02
 -1.3394424e-01
 -9.2751356e-03
  4.5736760e-02
  5.6499343e-02
  8.3774671e-02
 -1.2233700e-02
 -4.0817481e-02
  3.5852637e-02
 -2.0572871e-02
  3.1951174e-02
 -2.9070012e-02
 -5.4146569e-02
 -1.9524308e-01
 -2.3537232e-03
 -1.0819108e-01
  3.1882843e-01
 -1.6269134e-02
 -4.3169895e-01
 -2.7569940e-02
 -4.2782877e-02
 -1.1226149e-01
  4.9187914e-02
  2.5665112e-02
 -5.2976727e-02
 -1.0817097e-01
  1.3846337e-03
 -1.5614992e-02
 -5.6477776e-03
 -3.4122188e-03
  1.0722307e-01
 -4.0825672e-02
  5.1933870e-02
 -3.6826085e-02
 -4.6175737e-02
 -3.5389211e-02
 -1.7424647e-02
  4.9871277e-02
  2.8931383e-02
  8.5260503e-02
 -1.9765198e-02
 -4.8171300e-02
  3.4170918e-02
 -3.2368414e-02
 -3.4674585e-02
  5.4435514e-02
  1.2415453e-02
  1.5882760e-01
  1.6679300e-02
  5.0737113e-02
 -1.1381043e-01
 -3.6520439e-03
  4.2324785e-02
 -2.6820250e-02
  1.1496629e-01
  2.1464594e-02
 -1.5571563e-02
  4.0222164e-02
 -6.7002210e-04
  7.0298593e-03
  6.7132646e-03
  4.1507073e-02
 -4.4205017e-02
  4.7221255e-02
  9.7457115e-03
  9.8127155e-03
 -5.9153107e-03
 -1.7248855e+00
  5.2261598e-02
 -1.1254173e-01
  3.7385117e-02
  1.2022959e-02
  1.2949882e-01
  3.1395163e-02
 -2.1324211e-01
 -3.2757771e-01
 -8.2729489e-01
 -8.5518323e-02
 -8.0450261e-01
  5.9663415e-01
  5.9703439e-01
 -2.1972141e-01
 -3.9914167e-01
  9.1851819e-01
  2.4743679e+00
 -1.1705484e+00
  6.8278596e-02
 -3.3194382e-02
 -5.9504732e-02
 -4.3339860e-01
  2.1091721e-04
  1.1628682e-01
 -7.9274499e-01
 -5.7995331e-01
 -1.0910693e+00
 -8.9826854e-03
 -8.7926604e-02
  2.7502665e-02
 -1.3604940e-01
 -2.7170965e-01
  4.6606696e-01
 -3.3616787e-01
  2.2542885e-01
 -3.3393353e-01
  2.2775229e-02
  3.4661768e-03
 -7.7974416e-02
 -7.7014971e-01
 -1.0457485e+00
  1.9241504e-02
  6.1321822e-03
  6.4385235e-01
 -5.2724171e-02
 -6.3992962e-02
 -7.5527228e-02
 -5.0424535e-02
 -1.6199572e-02
 -1.1779810e-01
 -1.7341888e-02
  6.0303354e-01
  1.3450087e-02
 -1.2335841e-01
 -1.4916282e-02
 -3.9033233e-03
 -2.6169296e-02
 -3.6948152e-02
  1.8500597e+00
  1.2104776e-02
  9.7607262e-02
 -4.8482466e-02
  1.1435876e-01
 -1.7447039e-02
 -4.0062368e-02
 -2.0401080e-01
 -7.4333423e-03
  1.0022791e-02
  9.2717363e-03
 -3.0197646e-02
 -2.5506523e-01
 -2.4692364e-01
 -9.1795139e-02
 -1.3625760e-01
  1.2062787e-02
  1.0739649e-02
 -6.4560305e-03
 -1.5822707e-01
 -1.6072188e-02
 -4.9650770e-02
  2.1126790e-03
 -1.9163199e-02
 -1.3094230e-02
  4.3347564e-02
  5.1620048e-03
  1.4902751e-02
 -2.5976863e-02
  1.8075068e-02
  2.7550432e-01
 -1.6065573e-02
 -5.6169324e-02
 -2.3105264e-02
 -8.3871424e-02
 -2.9885584e-02
 -7.3040545e-02
 -6.6397905e-02
 -7.5588254e-03
  3.7758045e-03
 -4.9058657e-02
 -8.8785375e-03
 -1.7108078e-01
 -4.8946790e-02
  1.1741371e-01
 -1.0811968e-01
 -8.2310311e-02
  4.8929084e-02
 -8.5700313e-03
  4.7673497e-02
 -3.6441918e-02
 -4.3396480e-02
  6.4572096e-02
 -9.9496432e-02
 -5.3798552e-03
 -6.8640627e-02
 -1.5717319e-01
 -2.6809058e-01
  4.6782471e-02
  3.7554771e-02
 -9.7077396e-03
  1.8146569e-01
  5.7349879e-02
 -1.4984393e-01
  6.4438529e-02
 -4.4715977e-01
  2.5299823e-02
 -1.6050832e-02
 -2.9126192e-02
 -2.0202657e-02
 -7.2276955e-03
 -4.6434056e-02
 -3.3553857e-02
 -3.9002556e-02
 -8.7176301e-02
  6.9589570e-02
  5.5086423e-02
 -3.0177718e-02
 -7.1765348e-02
 -2.0306534e-01
 -3.8883876e-02
 -5.9724107e-02
  3.4588254e-03
  4.1938785e-02
 -6.7723934e-03
  5.3951196e-02
  7.5953364e-02
  3.0573943e-01
 -6.0925178e-02
 -7.4393734e-02
 -8.7684773e-02
  4.2568471e-02
  3.2899890e-02
  2.2123745e-01
  6.6617124e-02
 -4.6444569e-02
  1.1016102e-02
  2.5337964e-02
  1.9317602e-01
  7.1015701e-02
  2.5224766e-01
 -7.6644443e-02
 -6.3408583e-02
  6.0577773e-02
 -6.5371357e-03
 -4.2019533e-03
  3.5021394e-02
  2.8350540e-02
  4.1150700e-02
 -4.0502001e-02
 -3.7067968e-02
 -4.8666722e-01
 -1.6838206e-02
  4.2697914e-02
 -1.2923692e-02
  9.4810054e-02
 -7.3274062e-03
  7.5136401e-02
 -4.4611815e-02
  3.1081358e-02
 -2.6975315e-02
 -3.0985121e-02
 -2.0504180e-02
 -7.5451927e-03
 -4.2849991e-02
 -3.8129851e-02
 -6.6143036e-02
 -4.0288210e-02
  1.3062344e-02
  3.7982636e-03
 -3.9120067e-02
 -2.3805384e-02
  1.2319001e-01
  4.2220932e-02
 -4.4465698e-02
  3.5588691e+00
 -2.3627633e-01
 -8.4369555e-02
  1.5372606e-01
 -2.6982987e-02
 -3.2565687e-03
  2.7899366e-02
  3.2109488e-02
 -1.8146122e-02
 -3.8604316e-01
 -1.9115610e-01
  4.2535782e-02
 -1.8052164e-01
  3.6807481e-02
  1.4381537e-01
  2.5692964e-01
  1.7464139e-02
  6.6592492e-02
  4.6599485e-02
  1.4062426e-02
  1.2594370e-02
  6.9471739e-02
  1.2967888e-01
  4.6084564e-02
  2.3531737e-02
  2.2049850e-02
  3.9151918e-02
  6.0694781e-04
  1.3825817e-01
  7.8359932e-01
  9.1779284e-02
 -4.0400993e-02
 -2.1242660e-02
 -5.1265556e-01
  7.0280127e-02
  6.4378385e-03
  4.7762800e-02
  7.2933637e-02
  4.7221512e-02
 -1.9353619e-02
  8.1684880e-02
  9.1783583e-02
  2.9625231e-03
 -1.7129138e-01
  3.5132170e-02
  2.7520649e-02
  8.9523263e-02
 -5.9294287e-02
  7.5527998e-03
  1.9431736e-02
 -2.4429666e-02
  1.2320853e-01
 -2.1575307e-02
  2.2582028e-03
  2.6244234e-02
 -1.9754148e-03
  2.8082019e-02
 -4.9114686e-02
 -1.6796743e-02
 -3.5763107e-02
 -3.2767225e-02
  1.1678152e-02
  4.7514477e-01
  1.2574346e-01
  7.0999330e-03
  5.3833704e-03
 -3.5929918e-02
  4.2581442e-03
 -2.0770809e-02
 -6.3978858e-02
  3.5310965e-02
 -2.3519976e-02
  5.4175267e-03
 -1.5421113e-01
  1.3974096e+00
  2.1794066e+00
 -2.0923710e+00
  1.4636681e+00
 -1.0578769e-01
  5.5680156e-01
 -1.4416170e+00
 -2.0016971e-01
 -5.6131852e-01
  3.4037775e-01
  4.5459542e-01
  1.2398275e+00
 -1.0334418e+00
  9.7029817e-01
 -2.0524757e+00
 -4.7802225e-01
 -2.3180487e-02
 -4.9534237e-01
  3.0976668e-01
 -2.0138952e-01
  7.4142015e-01
 -1.5784571e+00
 -3.5900787e-01
  1.9523033e-01
  6.1765087e-01
  5.1861137e-01
 -2.9645556e-01
  1.0169683e-01
 -1.6434874e-01
  1.6304710e+00
 -2.2852691e-01
  3.6508816e-01
  5.4285088e+00
  9.1792917e-01
 -1.9076379e-02
 -1.3949263e-02
 -3.2818072e+00
 -1.7629302e+00
 -1.8881383e+00
  5.3297365e-01
  1.6537784e+00
  4.6270175e+00
  4.6576539e-01
  2.6598951e-01
  2.8290818e+00
 -2.0567670e+00
  3.7445414e-01
  1.8124692e-01
  8.9095481e-02
  3.7848976e-02
  8.8444583e-02
 -4.1932411e-02
  2.0536037e-01
  9.4979204e-02
 -7.5250737e-02
  2.8984576e-02
  2.0966692e-02
 -4.2952675e-02
 -4.3580802e-03
 -9.4472049e-03
  1.6641283e-01
  5.3565428e-02
  3.8884919e-02
  1.0513287e+00
  7.7681221e-02
 -7.7415623e-02
 -4.4317824e-01
  2.9637253e-02
  1.5008570e-01
 -2.4510153e-01
  1.9080380e-01
  8.7589085e-02
  1.1712410e+00
 -4.5931327e-01
 -6.1925229e-02
  4.2307641e-02
  1.1467575e-01
  1.2157133e-02
  3.9632168e-02
  4.8956368e-02
  3.3970032e-02
  4.3741517e-02
 -1.7700566e-02
 -3.7199505e-02
  8.9223452e-02
 -1.4301714e-02
  1.4423634e-01
  2.0275991e-01
 -4.3478362e-02
  4.5844351e-04
  4.6480989e-01
 -6.3942152e-04
  5.1075175e-02
 -5.8862293e-04
  6.6079542e-02
  4.4345520e-02
 -2.6668007e-02
  4.1710526e-02
  4.0807005e-02
  3.8557664e-02
 -4.2903788e-02
  2.1770880e-02
 -1.8964734e-02
  1.6292967e-02
 -3.9934341e-02
 -3.6924700e-03
 -1.7686788e-02
 -3.2362796e-02
  3.2265298e-02
  3.7927516e-02
 -1.6369227e-02
 -2.5627127e-02
  1.0991477e-02
 -4.7797937e-02
 -4.4234589e-02
 -1.1966443e-01
 -2.7005900e-02
 -1.9534152e-02
  1.9737838e-02
 -3.6503356e-02
 -2.0656016e-02
  9.0944625e-02
  1.8193966e-02
 -9.2177530e-04
 -6.0258254e-02
 -4.6266401e-03
 -1.5877473e-01
 -7.0026391e-03
  1.3789758e-02
 -8.3624944e-03
  1.6710870e-02
  5.4518194e-03
 -1.9821666e-02
 -1.3975710e-02
  6.9348648e-02
  5.7702516e-03
  2.3757968e-02
 -1.1326008e-02
 -1.5424965e-01
 -3.3987515e-02
 -8.8273890e-02
 -1.1237726e-01
  8.8678360e-02
  6.4402670e-02
  5.1224910e-02
  1.3810256e-02
  6.9971539e-02
  2.1829035e-02
  4.9112845e-02
  9.2578970e-02
 -2.9161382e-02
  2.3377035e-02
 -3.6341023e-02
 -1.1142054e-01
  4.4176415e-02
 -2.8581299e-02
  5.7215441e-02
  2.0188195e-01
 -3.0024204e-02
  3.6783841e-02
  1.0816572e-01
  4.9785617e-01
  6.9138467e-02
 -8.1791684e-02
  9.3059772e-01
 -5.2751835e-02
 -1.2315720e+00
 -6.4955275e-03
  2.4809819e-02
  2.6936751e-02
 -4.4563408e-03
  1.4823034e-02
  4.6872847e-02
 -1.2351011e-01
  7.5813532e-02
  5.0977994e-02
 -2.5637941e-02
  3.3599373e-02
  1.1299519e-01
 -6.6712670e-02
 -4.6533380e-02
  1.4089244e-02
 -6.5956074e-01
  3.4082837e-02
 -5.3756472e-02
 -9.2102788e-02
 -2.4658196e-01
  2.4711946e-02
 -2.1556100e-02
  1.5501621e-03
  1.8646974e-02
  1.2186763e-02
  2.2766160e-02
  4.7082394e-02
 -1.1966106e-02
 -5.1724300e-02
  3.3570373e-01
  5.9787646e-02
 -1.3018846e-02
 -4.1376509e-02
  1.8784640e-02
 -4.0130492e-02
 -3.0896895e-02
  2.1528784e-02
  3.7351798e-02
  4.9902648e-02
 -1.3161319e-01
 -6.6832826e-02
 -7.7269403e-03
 -3.3274043e-02
  8.5394345e-02
 -3.5625449e-03
  2.2145513e-01
  3.2648981e-02
 -1.3124198e-01
  3.3320930e-02
  1.6100875e-01
  2.9992610e-02
  4.3492399e-02
 -5.9600575e-03
 -1.7265998e-02
  1.1373753e-01
 -5.6359209e-02
 -1.0662717e-01
  4.0083867e-02
  3.6813919e-02
 -1.9743402e-01
 -2.7055671e-02
  5.4052483e-02
 -4.7321296e-01
 -4.4964246e-02
  9.0823621e-02
  9.8346338e-02
 -1.2648431e-02
  3.2709587e-02
 -9.5713055e-03
 -1.0893068e-01
  1.1300171e-01
 -3.2329562e-03
  2.5069237e-02
 -1.0983190e-02
 -3.2479350e-02
 -5.1413901e-02
 -5.5720471e-02
  2.8955752e-02
 -4.0772220e-01
  1.0906005e-02
  4.2522434e-02
  2.1140326e-02
  5.6988601e-02
  8.8382522e-03
 -1.0237576e-02
 -8.4992260e-02
 -3.1262234e-02
 -2.7634602e-02
  1.5089335e-02
  1.6015732e+00
 -9.4565935e-03
  4.3254040e-02
  1.0998250e-01
 -6.3592568e-02
  2.2542258e-01
  8.8063151e-02
  5.5997733e-02
 -5.1441602e-02
 -2.2141305e-03
  5.3700984e-01
 -9.4037265e-02
 -3.6252657e-01
  6.6032060e-03
 -2.6667643e-02
  9.5555864e-02
 -2.0368926e-02
 -6.3235171e-02
 -1.3913546e-02
  1.6634464e-01
  1.8297091e-02
  2.4782953e-01
 -2.5877652e-01
  6.1838523e-02
  1.6693048e-02
  6.8063602e-02
  1.0006150e-02
  4.3401346e-02
  3.6806200e-02
  1.0343831e-03
 -5.6782223e-02
  2.3868859e-02
  1.0304692e-01
 -3.0785592e-02
  1.1720844e-02
  7.2401062e-02
 -2.7383590e-02
  3.6510788e-02
  1.1725158e-02
 -2.1037070e-01
  3.8559774e-03
  1.4754947e-01
 -3.0202318e-02
  2.5857002e-02
  5.7809435e-02
 -6.3849144e-02
  1.8750591e-03
  9.1740033e-03
  3.4840040e-02
  2.7461836e-02
 -3.7290934e-02
  1.6654814e-02
  1.7254924e-02
 -9.1794722e-02
  1.3579505e-02
 -2.4436906e-02
  6.4896896e-02
 -2.2707047e-02
 -2.1127541e-02
 -8.9357638e-01
 -1.0731280e-02
  1.3070405e-02
  1.1188000e-02
  2.2222872e-01
 -1.6523524e-01
 -1.1331974e+00
 -4.8689157e-02
 -3.1629446e-04
 -4.6449397e-02
  5.7884300e-01
  3.3527125e-02
 -6.6931084e-02
 -4.8306549e-01
  2.5012743e-01
 -9.2202410e-02
  1.6149643e-01
 -9.0352535e-02
  4.3430498e-01
 -3.3554336e-01
  1.1617864e-02
  2.8539982e-02
  1.1618748e+00
  6.5837339e-02
  2.7657692e+00
  4.9982861e-02
  4.1198514e-02
  8.8289604e-02
  1.6539851e-01
 -1.4602524e-01
 -6.5531195e-03
 -3.5396423e-02
  1.8083052e-01
  3.0122817e-02
 -3.4470912e-02
  1.4654259e-01
  2.8339790e-02
  4.1235918e-01
  5.2085095e-03
 -1.5337998e-01
 -1.3335026e-02
 -4.7338076e-02
 -1.0225767e-02
 -7.3220491e-02
 -5.5030710e-01
 -1.4350154e-01
 -1.7717005e-01
 -4.5404658e-01
  2.4243043e-04
  2.0788456e-01
 -2.2791665e-02
  7.2322443e-02
 -5.3422153e-02
  5.0669797e-02
 -4.4914979e-02
 -5.2230678e-02
 -2.5426408e-02
 -1.0645401e-01
  1.3345312e-01
  4.3649204e-02
  2.6698248e-02
 -1.9162249e-02
  5.0436668e-02
 -6.3823678e-02
 -7.0692711e-03
  4.5035098e-02
 -2.7175594e-02
 -3.3519026e-02
  4.9223970e-03
  1.0224752e-02
  8.8976379e-03
  6.6305786e-02
  4.9418401e-02
  6.1436724e-02
 -3.7301395e-02
  7.0850283e-01
  7.4550802e-01
 -7.0101774e-01
  2.5091493e-01
 -1.0457549e+00
  1.1296421e-01
  8.9902020e-01
  9.6002676e-02
 -5.6605256e-01
  8.0547416e-01
 -4.1623804e-01
  4.1651180e-01
  1.2610847e+00
  7.7833831e-01
  3.8672918e-01
 -3.9522672e-01
 -1.2781224e-01
  8.5377389e-01
 -6.5186667e-01
  7.7139485e-01
 -8.7791854e-01
  1.0498994e-01
 -2.1534965e+00
  9.5883536e-01
  9.9916840e-01
  1.1428534e+00
  1.0862744e+00
  2.3582092e-01
  7.9105836e-01
 -3.7288643e-02
  2.4751871e+00
  9.2736530e-01
 -2.6765943e-01
  2.3386066e+00
  1.4662929e+00
 -4.0822229e-01
 -1.0846696e+00
  8.2903188e-01
  1.1942886e+00
 -8.8941306e-03
  1.2561592e-01
 -1.6284646e+00
 -9.4631195e-01
 -1.0245354e-01
  1.1180922e+00
  7.2295191e-03
  9.2445451e-01
 -2.4828007e-02
  3.1527482e-02
  4.6920110e-02
 -5.3855461e-01
  1.3134769e-01
 -2.5736845e-01
 -2.1813224e-01
 -9.3211114e-02
  5.5736393e-02
 -1.7209737e-01
  1.9586027e-02
 -2.8735884e-02
  1.1927951e-01
 -1.3054607e-02
  2.5930754e-03
 -9.3546264e-02
  1.1917369e-01
 -4.0483859e-01
 -2.2191837e-02
  3.1327747e-02
  4.6366967e-02
 -3.5257220e-02
  1.6083390e-01
 -1.7241172e-01
  7.4646212e-02
 -4.8645427e-03
 -2.3379769e-02
  1.8619597e-02
  1.3738990e-02
 -8.5202446e-03
 -1.1648311e-02
 -1.7261587e-02
 -3.1838972e-02
  4.5706548e-02
 -9.9516381e-03
  5.3012852e-02
 -4.8003349e-02
  4.4986564e-01
 -7.5194232e-02
 -2.2164749e-02
 -9.5634431e-02
  4.0554594e-02
 -4.7147900e-02
  2.2441968e-02
 -1.2066415e-02
 -4.5693908e-02
 -5.6101540e-03
  4.2197281e-03
 -5.5073876e-02
  7.4296468e-03
 -4.4019956e-02
 -1.1110942e+00
  7.3914997e-02
  4.8439905e-02
 -4.0801000e-03
  2.8615702e-02
  4.2275559e-02
  2.8107172e-02
 -1.7678989e-02
  1.2019310e-02
 -1.4173412e-01
 -3.2972298e-03
  6.4732837e-03
  9.7665694e-03
 -1.1284066e-02
 -9.5273376e-02
  1.6254304e-02
 -4.5238357e-02
  3.6121119e-02
  3.9373655e-03
 -8.5569210e-03
  1.1291658e-02
 -4.9086247e-02
  2.9943879e-03
  6.1139524e-02
 -6.7118756e-03
  1.5435296e-02
  2.7747324e-02
  4.2426351e-02
 -8.1650587e-03
 -4.7881346e-02
 -1.3962560e-02
 -5.3082258e-02
 -5.7665789e-03
  1.9041436e-02
  8.6395599e-02
  6.0666567e-03
  8.4378414e-02
 -4.8524003e-02
  3.2428768e-02
  1.0730363e-01
  1.9361793e+00
  1.1072045e-01
 -1.7132353e-02
 -6.2150612e-02
 -6.8623036e-01
  1.4921533e-02
  6.7798346e-03
  3.4396409e-03
  1.1499292e-03
  1.4565021e-02
 -6.0754973e-03
  8.1570782e-03
  4.8842635e-02
 -4.2212006e-02
 -2.2782066e-03
  3.4334488e-02
  9.2176557e-02
 -6.1781486e-03
 -8.6827181e-02
  1.1060050e-01
 -1.0183749e-01
  8.0930889e-02
 -1.1715309e-03
 -1.1616087e-03
  1.5980974e-02
 -5.4569983e-01
 -2.9386496e-02
 -7.7476993e-02
  6.2477877e-03
  3.9140798e-02
 -2.1349821e-02
  3.0886574e-02
  4.9922984e-02
 -4.7116715e-02
 -2.2295168e-02
  2.3957903e-02
 -7.0039093e-02
 -3.0106910e-02
 -2.0591628e-02
 -1.3630457e-02
 -1.2252750e-02
 -6.8667047e-02
 -1.4234494e-01
  1.5585033e-02
 -5.3040333e-02
  3.1020919e-02
 -1.0457010e-01
  1.2592793e-02
 -1.5722090e-02
 -1.2034152e-01
  2.6327562e-02
 -1.0169497e-01
  1.9832894e-03
 -4.7843641e-01
 -5.6944624e-02
  5.9283968e-02
 -9.7685255e-02
 -9.1562915e-01
 -5.4642819e-02
 -7.6254413e-02
  3.2152233e-01
  4.8491983e-03
 -1.7112154e-01
 -5.2812719e-01
 -2.5725873e-02
 -1.5032667e-01
 -7.8508064e-02
  4.3672267e-02
  3.0424528e-02
  1.4300330e+00
  1.8618591e-01
  6.9800378e-03
 -1.5165508e-01
 -4.1370284e-02
 -1.9072980e-01
  4.4206879e-01
  1.3901804e-02
 -3.8574670e-02
  6.4922325e-02
 -9.7055230e-03
  2.1546483e-02
  2.9572716e-02
 -9.7638771e-02
 -4.4695158e-02
  2.8026938e-02
 -3.3073982e-03
 -1.1044977e-02
 -3.6493305e-02
  9.9225365e-02
  6.4166553e-02
 -1.3998701e-02
  1.5903160e-02
 -1.1979169e-01
 -9.6127987e-02
  1.4780845e-02
  5.1616825e-02
  1.1966904e-01
  2.0110307e-02
  1.6320776e-02
 -1.3700925e-01
  8.1145428e-02
 -3.5316572e-02
  3.2275200e-03
 -2.3475361e-01
  1.5673790e-02
  1.4974937e-01
  7.1686320e-02
  5.8970977e-02
 -1.1769112e-01
 -6.9215475e-03
  7.9670446e-03
  1.0800456e-01
 -4.6061542e-02
 -9.3452848e-02
  6.3142707e-03
 -3.2485880e-02
 -2.4510061e-03
 -1.0550538e-01
 -7.9561886e-04
 -8.7030470e-02
 -2.4031439e-01
  3.0467315e-02
 -2.1232687e-02
  1.2376373e+00
 -3.5203662e-02
 -4.5799362e-03
 -1.3068459e-03
  2.5206845e-02
 -1.7831823e-02
  5.8613028e-02
  3.9658144e-02
  9.7185731e-02
 -1.3552969e-02
  1.7680456e-01
 -5.8335930e-02
 -4.4842210e-02
 -3.3425454e-02
  2.4217449e-02
 -1.3233229e-02
 -6.0263455e-02
 -2.3555117e-02
 -2.1016531e-02
 -1.8311473e-02
  7.5183664e-03
 -4.3747853e-02
 -7.2834864e-02
 -1.5084869e-01
  3.6349319e-02
 -2.5955703e-02
 -3.3874668e-03
  1.6926287e-02
 -5.9269611e-03
 -1.6261848e-02
 -1.4193488e-02
 -6.4571244e-01
 -5.6823954e-02
 -2.3784380e-02
  6.1995432e-02
  4.4652332e-02
 -4.3774877e-02
  4.0167116e-02
  1.5089081e-01
 -7.1463180e-01
 -2.5515754e-02
  1.0743545e-01
 -3.7554752e-03
  9.5063569e-03
 -2.0758234e-02
 -3.0526763e-03
  1.6798329e-03
  2.3151137e-02
 -3.6491856e-02
 -2.1755425e-02
 -4.1676458e-02
 -4.1839220e-02
 -2.5351548e-01
 -2.9740080e-02
 -9.9524237e-02
 -1.8588204e-02
 -1.1695600e-01
  7.8463545e-03
  9.9905021e-02
  1.2976082e-01
 -7.7762283e-02
  5.9877921e-02
  9.1922149e-02
 -1.0852841e-01
 -1.1761806e+00
  7.6293282e-02
  9.0119481e-01
 -6.9463467e-03
 -3.9248437e-01
  9.2038262e-01
 -2.0414189e-01
 -1.2007589e+00
 -1.2015947e-01
  1.5872493e+00
  7.5825596e-01
 -1.1117119e-01
 -1.6672821e-01
  7.1625352e-01
  1.2245269e+00
  1.3778661e+00
 -3.1833810e-01
 -8.3127004e-01
  9.7915165e-02
 -1.0264707e-01
 -4.0793833e-01
  2.9457438e-01
  9.8755911e-02
  1.0954093e+00
  1.2429684e+00
  1.2611810e+00
 -1.4025116e+00
  4.7108345e-02
  2.9735762e-01
  7.5572014e-01
  1.5301746e-01
  1.8761072e+00
 -1.2949166e+00
  4.3770063e-01
  8.1140709e-01
 -1.8975364e+00
 -3.5548317e-01
  4.8901519e-01
 -1.1251003e+00
  5.9771323e-01
 -4.4594619e-01
 -1.1349161e+00
  9.7835892e-01
  9.9111110e-01
 -7.3675998e-02
 -1.4745469e+00
 -3.8516727e-01
 -1.2281127e-01
 -5.9357643e-01
  3.9449222e-02
 -2.0683539e+00
  5.2186662e-01
 -3.2647368e-01
  2.7888175e-02
 -2.7668861e-01
  7.3654212e-02
 -6.0942419e-02
 -4.2593304e-02
  1.0885025e-01
 -4.3323636e-02
  9.3651582e-03
 -2.2589799e-02
 -1.9780643e-01
  3.0559209e-01
  5.1237404e-02
  2.3167251e-01
 -9.4574481e-02
  2.8588498e-01
 -1.3200134e+00
 -6.7863479e-02
  1.4486758e+00
  1.7806381e-01
  2.1509744e-01
 -1.2957153e-02
  3.9341640e-01
 -5.5770826e-01
 -5.1815771e-03
 -1.1321744e-01
  1.4318488e-04
  3.2225132e-02
  3.1931335e-01
 -1.6958941e-02
  3.0993626e-01
 -8.0503374e-03
  3.0970782e-01
  2.1613019e-02
  5.5821843e-02
  1.4188278e-02
 -7.8854755e-02
  3.4861386e-02
  2.3752323e-01
  1.1178023e+00
  6.1176006e-02
 -2.6220116e-01
  1.3226406e-01
  3.6511621e-01
 -2.8537932e-01
 -6.5115437e-02
  9.4894720e-03
  2.2360614e-02
 -9.6352443e-02
 -2.5656512e-03
 -2.5256199e-01
  7.4754193e-02
 -2.8972919e+00
  1.0950288e-01
  7.4990034e-02
  8.1715725e-02
  7.6321517e-03
  9.2960307e-03
 -6.3534814e-01
 -3.2714449e-02
 -1.6818305e-03
  2.7714577e-02
 -1.0725757e+00
  3.0762541e-01
 -6.1746232e-02
  4.4608209e-02
  1.7813679e-02
  1.1040998e-01
  8.4658138e-02
  2.1984013e-02
  1.7301675e-02
  8.0183549e-03
 -9.5718652e-03
  6.8441592e-02
 -1.8109849e-02
  5.5036977e-02
  3.6835420e-01
  3.8985934e-02
  1.0287271e+00
 -1.5371331e+00
  1.2643435e+00
  1.2806762e+00
 -2.1340412e-01
 -3.7419277e-01
  2.1139858e+00
  3.2226233e+00
  9.0049759e-02
 -1.1533333e-01
 -1.7562245e+00
 -3.2088655e-01
  8.6107798e-02
  6.6814524e-01
 -8.3688274e-03
 -5.7282662e-01
 -2.2248997e-01
  6.1031118e-02
 -4.3014759e-01
  2.0415424e-01
 -1.2107638e+00
  4.1204363e-01
  5.2112296e-02
  1.8047523e-02
 -4.5023674e-01
  2.5933668e-01
  1.7046598e+00
 -9.6494281e-01
  6.4107396e-02
 -1.9408382e+00
  1.1206073e+00
 -1.8780233e-01
  1.4567215e-02
  1.2698399e-01
 -1.8625278e+00
  1.0021447e+00
  7.1632779e-01
 -8.9839411e-01
  2.2013034e-01
 -7.8873938e-01
  5.2705463e-02
  1.9057931e-02
  7.1008645e-02
 -1.3167994e-01
 -3.2648852e-01
  1.8840244e+00
  4.0658385e-02
  3.4867235e-02
  2.6259255e-02
 -2.1940535e-02
 -2.4099819e-02
 -3.2856017e-02
 -5.2590337e-02
 -5.2605456e-01
 -1.3913348e-01
 -1.0376836e-01
  5.1004086e-03
  2.6986137e-02
  5.3421855e-02
  1.8202446e-02
  2.8454090e-02
  5.5786006e-02
  3.1036863e-02
  6.1157566e-01
  1.2802341e-02
 -5.6398665e-03
 -5.4746298e-03
  1.7390415e-02
 -4.8378725e-02
  2.7347119e-03
 -1.9542356e-03
  1.2369061e-02
 -8.3245644e-03
 -1.2910064e-01
  1.1840008e-01
  6.7586214e-03
  4.0693376e-02
 -6.7090504e-02
 -5.1819846e-02
 -2.7939319e-03
 -1.0035931e-02
  7.7997014e-02
  1.5768139e-01
 -5.0465189e-02
  5.0620299e-02
  4.4072531e-02
 -8.7726461e-03
  1.2135777e-02
  1.1872404e-02
 -3.6305553e-01
  7.5543858e-02
  1.7278409e-02
 -2.0917628e-02
  2.3687263e-03
 -4.8220556e-02
 -2.0506848e-01
 -4.9554665e-02
  4.0314410e-02
  1.2776886e-01
  4.4227201e-02
 -1.1260243e-01
  3.1742394e-02
 -8.3564624e-02
 -2.8114771e-02
 -1.3401118e-01
  1.9967468e-02
 -1.0105378e-01
  6.4651626e-01
 -5.7856664e-03
 -1.1808705e-02
  4.0018843e-03
  1.5804568e-01
 -5.1768508e-02
 -2.8818388e-02
 -4.9312666e-02
 -1.3228512e-01
  6.1696541e-02
  2.8291102e-02
  1.9239571e-02
  2.5868362e-02
  1.3950445e-02
  1.3320060e-01
  2.0912500e-02
  8.3394023e-03
 -3.3492604e-03
 -9.2059182e-04
  3.3472095e-02
  1.8262672e-01
 -2.9164532e-02
  8.8736683e-02
 -4.0899098e-02
  1.4238957e-01
  5.5613104e-02
  9.5937109e-01
  1.0385789e+00
  2.3099655e-01
  2.2471022e-02
  2.6877972e-01
 -8.3267558e-01
 -4.0755522e-01
  1.0074392e-02
  2.2613709e+00
 -7.1101075e-01
  2.9547010e-02
  1.6572690e-02
 -9.5994741e-02
  6.0173649e-01
 -2.4663514e-01
 -5.1377171e-01
 -5.3728753e-01
 -1.9079030e-02
  2.8583543e-02
 -1.2393785e-01
  3.6807336e-02
  9.7953163e-02
  4.4171195e-02
  5.9295343e-03
  1.1655415e-02
 -1.3672552e-01
  6.0361451e-01
 -4.1914877e-02
 -1.9041592e-01
 -3.9658815e-01
 -4.6495393e-02
 -7.2518364e-02
 -4.4049774e-03
  2.8693005e-01
  2.2309704e-02
 -1.2945516e-01
  3.9497143e-01
 -1.0464157e-01
 -1.1169176e-01
  3.8716757e-01
  2.6011312e-02
  1.5180425e-01
 -9.1532804e-02
  2.8208708e-02
 -1.6451541e-02
  1.6290262e-02
  1.3437025e-02
 -7.4705528e-03
  1.0849380e-01
 -3.1285353e-02
  2.6207557e-02
  1.6091163e-01
  7.6369955e-03
  1.2014368e-02
 -6.5281138e-02
  2.3027686e-02
 -5.8377713e-02
  2.2418559e-02
  3.8877867e-02
 -6.3544840e-02
  1.3662548e-01
  1.2268850e-02
 -2.4410371e-01
 -6.1212325e-01
 -3.2570350e-01
  5.6982285e-01
 -3.3580477e-04
 -2.5385238e-02
  1.1709899e+00
 -3.8612536e-01
 -1.9947469e-01
 -2.3365308e-01
 -1.3173431e+00
  3.6018577e-01
 -1.6866016e-01
 -4.2657226e-01
 -6.7443824e-01
  5.3395581e-02
  2.5105491e-01
 -7.3575936e-02
 -6.7474298e-02
 -1.1636027e-01
 -1.0646815e-02
  4.8091212e-01
 -1.8477775e+00
 -8.2705058e-02
  3.5755490e-03
 -1.2133840e-02
 -3.5637680e-01
  5.9234780e-01
 -1.2046017e-01
  4.7773600e-02
 -1.6674770e-01
  7.2817326e-01
 -2.3605138e-01
 -8.1660680e-02
 -7.9014942e-02
  1.1395991e+00
  2.0340234e-01
 -1.2582205e-01
  1.4041082e-02
 -3.5277675e-03
  8.8719569e-02
 -9.2505895e-02
 -3.3851296e-01
  5.6788150e-02
 -8.3466984e-02
 -1.2721759e+00
 -3.0395999e-03
 -1.5903859e-03
  1.0305312e-01
  1.3511823e-02
 -6.1427867e-03
  1.4810893e-01
  3.1478330e-02
 -1.8476780e-01
  6.2398680e-02
  5.5113453e-02
  5.0359324e-02
 -1.0666130e-02
 -3.2401174e-02
  1.2649676e-02
 -6.1499905e-02
 -1.0445932e-04
  3.1448996e-03
 -3.1974077e-01
  1.4852951e-02
 -5.6760710e-01
  3.5537663e-01
  1.2475210e-01
  6.0970720e-02
  1.0139792e-01
  1.2407230e-02
 -8.8213988e-02
 -3.9622549e-02
  1.4808747e-01
 -1.6891086e-02
 -5.1607061e-02
  1.4328531e-02
 -1.5479513e-02
 -1.5908197e-02
 -3.4609705e-02
 -4.9216904e-02
  2.0690414e-01
 -3.2687526e-02
  3.2881875e-02
 -4.9483115e-03
 -2.8994309e-02
  1.2962108e-02
 -4.8601660e-03
  1.2848860e-01
 -3.8336731e-02
 -4.8133410e-03
 -1.5912961e-02
 -3.7443835e-02
 -4.5947097e-02
 -1.6779960e+00
 -1.1150980e-01
 -9.1616236e-02
 -5.6008440e-03
 -5.0436884e-01
 -5.5907387e-01
  4.5052614e-02
 -1.1254589e-01
 -1.9497309e-02
  3.6478039e-02
 -4.2804539e-02
 -1.3190920e-02
 -5.8895133e-02
  1.1571465e-01
 -2.9151814e-02
 -1.5833911e-01
 -2.0452462e-02
  2.1382527e-02
 -3.3984184e-02
 -7.2933964e-02
  3.2542747e-02
 -6.4155318e-02
  6.1071746e-02
 -1.1306129e-01
  3.0251101e-02
  5.2287415e-02
  3.8789389e-01
 -4.8797399e-02
  1.0443842e-01
 -1.4905447e-01
 -1.4193088e-01
  4.4681989e-03
  7.1805934e-03
 -1.2231814e-02
  2.5583852e-02
 -2.0299284e-02
  9.4351459e-01
 -9.0972543e-01
  2.2168257e+00
  4.0084176e+00
  1.4935026e-01
 -7.0767045e-01
 -5.9929270e-01
  1.0519563e+00
 -1.1204133e+00
 -1.9786961e-01
  2.4746302e-01
 -7.8131086e-01
  1.8222256e-03
  4.6950106e-02
  2.5744424e-03
  2.0533629e-01
 -2.6036975e-01
  3.4770897e-01
  2.2979669e-02
 -2.2208154e-01
 -1.1064391e-01
  1.5792292e-01
  2.5048012e-02
 -4.0256865e-02
  1.9817635e-02
  4.4291362e-02
  3.8669360e-01
  5.8762435e-02
  4.9822152e-02
  1.8782410e-01
 -5.7186228e-01
 -4.6942088e-01
 -1.2847102e-02
 -3.2364479e-01
  8.7991068e-03
  1.3611660e+00
  1.0659947e+00
 -2.8891325e-01
 -9.8582879e-02
  2.2714039e-02
 -4.3566640e-02
  5.5511162e-02
 -1.8823268e-02
 -3.8735617e-02
  7.6704568e-01
 -7.7560261e-02
 -4.3257419e-02
  1.1050304e+00
  1.4960453e-02
  1.0300456e-02
 -1.6591156e-02
  1.0089646e-01
 -5.1573534e-03
  3.9012972e-03
 -1.7061988e-02
  1.6749978e-02
 -1.1354374e-01
  8.8934273e-02
 -5.4856995e-03
 -9.3932927e-02
  3.3932541e-02
  3.9222458e-01
  1.2034788e-03
  3.2276517e-01
  1.1568905e-01
  1.7382234e-02
  5.3892899e-03
  6.5126009e-02
 -1.2087691e+00
 -4.1453902e-02
 -1.1143680e-01
  6.2073111e-03
 -4.6598967e-03
  4.4543158e-02
 -9.9550616e-03
 -2.9745436e-01
  2.7228098e-03
 -5.7565149e-02
  8.2752788e-01
  6.7459330e-02
  1.2073535e-02
  5.4213632e-02
  7.5982325e-02
 -2.7676800e-02
 -2.3209749e-02
 -4.5779701e-03
 -1.1697077e-02
 -3.2541849e-02
 -3.4448639e-02
  3.0565470e-02
  6.7500235e-03
 -2.9791802e-02
  9.3160486e-01
  9.9914819e-03
  1.0493037e-02
 -1.8198369e-02
  1.7821874e-02
 -2.8136291e-02
  7.0060275e-02
 -1.5337585e-01
 -1.8825586e-03
 -3.6603928e-02
 -2.1103064e-02
  2.7579537e-02
 -4.8264414e-02
 -1.1935821e-02
 -1.0272193e-02
  5.4487940e-03
  1.2140691e-01
  1.3847264e-02
 -1.0035198e-02
 -2.9171860e-01
 -2.5661567e-02
 -9.6353695e-02
  2.3207435e-02
  1.1235914e-02
  1.1094315e-03
  3.3381996e-01
 -5.5963010e-02
 -1.4520642e-02
  2.2383181e-02
 -2.8141677e-02
 -1.1263255e-01
  8.1101283e-03
  6.5883309e-02
 -1.7994305e-02
  1.8408244e-02
  4.0268924e-02
  6.2509514e-02
  2.3873285e-03
  4.2287853e-01
 -5.0795786e-02
 -3.2826063e-01
 -1.5937160e-01
  5.3526420e-02
 -3.2881030e-01
  3.7420902e-01
  2.7623761e-01
  5.3349596e-01
 -1.9550502e-01
 -5.5769300e-01
  2.2088489e-01
  1.2800682e-01
  8.7135032e-02
  1.7416987e-01
 -2.2783950e-02
 -3.0783495e-01
 -1.8690455e-01
 -1.8610065e-01
  4.9952552e-01
 -1.2436190e-01
 -4.6778105e-02
  1.2269793e-01
 -1.4009509e+00
 -2.1678306e-01
  2.2055520e-01
  4.6877645e-02
 -1.0734484e-01
 -1.7932658e-01
 -2.4565005e-01
 -3.9904211e-02
  1.2910539e-01
 -2.3536676e-01
 -3.4543809e-01
 -3.0423820e-01
 -2.4253305e-02
 -1.2579165e-01
  2.1855257e-02
  1.3088357e-01
 -2.6309557e-02
 -9.0490557e-02
  4.6408144e-01
 -2.4517635e-01
  1.3718210e+00
 -5.4960698e-01
  8.8849120e-02
 -1.0451657e-01
  6.6216509e-03
  4.1997224e-02
  2.7828068e-02
  3.3742312e-01
 -7.7420563e-02
  6.3109428e-02
  1.6706301e-02
 -5.0371283e-01
  1.7328199e-02
  9.8716222e-02
  8.3474414e-03
  3.9762137e-03
 -9.8883711e-02
  1.0753211e-01
 -4.8919622e-02
  7.1588747e-04
 -2.8552419e-02
 -2.2924969e-02
 -1.2663117e-01
 -8.8310493e-03
 -2.0958789e-01
  1.2149569e-01
 -1.2879822e-01
 -5.4757547e-02
 -7.8083674e-04
  1.2309013e-01
 -9.1573939e-02
  1.8814644e-02
  1.7678281e-02
 -6.3787751e-02
  1.5734991e-02
  9.0179192e-03
 -4.9388524e-02
 -1.7320864e-02
 -5.7671566e-02
 -7.6244511e-02
  9.8020703e-02
 -1.3409837e-03
  5.0362698e-03
 -6.2123813e-02
  1.8136768e-01
  6.6044540e-03
 -3.0827707e-02
  2.8051984e-02
 -1.4807330e-01
 -1.2053401e-02
 -3.8962759e-02
 -2.6722446e-02
 -1.2918838e-02
  1.3720129e-02
  2.2686287e-03
  3.2021780e-02
 -3.8559124e-02
 -9.7484412e-03
 -3.7678629e-02
 -1.7704104e-01
 -2.2911078e-03
 -7.6122195e-02
  2.3770757e-02
  5.7790756e-02
 -8.6946767e-03
 -2.9868899e-02
  1.2064093e-01
 -7.6623720e-01
  7.3574148e-02
  3.6248181e-02
 -5.2794226e-02
 -2.0955283e-02
  1.9810501e-02
  7.3593589e-03
 -1.6007528e-01
  2.1101467e-02
  3.7888967e-02
  1.3387496e-02
  2.2984760e-01
 -1.2941153e-01
  4.4074897e-03
 -2.7510632e-02
  1.7701156e-02
 -1.6031012e-01
 -1.0003097e-01
  1.3638840e-02
 -6.9690399e-02
  7.8545898e-02
  1.6940844e-01
 -1.2997942e-01
  1.3414371e-01
  6.3900568e-02
  1.9545843e-01
 -2.2826341e-01
 -1.7089173e-01
  2.5513992e-01
  6.3163400e-02
 -2.5686430e-02
 -8.4865972e-02
 -2.0567320e-02
 -5.2280355e-02
  3.9733987e-02
 -1.5625911e-02
 -6.3640042e-03
 -5.8153931e-02
 -4.2127332e-01
  2.0377336e-02
  2.9945520e-01
  6.4545877e-02
  1.0438940e-02
  1.7319271e-02
  5.6801602e-02
 -1.7775479e-01
 -2.3814273e-01
  2.5462063e-02
 -4.1690964e-01
  7.7589974e-02
 -8.8335529e-02
 -8.3230585e-02
 -1.9370936e-02
  4.5602998e-01
 -5.5312414e-02
 -5.3591032e-02
  4.0287618e-02
 -2.0049036e-02
 -5.6099123e-01
 -8.0433585e-02
  1.1847017e-01
 -5.1927935e-02
  1.7527030e-01
  1.2125352e-02
 -1.0938679e-01
  2.9532615e-02
 -2.3413769e-03
 -1.8449098e-02
  6.7270502e-02
  4.6366365e-03
 -9.9019356e-02
  1.1874091e-01
 -1.0817744e-01
 -1.1593836e-03
 -1.0480391e-02
  2.2432075e-01
  1.9163620e-02
  1.6435654e-01
 -1.4280654e-01
 -2.3273610e-02
 -3.6195450e-02
 -7.3438697e-02
 -3.9033219e-01
  2.1119279e-01
  6.1472699e-02
  7.1510568e-02
  3.0462825e-01
  2.8987160e-01
  1.1546022e+00
 -2.0363511e-01
 -3.2943711e-01
 -2.5168274e-02
  2.8032312e-01
 -5.8727509e-01
  1.0927086e-02
 -2.9732108e-02
 -2.4824820e-02
  2.8566125e-01
 -1.6877174e-02
 -3.5411853e-01
 -1.3986123e-01
 -9.8863319e-03
 -1.5487146e-01
 -6.5488517e-02
 -3.8896078e-01
 -5.9480909e-02
  3.4027710e-03
 -1.2336917e-02
  4.6174131e-02
 -1.1747384e-02
 -2.9955089e-01
 -2.2332591e-01
 -1.3413640e-03
 -3.4379268e-01
  2.4032271e-01
  1.4198965e-01
 -3.6198482e-02
  1.4069377e-01
  2.6770303e-02
 -2.0746621e-01
 -4.0381262e-01
  6.5821923e-02
 -2.4826753e+00
  3.1176051e-02
 -1.8535846e-01
 -2.9957583e-02
  9.3411058e-02
  2.0630268e-02
  3.5209429e-02
  1.5864445e+00
 -2.1481419e-02
 -7.9463199e-02
 -6.0517401e-02
  3.9813466e-02
 -1.1699244e-01
 -2.7648937e-02
 -1.5595077e-02
  6.8064878e-04
 -3.1386014e-02
  1.0959829e-02
  1.9682093e-02
  2.1519363e-02
 -2.9200377e-02
  6.4522907e-02
 -6.0799897e-02
 -2.5409438e-02
  2.4931153e-02
 -3.0134881e-03
  3.7215013e-02
 -9.2290998e-02
  6.2885266e-03
 -2.0815679e-01
  3.9875804e-04
  5.5149872e-02
 -6.3718639e-02
  5.7291862e-04
 -5.4440093e-01
  5.0844207e-02
 -6.1128084e-02
  5.2228518e-02
 -1.0434343e-02
  2.1654444e-03
 -3.0152626e-02
  3.0659899e-01
  2.1102751e-02
  6.0013577e-02
  6.4706817e-02
 -3.7008688e-02
 -8.5048757e-02
  1.7740525e-02
 -1.2010004e-01
  7.5295985e-02
  1.2482412e-01
 -3.5005689e-03
  1.2004261e-01
 -4.3595050e-02
  4.7239615e-03
 -2.1809388e-02
 -2.5506267e-02
 -6.9359407e-02
 -7.0299767e-02
  1.1802744e-02
  2.9502647e-02
 -1.0461809e-02
  5.4894746e-03
  2.4866840e-02
  1.6175095e-02
  1.0772651e-01
 -2.9117890e-02
  4.3199129e-02
  9.9425122e-02
 -1.6277122e-01
 -1.0985129e-01
 -5.1471692e-02
 -1.8679541e-02
  2.6026990e-02
  5.2798372e-02
 -1.4493802e-01
 -2.6337329e-01
 -2.0504270e-02
 -2.8774035e-01
  9.9036945e-03
 -1.7893376e-02
  3.2100156e-02
  8.3152568e-03
 -7.7148438e-03
 -1.0277603e-01
 -8.4728152e-03
 -1.8228498e+00
 -9.5188156e-02
  4.7121481e-03
 -4.1975636e-02
  5.3100206e-02
 -2.6904024e-02
 -3.5004001e-02
  3.6594570e-01
  5.7846379e-01
 -8.6026199e-02
 -2.2085582e-01
 -5.6767862e-02
  5.8520198e-02
  5.0055082e-03
  4.3483581e-02
 -4.0572789e-02
 -1.9577228e-02
 -2.3879468e-02
  3.8864080e-02
 -2.2905458e-02
  2.5166380e-03
 -2.5224669e-02
 -2.2652112e-02
 -1.9491682e-02
 -5.4692559e-02
  1.2117264e-01
 -3.4547056e-04
 -2.5586069e-01
 -4.6989970e-02
 -1.4983346e-02
  5.5134308e-02
  1.9817183e-02
 -2.1087755e-02
 -2.6763773e-02
  3.1244481e-02
  1.4188705e-01
  3.7125606e-02
 -5.8693639e-03
 -3.1211523e-02
  1.4470118e-02
 -2.8815245e-02
